// N2D2 auto-generated file.
// @ Mon Sep 16 12:33:02 2019

#ifndef N2D2_EXPORTC_CONV3_LAYER_H
#define N2D2_EXPORTC_CONV3_LAYER_H

#include "typedefs.h"
#include <stdlib.h>

#define CONV3_NB_OUTPUTS 120
#define CONV3_NB_CHANNELS 16
#define CONV3_OUTPUTS_WIDTH 1
#define CONV3_OUTPUTS_HEIGHT 1
#define CONV3_OX_SIZE 1
#define CONV3_OY_SIZE 1
#define CONV3_CHANNELS_WIDTH 5
#define CONV3_CHANNELS_HEIGHT 5
#define CONV3_KERNEL_WIDTH 5
#define CONV3_KERNEL_HEIGHT 5
#define CONV3_SUB_SAMPLE_X 1
#define CONV3_SUB_SAMPLE_Y 1
#define CONV3_STRIDE_X 1
#define CONV3_STRIDE_Y 1
#define CONV3_PADDING_X 0
#define CONV3_PADDING_Y 0
#define CONV3_OUTPUT_OFFSET 0
#define CONV3_ACTIVATION Rectifier
#define CONV3_SHIFT 0
static BDATA_T conv3_biases[CONV3_NB_OUTPUTS] = {0, 0, 0, 0, 0, 0, 0, 0, 0, 0, 0, 0, 0, 0, 0, 0, 0, 0, 0, 0, 0, 0, 0, 0, 0, 0, 0, 0, 0, 0, 0, 0, 0, 0, 0, 0, 0, 0, 0, 0, 0, 0, 0, 0, 0, 0, 0, 0, 0, 0, 0, 0, 0, 0, 0, 0, 0, 0, 0, 0, 0, 0, 0, 0, 0, 0, 0, 0, 0, 0, 0, 0, 0, 0, 0, 0, 0, 0, 0, 0, 0, 0, 0, 0, 0, 0, 0, 0, 0, 0, 0, 0, 0, 0, 0, 0, 0, 0, 0, 0, 0, 0, 0, 0, 0, 0, 0, 0, 0, 0, 0, 0, 0, 0, 0, 0, 0, 0, 0, 0};

static WDATA_T conv3_weights[CONV3_NB_OUTPUTS][CONV3_NB_CHANNELS][CONV3_KERNEL_HEIGHT][CONV3_KERNEL_WIDTH] = {
  {
    {
      {-0.0206631236f, 0.0083865849f, -0.0568323173f, -0.0568323173f, -0.0036800883f},
      {0.0207029078f, -0.0259119384f, -0.0361691378f, -0.0845848396f, 0.0207029078f},
      {0.0266319662f, -0.0409766622f, -0.0916960910f, -0.0633588657f, 0.0145718670f},
      {0.0323541909f, 0.0323541909f, -0.0206631236f, -0.0095747309f, 0.1374580264f},
      {-0.0505010560f, -0.0775280371f, -0.0505010560f, -0.0703812465f, -0.0152182598f}
    },
    {
      {-0.0036800883f, 0.0323541909f, -0.0568323173f, -0.0095747309f, -0.0633588657f},
      {0.0207029078f, -0.0095747309f, 0.0083865849f, 0.0207029078f, 0.0266319662f},
      {-0.0505010560f, 0.0597191826f, -0.0152182598f, -0.0206631236f, 0.0429077819f},
      {-0.0095747309f, -0.0206631236f, -0.0259119384f, 0.0537182502f, 0.0429077819f},
      {-0.0152182598f, -0.0036800883f, -0.0310912579f, -0.0703812465f, -0.0152182598f}
    },
    {
      {0.0083865849f, -0.0633588657f, 0.0266319662f, 0.0479660071f, 0.0207029078f},
      {-0.0633588657f, 0.0023533844f, -0.0036800883f, 0.0377913974f, -0.0409766622f},
      {0.0266319662f, -0.0505010560f, 0.0145718670f, -0.0310912579f, -0.0206631236f},
      {-0.0036800883f, -0.0775280371f, 0.0083865849f, -0.0310912579f, 0.0083865849f},
      {-0.0409766622f, -0.0259119384f, 0.0479660071f, 0.0266319662f, 0.0145718670f}
    },
    {
      {0.0377913974f, -0.0095747309f, -0.0310912579f, 0.0377913974f, 0.0429077819f},
      {-0.0206631236f, 0.0207029078f, 0.0266319662f, 0.0207029078f, 0.0266319662f},
      {-0.0095747309f, 0.0377913974f, 0.0023533844f, -0.0095747309f, -0.0152182598f},
      {-0.0095747309f, 0.0377913974f, -0.0206631236f, 0.0083865849f, 0.0023533844f},
      {-0.0361691378f, 0.0429077819f, -0.0310912579f, 0.0429077819f, 0.0083865849f}
    },
    {
      {0.0323541909f, -0.0361691378f, -0.0152182598f, 0.0377913974f, -0.0310912579f},
      {0.0083865849f, 0.0207029078f, -0.0095747309f, 0.0083865849f, 0.0145718670f},
      {-0.0095747309f, -0.0095747309f, -0.0036800883f, 0.0323541909f, 0.0266319662f},
      {0.0266319662f, 0.0145718670f, -0.0568323173f, 0.0266319662f, 0.0145718670f},
      {-0.0505010560f, -0.0152182598f, 0.0023533844f, -0.0409766622f, 0.0207029078f}
    },
    {
      {0.0023533844f, 0.1293252707f, 0.0429077819f, -0.0409766622f, -0.0259119384f},
      {0.0083865849f, 0.0083865849f, 0.0145718670f, -0.0568323173f, -0.0457837023f},
      {0.0023533844f, 0.0720167682f, 0.0597191826f, 0.0429077819f, -0.0310912579f},
      {-0.0259119384f, -0.0259119384f, -0.0505010560f, -0.0361691378f, -0.0633588657f},
      {0.0023533844f, -0.0457837023f, 0.0429077819f, 0.0323541909f, 0.0145718670f}
    },
    {
      {0.0207029078f, -0.0310912579f, 0.1374580264f, 0.0479660071f, 0.0377913974f},
      {-0.0152182598f, -0.0095747309f, 0.0720167682f, 0.0023533844f, -0.0259119384f},
      {-0.0095747309f, -0.0206631236f, 0.1130934209f, -0.0152182598f, -0.0310912579f},
      {0.0145718670f, 0.0266319662f, -0.0152182598f, 0.0429077819f, -0.0703812465f},
      {-0.0310912579f, -0.0152182598f, 0.0537182502f, 0.0083865849f, -0.0036800883f}
    },
    {
      {0.0207029078f, 0.0207029078f, -0.0633588657f, -0.0633588657f, 0.0323541909f},
      {0.0377913974f, -0.0505010560f, -0.1140288413f, -0.0987659022f, -0.0703812465f},
      {-0.0036800883f, 0.0083865849f, -0.0568323173f, -0.0361691378f, -0.0206631236f},
      {0.0207029078f, 0.0377913974f, 0.0780827329f, 0.0780827329f, 0.1212702245f},
      {-0.0775280371f, -0.0206631236f, 0.0479660071f, -0.0310912579f, 0.0083865849f}
    },
    {
      {-0.0095747309f, 0.0720167682f, 0.0780827329f, 0.0083865849f, 0.0657936484f},
      {0.0323541909f, -0.0259119384f, 0.0657936484f, 0.0429077819f, -0.0361691378f},
      {-0.0361691378f, -0.0259119384f, 0.0537182502f, 0.1130934209f, -0.0310912579f},
      {-0.0036800883f, 0.0023533844f, 0.0266319662f, 0.1130934209f, -0.0409766622f},
      {0.0023533844f, -0.0568323173f, 0.0780827329f, 0.0597191826f, -0.1140288413f}
    },
    {
      {-0.0036800883f, -0.0409766622f, -0.0775280371f, -0.0633588657f, -0.0206631236f},
      {-0.0095747309f, -0.0036800883f, -0.0361691378f, -0.0095747309f, -0.0310912579f},
      {0.0657936484f, 0.0429077819f, 0.0323541909f, -0.0409766622f, 0.0323541909f},
      {0.0207029078f, -0.0775280371f, 0.0207029078f, 0.0266319662f, 0.0145718670f},
      {0.0083865849f, -0.0361691378f, -0.0845848396f, -0.0152182598f, -0.0457837023f}
    },
    {
      {-0.0206631236f, -0.0409766622f, 0.0083865849f, 0.0323541909f, 0.0780827329f},
      {0.0266319662f, -0.0152182598f, -0.0259119384f, 0.0023533844f, -0.0152182598f},
      {0.0597191826f, 0.0207029078f, -0.0310912579f, 0.0083865849f, -0.0633588657f},
      {-0.0457837023f, -0.0036800883f, 0.0597191826f, 0.0023533844f, -0.0703812465f},
      {0.0207029078f, -0.0152182598f, -0.0095747309f, 0.0207029078f, 0.0145718670f}
    },
    {
      {-0.0457837023f, 0.0377913974f, 0.0479660071f, 0.0597191826f, 0.0479660071f},
      {0.0023533844f, -0.0206631236f, 0.0429077819f, -0.0036800883f, -0.0152182598f},
      {0.0083865849f, 0.0377913974f, 0.0323541909f, -0.0775280371f, 0.0207029078f},
      {0.0657936484f, -0.0703812465f, -0.0457837023f, 0.0377913974f, 0.0981064811f},
      {0.0377913974f, -0.0310912579f, -0.0206631236f, 0.0720167682f, 0.0429077819f}
    },
    {
      {0.0323541909f, 0.0207029078f, -0.0095747309f, -0.0568323173f, -0.0361691378f},
      {0.0597191826f, -0.0206631236f, 0.0207029078f, 0.0429077819f, -0.0361691378f},
      {-0.0152182598f, 0.0657936484f, 0.0597191826f, 0.1130934209f, 0.0846585333f},
      {0.0145718670f, -0.0259119384f, -0.0409766622f, 0.0083865849f, -0.0310912579f},
      {-0.0259119384f, -0.0845848396f, -0.0633588657f, 0.0266319662f, -0.0095747309f}
    },
    {
      {0.0023533844f, 0.0023533844f, -0.1066239476f, -0.0152182598f, -0.0152182598f},
      {0.0377913974f, 0.0145718670f, 0.0023533844f, 0.0377913974f, -0.0775280371f},
      {-0.0152182598f, 0.0429077819f, -0.0206631236f, 0.0657936484f, 0.0537182502f},
      {-0.0409766622f, -0.0775280371f, -0.0361691378f, 0.0429077819f, 0.0657936484f},
      {-0.0457837023f, 0.0266319662f, 0.0023533844f, 0.0207029078f, -0.0206631236f}
    },
    {
      {-0.0310912579f, -0.0505010560f, -0.0845848396f, -0.1066239476f, -0.0152182598f},
      {0.0023533844f, -0.0568323173f, -0.0775280371f, -0.0361691378f, -0.0703812465f},
      {0.0429077819f, 0.0429077819f, -0.0036800883f, 0.0915452391f, 0.0780827329f},
      {0.0323541909f, -0.0703812465f, -0.0036800883f, 0.0657936484f, -0.0310912579f},
      {-0.0633588657f, -0.0845848396f, -0.0206631236f, 0.0207029078f, 0.0479660071f}
    },
    {
      {0.0597191826f, 0.0377913974f, 0.0720167682f, -0.0409766622f, 0.0207029078f},
      {-0.0310912579f, 0.0429077819f, 0.0207029078f, -0.0095747309f, 0.0023533844f},
      {0.0429077819f, -0.0361691378f, 0.0479660071f, -0.0036800883f, -0.0036800883f},
      {-0.0152182598f, 0.0145718670f, 0.0145718670f, 0.0083865849f, 0.0023533844f},
      {-0.0409766622f, 0.0083865849f, -0.0036800883f, -0.0206631236f, -0.0036800883f}
    },
  },
  {
    {
      {0.0323541909f, -0.0095747309f, -0.0361691378f, 0.0207029078f, 0.0207029078f},
      {-0.0152182598f, -0.0409766622f, -0.0310912579f, -0.0259119384f, -0.0036800883f},
      {0.0145718670f, 0.0145718670f, 0.0023533844f, -0.0409766622f, 0.0266319662f},
      {0.0323541909f, 0.0207029078f, 0.0266319662f, -0.0095747309f, -0.0457837023f},
      {0.0323541909f, 0.0429077819f, 0.0023533844f, 0.0429077819f, -0.0409766622f}
    },
    {
      {-0.0259119384f, 0.0083865849f, -0.0095747309f, 0.0207029078f, 0.0207029078f},
      {0.0266319662f, -0.0310912579f, 0.0429077819f, -0.0206631236f, -0.0409766622f},
      {-0.0310912579f, -0.0409766622f, -0.0409766622f, 0.0323541909f, -0.0095747309f},
      {0.0145718670f, -0.0310912579f, 0.0429077819f, -0.0206631236f, 0.0323541909f},
      {0.0429077819f, 0.0479660071f, -0.0457837023f, 0.0377913974f, -0.0206631236f}
    },
    {
      {0.0023533844f, 0.0377913974f, 0.0377913974f, 0.0207029078f, 0.0266319662f},
      {-0.0206631236f, 0.0323541909f, -0.0409766622f, -0.0152182598f, -0.0310912579f},
      {0.0323541909f, -0.0457837023f, -0.0409766622f, -0.0409766622f, -0.0361691378f},
      {0.0145718670f, -0.0036800883f, -0.0095747309f, 0.0479660071f, 0.0479660071f},
      {-0.0036800883f, 0.0266319662f, -0.0409766622f, 0.0429077819f, 0.0207029078f}
    },
    {
      {-0.0409766622f, -0.0206631236f, -0.0409766622f, 0.0266319662f, -0.0505010560f},
      {-0.0310912579f, 0.0023533844f, 0.0083865849f, -0.0095747309f, -0.0259119384f},
      {-0.0361691378f, 0.0377913974f, -0.0259119384f, -0.0457837023f, -0.0457837023f},
      {0.0145718670f, 0.0145718670f, 0.0377913974f, 0.0207029078f, -0.0310912579f},
      {0.0145718670f, -0.0505010560f, 0.0266319662f, 0.0145718670f, 0.0207029078f}
    },
    {
      {-0.0095747309f, -0.0095747309f, -0.0409766622f, -0.0036800883f, 0.0266319662f},
      {-0.0095747309f, -0.0095747309f, 0.0377913974f, 0.0479660071f, -0.0310912579f},
      {0.0377913974f, 0.0479660071f, 0.0083865849f, 0.0145718670f, 0.0266319662f},
      {-0.0457837023f, -0.0036800883f, 0.0377913974f, -0.0409766622f, 0.0377913974f},
      {0.0023533844f, -0.0457837023f, -0.0409766622f, 0.0207029078f, -0.0152182598f}
    },
    {
      {-0.0259119384f, 0.0145718670f, -0.0206631236f, -0.0505010560f, 0.0023533844f},
      {0.0145718670f, 0.0023533844f, -0.0361691378f, -0.0095747309f, 0.0266319662f},
      {-0.0259119384f, -0.0152182598f, -0.0036800883f, -0.0310912579f, -0.0152182598f},
      {0.0429077819f, 0.0479660071f, -0.0095747309f, 0.0083865849f, 0.0023533844f},
      {-0.0036800883f, -0.0036800883f, 0.0377913974f, -0.0505010560f, 0.0377913974f}
    },
    {
      {0.0145718670f, 0.0323541909f, -0.0505010560f, -0.0206631236f, -0.0206631236f},
      {0.0429077819f, 0.0023533844f, 0.0023533844f, 0.0083865849f, 0.0207029078f},
      {0.0429077819f, 0.0377913974f, -0.0095747309f, 0.0266319662f, 0.0145718670f},
      {0.0023533844f, 0.0266319662f, -0.0036800883f, 0.0377913974f, 0.0323541909f},
      {-0.0361691378f, 0.0377913974f, -0.0095747309f, -0.0310912579f, 0.0083865849f}
    },
    {
      {0.0323541909f, 0.0266319662f, -0.0505010560f, 0.0023533844f, -0.0095747309f},
      {0.0479660071f, 0.0083865849f, 0.0323541909f, -0.0036800883f, -0.0310912579f},
      {-0.0095747309f, 0.0429077819f, -0.0310912579f, -0.0095747309f, 0.0377913974f},
      {-0.0361691378f, 0.0023533844f, 0.0266319662f, 0.0207029078f, 0.0266319662f},
      {-0.0152182598f, -0.0095747309f, -0.0095747309f, -0.0505010560f, -0.0457837023f}
    },
    {
      {0.0207029078f, -0.0310912579f, 0.0083865849f, 0.0083865849f, -0.0361691378f},
      {-0.0505010560f, 0.0266319662f, -0.0568323173f, -0.0152182598f, 0.0207029078f},
      {0.0145718670f, -0.0206631236f, 0.0266319662f, -0.0409766622f, 0.0377913974f},
      {0.0207029078f, -0.0095747309f, 0.0023533844f, 0.0377913974f, 0.0083865849f},
      {0.0377913974f, -0.0310912579f, 0.0023533844f, -0.0259119384f, -0.0310912579f}
    },
    {
      {-0.0505010560f, -0.0259119384f, 0.0429077819f, 0.0479660071f, 0.0479660071f},
      {0.0207029078f, -0.0206631236f, 0.0323541909f, -0.0095747309f, 0.0429077819f},
      {0.0145718670f, -0.0361691378f, 0.0145718670f, -0.0152182598f, -0.0310912579f},
      {-0.0036800883f, -0.0310912579f, -0.0036800883f, 0.0145718670f, 0.0207029078f},
      {0.0266319662f, 0.0083865849f, 0.0429077819f, -0.0206631236f, 0.0266319662f}
    },
    {
      {-0.0095747309f, -0.0409766622f, 0.0377913974f, 0.0323541909f, -0.0206631236f},
      {-0.0095747309f, -0.0505010560f, 0.0266319662f, 0.0145718670f, 0.0145718670f},
      {-0.0457837023f, 0.0377913974f, 0.0207029078f, 0.0083865849f, 0.0023533844f},
      {-0.0095747309f, 0.0429077819f, 0.0377913974f, -0.0310912579f, 0.0023533844f},
      {-0.0036800883f, 0.0479660071f, -0.0152182598f, -0.0036800883f, 0.0377913974f}
    },
    {
      {0.0377913974f, -0.0361691378f, -0.0036800883f, 0.0266319662f, -0.0457837023f},
      {-0.0457837023f, 0.0023533844f, -0.0152182598f, -0.0036800883f, -0.0206631236f},
      {0.0323541909f, -0.0457837023f, -0.0310912579f, 0.0083865849f, -0.0409766622f},
      {0.0479660071f, -0.0152182598f, 0.0429077819f, -0.0036800883f, -0.0310912579f},
      {0.0377913974f, -0.0310912579f, -0.0505010560f, -0.0505010560f, 0.0207029078f}
    },
    {
      {-0.0206631236f, -0.0095747309f, 0.0207029078f, -0.0361691378f, 0.0145718670f},
      {0.0083865849f, 0.0479660071f, 0.0207029078f, -0.0095747309f, 0.0207029078f},
      {-0.0152182598f, -0.0361691378f, 0.0429077819f, 0.0266319662f, -0.0095747309f},
      {-0.0310912579f, -0.0361691378f, -0.0409766622f, -0.0259119384f, 0.0207029078f},
      {0.0377913974f, 0.0083865849f, 0.0207029078f, 0.0266319662f, -0.0505010560f}
    },
    {
      {0.0377913974f, 0.0145718670f, -0.0095747309f, 0.0323541909f, 0.0429077819f},
      {-0.0095747309f, 0.0083865849f, 0.0429077819f, -0.0505010560f, 0.0377913974f},
      {-0.0206631236f, -0.0036800883f, -0.0095747309f, -0.0409766622f, -0.0036800883f},
      {0.0429077819f, -0.0152182598f, 0.0207029078f, 0.0207029078f, -0.0505010560f},
      {-0.0259119384f, -0.0036800883f, 0.0145718670f, -0.0361691378f, -0.0457837023f}
    },
    {
      {-0.0361691378f, -0.0310912579f, -0.0036800883f, -0.0095747309f, -0.0206631236f},
      {0.0023533844f, -0.0361691378f, -0.0409766622f, -0.0095747309f, 0.0023533844f},
      {0.0145718670f, -0.0409766622f, -0.0505010560f, -0.0036800883f, -0.0310912579f},
      {-0.0036800883f, 0.0207029078f, 0.0023533844f, -0.0095747309f, 0.0323541909f},
      {-0.0259119384f, -0.0152182598f, -0.0152182598f, -0.0310912579f, 0.0083865849f}
    },
    {
      {-0.0206631236f, 0.0145718670f, -0.0259119384f, -0.0259119384f, 0.0479660071f},
      {0.0023533844f, -0.0206631236f, -0.0036800883f, -0.0409766622f, 0.0377913974f},
      {0.0266319662f, 0.0429077819f, -0.0206631236f, 0.0083865849f, 0.0266319662f},
      {0.0083865849f, 0.0479660071f, 0.0429077819f, -0.0095747309f, -0.0095747309f},
      {-0.0409766622f, 0.0377913974f, -0.0361691378f, -0.0206631236f, -0.0095747309f}
    },
  },
  {
    {
      {-0.0036800883f, 0.0023533844f, -0.0361691378f, -0.0259119384f, -0.0409766622f},
      {-0.0409766622f, -0.0361691378f, 0.0207029078f, -0.0568323173f, -0.0361691378f},
      {-0.0259119384f, -0.0633588657f, -0.0036800883f, -0.0095747309f, -0.0095747309f},
      {0.0023533844f, -0.0457837023f, -0.0775280371f, 0.0145718670f, 0.0266319662f},
      {0.0377913974f, 0.0537182502f, 0.0377913974f, -0.0457837023f, 0.0266319662f}
    },
    {
      {0.0207029078f, -0.0206631236f, -0.0259119384f, -0.0259119384f, 0.0145718670f},
      {0.0207029078f, -0.0036800883f, -0.0095747309f, 0.0083865849f, 0.0083865849f},
      {0.0657936484f, -0.0036800883f, 0.0145718670f, 0.0083865849f, -0.0036800883f},
      {-0.0457837023f, 0.0323541909f, -0.0310912579f, -0.0095747309f, 0.0083865849f},
      {-0.0152182598f, 0.0207029078f, -0.0036800883f, 0.0023533844f, -0.0361691378f}
    },
    {
      {-0.0457837023f, 0.0083865849f, 0.0479660071f, -0.0310912579f, -0.0259119384f},
      {-0.0095747309f, 0.0323541909f, -0.0259119384f, -0.0361691378f, -0.0259119384f},
      {0.0377913974f, -0.0259119384f, -0.0152182598f, -0.0361691378f, 0.0429077819f},
      {0.0266319662f, -0.0361691378f, 0.0323541909f, 0.0323541909f, -0.0206631236f},
      {-0.0409766622f, -0.0457837023f, -0.0457837023f, 0.0266319662f, 0.0429077819f}
    },
    {
      {-0.0095747309f, -0.0259119384f, -0.0036800883f, 0.0023533844f, 0.0207029078f},
      {-0.0259119384f, -0.0206631236f, -0.0361691378f, 0.0377913974f, 0.0083865849f},
      {-0.0409766622f, 0.0145718670f, -0.0095747309f, 0.0377913974f, 0.0323541909f},
      {0.0479660071f, 0.0207029078f, -0.0457837023f, 0.0207029078f, -0.0457837023f},
      {0.0145718670f, -0.0361691378f, 0.0083865849f, 0.0083865849f, -0.0409766622f}
    },
    {
      {0.0429077819f, 0.0429077819f, -0.0259119384f, -0.0152182598f, 0.0429077819f},
      {0.0377913974f, -0.0152182598f, -0.0310912579f, -0.0457837023f, -0.0361691378f},
      {0.0429077819f, 0.0083865849f, 0.0377913974f, 0.0145718670f, -0.0457837023f},
      {0.0377913974f, 0.0537182502f, -0.0310912579f, -0.0409766622f, 0.0266319662f},
      {0.0207029078f, 0.0479660071f, -0.0361691378f, 0.0023533844f, 0.0207029078f}
    },
    {
      {-0.0505010560f, 0.0323541909f, -0.0409766622f, -0.0152182598f, 0.0023533844f},
      {-0.0361691378f, 0.0145718670f, -0.0568323173f, -0.0310912579f, -0.0633588657f},
      {0.0981064811f, -0.0206631236f, -0.0505010560f, 0.0266319662f, -0.0310912579f},
      {0.0145718670f, -0.0036800883f, 0.0083865849f, -0.0152182598f, -0.0310912579f},
      {-0.0568323173f, -0.0152182598f, -0.0036800883f, 0.0023533844f, 0.0377913974f}
    },
    {
      {-0.0259119384f, 0.0083865849f, 0.0083865849f, 0.0323541909f, 0.0377913974f},
      {-0.0036800883f, -0.0036800883f, 0.0479660071f, -0.0095747309f, 0.0207029078f},
      {0.0720167682f, -0.0206631236f, 0.0377913974f, 0.0207029078f, -0.0036800883f},
      {-0.0152182598f, -0.0259119384f, 0.0429077819f, 0.0377913974f, 0.0479660071f},
      {0.0429077819f, -0.0505010560f, 0.0023533844f, -0.0095747309f, 0.0537182502f}
    },
    {
      {-0.0095747309f, -0.0259119384f, -0.0310912579f, -0.0457837023f, 0.0657936484f},
      {-0.0505010560f, 0.0323541909f, -0.0259119384f, 0.0266319662f, 0.0023533844f},
      {-0.0568323173f, -0.0036800883f, -0.0206631236f, 0.0266319662f, 0.0377913974f},
      {0.0915452391f, -0.0206631236f, -0.0457837023f, -0.0259119384f, -0.0505010560f},
      {0.0377913974f, 0.0479660071f, 0.0145718670f, 0.0023533844f, -0.0310912579f}
    },
    {
      {-0.0259119384f, -0.0409766622f, -0.0457837023f, 0.0207029078f, -0.0259119384f},
      {0.0537182502f, 0.0429077819f, -0.0095747309f, 0.0479660071f, 0.0377913974f},
      {0.0657936484f, 0.0537182502f, 0.0083865849f, 0.0479660071f, 0.0023533844f},
      {0.0145718670f, 0.0846585333f, -0.0310912579f, 0.0429077819f, -0.0036800883f},
      {0.0780827329f, 0.0083865849f, -0.0361691378f, 0.0266319662f, -0.0095747309f}
    },
    {
      {0.0207029078f, 0.0083865849f, -0.0409766622f, 0.0537182502f, -0.0152182598f},
      {-0.0310912579f, 0.0377913974f, 0.0207029078f, 0.0023533844f, 0.0479660071f},
      {-0.0036800883f, -0.0206631236f, -0.0409766622f, -0.0568323173f, 0.0145718670f},
      {0.0323541909f, -0.0095747309f, -0.0095747309f, -0.0568323173f, -0.0095747309f},
      {-0.0152182598f, 0.0083865849f, -0.0095747309f, -0.0259119384f, -0.0036800883f}
    },
    {
      {-0.0095747309f, 0.0023533844f, -0.0206631236f, -0.0095747309f, 0.0429077819f},
      {-0.0259119384f, -0.0259119384f, 0.0023533844f, -0.0095747309f, -0.0457837023f},
      {-0.0152182598f, -0.0845848396f, -0.0036800883f, 0.0323541909f, 0.0145718670f},
      {0.0023533844f, -0.0633588657f, 0.0083865849f, 0.0479660071f, 0.0323541909f},
      {-0.0152182598f, -0.0036800883f, 0.0266319662f, 0.0323541909f, 0.0377913974f}
    },
    {
      {-0.0152182598f, -0.0095747309f, 0.0207029078f, -0.0152182598f, -0.0361691378f},
      {-0.0152182598f, -0.0259119384f, 0.0145718670f, -0.0568323173f, 0.0266319662f},
      {0.0377913974f, -0.0206631236f, 0.0266319662f, -0.0206631236f, -0.0152182598f},
      {-0.0259119384f, 0.0083865849f, -0.0259119384f, -0.0310912579f, 0.0479660071f},
      {-0.0310912579f, -0.0409766622f, 0.0479660071f, -0.0568323173f, 0.0846585333f}
    },
    {
      {-0.0505010560f, -0.0310912579f, -0.0361691378f, 0.0266319662f, -0.0310912579f},
      {-0.0505010560f, -0.0206631236f, 0.0145718670f, 0.0023533844f, 0.0266319662f},
      {0.0377913974f, -0.0409766622f, -0.0259119384f, 0.0023533844f, 0.0429077819f},
      {0.0266319662f, 0.0537182502f, 0.0323541909f, -0.0036800883f, -0.0361691378f},
      {-0.0259119384f, 0.0266319662f, 0.0479660071f, -0.0152182598f, 0.0266319662f}
    },
    {
      {-0.0310912579f, -0.0152182598f, -0.0310912579f, 0.0479660071f, 0.0323541909f},
      {-0.0036800883f, -0.0310912579f, -0.0259119384f, -0.0095747309f, 0.0720167682f},
      {-0.0457837023f, -0.0361691378f, -0.0409766622f, -0.0206631236f, 0.0377913974f},
      {0.0145718670f, -0.0361691378f, -0.0409766622f, -0.0409766622f, -0.0259119384f},
      {-0.0259119384f, 0.0429077819f, 0.0207029078f, 0.0145718670f, 0.0023533844f}
    },
    {
      {0.0083865849f, 0.0145718670f, -0.0310912579f, 0.0145718670f, -0.0206631236f},
      {0.0207029078f, -0.0409766622f, 0.0479660071f, -0.0361691378f, 0.0083865849f},
      {-0.0310912579f, -0.0775280371f, 0.0145718670f, -0.0206631236f, -0.0206631236f},
      {0.0537182502f, 0.0083865849f, 0.0377913974f, 0.0083865849f, -0.0361691378f},
      {-0.0409766622f, 0.0479660071f, -0.0409766622f, -0.0457837023f, -0.0457837023f}
    },
    {
      {-0.0361691378f, -0.0310912579f, -0.0409766622f, -0.0152182598f, 0.0023533844f},
      {0.0537182502f, -0.0259119384f, -0.0206631236f, 0.0083865849f, -0.0206631236f},
      {0.0083865849f, 0.0377913974f, 0.0429077819f, -0.0036800883f, -0.0036800883f},
      {-0.0505010560f, 0.0266319662f, -0.0095747309f, -0.0568323173f, 0.0429077819f},
      {-0.0152182598f, -0.0457837023f, 0.0377913974f, -0.0409766622f, -0.0361691378f}
    },
  },
  {
    {
      {0.0377913974f, 0.0145718670f, 0.0207029078f, -0.0310912579f, -0.0152182598f},
      {0.0266319662f, -0.0409766622f, -0.0095747309f, 0.0207029078f, 0.0207029078f},
      {-0.0505010560f, 0.0323541909f, -0.0457837023f, -0.0505010560f, 0.0323541909f},
      {0.0207029078f, -0.0409766622f, -0.0259119384f, 0.0145718670f, 0.0023533844f},
      {0.0377913974f, -0.0457837023f, -0.0206631236f, 0.0207029078f, -0.0310912579f}
    },
    {
      {-0.0259119384f, 0.0323541909f, 0.0377913974f, -0.0152182598f, -0.0095747309f},
      {0.0323541909f, 0.0429077819f, -0.0409766622f, -0.0259119384f, -0.0206631236f},
      {0.0479660071f, -0.0095747309f, 0.0266319662f, -0.0457837023f, -0.0457837023f},
      {0.0266319662f, -0.0206631236f, 0.0207029078f, -0.0505010560f, -0.0259119384f},
      {-0.0361691378f, -0.0361691378f, 0.0429077819f, -0.0259119384f, -0.0036800883f}
    },
    {
      {0.0207029078f, 0.0266319662f, 0.0083865849f, 0.0023533844f, -0.0036800883f},
      {0.0323541909f, -0.0259119384f, -0.0152182598f, -0.0457837023f, -0.0457837023f},
      {-0.0409766622f, -0.0310912579f, -0.0361691378f, 0.0083865849f, 0.0023533844f},
      {-0.0206631236f, -0.0206631236f, 0.0083865849f, -0.0152182598f, -0.0036800883f},
      {0.0323541909f, -0.0310912579f, 0.0479660071f, 0.0266319662f, 0.0479660071f}
    },
    {
      {0.0023533844f, -0.0152182598f, 0.0145718670f, 0.0323541909f, 0.0083865849f},
      {0.0266319662f, 0.0323541909f, 0.0323541909f, -0.0259119384f, 0.0207029078f},
      {0.0023533844f, 0.0207029078f, -0.0036800883f, -0.0095747309f, -0.0457837023f},
      {-0.0310912579f, 0.0207029078f, 0.0323541909f, 0.0479660071f, -0.0361691378f},
      {0.0023533844f, -0.0152182598f, -0.0206631236f, -0.0206631236f, 0.0479660071f}
    },
    {
      {0.0479660071f, -0.0457837023f, 0.0323541909f, -0.0206631236f, -0.0361691378f},
      {-0.0036800883f, 0.0207029078f, -0.0361691378f, -0.0457837023f, 0.0323541909f},
      {-0.0457837023f, -0.0206631236f, -0.0457837023f, 0.0083865849f, -0.0152182598f},
      {-0.0457837023f, 0.0023533844f, 0.0207029078f, 0.0145718670f, 0.0023533844f},
      {-0.0361691378f, 0.0377913974f, 0.0266319662f, 0.0429077819f, 0.0479660071f}
    },
    {
      {0.0023533844f, 0.0145718670f, -0.0505010560f, -0.0095747309f, -0.0206631236f},
      {0.0207029078f, -0.0206631236f, -0.0152182598f, 0.0023533844f, -0.0152182598f},
      {-0.0152182598f, 0.0023533844f, -0.0457837023f, -0.0206631236f, 0.0083865849f},
      {-0.0310912579f, 0.0323541909f, -0.0095747309f, 0.0207029078f, 0.0023533844f},
      {-0.0259119384f, -0.0095747309f, 0.0023533844f, -0.0036800883f, 0.0377913974f}
    },
    {
      {0.0023533844f, -0.0457837023f, -0.0361691378f, -0.0505010560f, 0.0083865849f},
      {0.0083865849f, 0.0323541909f, 0.0377913974f, 0.0377913974f, 0.0266319662f},
      {0.0207029078f, -0.0505010560f, 0.0207029078f, 0.0479660071f, 0.0145718670f},
      {0.0023533844f, 0.0207029078f, -0.0457837023f, 0.0323541909f, -0.0206631236f},
      {-0.0095747309f, -0.0036800883f, 0.0145718670f, -0.0152182598f, -0.0152182598f}
    },
    {
      {0.0023533844f, -0.0259119384f, 0.0023533844f, -0.0036800883f, -0.0095747309f},
      {0.0429077819f, 0.0377913974f, 0.0083865849f, -0.0259119384f, 0.0023533844f},
      {0.0323541909f, -0.0036800883f, 0.0207029078f, -0.0361691378f, -0.0036800883f},
      {-0.0259119384f, -0.0206631236f, -0.0036800883f, 0.0207029078f, 0.0377913974f},
      {0.0377913974f, 0.0266319662f, -0.0095747309f, 0.0377913974f, -0.0036800883f}
    },
    {
      {-0.0457837023f, 0.0323541909f, 0.0083865849f, 0.0323541909f, -0.0036800883f},
      {0.0023533844f, -0.0361691378f, -0.0095747309f, -0.0095747309f, -0.0152182598f},
      {0.0145718670f, -0.0457837023f, 0.0023533844f, 0.0377913974f, -0.0259119384f},
      {-0.0310912579f, -0.0259119384f, 0.0266319662f, 0.0207029078f, -0.0259119384f},
      {-0.0095747309f, -0.0036800883f, -0.0505010560f, 0.0145718670f, 0.0023533844f}
    },
    {
      {0.0377913974f, 0.0429077819f, 0.0145718670f, -0.0457837023f, 0.0429077819f},
      {-0.0259119384f, 0.0023533844f, -0.0095747309f, -0.0457837023f, -0.0259119384f},
      {0.0377913974f, -0.0505010560f, -0.0152182598f, 0.0323541909f, 0.0429077819f},
      {0.0479660071f, 0.0145718670f, -0.0259119384f, -0.0505010560f, 0.0023533844f},
      {-0.0361691378f, 0.0207029078f, -0.0457837023f, -0.0095747309f, 0.0323541909f}
    },
    {
      {0.0266319662f, -0.0095747309f, -0.0036800883f, 0.0207029078f, 0.0377913974f},
      {-0.0095747309f, 0.0207029078f, -0.0409766622f, -0.0505010560f, 0.0083865849f},
      {-0.0409766622f, -0.0152182598f, -0.0457837023f, -0.0259119384f, -0.0310912579f},
      {-0.0409766622f, -0.0409766622f, 0.0023533844f, -0.0409766622f, 0.0429077819f},
      {-0.0310912579f, 0.0145718670f, -0.0310912579f, 0.0266319662f, 0.0377913974f}
    },
    {
      {-0.0036800883f, -0.0095747309f, -0.0310912579f, -0.0206631236f, -0.0505010560f},
      {0.0023533844f, 0.0377913974f, -0.0505010560f, -0.0259119384f, 0.0207029078f},
      {-0.0152182598f, -0.0095747309f, 0.0023533844f, -0.0505010560f, -0.0095747309f},
      {0.0266319662f, 0.0323541909f, 0.0377913974f, 0.0266319662f, -0.0457837023f},
      {0.0145718670f, 0.0266319662f, 0.0323541909f, -0.0409766622f, 0.0266319662f}
    },
    {
      {0.0323541909f, -0.0361691378f, -0.0095747309f, -0.0409766622f, -0.0409766622f},
      {-0.0036800883f, 0.0083865849f, 0.0023533844f, 0.0083865849f, -0.0361691378f},
      {0.0266319662f, -0.0361691378f, -0.0259119384f, -0.0409766622f, 0.0083865849f},
      {-0.0505010560f, -0.0036800883f, -0.0206631236f, -0.0206631236f, -0.0457837023f},
      {0.0266319662f, -0.0036800883f, 0.0377913974f, -0.0206631236f, 0.0429077819f}
    },
    {
      {-0.0361691378f, -0.0310912579f, -0.0361691378f, 0.0083865849f, 0.0083865849f},
      {0.0266319662f, -0.0206631236f, -0.0095747309f, 0.0207029078f, -0.0036800883f},
      {-0.0095747309f, 0.0266319662f, 0.0323541909f, 0.0429077819f, 0.0429077819f},
      {-0.0095747309f, 0.0207029078f, 0.0323541909f, 0.0145718670f, -0.0310912579f},
      {0.0429077819f, 0.0266319662f, -0.0036800883f, 0.0323541909f, -0.0206631236f}
    },
    {
      {-0.0457837023f, -0.0361691378f, -0.0095747309f, -0.0457837023f, -0.0206631236f},
      {0.0207029078f, -0.0206631236f, -0.0095747309f, 0.0266319662f, 0.0145718670f},
      {0.0266319662f, -0.0457837023f, -0.0310912579f, -0.0259119384f, -0.0095747309f},
      {-0.0505010560f, -0.0036800883f, 0.0377913974f, 0.0023533844f, -0.0036800883f},
      {0.0023533844f, 0.0083865849f, -0.0361691378f, -0.0036800883f, 0.0023533844f}
    },
    {
      {-0.0409766622f, 0.0083865849f, -0.0310912579f, -0.0036800883f, -0.0259119384f},
      {-0.0259119384f, -0.0152182598f, 0.0323541909f, -0.0409766622f, 0.0145718670f},
      {-0.0259119384f, 0.0023533844f, -0.0095747309f, 0.0429077819f, -0.0505010560f},
      {0.0377913974f, 0.0323541909f, 0.0479660071f, -0.0505010560f, 0.0479660071f},
      {0.0023533844f, 0.0429077819f, -0.0095747309f, 0.0479660071f, 0.0207029078f}
    },
  },
  {
    {
      {-0.0206631236f, -0.0505010560f, -0.0095747309f, -0.0036800883f, -0.0152182598f},
      {-0.0095747309f, 0.0083865849f, -0.0259119384f, -0.0206631236f, 0.0266319662f},
      {0.0323541909f, -0.0633588657f, -0.0568323173f, 0.0023533844f, 0.0145718670f},
      {-0.0361691378f, 0.0145718670f, -0.0206631236f, -0.0152182598f, 0.0846585333f},
      {-0.0310912579f, 0.0377913974f, -0.0152182598f, 0.0145718670f, -0.0036800883f}
    },
    {
      {-0.0036800883f, -0.0568323173f, -0.0036800883f, -0.0633588657f, 0.0266319662f},
      {-0.0409766622f, 0.0266319662f, -0.0036800883f, 0.0377913974f, 0.0083865849f},
      {-0.0568323173f, -0.0259119384f, -0.0036800883f, 0.0023533844f, 0.0266319662f},
      {-0.0310912579f, -0.0310912579f, -0.0259119384f, 0.0323541909f, -0.0036800883f},
      {0.0083865849f, 0.0266319662f, -0.0206631236f, -0.0409766622f, -0.0206631236f}
    },
    {
      {0.0323541909f, 0.0207029078f, -0.0259119384f, 0.0207029078f, 0.0145718670f},
      {-0.0259119384f, -0.0152182598f, -0.0036800883f, 0.0023533844f, 0.0023533844f},
      {-0.0457837023f, -0.0259119384f, -0.0409766622f, -0.0409766622f, 0.0023533844f},
      {-0.0259119384f, 0.0083865849f, -0.0152182598f, 0.0266319662f, -0.0206631236f},
      {0.0323541909f, 0.0377913974f, 0.0323541909f, 0.0145718670f, -0.0457837023f}
    },
    {
      {-0.0259119384f, -0.0152182598f, -0.0152182598f, 0.0207029078f, -0.0206631236f},
      {-0.0095747309f, 0.0207029078f, -0.0036800883f, 0.0083865849f, 0.0207029078f},
      {0.0266319662f, 0.0083865849f, -0.0095747309f, 0.0266319662f, 0.0377913974f},
      {-0.0259119384f, 0.0023533844f, 0.0479660071f, 0.0377913974f, 0.0145718670f},
      {0.0479660071f, 0.0323541909f, 0.0323541909f, 0.0145718670f, 0.0083865849f}
    },
    {
      {0.0207029078f, 0.0083865849f, 0.0023533844f, -0.0206631236f, 0.0145718670f},
      {0.0083865849f, 0.0207029078f, 0.0083865849f, 0.0377913974f, 0.0323541909f},
      {0.0266319662f, -0.0152182598f, -0.0259119384f, 0.0323541909f, 0.0083865849f},
      {0.0266319662f, 0.0266319662f, -0.0310912579f, 0.0323541909f, 0.0207029078f},
      {-0.0310912579f, -0.0259119384f, 0.0429077819f, 0.0537182502f, -0.0310912579f}
    },
    {
      {0.0657936484f, 0.0145718670f, 0.0207029078f, -0.0633588657f, 0.0323541909f},
      {-0.0152182598f, 0.0023533844f, -0.0036800883f, -0.0845848396f, -0.0361691378f},
      {0.0266319662f, 0.0023533844f, 0.0780827329f, 0.0023533844f, 0.0377913974f},
      {0.0023533844f, 0.0023533844f, 0.0207029078f, 0.0266319662f, -0.0095747309f},
      {-0.0036800883f, -0.0095747309f, 0.0145718670f, -0.0310912579f, 0.0377913974f}
    },
    {
      {0.0429077819f, -0.0310912579f, 0.0537182502f, -0.0095747309f, 0.0479660071f},
      {0.0145718670f, -0.0568323173f, 0.0780827329f, 0.0537182502f, 0.0023533844f},
      {0.0429077819f, -0.0206631236f, -0.0036800883f, -0.0505010560f, -0.0505010560f},
      {0.0323541909f, 0.0083865849f, -0.0095747309f, -0.0409766622f, -0.0259119384f},
      {0.0266319662f, 0.0266319662f, -0.0409766622f, -0.0206631236f, -0.0361691378f}
    },
    {
      {0.0597191826f, 0.0145718670f, -0.0259119384f, -0.0259119384f, -0.0036800883f},
      {0.0083865849f, -0.0633588657f, -0.0568323173f, -0.0152182598f, 0.0083865849f},
      {-0.0505010560f, -0.0409766622f, -0.0361691378f, -0.0095747309f, 0.0597191826f},
      {0.0323541909f, -0.0036800883f, 0.1130934209f, 0.0145718670f, 0.0266319662f},
      {-0.0036800883f, 0.0266319662f, 0.0429077819f, 0.0207029078f, -0.0409766622f}
    },
    {
      {0.0597191826f, 0.0377913974f, 0.0266319662f, 0.0266319662f, -0.0095747309f},
      {-0.0095747309f, 0.0323541909f, -0.0505010560f, 0.0429077819f, -0.0036800883f},
      {-0.0036800883f, 0.0207029078f, 0.0083865849f, -0.0095747309f, 0.0323541909f},
      {0.0479660071f, -0.0505010560f, 0.0915452391f, -0.0206631236f, -0.0409766622f},
      {-0.0152182598f, -0.0505010560f, -0.0361691378f, 0.0323541909f, 0.0023533844f}
    },
    {
      {-0.0206631236f, -0.0095747309f, -0.0505010560f, 0.0207029078f, -0.0361691378f},
      {0.0083865849f, -0.0505010560f, -0.0568323173f, -0.0036800883f, 0.0323541909f},
      {-0.0259119384f, 0.0145718670f, 0.0323541909f, 0.0479660071f, -0.0095747309f},
      {0.0023533844f, -0.0505010560f, 0.0207029078f, 0.0023533844f, -0.0036800883f},
      {0.0207029078f, -0.0206631236f, 0.0023533844f, 0.0145718670f, 0.0207029078f}
    },
    {
      {-0.0095747309f, -0.0409766622f, -0.0409766622f, 0.0597191826f, 0.0720167682f},
      {0.0023533844f, -0.0633588657f, -0.0036800883f, -0.0633588657f, 0.0207029078f},
      {-0.0095747309f, 0.0023533844f, 0.0083865849f, -0.0095747309f, -0.0206631236f},
      {0.0323541909f, -0.0409766622f, 0.0429077819f, -0.0361691378f, -0.0259119384f},
      {-0.0259119384f, 0.0207029078f, 0.0145718670f, 0.0429077819f, -0.0568323173f}
    },
    {
      {-0.0152182598f, 0.0537182502f, 0.0720167682f, 0.1046285257f, 0.0915452391f},
      {0.0207029078f, 0.0023533844f, 0.0266319662f, -0.0036800883f, 0.0083865849f},
      {-0.0310912579f, 0.0479660071f, -0.0206631236f, 0.0377913974f, 0.0145718670f},
      {0.0537182502f, -0.0361691378f, -0.0775280371f, 0.0023533844f, 0.0023533844f},
      {0.0377913974f, -0.0310912579f, -0.0259119384f, 0.0207029078f, 0.0597191826f}
    },
    {
      {-0.0152182598f, -0.0361691378f, -0.0152182598f, -0.0095747309f, -0.0457837023f},
      {0.0429077819f, 0.0657936484f, -0.0206631236f, -0.0505010560f, 0.0657936484f},
      {0.0377913974f, 0.0207029078f, 0.0023533844f, -0.0095747309f, 0.0145718670f},
      {0.0479660071f, 0.0207029078f, 0.0266319662f, 0.0597191826f, 0.0207029078f},
      {0.0083865849f, -0.0568323173f, -0.0310912579f, -0.0095747309f, 0.0023533844f}
    },
    {
      {0.0207029078f, -0.0259119384f, 0.0145718670f, -0.0259119384f, 0.0323541909f},
      {-0.0259119384f, 0.0377913974f, -0.0409766622f, -0.0206631236f, 0.0377913974f},
      {-0.0310912579f, 0.0377913974f, -0.0259119384f, -0.0361691378f, -0.0036800883f},
      {0.0377913974f, 0.0377913974f, 0.0145718670f, 0.0657936484f, 0.0145718670f},
      {-0.0206631236f, 0.0083865849f, 0.0323541909f, -0.0310912579f, -0.0310912579f}
    },
    {
      {-0.0206631236f, -0.0409766622f, -0.0310912579f, -0.0457837023f, -0.1140288413f},
      {0.0207029078f, -0.0409766622f, -0.0568323173f, -0.0633588657f, -0.0310912579f},
      {-0.0036800883f, 0.0266319662f, 0.0377913974f, 0.0657936484f, 0.0023533844f},
      {0.0145718670f, -0.0036800883f, 0.0377913974f, 0.0479660071f, 0.0266319662f},
      {-0.0095747309f, -0.0095747309f, -0.0206631236f, -0.0310912579f, -0.0505010560f}
    },
    {
      {-0.0361691378f, 0.0207029078f, -0.0457837023f, -0.0310912579f, 0.0429077819f},
      {0.0479660071f, 0.0023533844f, 0.0537182502f, 0.0323541909f, 0.0266319662f},
      {0.0266319662f, 0.0083865849f, -0.0036800883f, 0.0323541909f, -0.0457837023f},
      {-0.0095747309f, 0.0377913974f, -0.0152182598f, 0.0023533844f, -0.0036800883f},
      {0.0429077819f, 0.0145718670f, 0.0266319662f, 0.0083865849f, -0.0095747309f}
    },
  },
  {
    {
      {0.0023533844f, -0.0457837023f, 0.0083865849f, 0.0323541909f, -0.0036800883f},
      {-0.0259119384f, -0.0310912579f, 0.0915452391f, 0.0145718670f, 0.0597191826f},
      {0.0207029078f, 0.0207029078f, 0.0266319662f, 0.0207029078f, -0.0568323173f},
      {0.0207029078f, -0.0036800883f, -0.0152182598f, 0.0377913974f, 0.0323541909f},
      {0.0377913974f, -0.0409766622f, -0.0568323173f, -0.0361691378f, 0.0083865849f}
    },
    {
      {-0.0152182598f, -0.0152182598f, 0.0429077819f, 0.0266319662f, -0.0206631236f},
      {0.0145718670f, -0.0036800883f, 0.0207029078f, -0.0095747309f, 0.0083865849f},
      {-0.0457837023f, -0.0633588657f, -0.0152182598f, 0.0377913974f, -0.0095747309f},
      {0.0145718670f, 0.0023533844f, 0.0266319662f, -0.0036800883f, -0.0409766622f},
      {-0.0310912579f, 0.0377913974f, -0.0206631236f, 0.0023533844f, 0.0597191826f}
    },
    {
      {0.0023533844f, -0.0206631236f, -0.0036800883f, -0.0206631236f, -0.0409766622f},
      {0.0479660071f, 0.0207029078f, 0.0323541909f, 0.0207029078f, 0.0083865849f},
      {0.0083865849f, 0.0145718670f, -0.0568323173f, -0.0310912579f, -0.0310912579f},
      {0.0479660071f, 0.0323541909f, -0.0095747309f, -0.0206631236f, -0.0457837023f},
      {-0.0036800883f, 0.0207029078f, 0.0377913974f, 0.0207029078f, 0.0145718670f}
    },
    {
      {0.0266319662f, -0.0036800883f, 0.0207029078f, 0.0023533844f, 0.0377913974f},
      {-0.0095747309f, -0.0310912579f, 0.0145718670f, -0.0259119384f, -0.0206631236f},
      {-0.0259119384f, 0.0266319662f, 0.0023533844f, -0.0409766622f, -0.0310912579f},
      {0.0429077819f, 0.0145718670f, -0.0259119384f, -0.0206631236f, -0.0206631236f},
      {0.0083865849f, -0.0152182598f, 0.0023533844f, 0.0266319662f, 0.0207029078f}
    },
    {
      {-0.0361691378f, 0.0145718670f, -0.0409766622f, -0.0409766622f, -0.0095747309f},
      {0.0266319662f, -0.0036800883f, -0.0095747309f, -0.0036800883f, -0.0206631236f},
      {0.0377913974f, -0.0095747309f, 0.0323541909f, 0.0377913974f, -0.0409766622f},
      {-0.0095747309f, 0.0323541909f, -0.0152182598f, -0.0409766622f, -0.0095747309f},
      {0.0479660071f, -0.0361691378f, 0.0377913974f, 0.0023533844f, 0.0429077819f}
    },
    {
      {0.0657936484f, 0.1046285257f, -0.0568323173f, -0.0845848396f, -0.0310912579f},
      {-0.0310912579f, 0.0145718670f, -0.0036800883f, -0.1066239476f, -0.0095747309f},
      {-0.0206631236f, 0.0537182502f, 0.0145718670f, 0.0083865849f, 0.0429077819f},
      {0.0266319662f, 0.0023533844f, 0.0323541909f, -0.0095747309f, 0.0207029078f},
      {-0.0152182598f, -0.0036800883f, 0.0145718670f, -0.0310912579f, 0.0083865849f}
    },
    {
      {0.0266319662f, 0.0083865849f, 0.0023533844f, -0.0310912579f, 0.0323541909f},
      {-0.0206631236f, 0.0323541909f, -0.0409766622f, -0.0152182598f, 0.0377913974f},
      {0.0145718670f, 0.0145718670f, 0.0083865849f, -0.0152182598f, -0.0152182598f},
      {-0.0036800883f, -0.0206631236f, 0.0023533844f, 0.0720167682f, -0.0152182598f},
      {-0.0152182598f, 0.0597191826f, 0.0429077819f, 0.0023533844f, 0.0083865849f}
    },
    {
      {0.0083865849f, 0.0266319662f, -0.0259119384f, -0.0568323173f, -0.0505010560f},
      {-0.0152182598f, 0.0083865849f, 0.0083865849f, 0.0780827329f, 0.0846585333f},
      {-0.0095747309f, 0.0145718670f, 0.0479660071f, 0.0266319662f, 0.0537182502f},
      {0.0145718670f, -0.0916960910f, -0.0703812465f, -0.0633588657f, -0.0152182598f},
      {-0.0361691378f, -0.0259119384f, 0.0429077819f, -0.0310912579f, -0.0036800883f}
    },
    {
      {0.0266319662f, 0.0145718670f, -0.0361691378f, 0.0323541909f, -0.0095747309f},
      {0.0207029078f, 0.0720167682f, -0.0152182598f, -0.1209447384f, -0.0505010560f},
      {-0.0206631236f, 0.1130934209f, -0.0703812465f, -0.0845848396f, 0.0145718670f},
      {0.0377913974f, 0.0323541909f, -0.0505010560f, 0.0479660071f, 0.0023533844f},
      {-0.0633588657f, 0.0023533844f, -0.0095747309f, 0.0780827329f, 0.0323541909f}
    },
    {
      {-0.0361691378f, 0.0083865849f, -0.0259119384f, -0.0361691378f, -0.0568323173f},
      {-0.0568323173f, 0.0657936484f, 0.0266319662f, -0.0206631236f, 0.0323541909f},
      {0.0145718670f, 0.0207029078f, 0.0266319662f, 0.0537182502f, -0.0152182598f},
      {0.0429077819f, -0.0036800883f, 0.0479660071f, -0.0152182598f, 0.0479660071f},
      {-0.0206631236f, 0.0266319662f, -0.0036800883f, 0.0266319662f, 0.0323541909f}
    },
    {
      {-0.0152182598f, 0.0323541909f, 0.0145718670f, -0.0310912579f, -0.0259119384f},
      {0.0023533844f, -0.0152182598f, -0.0310912579f, -0.0206631236f, 0.0023533844f},
      {0.0429077819f, -0.0206631236f, -0.0036800883f, 0.0597191826f, 0.0207029078f},
      {0.0323541909f, -0.0259119384f, -0.0095747309f, 0.0657936484f, -0.0505010560f},
      {0.0377913974f, -0.0568323173f, 0.0023533844f, -0.0152182598f, 0.0083865849f}
    },
    {
      {0.0207029078f, 0.0145718670f, -0.0206631236f, -0.0703812465f, -0.0036800883f},
      {-0.0505010560f, -0.0361691378f, 0.0780827329f, -0.0568323173f, -0.0845848396f},
      {-0.0095747309f, 0.0377913974f, 0.0429077819f, -0.0987659022f, -0.1066239476f},
      {0.0479660071f, 0.0207029078f, 0.0720167682f, -0.1066239476f, -0.0633588657f},
      {0.0145718670f, 0.0537182502f, -0.0152182598f, -0.0845848396f, 0.0083865849f}
    },
    {
      {0.0429077819f, 0.0597191826f, -0.0152182598f, 0.0083865849f, 0.0657936484f},
      {0.0537182502f, -0.0095747309f, 0.0145718670f, 0.0377913974f, -0.0095747309f},
      {-0.0409766622f, -0.0703812465f, 0.0597191826f, 0.0479660071f, 0.0266319662f},
      {-0.0259119384f, 0.0266319662f, -0.0633588657f, -0.0095747309f, 0.0479660071f},
      {-0.0152182598f, -0.0152182598f, 0.0145718670f, -0.0036800883f, 0.0083865849f}
    },
    {
      {0.0323541909f, 0.0145718670f, 0.0915452391f, -0.0206631236f, -0.0361691378f},
      {-0.0409766622f, 0.0207029078f, 0.0083865849f, -0.0259119384f, -0.0095747309f},
      {0.0377913974f, 0.0537182502f, 0.0207029078f, 0.0429077819f, -0.0457837023f},
      {0.0145718670f, -0.0505010560f, 0.0323541909f, -0.0457837023f, -0.0568323173f},
      {-0.0152182598f, -0.0409766622f, 0.0266319662f, -0.0095747309f, 0.0657936484f}
    },
    {
      {-0.0505010560f, 0.0083865849f, -0.0409766622f, 0.0657936484f, -0.0259119384f},
      {-0.0259119384f, 0.0145718670f, 0.0266319662f, 0.0981064811f, 0.0266319662f},
      {0.0083865849f, -0.0206631236f, -0.0505010560f, 0.0846585333f, 0.0083865849f},
      {-0.0036800883f, -0.0409766622f, -0.0775280371f, 0.0023533844f, -0.0152182598f},
      {-0.0036800883f, -0.1066239476f, 0.0597191826f, 0.0377913974f, 0.0323541909f}
    },
    {
      {-0.0152182598f, -0.0152182598f, 0.0537182502f, 0.0537182502f, 0.0023533844f},
      {-0.0361691378f, -0.0259119384f, 0.0083865849f, 0.0377913974f, 0.0083865849f},
      {-0.0361691378f, -0.0095747309f, -0.0206631236f, 0.0145718670f, -0.0036800883f},
      {-0.0206631236f, -0.0457837023f, 0.0323541909f, -0.0152182598f, 0.0266319662f},
      {-0.0152182598f, 0.0207029078f, -0.0206631236f, -0.0095747309f, -0.0361691378f}
    },
  },
  {
    {
      {-0.0505010560f, -0.0259119384f, -0.0152182598f, 0.0429077819f, -0.0095747309f},
      {0.0207029078f, 0.0083865849f, -0.0259119384f, -0.0310912579f, -0.0206631236f},
      {-0.0505010560f, -0.0152182598f, -0.0457837023f, -0.0152182598f, -0.0310912579f},
      {-0.0259119384f, -0.0409766622f, 0.0207029078f, 0.0023533844f, -0.0457837023f},
      {-0.0259119384f, -0.0409766622f, 0.0429077819f, 0.0429077819f, 0.0323541909f}
    },
    {
      {0.0429077819f, 0.0266319662f, 0.0323541909f, -0.0095747309f, -0.0409766622f},
      {-0.0310912579f, -0.0310912579f, -0.0036800883f, -0.0152182598f, -0.0361691378f},
      {-0.0036800883f, -0.0361691378f, 0.0083865849f, 0.0145718670f, 0.0429077819f},
      {0.0479660071f, 0.0145718670f, 0.0145718670f, 0.0207029078f, 0.0266319662f},
      {0.0429077819f, 0.0207029078f, -0.0361691378f, 0.0083865849f, 0.0323541909f}
    },
    {
      {-0.0259119384f, 0.0429077819f, -0.0095747309f, -0.0095747309f, -0.0361691378f},
      {-0.0457837023f, 0.0377913974f, -0.0409766622f, -0.0152182598f, -0.0310912579f},
      {-0.0457837023f, -0.0259119384f, -0.0409766622f, -0.0152182598f, 0.0377913974f},
      {-0.0457837023f, -0.0206631236f, 0.0145718670f, 0.0377913974f, -0.0152182598f},
      {0.0479660071f, 0.0377913974f, 0.0145718670f, -0.0152182598f, -0.0036800883f}
    },
    {
      {0.0023533844f, -0.0310912579f, -0.0310912579f, 0.0023533844f, 0.0377913974f},
      {0.0207029078f, 0.0266319662f, 0.0429077819f, 0.0145718670f, 0.0323541909f},
      {0.0377913974f, -0.0036800883f, -0.0457837023f, -0.0361691378f, 0.0479660071f},
      {-0.0361691378f, 0.0207029078f, 0.0083865849f, -0.0409766622f, 0.0266319662f},
      {-0.0095747309f, -0.0259119384f, 0.0207029078f, -0.0310912579f, 0.0083865849f}
    },
    {
      {-0.0457837023f, 0.0207029078f, -0.0206631236f, -0.0457837023f, 0.0479660071f},
      {-0.0310912579f, -0.0409766622f, -0.0361691378f, -0.0361691378f, -0.0152182598f},
      {-0.0409766622f, 0.0377913974f, -0.0259119384f, 0.0377913974f, -0.0361691378f},
      {0.0377913974f, -0.0036800883f, -0.0409766622f, -0.0095747309f, 0.0207029078f},
      {0.0323541909f, 0.0145718670f, -0.0310912579f, 0.0479660071f, 0.0479660071f}
    },
    {
      {-0.0361691378f, 0.0083865849f, -0.0457837023f, -0.0206631236f, -0.0206631236f},
      {0.0145718670f, -0.0095747309f, -0.0259119384f, -0.0457837023f, 0.0023533844f},
      {-0.0409766622f, 0.0377913974f, -0.0152182598f, 0.0429077819f, 0.0083865849f},
      {0.0479660071f, 0.0083865849f, -0.0206631236f, -0.0152182598f, -0.0259119384f},
      {0.0023533844f, 0.0323541909f, 0.0145718670f, 0.0145718670f, 0.0083865849f}
    },
    {
      {0.0023533844f, 0.0207029078f, -0.0310912579f, -0.0259119384f, -0.0259119384f},
      {-0.0259119384f, 0.0023533844f, 0.0145718670f, -0.0457837023f, 0.0207029078f},
      {0.0083865849f, 0.0145718670f, 0.0479660071f, -0.0259119384f, -0.0206631236f},
      {0.0479660071f, 0.0266319662f, -0.0409766622f, 0.0207029078f, -0.0095747309f},
      {-0.0259119384f, 0.0083865849f, 0.0083865849f, -0.0152182598f, 0.0207029078f}
    },
    {
      {-0.0259119384f, 0.0023533844f, -0.0152182598f, 0.0323541909f, -0.0095747309f},
      {-0.0259119384f, 0.0266319662f, 0.0266319662f, -0.0361691378f, 0.0145718670f},
      {0.0429077819f, -0.0505010560f, -0.0206631236f, -0.0152182598f, 0.0377913974f},
      {-0.0457837023f, -0.0457837023f, 0.0377913974f, -0.0259119384f, 0.0479660071f},
      {0.0323541909f, 0.0266319662f, -0.0095747309f, -0.0095747309f, -0.0361691378f}
    },
    {
      {-0.0409766622f, -0.0206631236f, 0.0023533844f, -0.0457837023f, -0.0095747309f},
      {0.0429077819f, -0.0206631236f, 0.0023533844f, 0.0083865849f, -0.0505010560f},
      {-0.0095747309f, -0.0361691378f, 0.0145718670f, 0.0207029078f, 0.0083865849f},
      {0.0479660071f, 0.0023533844f, 0.0083865849f, -0.0568323173f, -0.0206631236f},
      {-0.0457837023f, 0.0023533844f, 0.0266319662f, 0.0429077819f, 0.0323541909f}
    },
    {
      {-0.0259119384f, 0.0145718670f, 0.0377913974f, -0.0036800883f, 0.0479660071f},
      {0.0323541909f, -0.0206631236f, -0.0152182598f, 0.0207029078f, -0.0206631236f},
      {0.0479660071f, 0.0266319662f, 0.0323541909f, -0.0259119384f, -0.0457837023f},
      {0.0207029078f, -0.0095747309f, 0.0083865849f, 0.0479660071f, 0.0023533844f},
      {0.0145718670f, 0.0377913974f, -0.0095747309f, -0.0361691378f, 0.0207029078f}
    },
    {
      {-0.0206631236f, 0.0023533844f, -0.0259119384f, -0.0409766622f, 0.0479660071f},
      {-0.0457837023f, -0.0361691378f, -0.0206631236f, 0.0083865849f, -0.0310912579f},
      {-0.0206631236f, 0.0145718670f, -0.0409766622f, 0.0323541909f, -0.0152182598f},
      {-0.0259119384f, 0.0377913974f, -0.0036800883f, 0.0377913974f, -0.0152182598f},
      {0.0207029078f, -0.0095747309f, -0.0409766622f, -0.0361691378f, 0.0323541909f}
    },
    {
      {-0.0095747309f, 0.0429077819f, 0.0377913974f, -0.0152182598f, 0.0377913974f},
      {0.0323541909f, 0.0323541909f, 0.0023533844f, -0.0095747309f, -0.0036800883f},
      {0.0266319662f, 0.0207029078f, -0.0361691378f, -0.0457837023f, -0.0505010560f},
      {-0.0206631236f, -0.0206631236f, 0.0323541909f, -0.0259119384f, -0.0310912579f},
      {-0.0259119384f, -0.0409766622f, 0.0323541909f, -0.0036800883f, -0.0361691378f}
    },
    {
      {0.0377913974f, 0.0083865849f, 0.0145718670f, -0.0206631236f, -0.0036800883f},
      {-0.0095747309f, -0.0409766622f, -0.0152182598f, 0.0479660071f, 0.0023533844f},
      {-0.0152182598f, -0.0259119384f, -0.0259119384f, -0.0206631236f, 0.0145718670f},
      {-0.0206631236f, -0.0095747309f, -0.0259119384f, -0.0310912579f, 0.0145718670f},
      {-0.0259119384f, 0.0377913974f, 0.0479660071f, -0.0409766622f, -0.0036800883f}
    },
    {
      {-0.0206631236f, -0.0206631236f, -0.0095747309f, -0.0206631236f, -0.0095747309f},
      {0.0429077819f, 0.0266319662f, 0.0377913974f, -0.0206631236f, 0.0023533844f},
      {-0.0095747309f, -0.0310912579f, -0.0095747309f, -0.0409766622f, -0.0036800883f},
      {0.0266319662f, 0.0266319662f, -0.0361691378f, -0.0259119384f, 0.0323541909f},
      {0.0023533844f, -0.0409766622f, -0.0036800883f, -0.0310912579f, 0.0266319662f}
    },
    {
      {-0.0361691378f, -0.0259119384f, 0.0429077819f, 0.0145718670f, 0.0207029078f},
      {-0.0310912579f, -0.0152182598f, 0.0323541909f, 0.0323541909f, -0.0206631236f},
      {0.0083865849f, -0.0505010560f, 0.0266319662f, 0.0377913974f, -0.0409766622f},
      {-0.0206631236f, -0.0310912579f, -0.0206631236f, 0.0323541909f, 0.0266319662f},
      {-0.0206631236f, 0.0083865849f, 0.0207029078f, -0.0152182598f, 0.0266319662f}
    },
    {
      {0.0145718670f, 0.0207029078f, 0.0266319662f, 0.0145718670f, 0.0207029078f},
      {-0.0259119384f, 0.0083865849f, 0.0207029078f, -0.0259119384f, -0.0206631236f},
      {-0.0457837023f, 0.0479660071f, 0.0207029078f, 0.0083865849f, 0.0429077819f},
      {0.0323541909f, 0.0479660071f, 0.0323541909f, -0.0152182598f, -0.0361691378f},
      {-0.0310912579f, -0.0152182598f, -0.0095747309f, -0.0152182598f, 0.0429077819f}
    },
  },
  {
    {
      {-0.0457837023f, -0.0310912579f, -0.0036800883f, -0.0505010560f, -0.0361691378f},
      {-0.0206631236f, -0.0259119384f, 0.0377913974f, -0.0505010560f, -0.0036800883f},
      {-0.0095747309f, 0.0323541909f, -0.0457837023f, -0.0095747309f, -0.0361691378f},
      {-0.0457837023f, -0.0505010560f, -0.0409766622f, 0.0429077819f, 0.0083865849f},
      {-0.0457837023f, -0.0505010560f, -0.0310912579f, -0.0457837023f, 0.0266319662f}
    },
    {
      {-0.0310912579f, 0.0429077819f, 0.0377913974f, 0.0266319662f, -0.0152182598f},
      {-0.0152182598f, -0.0206631236f, 0.0323541909f, 0.0083865849f, -0.0361691378f},
      {0.0266319662f, 0.0145718670f, -0.0310912579f, -0.0457837023f, 0.0323541909f},
      {-0.0259119384f, 0.0207029078f, 0.0429077819f, -0.0036800883f, 0.0479660071f},
      {-0.0095747309f, -0.0036800883f, 0.0323541909f, 0.0145718670f, 0.0083865849f}
    },
    {
      {0.0266319662f, 0.0377913974f, 0.0323541909f, -0.0036800883f, 0.0266319662f},
      {-0.0457837023f, 0.0266319662f, -0.0152182598f, 0.0083865849f, -0.0206631236f},
      {0.0323541909f, 0.0377913974f, 0.0145718670f, -0.0310912579f, 0.0023533844f},
      {-0.0361691378f, -0.0152182598f, -0.0095747309f, -0.0361691378f, 0.0323541909f},
      {0.0145718670f, 0.0145718670f, -0.0457837023f, 0.0023533844f, 0.0266319662f}
    },
    {
      {-0.0036800883f, -0.0361691378f, -0.0457837023f, 0.0207029078f, 0.0429077819f},
      {0.0207029078f, -0.0361691378f, -0.0036800883f, -0.0361691378f, 0.0083865849f},
      {-0.0259119384f, 0.0083865849f, -0.0152182598f, -0.0206631236f, -0.0259119384f},
      {0.0145718670f, -0.0361691378f, 0.0145718670f, -0.0361691378f, -0.0095747309f},
      {0.0023533844f, -0.0409766622f, 0.0479660071f, -0.0361691378f, -0.0036800883f}
    },
    {
      {0.0266319662f, -0.0036800883f, 0.0429077819f, 0.0377913974f, 0.0377913974f},
      {-0.0036800883f, -0.0259119384f, 0.0266319662f, -0.0505010560f, -0.0095747309f},
      {-0.0310912579f, -0.0152182598f, -0.0409766622f, -0.0259119384f, 0.0377913974f},
      {0.0323541909f, 0.0145718670f, -0.0095747309f, 0.0377913974f, 0.0429077819f},
      {-0.0457837023f, -0.0206631236f, 0.0377913974f, 0.0266319662f, -0.0206631236f}
    },
    {
      {-0.0361691378f, 0.0323541909f, -0.0505010560f, -0.0095747309f, 0.0429077819f},
      {0.0207029078f, 0.0377913974f, 0.0429077819f, -0.0457837023f, 0.0266319662f},
      {-0.0361691378f, 0.0266319662f, 0.0323541909f, 0.0429077819f, -0.0036800883f},
      {0.0145718670f, 0.0429077819f, 0.0145718670f, 0.0023533844f, -0.0152182598f},
      {0.0377913974f, 0.0145718670f, 0.0083865849f, -0.0361691378f, 0.0145718670f}
    },
    {
      {0.0023533844f, 0.0023533844f, -0.0361691378f, -0.0095747309f, 0.0266319662f},
      {0.0023533844f, -0.0457837023f, 0.0429077819f, 0.0083865849f, 0.0479660071f},
      {0.0266319662f, -0.0457837023f, 0.0377913974f, 0.0377913974f, -0.0152182598f},
      {-0.0457837023f, -0.0152182598f, -0.0457837023f, 0.0083865849f, 0.0377913974f},
      {0.0323541909f, 0.0429077819f, 0.0023533844f, -0.0259119384f, -0.0206631236f}
    },
    {
      {0.0207029078f, -0.0361691378f, -0.0457837023f, -0.0206631236f, 0.0207029078f},
      {0.0323541909f, -0.0259119384f, 0.0083865849f, 0.0323541909f, 0.0323541909f},
      {-0.0259119384f, 0.0377913974f, -0.0505010560f, -0.0259119384f, 0.0266319662f},
      {0.0145718670f, -0.0206631236f, 0.0479660071f, -0.0310912579f, 0.0145718670f},
      {0.0429077819f, -0.0095747309f, -0.0259119384f, 0.0266319662f, 0.0266319662f}
    },
    {
      {0.0145718670f, 0.0207029078f, -0.0505010560f, 0.0429077819f, -0.0152182598f},
      {0.0023533844f, 0.0145718670f, -0.0505010560f, 0.0323541909f, 0.0083865849f},
      {-0.0361691378f, -0.0095747309f, -0.0036800883f, -0.0036800883f, 0.0377913974f},
      {-0.0259119384f, 0.0145718670f, 0.0266319662f, -0.0152182598f, 0.0207029078f},
      {-0.0259119384f, 0.0145718670f, 0.0429077819f, 0.0266319662f, -0.0409766622f}
    },
    {
      {0.0323541909f, 0.0377913974f, -0.0310912579f, -0.0310912579f, -0.0457837023f},
      {0.0083865849f, -0.0259119384f, -0.0152182598f, 0.0429077819f, -0.0457837023f},
      {0.0266319662f, 0.0377913974f, -0.0361691378f, -0.0457837023f, -0.0206631236f},
      {-0.0152182598f, -0.0457837023f, -0.0310912579f, -0.0310912579f, 0.0479660071f},
      {-0.0152182598f, 0.0323541909f, -0.0036800883f, -0.0152182598f, -0.0152182598f}
    },
    {
      {-0.0259119384f, -0.0036800883f, 0.0429077819f, 0.0023533844f, -0.0310912579f},
      {-0.0095747309f, -0.0310912579f, -0.0457837023f, -0.0206631236f, -0.0310912579f},
      {-0.0310912579f, -0.0259119384f, 0.0266319662f, 0.0429077819f, 0.0323541909f},
      {-0.0361691378f, -0.0259119384f, -0.0152182598f, -0.0206631236f, 0.0266319662f},
      {-0.0095747309f, -0.0457837023f, 0.0266319662f, -0.0409766622f, -0.0152182598f}
    },
    {
      {0.0145718670f, -0.0152182598f, 0.0429077819f, 0.0266319662f, 0.0377913974f},
      {-0.0036800883f, -0.0095747309f, -0.0152182598f, 0.0266319662f, -0.0152182598f},
      {0.0323541909f, -0.0457837023f, -0.0361691378f, -0.0036800883f, -0.0361691378f},
      {-0.0457837023f, -0.0152182598f, -0.0259119384f, -0.0457837023f, -0.0505010560f},
      {0.0207029078f, 0.0145718670f, -0.0361691378f, -0.0095747309f, -0.0361691378f}
    },
    {
      {-0.0036800883f, 0.0479660071f, -0.0206631236f, 0.0023533844f, -0.0457837023f},
      {0.0083865849f, -0.0036800883f, 0.0207029078f, -0.0206631236f, -0.0095747309f},
      {0.0323541909f, 0.0479660071f, -0.0409766622f, 0.0429077819f, 0.0266319662f},
      {0.0023533844f, 0.0023533844f, -0.0206631236f, -0.0259119384f, -0.0409766622f},
      {0.0266319662f, 0.0207029078f, -0.0036800883f, 0.0207029078f, 0.0377913974f}
    },
    {
      {-0.0259119384f, 0.0145718670f, -0.0206631236f, -0.0152182598f, 0.0266319662f},
      {0.0377913974f, 0.0207029078f, 0.0145718670f, -0.0409766622f, 0.0083865849f},
      {0.0145718670f, 0.0266319662f, 0.0145718670f, 0.0323541909f, -0.0505010560f},
      {0.0266319662f, -0.0409766622f, -0.0152182598f, 0.0429077819f, -0.0152182598f},
      {-0.0505010560f, -0.0310912579f, 0.0207029078f, -0.0457837023f, 0.0083865849f}
    },
    {
      {-0.0206631236f, -0.0457837023f, 0.0377913974f, 0.0429077819f, 0.0377913974f},
      {-0.0310912579f, 0.0145718670f, 0.0266319662f, 0.0023533844f, -0.0036800883f},
      {-0.0152182598f, -0.0505010560f, -0.0505010560f, -0.0095747309f, 0.0323541909f},
      {-0.0310912579f, 0.0266319662f, -0.0259119384f, -0.0095747309f, 0.0479660071f},
      {0.0429077819f, -0.0409766622f, 0.0323541909f, -0.0310912579f, -0.0409766622f}
    },
    {
      {-0.0505010560f, 0.0266319662f, -0.0095747309f, -0.0310912579f, -0.0206631236f},
      {-0.0409766622f, 0.0207029078f, -0.0095747309f, -0.0361691378f, -0.0310912579f},
      {0.0479660071f, 0.0023533844f, -0.0505010560f, -0.0361691378f, -0.0457837023f},
      {0.0323541909f, 0.0145718670f, 0.0323541909f, 0.0479660071f, 0.0377913974f},
      {0.0145718670f, 0.0479660071f, -0.0259119384f, 0.0323541909f, -0.0310912579f}
    },
  },
  {
    {
      {0.0429077819f, -0.0310912579f, -0.0152182598f, -0.0505010560f, 0.0207029078f},
      {0.0479660071f, 0.0207029078f, -0.0361691378f, 0.0023533844f, -0.0568323173f},
      {0.0377913974f, 0.0657936484f, -0.0310912579f, -0.0568323173f, -0.0206631236f},
      {-0.0036800883f, 0.0780827329f, 0.0377913974f, -0.0259119384f, 0.0323541909f},
      {-0.0036800883f, -0.0206631236f, -0.0206631236f, -0.0206631236f, 0.0207029078f}
    },
    {
      {-0.0409766622f, -0.0206631236f, -0.0036800883f, -0.0206631236f, -0.0568323173f},
      {0.0083865849f, 0.0323541909f, 0.0083865849f, -0.0095747309f, 0.0266319662f},
      {0.0377913974f, 0.0597191826f, -0.0409766622f, 0.0323541909f, -0.0259119384f},
      {0.0207029078f, -0.0152182598f, 0.0537182502f, 0.0145718670f, -0.0206631236f},
      {-0.0457837023f, 0.0537182502f, 0.0429077819f, 0.0145718670f, 0.0537182502f}
    },
    {
      {-0.0409766622f, -0.0036800883f, 0.0023533844f, 0.0377913974f, -0.0457837023f},
      {0.0207029078f, -0.0310912579f, 0.0479660071f, 0.0537182502f, 0.0207029078f},
      {-0.0259119384f, -0.0206631236f, -0.0409766622f, 0.0479660071f, 0.0377913974f},
      {-0.0457837023f, 0.0083865849f, 0.0145718670f, -0.0310912579f, 0.0266319662f},
      {0.0429077819f, 0.0479660071f, 0.0377913974f, 0.0537182502f, -0.0310912579f}
    },
    {
      {-0.0457837023f, -0.0206631236f, -0.0206631236f, 0.0377913974f, 0.0083865849f},
      {-0.0206631236f, 0.0145718670f, 0.0145718670f, 0.0083865849f, 0.0145718670f},
      {-0.0259119384f, 0.0323541909f, -0.0361691378f, 0.0023533844f, -0.0206631236f},
      {-0.0361691378f, 0.0207029078f, 0.0266319662f, -0.0457837023f, -0.0036800883f},
      {-0.0036800883f, -0.0152182598f, -0.0206631236f, 0.0145718670f, 0.0479660071f}
    },
    {
      {-0.0310912579f, 0.0377913974f, 0.0145718670f, 0.0207029078f, 0.0323541909f},
      {-0.0206631236f, 0.0266319662f, 0.0479660071f, 0.0207029078f, -0.0505010560f},
      {-0.0310912579f, -0.0409766622f, 0.0266319662f, -0.0036800883f, -0.0036800883f},
      {0.0083865849f, -0.0310912579f, -0.0505010560f, -0.0361691378f, 0.0207029078f},
      {0.0207029078f, 0.0023533844f, 0.0145718670f, -0.0152182598f, 0.0145718670f}
    },
    {
      {0.0429077819f, 0.0780827329f, 0.0915452391f, 0.0083865849f, 0.0083865849f},
      {0.0023533844f, -0.0457837023f, -0.0095747309f, -0.0095747309f, -0.0505010560f},
      {0.0145718670f, -0.0568323173f, 0.0083865849f, -0.0361691378f, -0.0310912579f},
      {0.0323541909f, 0.0429077819f, 0.0145718670f, 0.0323541909f, 0.0145718670f},
      {-0.0310912579f, 0.0479660071f, -0.0206631236f, 0.0597191826f, -0.0152182598f}
    },
    {
      {0.0145718670f, -0.0206631236f, 0.0537182502f, 0.0429077819f, 0.0083865849f},
      {-0.0152182598f, 0.0429077819f, 0.0266319662f, -0.0095747309f, -0.0036800883f},
      {0.0083865849f, -0.0633588657f, 0.0537182502f, 0.0377913974f, 0.0083865849f},
      {-0.0409766622f, 0.0377913974f, 0.0145718670f, 0.0145718670f, 0.0377913974f},
      {0.0323541909f, 0.0207029078f, 0.0323541909f, 0.0429077819f, -0.0361691378f}
    },
    {
      {0.0266319662f, -0.0259119384f, -0.0568323173f, 0.0145718670f, 0.0323541909f},
      {-0.0206631236f, -0.0845848396f, -0.1140288413f, -0.0409766622f, -0.0361691378f},
      {-0.0568323173f, 0.0145718670f, -0.0206631236f, -0.0457837023f, -0.0095747309f},
      {0.0657936484f, 0.0083865849f, 0.0780827329f, 0.0479660071f, 0.0083865849f},
      {-0.0036800883f, -0.0259119384f, -0.0036800883f, 0.0780827329f, 0.1466142535f}
    },
    {
      {-0.0361691378f, -0.0703812465f, 0.0323541909f, -0.0095747309f, -0.0361691378f},
      {-0.1209447384f, -0.0361691378f, 0.1130934209f, 0.0377913974f, -0.0505010560f},
      {-0.0703812465f, -0.0036800883f, -0.0568323173f, 0.0780827329f, -0.0457837023f},
      {-0.0206631236f, -0.0310912579f, 0.0023533844f, 0.0145718670f, 0.0266319662f},
      {-0.0409766622f, -0.0095747309f, 0.0023533844f, 0.0023533844f, 0.0429077819f}
    },
    {
      {0.0377913974f, 0.0377913974f, -0.0703812465f, 0.0429077819f, -0.0095747309f},
      {0.0537182502f, 0.0479660071f, 0.0207029078f, 0.0207029078f, 0.0083865849f},
      {0.0207029078f, 0.0323541909f, 0.0023533844f, -0.0361691378f, 0.0429077819f},
      {-0.0259119384f, -0.0206631236f, 0.0083865849f, -0.0457837023f, 0.0479660071f},
      {-0.0409766622f, -0.0457837023f, -0.0457837023f, 0.0479660071f, 0.0023533844f}
    },
    {
      {0.0083865849f, 0.0429077819f, 0.0720167682f, -0.0310912579f, 0.0207029078f},
      {-0.0409766622f, 0.0377913974f, -0.0095747309f, 0.0377913974f, -0.0505010560f},
      {0.0266319662f, 0.0323541909f, -0.0361691378f, -0.0633588657f, 0.0023533844f},
      {0.0266319662f, -0.0409766622f, 0.0207029078f, 0.0323541909f, -0.0457837023f},
      {0.0597191826f, 0.0023533844f, -0.0036800883f, 0.0537182502f, -0.0036800883f}
    },
    {
      {0.0266319662f, 0.0023533844f, -0.0775280371f, 0.0377913974f, 0.0597191826f},
      {-0.0095747309f, -0.0409766622f, -0.0095747309f, 0.0023533844f, -0.0152182598f},
      {-0.0361691378f, -0.0152182598f, -0.0568323173f, -0.0775280371f, 0.0145718670f},
      {0.0780827329f, 0.0597191826f, -0.0633588657f, 0.0720167682f, 0.0145718670f},
      {0.0597191826f, 0.0145718670f, 0.0780827329f, -0.0361691378f, -0.0361691378f}
    },
    {
      {0.0145718670f, 0.0429077819f, -0.0505010560f, -0.0845848396f, -0.0310912579f},
      {0.0657936484f, -0.0036800883f, -0.0457837023f, -0.0036800883f, -0.0845848396f},
      {0.0479660071f, -0.0916960910f, 0.0846585333f, 0.1046285257f, 0.0597191826f},
      {-0.0152182598f, 0.0479660071f, 0.0479660071f, 0.0597191826f, 0.0597191826f},
      {-0.0457837023f, 0.0083865849f, -0.0361691378f, -0.0206631236f, 0.0537182502f}
    },
    {
      {0.0597191826f, 0.0323541909f, 0.0479660071f, 0.0145718670f, -0.0259119384f},
      {0.0323541909f, 0.0780827329f, -0.0206631236f, 0.0780827329f, -0.0633588657f},
      {-0.0036800883f, 0.0145718670f, 0.0915452391f, -0.0152182598f, -0.0036800883f},
      {0.0780827329f, 0.0537182502f, 0.0023533844f, 0.0429077819f, 0.0429077819f},
      {-0.0361691378f, 0.0266319662f, 0.0266319662f, -0.0036800883f, 0.0266319662f}
    },
    {
      {0.0266319662f, -0.0206631236f, -0.0036800883f, -0.0775280371f, 0.0083865849f},
      {-0.0036800883f, 0.0207029078f, -0.0259119384f, -0.0987659022f, -0.0409766622f},
      {0.0537182502f, -0.0259119384f, 0.0377913974f, 0.0023533844f, -0.0775280371f},
      {0.0846585333f, -0.0259119384f, 0.0023533844f, -0.0036800883f, 0.1046285257f},
      {0.0429077819f, 0.0479660071f, 0.0207029078f, 0.0323541909f, 0.0720167682f}
    },
    {
      {0.0083865849f, 0.0537182502f, 0.0145718670f, 0.0657936484f, 0.0145718670f},
      {-0.0095747309f, 0.0266319662f, -0.0095747309f, 0.0207029078f, -0.0259119384f},
      {0.0429077819f, 0.0145718670f, 0.0377913974f, -0.0095747309f, -0.0310912579f},
      {0.0479660071f, 0.0537182502f, 0.0377913974f, -0.0361691378f, 0.0479660071f},
      {0.0479660071f, -0.0259119384f, 0.0479660071f, -0.0095747309f, -0.0409766622f}
    },
  },
  {
    {
      {0.0479660071f, 0.0023533844f, -0.0259119384f, 0.0207029078f, -0.0361691378f},
      {-0.0095747309f, 0.0145718670f, 0.0323541909f, 0.0023533844f, 0.0323541909f},
      {-0.0361691378f, -0.0206631236f, -0.0095747309f, -0.0310912579f, -0.0152182598f},
      {0.0266319662f, -0.0206631236f, -0.0152182598f, 0.0207029078f, 0.0207029078f},
      {0.0429077819f, 0.0207029078f, -0.0206631236f, -0.0095747309f, 0.0429077819f}
    },
    {
      {-0.0361691378f, -0.0152182598f, -0.0036800883f, 0.0266319662f, -0.0036800883f},
      {0.0145718670f, -0.0036800883f, 0.0323541909f, -0.0310912579f, -0.0036800883f},
      {-0.0036800883f, -0.0361691378f, -0.0036800883f, -0.0457837023f, -0.0152182598f},
      {-0.0036800883f, 0.0023533844f, 0.0145718670f, -0.0505010560f, -0.0259119384f},
      {-0.0036800883f, 0.0266319662f, -0.0409766622f, 0.0597191826f, 0.0429077819f}
    },
    {
      {-0.0095747309f, 0.0145718670f, -0.0152182598f, 0.0023533844f, -0.0152182598f},
      {-0.0259119384f, 0.0023533844f, 0.0429077819f, 0.0479660071f, 0.0323541909f},
      {0.0266319662f, -0.0361691378f, 0.0207029078f, 0.0537182502f, -0.0036800883f},
      {-0.0505010560f, 0.0083865849f, 0.0023533844f, -0.0206631236f, 0.0266319662f},
      {0.0429077819f, -0.0152182598f, 0.0083865849f, 0.0266319662f, -0.0206631236f}
    },
    {
      {-0.0152182598f, -0.0095747309f, 0.0083865849f, -0.0409766622f, 0.0023533844f},
      {-0.0206631236f, 0.0083865849f, 0.0323541909f, 0.0023533844f, 0.0023533844f},
      {0.0377913974f, -0.0505010560f, -0.0036800883f, 0.0429077819f, -0.0152182598f},
      {0.0323541909f, -0.0152182598f, 0.0083865849f, -0.0036800883f, -0.0259119384f},
      {0.0377913974f, 0.0083865849f, 0.0083865849f, -0.0036800883f, -0.0206631236f}
    },
    {
      {0.0266319662f, 0.0479660071f, 0.0429077819f, -0.0036800883f, 0.0323541909f},
      {-0.0409766622f, 0.0266319662f, 0.0083865849f, 0.0377913974f, -0.0505010560f},
      {0.0377913974f, -0.0259119384f, -0.0206631236f, 0.0377913974f, 0.0323541909f},
      {0.0023533844f, -0.0361691378f, 0.0323541909f, -0.0036800883f, 0.0479660071f},
      {0.0023533844f, 0.0266319662f, 0.0377913974f, -0.0206631236f, 0.0145718670f}
    },
    {
      {0.0023533844f, 0.0083865849f, 0.0145718670f, -0.0505010560f, -0.0457837023f},
      {-0.0568323173f, -0.0361691378f, 0.0207029078f, -0.0095747309f, -0.0259119384f},
      {-0.0036800883f, 0.0083865849f, -0.0152182598f, -0.0310912579f, 0.0537182502f},
      {-0.0457837023f, -0.0206631236f, 0.0207029078f, 0.0207029078f, 0.0145718670f},
      {0.0145718670f, -0.0310912579f, 0.0479660071f, 0.0266319662f, 0.0429077819f}
    },
    {
      {-0.0036800883f, 0.0479660071f, -0.0310912579f, 0.0145718670f, -0.0361691378f},
      {-0.0206631236f, 0.0023533844f, 0.0207029078f, -0.0361691378f, 0.0207029078f},
      {-0.0310912579f, -0.0259119384f, -0.0775280371f, 0.0023533844f, -0.0036800883f},
      {-0.0457837023f, 0.0023533844f, -0.0568323173f, -0.0152182598f, -0.0095747309f},
      {0.0083865849f, 0.0145718670f, 0.0266319662f, -0.0206631236f, -0.0152182598f}
    },
    {
      {-0.0310912579f, -0.0361691378f, -0.0457837023f, -0.0457837023f, -0.0361691378f},
      {0.0537182502f, 0.0597191826f, -0.0152182598f, -0.0361691378f, -0.0095747309f},
      {0.0429077819f, -0.0152182598f, -0.0095747309f, -0.0568323173f, -0.0036800883f},
      {0.0023533844f, 0.0145718670f, 0.0145718670f, 0.0537182502f, -0.0259119384f},
      {0.0323541909f, 0.0207029078f, -0.0152182598f, 0.0323541909f, 0.0207029078f}
    },
    {
      {0.0266319662f, 0.0145718670f, -0.0568323173f, -0.0259119384f, -0.0457837023f},
      {-0.0259119384f, -0.0095747309f, -0.0036800883f, -0.0361691378f, -0.0505010560f},
      {0.0207029078f, 0.0597191826f, 0.0479660071f, -0.0206631236f, 0.0266319662f},
      {-0.0457837023f, 0.0377913974f, -0.0568323173f, -0.0775280371f, 0.0597191826f},
      {0.0145718670f, -0.0206631236f, -0.0775280371f, -0.0259119384f, 0.0479660071f}
    },
    {
      {-0.0310912579f, 0.0207029078f, -0.0409766622f, 0.0083865849f, 0.0207029078f},
      {-0.0259119384f, -0.0259119384f, 0.0323541909f, 0.0429077819f, 0.0207029078f},
      {-0.0095747309f, -0.0361691378f, -0.0568323173f, -0.0259119384f, -0.0152182598f},
      {0.0479660071f, 0.0657936484f, 0.0323541909f, 0.0207029078f, -0.0361691378f},
      {0.0323541909f, 0.0429077819f, -0.0310912579f, 0.0145718670f, -0.0310912579f}
    },
    {
      {-0.0259119384f, 0.0657936484f, -0.0361691378f, 0.0207029078f, 0.0145718670f},
      {0.0377913974f, -0.0152182598f, 0.0597191826f, 0.0145718670f, 0.0207029078f},
      {-0.0206631236f, 0.0207029078f, 0.0323541909f, 0.0145718670f, -0.0152182598f},
      {-0.0036800883f, 0.0323541909f, 0.0377913974f, -0.0310912579f, -0.0206631236f},
      {-0.0409766622f, 0.0083865849f, 0.0323541909f, -0.0036800883f, 0.0429077819f}
    },
    {
      {0.0083865849f, 0.0479660071f, 0.0323541909f, -0.0845848396f, -0.0095747309f},
      {-0.0152182598f, -0.0361691378f, 0.0537182502f, -0.0152182598f, -0.0361691378f},
      {0.0266319662f, -0.0152182598f, -0.0152182598f, 0.0780827329f, -0.0152182598f},
      {-0.0152182598f, -0.0259119384f, 0.0145718670f, 0.0429077819f, -0.0206631236f},
      {0.0377913974f, 0.0023533844f, -0.0206631236f, -0.0916960910f, 0.0083865849f}
    },
    {
      {0.0083865849f, -0.0036800883f, 0.0657936484f, 0.0145718670f, -0.0409766622f},
      {0.0207029078f, -0.0505010560f, 0.0145718670f, -0.0152182598f, -0.0409766622f},
      {-0.0152182598f, 0.0023533844f, 0.0083865849f, -0.0152182598f, 0.0207029078f},
      {-0.0036800883f, -0.0095747309f, 0.0377913974f, 0.0145718670f, 0.0207029078f},
      {-0.0259119384f, 0.0145718670f, 0.0207029078f, 0.0377913974f, -0.0310912579f}
    },
    {
      {-0.0036800883f, -0.0457837023f, 0.0323541909f, -0.0310912579f, -0.0310912579f},
      {-0.0259119384f, -0.0095747309f, 0.0207029078f, -0.0409766622f, -0.0036800883f},
      {0.0377913974f, 0.0207029078f, -0.0310912579f, -0.0095747309f, 0.0266319662f},
      {0.0323541909f, 0.0429077819f, 0.0597191826f, 0.0323541909f, 0.0145718670f},
      {0.0207029078f, 0.0083865849f, -0.0409766622f, 0.0023533844f, 0.0537182502f}
    },
    {
      {0.0597191826f, 0.0145718670f, -0.0152182598f, -0.0206631236f, -0.0457837023f},
      {0.0377913974f, 0.0720167682f, 0.0083865849f, 0.0207029078f, -0.0361691378f},
      {-0.0361691378f, 0.0145718670f, 0.0207029078f, 0.0083865849f, -0.0568323173f},
      {-0.0361691378f, -0.0259119384f, -0.0036800883f, 0.0657936484f, 0.0266319662f},
      {-0.0361691378f, -0.0206631236f, -0.0457837023f, 0.0720167682f, -0.0310912579f}
    },
    {
      {-0.0095747309f, 0.0083865849f, 0.0145718670f, 0.0023533844f, 0.0145718670f},
      {0.0537182502f, -0.0152182598f, 0.0145718670f, -0.0310912579f, 0.0479660071f},
      {0.0145718670f, 0.0323541909f, -0.0206631236f, 0.0377913974f, 0.0083865849f},
      {-0.0409766622f, -0.0310912579f, -0.0361691378f, -0.0259119384f, 0.0083865849f},
      {-0.0152182598f, -0.0568323173f, -0.0568323173f, 0.0323541909f, 0.0429077819f}
    },
  },
  {
    {
      {0.0429077819f, -0.0036800883f, 0.0023533844f, 0.0145718670f, -0.0036800883f},
      {0.0323541909f, 0.0207029078f, -0.0568323173f, 0.0266319662f, 0.0207029078f},
      {-0.0095747309f, 0.0429077819f, 0.0023533844f, -0.0457837023f, 0.0323541909f},
      {0.0207029078f, 0.0780827329f, 0.0083865849f, 0.0323541909f, -0.0036800883f},
      {0.0377913974f, -0.0036800883f, -0.0568323173f, -0.0095747309f, 0.0266319662f}
    },
    {
      {0.0083865849f, -0.0152182598f, -0.0505010560f, -0.0361691378f, -0.0310912579f},
      {0.0207029078f, -0.0457837023f, 0.0145718670f, 0.0266319662f, 0.0207029078f},
      {-0.0457837023f, 0.0377913974f, 0.0377913974f, -0.0457837023f, 0.0537182502f},
      {-0.0095747309f, -0.0457837023f, 0.0145718670f, -0.0310912579f, 0.0023533844f},
      {-0.0095747309f, 0.0207029078f, -0.0310912579f, -0.0036800883f, -0.0152182598f}
    },
    {
      {-0.0409766622f, 0.0023533844f, -0.0206631236f, -0.0206631236f, -0.0036800883f},
      {-0.0310912579f, 0.0207029078f, -0.0409766622f, 0.0323541909f, 0.0377913974f},
      {-0.0095747309f, -0.0206631236f, -0.0361691378f, -0.0152182598f, 0.0266319662f},
      {0.0537182502f, 0.0083865849f, -0.0152182598f, 0.0377913974f, 0.0377913974f},
      {0.0479660071f, 0.0083865849f, 0.0266319662f, -0.0095747309f, -0.0036800883f}
    },
    {
      {0.0083865849f, 0.0323541909f, 0.0083865849f, -0.0505010560f, 0.0266319662f},
      {0.0207029078f, 0.0323541909f, -0.0457837023f, -0.0310912579f, -0.0457837023f},
      {-0.0361691378f, -0.0361691378f, 0.0429077819f, 0.0023533844f, 0.0083865849f},
      {-0.0036800883f, 0.0207029078f, 0.0377913974f, 0.0023533844f, 0.0023533844f},
      {-0.0095747309f, 0.0145718670f, 0.0429077819f, 0.0145718670f, -0.0457837023f}
    },
    {
      {0.0266319662f, -0.0361691378f, 0.0479660071f, 0.0207029078f, 0.0083865849f},
      {-0.0152182598f, 0.0145718670f, 0.0207029078f, 0.0023533844f, -0.0409766622f},
      {0.0083865849f, 0.0323541909f, -0.0152182598f, -0.0310912579f, -0.0259119384f},
      {-0.0409766622f, -0.0095747309f, -0.0361691378f, 0.0083865849f, 0.0323541909f},
      {-0.0310912579f, 0.0377913974f, -0.0152182598f, 0.0145718670f, 0.0479660071f}
    },
    {
      {-0.0036800883f, -0.0361691378f, 0.0207029078f, -0.0095747309f, 0.0479660071f},
      {0.0207029078f, 0.0207029078f, -0.0095747309f, 0.0207029078f, 0.0266319662f},
      {-0.0206631236f, 0.0479660071f, 0.0023533844f, -0.0095747309f, 0.0537182502f},
      {0.0083865849f, 0.0145718670f, -0.0206631236f, 0.0377913974f, -0.0095747309f},
      {-0.0568323173f, 0.0083865849f, 0.0145718670f, 0.0479660071f, 0.0377913974f}
    },
    {
      {0.0083865849f, -0.0036800883f, 0.0377913974f, -0.0206631236f, -0.0095747309f},
      {0.0720167682f, -0.0036800883f, -0.0310912579f, -0.0457837023f, -0.0633588657f},
      {-0.0633588657f, 0.0083865849f, 0.0266319662f, -0.0152182598f, 0.0023533844f},
      {0.0207029078f, -0.0457837023f, 0.0207029078f, -0.0206631236f, 0.0266319662f},
      {0.0377913974f, -0.0259119384f, -0.0206631236f, -0.0505010560f, 0.0323541909f}
    },
    {
      {-0.0259119384f, -0.0633588657f, 0.0323541909f, 0.0479660071f, -0.0206631236f},
      {0.0537182502f, -0.0633588657f, -0.0845848396f, -0.0310912579f, -0.0916960910f},
      {-0.0152182598f, 0.0266319662f, -0.0152182598f, 0.0266319662f, -0.0409766622f},
      {0.0377913974f, 0.0597191826f, 0.0780827329f, 0.0597191826f, 0.0537182502f},
      {-0.0095747309f, -0.0152182598f, 0.0083865849f, -0.0095747309f, 0.0537182502f}
    },
    {
      {0.0023533844f, -0.0310912579f, 0.0323541909f, -0.0036800883f, 0.0023533844f},
      {-0.0152182598f, 0.0597191826f, -0.0259119384f, 0.0207029078f, -0.0505010560f},
      {0.0429077819f, 0.0023533844f, -0.0505010560f, 0.0145718670f, -0.0259119384f},
      {0.0023533844f, -0.0409766622f, -0.0095747309f, 0.0479660071f, -0.0152182598f},
      {0.0207029078f, 0.0597191826f, 0.0083865849f, 0.0597191826f, 0.0429077819f}
    },
    {
      {0.0145718670f, -0.0095747309f, -0.0568323173f, 0.0207029078f, 0.0207029078f},
      {-0.0036800883f, -0.0703812465f, -0.0568323173f, -0.0457837023f, 0.0323541909f},
      {-0.0206631236f, 0.0537182502f, -0.0361691378f, 0.0323541909f, -0.0095747309f},
      {0.0083865849f, 0.0207029078f, 0.0145718670f, 0.0023533844f, -0.0152182598f},
      {0.0083865849f, -0.0259119384f, 0.0083865849f, -0.0409766622f, 0.0266319662f}
    },
    {
      {-0.0095747309f, -0.0409766622f, 0.0023533844f, -0.0259119384f, 0.0207029078f},
      {0.0597191826f, 0.0207029078f, -0.0568323173f, 0.0479660071f, -0.0152182598f},
      {0.0266319662f, -0.0361691378f, -0.0568323173f, -0.0633588657f, 0.0023533844f},
      {-0.0310912579f, -0.0409766622f, 0.0780827329f, 0.0537182502f, 0.0479660071f},
      {-0.0259119384f, -0.0310912579f, 0.0145718670f, 0.0083865849f, 0.0377913974f}
    },
    {
      {0.0266319662f, 0.0266319662f, 0.0145718670f, 0.0023533844f, 0.0207029078f},
      {0.0266319662f, 0.0377913974f, -0.0036800883f, 0.0083865849f, 0.0323541909f},
      {-0.0409766622f, -0.0095747309f, -0.0505010560f, -0.0361691378f, 0.0323541909f},
      {-0.0457837023f, 0.0145718670f, 0.0023533844f, 0.0597191826f, -0.0206631236f},
      {0.0377913974f, -0.0409766622f, 0.0323541909f, 0.0429077819f, 0.0597191826f}
    },
    {
      {-0.0036800883f, 0.0083865849f, 0.0207029078f, -0.0505010560f, -0.0206631236f},
      {-0.0206631236f, -0.0505010560f, -0.0845848396f, -0.0152182598f, -0.0259119384f},
      {-0.0036800883f, 0.0083865849f, 0.0780827329f, 0.0266319662f, 0.0207029078f},
      {0.0597191826f, -0.0259119384f, -0.0310912579f, -0.0036800883f, 0.0323541909f},
      {0.0323541909f, 0.0429077819f, 0.0323541909f, -0.0036800883f, 0.0429077819f}
    },
    {
      {0.0537182502f, -0.0036800883f, 0.0083865849f, -0.0206631236f, 0.0023533844f},
      {-0.0259119384f, -0.0095747309f, 0.0023533844f, -0.0703812465f, 0.0207029078f},
      {0.0145718670f, 0.0377913974f, 0.0145718670f, 0.0145718670f, 0.0023533844f},
      {0.0323541909f, -0.0152182598f, 0.0429077819f, 0.0145718670f, 0.0323541909f},
      {-0.0310912579f, 0.0323541909f, -0.0409766622f, -0.0036800883f, 0.0597191826f}
    },
    {
      {0.0377913974f, 0.0083865849f, -0.0036800883f, 0.0780827329f, 0.0377913974f},
      {0.0377913974f, 0.0479660071f, -0.0095747309f, -0.0568323173f, -0.0095747309f},
      {-0.0036800883f, 0.0915452391f, 0.0537182502f, 0.0145718670f, 0.0323541909f},
      {0.0377913974f, 0.0597191826f, 0.0145718670f, 0.0145718670f, 0.0023533844f},
      {-0.0095747309f, 0.0207029078f, -0.0310912579f, -0.0152182598f, -0.0095747309f}
    },
    {
      {-0.0409766622f, 0.0083865849f, 0.0145718670f, -0.0259119384f, 0.0207029078f},
      {-0.0095747309f, -0.0310912579f, -0.0095747309f, -0.0505010560f, 0.0429077819f},
      {0.0145718670f, -0.0152182598f, 0.0083865849f, 0.0266319662f, -0.0505010560f},
      {-0.0259119384f, 0.0023533844f, -0.0259119384f, -0.0095747309f, -0.0152182598f},
      {-0.0361691378f, 0.0083865849f, 0.0377913974f, 0.0266319662f, 0.0266319662f}
    },
  },
  {
    {
      {0.0266319662f, 0.0083865849f, 0.0323541909f, -0.0505010560f, 0.0207029078f},
      {0.0023533844f, -0.0409766622f, 0.0083865849f, 0.0145718670f, 0.0145718670f},
      {-0.0568323173f, 0.0145718670f, -0.0505010560f, -0.0036800883f, -0.0036800883f},
      {-0.0310912579f, 0.0597191826f, 0.0597191826f, -0.0310912579f, -0.0259119384f},
      {0.0429077819f, -0.0206631236f, -0.0259119384f, 0.0323541909f, 0.0145718670f}
    },
    {
      {0.0429077819f, -0.0775280371f, -0.0633588657f, -0.0568323173f, -0.0095747309f},
      {-0.0206631236f, 0.0720167682f, 0.0537182502f, -0.0310912579f, 0.0023533844f},
      {-0.0095747309f, -0.0259119384f, 0.0323541909f, 0.0083865849f, -0.0152182598f},
      {0.0023533844f, -0.0152182598f, 0.0023533844f, 0.0266319662f, -0.0361691378f},
      {0.0207029078f, 0.0266319662f, -0.0409766622f, -0.0259119384f, 0.0023533844f}
    },
    {
      {-0.0310912579f, 0.0479660071f, 0.0083865849f, -0.0206631236f, -0.0457837023f},
      {0.0207029078f, 0.0266319662f, -0.0568323173f, -0.0457837023f, 0.0145718670f},
      {-0.0409766622f, -0.0505010560f, 0.0145718670f, -0.0152182598f, -0.0152182598f},
      {-0.0095747309f, -0.0310912579f, -0.0568323173f, -0.0036800883f, 0.0145718670f},
      {0.0266319662f, 0.0023533844f, -0.0361691378f, -0.0457837023f, 0.0323541909f}
    },
    {
      {0.0323541909f, 0.0377913974f, 0.0377913974f, -0.0036800883f, 0.0479660071f},
      {0.0323541909f, 0.0023533844f, -0.0409766622f, 0.0145718670f, 0.0145718670f},
      {0.0266319662f, -0.0036800883f, -0.0036800883f, 0.0207029078f, -0.0457837023f},
      {-0.0095747309f, -0.0361691378f, -0.0409766622f, -0.0095747309f, 0.0083865849f},
      {-0.0310912579f, 0.0377913974f, 0.0429077819f, 0.0145718670f, 0.0377913974f}
    },
    {
      {-0.0310912579f, -0.0409766622f, -0.0310912579f, -0.0361691378f, -0.0409766622f},
      {-0.0095747309f, 0.0429077819f, -0.0036800883f, 0.0207029078f, -0.0361691378f},
      {-0.0361691378f, 0.0377913974f, 0.0083865849f, 0.0429077819f, -0.0310912579f},
      {-0.0036800883f, 0.0207029078f, -0.0505010560f, 0.0145718670f, 0.0479660071f},
      {0.0479660071f, -0.0095747309f, 0.0429077819f, 0.0429077819f, 0.0207029078f}
    },
    {
      {0.0266319662f, -0.0505010560f, 0.0207029078f, -0.0036800883f, -0.0259119384f},
      {0.0377913974f, 0.0023533844f, -0.0457837023f, -0.0259119384f, 0.0323541909f},
      {0.0145718670f, -0.0259119384f, 0.0323541909f, 0.0266319662f, 0.0145718670f},
      {-0.0152182598f, 0.0377913974f, -0.0152182598f, 0.0207029078f, -0.0206631236f},
      {0.0479660071f, -0.0036800883f, -0.0152182598f, -0.0505010560f, 0.0207029078f}
    },
    {
      {-0.0409766622f, -0.0703812465f, 0.0597191826f, -0.0259119384f, 0.0145718670f},
      {0.0377913974f, 0.0145718670f, -0.0206631236f, 0.0023533844f, -0.0036800883f},
      {0.0429077819f, 0.0479660071f, 0.0657936484f, -0.0152182598f, 0.0597191826f},
      {0.0207029078f, -0.0457837023f, -0.0633588657f, 0.0597191826f, 0.0145718670f},
      {0.0023533844f, -0.0036800883f, 0.0597191826f, 0.0145718670f, -0.0152182598f}
    },
    {
      {0.0323541909f, 0.0083865849f, 0.0846585333f, 0.0323541909f, 0.0537182502f},
      {-0.0036800883f, -0.0361691378f, -0.0457837023f, 0.0915452391f, -0.0505010560f},
      {-0.0036800883f, -0.0036800883f, 0.0323541909f, 0.0083865849f, 0.0323541909f},
      {-0.0095747309f, -0.0310912579f, 0.0780827329f, 0.0083865849f, -0.0036800883f},
      {-0.0310912579f, -0.0505010560f, -0.0457837023f, 0.0429077819f, 0.0429077819f}
    },
    {
      {-0.0206631236f, -0.0633588657f, -0.0095747309f, 0.0597191826f, -0.0505010560f},
      {0.0207029078f, -0.0152182598f, -0.0095747309f, -0.0036800883f, -0.0152182598f},
      {0.0323541909f, 0.0537182502f, 0.0023533844f, -0.0095747309f, 0.0207029078f},
      {0.0479660071f, 0.0023533844f, -0.0457837023f, 0.0846585333f, 0.0207029078f},
      {-0.0361691378f, -0.0152182598f, 0.0083865849f, 0.0479660071f, -0.0095747309f}
    },
    {
      {-0.0095747309f, 0.0429077819f, 0.0145718670f, -0.0152182598f, -0.0310912579f},
      {-0.0310912579f, -0.0259119384f, 0.0377913974f, 0.0023533844f, 0.0537182502f},
      {0.0266319662f, 0.0207029078f, -0.0409766622f, 0.0083865849f, -0.0259119384f},
      {-0.0310912579f, -0.0409766622f, 0.0377913974f, 0.0266319662f, 0.0083865849f},
      {-0.0036800883f, -0.0206631236f, 0.0083865849f, 0.0083865849f, 0.0377913974f}
    },
    {
      {0.0083865849f, -0.0633588657f, 0.0429077819f, 0.0207029078f, -0.0409766622f},
      {0.0323541909f, -0.0259119384f, -0.0457837023f, -0.0310912579f, -0.0505010560f},
      {-0.0206631236f, -0.0409766622f, -0.0361691378f, 0.0145718670f, 0.0429077819f},
      {-0.0505010560f, 0.0145718670f, -0.0457837023f, 0.0597191826f, 0.0023533844f},
      {0.0023533844f, 0.0266319662f, 0.0207029078f, 0.0207029078f, 0.0023533844f}
    },
    {
      {-0.0457837023f, 0.0083865849f, -0.0361691378f, 0.0145718670f, 0.1293252707f},
      {-0.0095747309f, 0.0657936484f, -0.0568323173f, -0.0409766622f, -0.0036800883f},
      {-0.0361691378f, 0.0323541909f, -0.0568323173f, -0.0916960910f, -0.0095747309f},
      {0.0720167682f, 0.0207029078f, 0.1046285257f, -0.0206631236f, 0.0083865849f},
      {0.0083865849f, -0.0310912579f, 0.0083865849f, -0.0036800883f, 0.0780827329f}
    },
    {
      {-0.0152182598f, 0.0023533844f, 0.0266319662f, 0.0023533844f, -0.0152182598f},
      {0.0145718670f, 0.0266319662f, -0.0505010560f, -0.0568323173f, -0.0409766622f},
      {0.0597191826f, 0.0207029078f, 0.0377913974f, 0.0377913974f, 0.0377913974f},
      {-0.0409766622f, 0.0377913974f, 0.0083865849f, -0.0259119384f, 0.0597191826f},
      {-0.0505010560f, -0.0095747309f, 0.0145718670f, 0.0145718670f, 0.0145718670f}
    },
    {
      {0.0323541909f, 0.0429077819f, 0.0429077819f, 0.0720167682f, 0.0537182502f},
      {-0.0361691378f, 0.0083865849f, 0.0083865849f, -0.0152182598f, -0.0633588657f},
      {-0.0206631236f, -0.0036800883f, 0.0323541909f, -0.0310912579f, -0.0361691378f},
      {0.0657936484f, 0.0657936484f, 0.0720167682f, -0.0310912579f, 0.0207029078f},
      {0.0023533844f, 0.0207029078f, -0.0152182598f, 0.0207029078f, 0.0083865849f}
    },
    {
      {-0.0633588657f, -0.0036800883f, 0.0023533844f, 0.0145718670f, -0.0409766622f},
      {-0.0568323173f, -0.0916960910f, -0.0568323173f, -0.0505010560f, -0.0361691378f},
      {0.0266319662f, 0.0207029078f, 0.0083865849f, 0.0720167682f, -0.0206631236f},
      {0.0266319662f, -0.0409766622f, 0.0145718670f, 0.0207029078f, 0.0720167682f},
      {0.0266319662f, -0.0152182598f, -0.0095747309f, -0.0703812465f, -0.0206631236f}
    },
    {
      {-0.0310912579f, -0.0206631236f, -0.0036800883f, -0.0361691378f, 0.0323541909f},
      {-0.0036800883f, -0.0036800883f, 0.0597191826f, 0.0207029078f, -0.0457837023f},
      {-0.0409766622f, -0.0259119384f, 0.0479660071f, 0.0479660071f, -0.0095747309f},
      {0.0083865849f, 0.0145718670f, -0.0095747309f, -0.0152182598f, 0.0429077819f},
      {-0.0259119384f, -0.0206631236f, 0.0377913974f, -0.0310912579f, -0.0259119384f}
    },
  },
  {
    {
      {0.0720167682f, 0.0145718670f, -0.0036800883f, -0.0361691378f, 0.0266319662f},
      {0.0429077819f, 0.0429077819f, -0.0036800883f, 0.0323541909f, -0.0152182598f},
      {-0.0310912579f, 0.0537182502f, 0.0083865849f, -0.0633588657f, -0.0987659022f},
      {0.0597191826f, 0.0846585333f, 0.0657936484f, -0.0259119384f, -0.0095747309f},
      {0.0323541909f, 0.0780827329f, -0.0152182598f, -0.0259119384f, 0.0023533844f}
    },
    {
      {-0.0259119384f, -0.0259119384f, 0.0479660071f, 0.0083865849f, 0.0323541909f},
      {-0.0036800883f, 0.0597191826f, 0.0429077819f, -0.0457837023f, -0.0409766622f},
      {-0.0152182598f, 0.0429077819f, -0.0409766622f, -0.0361691378f, -0.0845848396f},
      {-0.0206631236f, -0.0310912579f, 0.0266319662f, -0.0206631236f, 0.0479660071f},
      {-0.0361691378f, -0.0259119384f, -0.0036800883f, 0.0083865849f, -0.0361691378f}
    },
    {
      {0.0597191826f, 0.0780827329f, 0.0377913974f, -0.0361691378f, -0.0206631236f},
      {-0.0409766622f, -0.0036800883f, 0.0266319662f, -0.0206631236f, -0.0310912579f},
      {-0.0152182598f, -0.0206631236f, 0.0083865849f, -0.0152182598f, -0.0409766622f},
      {0.0377913974f, 0.0266319662f, -0.0310912579f, 0.0023533844f, 0.0083865849f},
      {-0.0310912579f, -0.0206631236f, 0.0429077819f, 0.0083865849f, -0.0409766622f}
    },
    {
      {0.0023533844f, 0.0429077819f, -0.0206631236f, -0.0259119384f, 0.0479660071f},
      {0.0207029078f, -0.0259119384f, 0.0083865849f, -0.0259119384f, -0.0361691378f},
      {-0.0259119384f, 0.0479660071f, 0.0207029078f, -0.0259119384f, 0.0023533844f},
      {-0.0457837023f, 0.0479660071f, 0.0023533844f, 0.0207029078f, 0.0266319662f},
      {-0.0036800883f, 0.0083865849f, -0.0361691378f, -0.0505010560f, -0.0505010560f}
    },
    {
      {0.0429077819f, -0.0206631236f, -0.0505010560f, 0.0145718670f, 0.0323541909f},
      {0.0083865849f, 0.0266319662f, 0.0479660071f, 0.0266319662f, -0.0505010560f},
      {-0.0206631236f, -0.0036800883f, 0.0597191826f, -0.0095747309f, 0.0083865849f},
      {-0.0206631236f, 0.0083865849f, -0.0036800883f, 0.0083865849f, 0.0083865849f},
      {-0.0152182598f, 0.0207029078f, 0.0145718670f, -0.0568323173f, 0.0429077819f}
    },
    {
      {-0.0361691378f, 0.0083865849f, -0.0095747309f, 0.0597191826f, 0.1046285257f},
      {-0.0505010560f, 0.0145718670f, 0.0023533844f, -0.0633588657f, 0.0429077819f},
      {0.0429077819f, -0.0775280371f, 0.0377913974f, -0.0361691378f, -0.0259119384f},
      {0.0537182502f, -0.0036800883f, 0.0023533844f, -0.0457837023f, -0.0206631236f},
      {0.0323541909f, -0.0152182598f, -0.0206631236f, 0.0145718670f, 0.0537182502f}
    },
    {
      {-0.0095747309f, -0.0409766622f, -0.0361691378f, 0.0145718670f, 0.0207029078f},
      {0.0145718670f, -0.0505010560f, -0.0568323173f, 0.0145718670f, 0.0981064811f},
      {-0.0152182598f, -0.0457837023f, -0.0845848396f, 0.0846585333f, 0.0537182502f},
      {0.0083865849f, -0.0036800883f, 0.0023533844f, 0.0266319662f, -0.0409766622f},
      {-0.0095747309f, 0.0537182502f, -0.0505010560f, -0.0206631236f, -0.0568323173f}
    },
    {
      {-0.0409766622f, -0.0505010560f, 0.0023533844f, 0.1374580264f, 0.0597191826f},
      {-0.0505010560f, 0.0429077819f, 0.0323541909f, 0.0657936484f, 0.0479660071f},
      {0.0207029078f, -0.0310912579f, -0.0206631236f, -0.0568323173f, 0.0083865849f},
      {0.0377913974f, -0.0259119384f, 0.0323541909f, -0.0036800883f, 0.0479660071f},
      {0.0377913974f, -0.0095747309f, 0.0145718670f, 0.0207029078f, 0.0023533844f}
    },
    {
      {-0.0568323173f, -0.0409766622f, -0.0775280371f, 0.0377913974f, 0.1046285257f},
      {0.0846585333f, -0.0703812465f, -0.0568323173f, 0.0266319662f, 0.0780827329f},
      {0.0780827329f, -0.1066239476f, -0.0259119384f, -0.1066239476f, 0.1562372595f},
      {0.0657936484f, -0.0568323173f, -0.0845848396f, -0.0775280371f, 0.0429077819f},
      {0.0266319662f, -0.0310912579f, -0.1392354369f, -0.0505010560f, -0.0568323173f}
    },
    {
      {-0.0361691378f, 0.0145718670f, 0.0377913974f, -0.0152182598f, -0.0206631236f},
      {0.0083865849f, 0.0323541909f, 0.0429077819f, 0.0083865849f, 0.0207029078f},
      {-0.0310912579f, 0.0479660071f, 0.0323541909f, 0.0083865849f, -0.0310912579f},
      {0.0083865849f, 0.0207029078f, 0.0377913974f, 0.0023533844f, 0.0207029078f},
      {0.0479660071f, 0.0597191826f, 0.0145718670f, 0.0145718670f, 0.0479660071f}
    },
    {
      {0.0083865849f, -0.0206631236f, -0.0361691378f, -0.0036800883f, 0.0429077819f},
      {-0.0206631236f, 0.0266319662f, -0.0095747309f, 0.0657936484f, 0.0597191826f},
      {0.0266319662f, 0.0207029078f, -0.0259119384f, 0.0377913974f, 0.0780827329f},
      {-0.0361691378f, -0.0152182598f, -0.0361691378f, -0.0457837023f, 0.0537182502f},
      {0.0145718670f, 0.0207029078f, 0.0266319662f, 0.0266319662f, 0.0266319662f}
    },
    {
      {0.0323541909f, -0.0703812465f, -0.0361691378f, -0.0310912579f, 0.0083865849f},
      {-0.0036800883f, 0.0537182502f, -0.0259119384f, 0.0266319662f, 0.0323541909f},
      {-0.0206631236f, 0.0207029078f, -0.0310912579f, 0.0597191826f, -0.0703812465f},
      {0.0657936484f, 0.1046285257f, -0.0409766622f, -0.0457837023f, 0.0915452391f},
      {0.0537182502f, 0.0537182502f, 0.0657936484f, 0.0083865849f, 0.0023533844f}
    },
    {
      {0.0145718670f, 0.0537182502f, 0.0083865849f, 0.0207029078f, 0.0780827329f},
      {0.0145718670f, -0.0152182598f, 0.0377913974f, -0.0152182598f, -0.0633588657f},
      {-0.0036800883f, 0.0537182502f, 0.0323541909f, -0.0036800883f, -0.0916960910f},
      {-0.0505010560f, 0.0720167682f, -0.0310912579f, 0.0083865849f, -0.0845848396f},
      {0.0537182502f, 0.0479660071f, -0.0703812465f, -0.0505010560f, -0.0633588657f}
    },
    {
      {-0.0361691378f, -0.0845848396f, 0.0323541909f, 0.0981064811f, 0.0145718670f},
      {-0.0457837023f, -0.0361691378f, -0.0457837023f, 0.0429077819f, -0.0409766622f},
      {0.0266319662f, 0.0323541909f, -0.0206631236f, 0.0023533844f, 0.0720167682f},
      {-0.0095747309f, 0.0537182502f, 0.0429077819f, 0.0780827329f, 0.0915452391f},
      {0.0023533844f, -0.0095747309f, -0.0259119384f, -0.0206631236f, -0.0152182598f}
    },
    {
      {-0.1066239476f, -0.0310912579f, -0.0505010560f, 0.0429077819f, 0.0537182502f},
      {-0.0775280371f, 0.0377913974f, -0.0568323173f, -0.0095747309f, 0.0323541909f},
      {-0.0152182598f, 0.0429077819f, -0.0633588657f, 0.0429077819f, -0.0095747309f},
      {0.0266319662f, -0.0505010560f, 0.0145718670f, 0.0145718670f, 0.0537182502f},
      {0.0377913974f, 0.0023533844f, 0.0323541909f, -0.0206631236f, 0.0083865849f}
    },
    {
      {-0.0633588657f, 0.0145718670f, 0.0597191826f, 0.0023533844f, 0.0023533844f},
      {-0.0568323173f, 0.0323541909f, -0.0036800883f, 0.0429077819f, -0.0505010560f},
      {-0.0457837023f, -0.0310912579f, 0.0083865849f, 0.0207029078f, 0.0266319662f},
      {-0.0206631236f, -0.0152182598f, -0.0457837023f, 0.0323541909f, -0.0095747309f},
      {0.0145718670f, -0.0361691378f, 0.0429077819f, 0.0429077819f, 0.0429077819f}
    },
  },
  {
    {
      {0.0846585333f, 0.0377913974f, 0.0537182502f, -0.0916960910f, -0.0259119384f},
      {0.0083865849f, -0.0095747309f, 0.0981064811f, -0.0206631236f, -0.0457837023f},
      {-0.0361691378f, -0.0036800883f, 0.0429077819f, 0.0537182502f, -0.0206631236f},
      {-0.0505010560f, 0.0537182502f, 0.0207029078f, 0.0023533844f, 0.0266319662f},
      {-0.0310912579f, 0.0207029078f, 0.0145718670f, -0.0095747309f, 0.0083865849f}
    },
    {
      {0.0083865849f, -0.0259119384f, 0.0145718670f, -0.0361691378f, -0.0036800883f},
      {0.0083865849f, -0.0095747309f, 0.0023533844f, 0.0145718670f, 0.0207029078f},
      {0.0145718670f, -0.0409766622f, 0.0537182502f, -0.0361691378f, 0.0023533844f},
      {0.0083865849f, 0.0266319662f, -0.0409766622f, -0.0568323173f, 0.0537182502f},
      {0.0323541909f, 0.0083865849f, -0.0310912579f, -0.0036800883f, 0.0429077819f}
    },
    {
      {-0.0152182598f, -0.0361691378f, -0.0206631236f, -0.0361691378f, 0.0023533844f},
      {-0.0036800883f, -0.0036800883f, -0.0409766622f, -0.0633588657f, -0.0259119384f},
      {0.0429077819f, -0.0310912579f, -0.0036800883f, -0.0095747309f, 0.0266319662f},
      {-0.0152182598f, 0.0023533844f, -0.0259119384f, 0.0145718670f, -0.0259119384f},
      {-0.0310912579f, 0.0429077819f, 0.0479660071f, -0.0152182598f, 0.0207029078f}
    },
    {
      {-0.0095747309f, -0.0259119384f, -0.0152182598f, -0.0152182598f, 0.0145718670f},
      {0.0207029078f, -0.0036800883f, 0.0145718670f, 0.0266319662f, -0.0361691378f},
      {-0.0036800883f, 0.0429077819f, 0.0083865849f, -0.0036800883f, -0.0361691378f},
      {0.0083865849f, -0.0206631236f, -0.0310912579f, 0.0377913974f, -0.0409766622f},
      {0.0323541909f, -0.0259119384f, 0.0145718670f, 0.0429077819f, 0.0377913974f}
    },
    {
      {-0.0259119384f, -0.0409766622f, 0.0323541909f, 0.0323541909f, 0.0083865849f},
      {-0.0259119384f, -0.0095747309f, 0.0023533844f, -0.0206631236f, 0.0023533844f},
      {0.0323541909f, -0.0457837023f, 0.0479660071f, -0.0310912579f, 0.0145718670f},
      {0.0083865849f, 0.0537182502f, 0.0023533844f, 0.0266319662f, 0.0377913974f},
      {0.0023533844f, -0.0152182598f, 0.0429077819f, 0.0377913974f, -0.0361691378f}
    },
    {
      {-0.0987659022f, -0.0775280371f, 0.0377913974f, 0.0207029078f, 0.0145718670f},
      {-0.0095747309f, 0.0083865849f, 0.0479660071f, 0.0915452391f, -0.0152182598f},
      {0.0537182502f, 0.0207029078f, 0.0429077819f, -0.0633588657f, -0.0152182598f},
      {0.0083865849f, 0.0145718670f, 0.0323541909f, -0.0036800883f, -0.0259119384f},
      {0.0083865849f, -0.0259119384f, 0.0429077819f, 0.0597191826f, 0.0145718670f}
    },
    {
      {0.0657936484f, -0.0310912579f, -0.0633588657f, -0.0310912579f, -0.0036800883f},
      {0.0537182502f, -0.0095747309f, 0.0083865849f, -0.0845848396f, 0.0429077819f},
      {-0.0095747309f, 0.0207029078f, -0.0310912579f, -0.0206631236f, -0.0036800883f},
      {-0.0095747309f, 0.0323541909f, 0.0023533844f, 0.0846585333f, 0.0429077819f},
      {0.0207029078f, -0.0036800883f, -0.0152182598f, -0.0152182598f, -0.0036800883f}
    },
    {
      {0.0083865849f, 0.0145718670f, 0.0207029078f, -0.0036800883f, -0.0703812465f},
      {0.0720167682f, 0.1212702245f, -0.0095747309f, 0.0377913974f, -0.0310912579f},
      {-0.0036800883f, 0.0846585333f, 0.0537182502f, 0.0377913974f, -0.0310912579f},
      {0.0479660071f, 0.0083865849f, 0.0657936484f, 0.0377913974f, -0.0703812465f},
      {-0.0633588657f, 0.0429077819f, -0.0036800883f, 0.0023533844f, -0.0095747309f}
    },
    {
      {-0.0457837023f, -0.0409766622f, -0.0633588657f, -0.0206631236f, -0.0457837023f},
      {0.0323541909f, -0.0259119384f, -0.0206631236f, -0.0206631236f, 0.0266319662f},
      {0.0377913974f, -0.0409766622f, -0.0206631236f, -0.0633588657f, 0.0266319662f},
      {-0.0568323173f, 0.0083865849f, -0.0361691378f, 0.0377913974f, 0.0207029078f},
      {-0.0505010560f, -0.0036800883f, 0.0597191826f, 0.0537182502f, 0.0429077819f}
    },
    {
      {-0.0036800883f, 0.0537182502f, -0.0310912579f, -0.0409766622f, 0.0023533844f},
      {-0.0633588657f, 0.0083865849f, 0.0023533844f, 0.0429077819f, -0.0703812465f},
      {-0.0409766622f, 0.0207029078f, 0.0023533844f, 0.0597191826f, -0.0095747309f},
      {-0.0310912579f, 0.0377913974f, 0.0145718670f, 0.0145718670f, -0.0703812465f},
      {0.0323541909f, 0.0145718670f, -0.0206631236f, -0.0703812465f, 0.0266319662f}
    },
    {
      {0.0657936484f, 0.0377913974f, -0.0152182598f, 0.0023533844f, -0.0310912579f},
      {-0.0259119384f, 0.0023533844f, 0.0537182502f, 0.0597191826f, 0.0145718670f},
      {-0.0505010560f, -0.0206631236f, -0.0409766622f, 0.0720167682f, 0.0145718670f},
      {-0.0095747309f, 0.0429077819f, 0.0479660071f, 0.0429077819f, 0.0266319662f},
      {-0.0505010560f, 0.0145718670f, 0.0145718670f, -0.0361691378f, -0.0259119384f}
    },
    {
      {0.0145718670f, 0.0266319662f, -0.0457837023f, -0.1140288413f, -0.0568323173f},
      {0.0145718670f, 0.0207029078f, -0.0152182598f, 0.0720167682f, -0.0036800883f},
      {0.0207029078f, -0.0361691378f, -0.0152182598f, 0.0083865849f, 0.0323541909f},
      {-0.0310912579f, -0.0310912579f, -0.0152182598f, 0.0479660071f, 0.0846585333f},
      {-0.0259119384f, 0.0083865849f, 0.0377913974f, 0.0720167682f, -0.0095747309f}
    },
    {
      {-0.0568323173f, -0.0152182598f, -0.0152182598f, 0.0846585333f, -0.0152182598f},
      {-0.0505010560f, 0.0023533844f, -0.0152182598f, -0.0310912579f, 0.0083865849f},
      {-0.0206631236f, 0.0083865849f, 0.0429077819f, 0.0083865849f, -0.0310912579f},
      {0.0323541909f, 0.0145718670f, -0.0361691378f, -0.0505010560f, -0.0095747309f},
      {-0.0259119384f, -0.0036800883f, 0.0266319662f, 0.0377913974f, 0.0207029078f}
    },
    {
      {0.0145718670f, 0.0780827329f, -0.0259119384f, -0.0505010560f, -0.0633588657f},
      {0.0023533844f, -0.0095747309f, -0.0152182598f, 0.0083865849f, 0.0083865849f},
      {-0.0152182598f, 0.0083865849f, -0.0095747309f, 0.0207029078f, 0.0266319662f},
      {-0.0206631236f, -0.0206631236f, -0.0095747309f, 0.0597191826f, -0.0036800883f},
      {-0.0775280371f, 0.0145718670f, -0.0703812465f, -0.0987659022f, 0.0266319662f}
    },
    {
      {0.0023533844f, 0.0377913974f, 0.0207029078f, 0.0083865849f, -0.0457837023f},
      {0.0023533844f, 0.0429077819f, 0.0537182502f, 0.0323541909f, -0.0568323173f},
      {-0.0361691378f, 0.0429077819f, -0.0095747309f, 0.0846585333f, 0.0145718670f},
      {-0.0259119384f, 0.0780827329f, 0.0537182502f, 0.0846585333f, -0.0568323173f},
      {-0.0505010560f, -0.0095747309f, 0.0083865849f, -0.0095747309f, 0.0023533844f}
    },
    {
      {0.0145718670f, -0.0361691378f, 0.0207029078f, 0.0083865849f, -0.0457837023f},
      {-0.0259119384f, -0.0206631236f, -0.0845848396f, 0.0145718670f, 0.0023533844f},
      {-0.0310912579f, -0.0568323173f, 0.0207029078f, 0.0479660071f, -0.0259119384f},
      {-0.0310912579f, -0.0206631236f, -0.0361691378f, 0.0266319662f, -0.0206631236f},
      {-0.0361691378f, 0.0266319662f, -0.0206631236f, -0.0036800883f, 0.0429077819f}
    },
  },
  {
    {
      {-0.0036800883f, -0.0095747309f, -0.0259119384f, -0.0505010560f, 0.0145718670f},
      {0.0266319662f, -0.0259119384f, 0.0207029078f, -0.0152182598f, -0.0457837023f},
