// N2D2 auto-generated file.
// @ Mon Sep 16 12:33:02 2019

#ifndef N2D2_EXPORTC_FC1_LAYER_H
#define N2D2_EXPORTC_FC1_LAYER_H

#include "typedefs.h"
#include "conv3.h"
#define FC1_NB_OUTPUTS 84
#define FC1_NB_CHANNELS 120
#define FC1_OUTPUT_OFFSET 0
#define FC1_ACTIVATION Rectifier
#define FC1_SHIFT 0
static BDATA_T fc1_biases[FC1_NB_OUTPUTS] = {0, 0, 0, 0, 0, 0, 0, 0, 0, 0, 0, 0, 0, 0, 0, 0, 0, 0, 0, 0, 0, 0, 0, 0, 0, 0, 0, 0, 0, 0, 0, 0, 0, 0, 0, 0, 0, 0, 0, 0, 0, 0, 0, 0, 0, 0, 0, 0, 0, 0, 0, 0, 0, 0, 0, 0, 0, 0, 0, 0, 0, 0, 0, 0, 0, 0, 0, 0, 0, 0, 0, 0, 0, 0, 0, 0, 0, 0, 0, 0, 0, 0, 0, 0};
#define FC1_NB_WEIGHTS (FC1_NB_OUTPUTS*FC1_NB_CHANNELS)

static WDATA_T fc1_weights[FC1_NB_OUTPUTS][FC1_NB_CHANNELS] = 
{
    {0.037555885, 0.020334395, -0.11913206, -0.041949242, 0.089322746, 0.12422956, -0.06753526, -0.023952426, -0.11107996, -0.10304619, -0.08262928, -0.041949242, -0.09623664, -0.015535882, -0.03274729, 0.08125669, -0.07573012, -0.07573012, 0.13388956, -0.11913206, -0.006590562, -0.13837565, -0.08916876, 0.072528556, 0.089322746, 0.002727432, 0.046579935, 0.098597094, 0.029009728, 0.029009728, 0.12422956, 0.10793478, -0.13837565, 0.098597094, 0.13388956, -0.050689768, 0.029009728, -0.059006978, 0.12422956, -0.03274729, -0.059006978, 0.14228301, 0.055428382, -0.07573012, -0.041949242, 0.055428382, -0.10304619, -0.11913206, 0.098597094, 0.15134633, -0.006590562, 0.002727432, 0.089322746, -0.041949242, 0.020334395, -0.059006978, 0.089322746, -0.015535882, -0.03274729, 0.098597094, 0.037555885, 0.029009728, 0.020334395, -0.10304619, 0.046579935, -0.2110842, 0.0115093775, -0.03274729, 0.055428382, 0.098597094, -0.08916876, -0.006590562, -0.15604173, 0.072528556, 0.055428382, 0.20691325, 0.14228301, -0.08916876, -0.03274729, 0.11594932, 0.0115093775, 0.002727432, -0.06753526, 0.055428382, -0.08916876, 0.098597094, 0.0115093775, -0.10304619, -0.08262928, 0.020334395, 0.002727432, 0.098597094, -0.10304619, -0.07573012, -0.059006978, 0.046579935, -0.09623664, 0.055428382, 0.06384058, 0.15134633, 0.029009728, -0.023952426, -0.041949242, -0.08916876, 0.098597094, -0.050689768, -0.041949242, 0.055428382, 0.072528556, -0.03274729, -0.09623664, 0.089322746, -0.08916876, -0.015535882, -0.023952426, 0.098597094, -0.050689768, -0.015535882, -0.09623664, 0.06384058},
    {-0.07573012, -0.050689768, 0.020334395, -0.07573012, 0.020334395, 0.0115093775, 0.055428382, 0.0115093775, 0.098597094, 0.029009728, 0.029009728, 0.089322746, 0.089322746, 0.020334395, -0.015535882, -0.07573012, 0.002727432, -0.03274729, 0.055428382, -0.059006978, -0.07573012, 0.08125669, 0.037555885, -0.041949242, 0.10793478, 0.046579935, -0.06753526, 0.089322746, 0.089322746, -0.06753526, -0.041949242, 0.055428382, -0.015535882, 0.029009728, -0.11913206, 0.06384058, -0.041949242, 0.11594932, 0.002727432, 0.037555885, 0.037555885, -0.07573012, 0.046579935, -0.015535882, -0.050689768, -0.050689768, -0.041949242, 0.037555885, -0.050689768, 0.06384058, -0.08916876, -0.06753526, -0.059006978, 0.06384058, -0.041949242, -0.015535882, 0.046579935, -0.006590562, 0.037555885, 0.002727432, -0.041949242, 0.037555885, -0.06753526, 0.06384058, 0.08125669, -0.050689768, -0.023952426, 0.037555885, 0.002727432, -0.041949242, 0.046579935, 0.002727432, 0.06384058, -0.023952426, -0.09623664, -0.07573012, -0.006590562, 0.029009728, -0.050689768, -0.050689768, -0.07573012, 0.046579935, -0.006590562, -0.07573012, -0.059006978, 0.020334395, -0.023952426, 0.029009728, -0.006590562, -0.03274729, 0.0115093775, -0.11107996, -0.06753526, 0.029009728, -0.023952426, 0.037555885, -0.023952426, 0.037555885, 0.06384058, -0.015535882, 0.089322746, -0.09623664, -0.06753526, -0.059006978, 0.06384058, -0.08262928, -0.023952426, 0.06384058, -0.08916876, -0.006590562, 0.055428382, -0.023952426, -0.03274729, -0.015535882, -0.03274729, -0.050689768, 0.055428382, 0.089322746, -0.059006978, -0.08262928},
    {0.089322746, -0.08916876, 0.0115093775, 0.055428382, 0.08125669, -0.03274729, -0.07573012, 0.0115093775, 0.002727432, -0.08916876, 0.06384058, 0.046579935, 0.089322746, -0.041949242, 0.06384058, 0.11594932, -0.06753526, -0.06753526, 0.10793478, 0.12422956, -0.09623664, -0.041949242, 0.089322746, -0.023952426, 0.13388956, 0.020334395, -0.059006978, -0.050689768, 0.11594932, -0.041949242, -0.08916876, -0.059006978, 0.0115093775, 0.055428382, -0.03274729, 0.029009728, -0.13837565, 0.14228301, 0.055428382, 0.020334395, -0.08916876, 0.13388956, -0.015535882, -0.09623664, -0.15604173, -0.015535882, -0.03274729, -0.050689768, -0.10304619, 0.055428382, -0.07573012, 0.13388956, -0.006590562, 0.072528556, 0.055428382, -0.041949242, 0.16031246, -0.03274729, -0.07573012, -0.006590562, 0.037555885, 0.037555885, -0.14798556, -0.006590562, -0.06753526, 0.0115093775, -0.11913206, -0.11913206, 0.13388956, 0.002727432, -0.08262928, 0.055428382, 0.089322746, -0.023952426, -0.09623664, 0.06384058, 0.098597094, 0.08125669, -0.08916876, 0.037555885, 0.08125669, -0.050689768, -0.041949242, 0.08125669, -0.11913206, 0.055428382, 0.06384058, -0.13837565, 0.0115093775, 0.037555885, 0.08125669, 0.055428382, -0.059006978, 0.16031246, -0.08916876, -0.11107996, -0.059006978, -0.006590562, 0.0115093775, -0.10304619, -0.006590562, 0.037555885, -0.09623664, -0.050689768, 0.0115093775, -0.050689768, -0.059006978, -0.041949242, 0.13388956, -0.006590562, -0.03274729, 0.002727432, -0.041949242, 0.072528556, 0.0115093775, 0.037555885, -0.006590562, 0.055428382, -0.006590562, -0.015535882},
    {-0.041949242, 0.046579935, -0.023952426, 0.055428382, 0.029009728, 0.037555885, -0.041949242, 0.0115093775, 0.055428382, -0.03274729, 0.10793478, -0.041949242, -0.07573012, 0.08125669, 0.020334395, -0.015535882, -0.006590562, -0.06753526, -0.050689768, -0.041949242, -0.03274729, 0.0115093775, -0.08262928, 0.098597094, 0.0115093775, -0.12819558, -0.041949242, 0.029009728, -0.07573012, 0.072528556, 0.002727432, -0.06753526, -0.03274729, 0.072528556, 0.020334395, 0.0115093775, 0.11594932, -0.006590562, -0.023952426, 0.06384058, -0.06753526, -0.18867645, 0.14228301, -0.11107996, 0.08125669, 0.020334395, -0.015535882, 0.046579935, 0.072528556, -0.08262928, -0.08262928, -0.09623664, 0.15134633, 0.020334395, -0.03274729, -0.041949242, 0.046579935, -0.03274729, 0.046579935, 0.098597094, 0.029009728, 0.002727432, -0.07573012, 0.0115093775, 0.029009728, 0.037555885, -0.023952426, -0.015535882, -0.041949242, 0.06384058, -0.041949242, 0.14228301, 0.08125669, -0.07573012, 0.072528556, -0.03274729, -0.08916876, -0.08916876, -0.059006978, 0.11594932, -0.03274729, -0.006590562, 0.037555885, 0.0115093775, 0.046579935, -0.11913206, 0.029009728, 0.08125669, 0.06384058, 0.089322746, -0.09623664, 0.055428382, -0.015535882, -0.06753526, 0.072528556, -0.08916876, 0.055428382, 0.06384058, -0.06753526, 0.020334395, -0.050689768, 0.020334395, 0.08125669, -0.059006978, 0.002727432, 0.13388956, -0.006590562, -0.06753526, -0.17394252, -0.050689768, -0.059006978, -0.023952426, 0.046579935, -0.050689768, 0.029009728, 0.11594932, -0.12819558, 0.002727432, 0.08125669, -0.08916876},
    {0.055428382, 0.06384058, 0.06384058, -0.07573012, -0.06753526, -0.041949242, 0.046579935, 0.046579935, 0.08125669, 0.020334395, -0.023952426, -0.050689768, 0.002727432, 0.089322746, 0.0115093775, -0.015535882, 0.089322746, -0.015535882, -0.041949242, 0.0115093775, 0.0115093775, 0.037555885, 0.06384058, 0.046579935, -0.050689768, 0.029009728, 0.002727432, -0.023952426, -0.059006978, -0.015535882, -0.06753526, -0.006590562, 0.029009728, -0.09623664, -0.059006978, 0.10793478, 0.072528556, -0.059006978, 0.046579935, 0.072528556, -0.041949242, -0.07573012, -0.03274729, 0.08125669, 0.12422956, 0.002727432, 0.020334395, -0.050689768, 0.06384058, -0.10304619, 0.06384058, -0.015535882, 0.12422956, 0.10793478, 0.046579935, 0.08125669, -0.006590562, -0.006590562, -0.006590562, 0.046579935, -0.006590562, 0.020334395, -0.023952426, 0.12422956, -0.07573012, 0.037555885, -0.041949242, -0.050689768, 0.029009728, -0.11107996, 0.08125669, 0.055428382, 0.08125669, -0.050689768, 0.089322746, 0.098597094, 0.055428382, -0.050689768, -0.03274729, 0.098597094, -0.08262928, -0.050689768, -0.07573012, 0.08125669, -0.015535882, -0.11107996, 0.072528556, 0.029009728, -0.06753526, -0.08262928, 0.037555885, -0.059006978, -0.06753526, -0.03274729, 0.037555885, 0.10793478, 0.020334395, 0.037555885, -0.07573012, 0.029009728, 0.020334395, -0.050689768, -0.006590562, -0.08916876, 0.11594932, 0.098597094, -0.07573012, 0.0115093775, 0.06384058, -0.059006978, 0.08125669, -0.041949242, -0.023952426, -0.041949242, -0.041949242, -0.006590562, -0.11913206, -0.06753526, 0.020334395, -0.041949242},
    {-0.050689768, 0.020334395, -0.015535882, 0.002727432, -0.08262928, -0.08262928, -0.08916876, -0.08916876, 0.029009728, 0.037555885, -0.07573012, 0.037555885, 0.089322746, -0.023952426, 0.029009728, -0.023952426, -0.08916876, 0.055428382, -0.015535882, 0.098597094, -0.041949242, -0.06753526, 0.002727432, -0.041949242, -0.006590562, -0.09623664, 0.037555885, 0.08125669, 0.029009728, 0.06384058, 0.06384058, 0.06384058, -0.059006978, -0.06753526, 0.002727432, -0.06753526, 0.06384058, 0.046579935, -0.07573012, -0.023952426, -0.006590562, 0.037555885, 0.089322746, 0.020334395, -0.06753526, 0.046579935, 0.046579935, 0.072528556, 0.020334395, 0.055428382, 0.029009728, -0.023952426, 0.046579935, 0.046579935, -0.006590562, 0.055428382, 0.055428382, -0.015535882, -0.06753526, 0.029009728, 0.029009728, -0.08916876, -0.06753526, -0.08262928, 0.046579935, -0.059006978, 0.002727432, 0.055428382, -0.015535882, -0.08916876, 0.020334395, 0.055428382, -0.08916876, -0.023952426, -0.08262928, 0.072528556, 0.002727432, 0.029009728, -0.006590562, -0.03274729, -0.06753526, 0.055428382, -0.059006978, 0.029009728, 0.029009728, 0.06384058, 0.089322746, 0.020334395, -0.050689768, -0.03274729, -0.06753526, -0.059006978, -0.050689768, 0.046579935, 0.029009728, -0.06753526, 0.06384058, -0.015535882, 0.072528556, -0.006590562, -0.006590562, 0.098597094, 0.072528556, 0.072528556, -0.023952426, -0.015535882, 0.0115093775, 0.089322746, -0.07573012, 0.072528556, 0.029009728, 0.055428382, 0.08125669, 0.055428382, -0.08916876, 0.072528556, -0.041949242, 0.037555885, 0.029009728, -0.050689768},
    {-0.06753526, -0.07573012, -0.08262928, 0.0115093775, 0.029009728, -0.08916876, 0.002727432, -0.023952426, 0.06384058, -0.08262928, -0.06753526, -0.06753526, -0.07573012, -0.03274729, 0.089322746, -0.023952426, -0.050689768, 0.08125669, 0.002727432, 0.0115093775, 0.046579935, -0.015535882, -0.08262928, -0.050689768, 0.020334395, -0.059006978, 0.08125669, -0.023952426, 0.046579935, -0.006590562, -0.015535882, -0.023952426, -0.023952426, 0.020334395, -0.03274729, 0.0115093775, 0.029009728, -0.023952426, -0.015535882, 0.055428382, -0.03274729, -0.03274729, -0.041949242, -0.023952426, -0.07573012, -0.023952426, -0.015535882, -0.023952426, -0.023952426, 0.020334395, -0.050689768, 0.06384058, 0.089322746, -0.08916876, 0.020334395, 0.029009728, -0.050689768, -0.023952426, 0.0115093775, 0.06384058, -0.015535882, -0.041949242, -0.059006978, -0.08916876, -0.07573012, -0.050689768, -0.08262928, 0.055428382, -0.08262928, -0.006590562, -0.06753526, 0.046579935, 0.0115093775, 0.020334395, 0.037555885, -0.023952426, -0.015535882, 0.06384058, -0.041949242, -0.07573012, -0.07573012, -0.023952426, -0.08262928, 0.055428382, -0.015535882, -0.050689768, -0.041949242, 0.0115093775, -0.059006978, 0.089322746, 0.046579935, 0.020334395, 0.046579935, 0.08125669, -0.023952426, -0.006590562, -0.059006978, -0.015535882, -0.015535882, 0.002727432, -0.03274729, 0.020334395, 0.08125669, 0.072528556, -0.015535882, -0.041949242, -0.07573012, -0.006590562, 0.046579935, -0.059006978, 0.037555885, 0.0115093775, 0.06384058, 0.0115093775, 0.037555885, -0.03274729, 0.072528556, -0.041949242, -0.023952426, -0.08916876},
    {-0.050689768, -0.03274729, -0.006590562, -0.03274729, -0.015535882, 0.002727432, -0.023952426, -0.06753526, 0.072528556, -0.08262928, 0.11594932, 0.037555885, 0.029009728, 0.11594932, -0.08916876, 0.055428382, -0.06753526, 0.072528556, 0.14228301, 0.046579935, 0.072528556, 0.12422956, 0.055428382, 0.055428382, -0.03274729, 0.16031246, -0.041949242, 0.002727432, 0.08125669, 0.020334395, 0.002727432, -0.12819558, 0.06384058, 0.11594932, -0.08262928, 0.098597094, -0.2358767, 0.098597094, 0.06384058, 0.08125669, 0.002727432, 0.15134633, -0.17997561, 0.055428382, -0.050689768, -0.08916876, -0.08262928, 0.029009728, -0.059006978, -0.10304619, 0.072528556, 0.037555885, -0.07573012, 0.046579935, -0.08916876, 0.08125669, -0.07573012, 0.08125669, -0.08916876, 0.06384058, -0.041949242, -0.08262928, -0.03274729, 0.029009728, -0.07573012, 0.037555885, 0.046579935, 0.055428382, -0.006590562, 0.037555885, -0.08916876, -0.07573012, 0.12422956, -0.03274729, 0.12422956, -0.14798556, 0.0115093775, 0.046579935, 0.037555885, 0.08125669, -0.03274729, 0.06384058, 0.14228301, -0.050689768, 0.029009728, 0.072528556, 0.0115093775, 0.046579935, 0.0115093775, 0.037555885, 0.055428382, -0.03274729, 0.08125669, 0.13388956, 0.08125669, -0.08916876, 0.046579935, -0.06753526, 0.072528556, 0.0115093775, 0.020334395, 0.072528556, -0.08262928, 0.046579935, -0.08916876, 0.06384058, -0.006590562, 0.0115093775, 0.029009728, -0.03274729, 0.037555885, 0.14228301, 0.055428382, 0.020334395, 0.037555885, 0.055428382, 0.029009728, -0.08262928, -0.050689768, -0.03274729},
    {0.06384058, 0.002727432, 0.055428382, 0.037555885, -0.041949242, -0.08262928, 0.037555885, 0.0115093775, 0.029009728, 0.10793478, 0.046579935, -0.13837565, 0.11594932, 0.098597094, 0.08125669, -0.006590562, 0.098597094, 0.037555885, 0.002727432, -0.08262928, -0.08262928, -0.059006978, -0.023952426, -0.03274729, 0.002727432, -0.12819558, -0.050689768, -0.11107996, 0.098597094, -0.059006978, 0.14228301, 0.002727432, 0.089322746, 0.10793478, 0.098597094, 0.17059664, -0.059006978, -0.06753526, -0.03274729, 0.10793478, -0.06753526, 0.10793478, 0.08125669, 0.11594932, 0.11594932, -0.03274729, -0.07573012, -0.041949242, 0.10793478, 0.046579935, 0.089322746, -0.050689768, -0.023952426, 0.0115093775, -0.08262928, 0.06384058, -0.12819558, -0.023952426, -0.03274729, 0.020334395, 0.08125669, 0.08125669, -0.11913206, 0.098597094, -0.006590562, 0.11594932, 0.055428382, -0.059006978, -0.13837565, -0.07573012, -0.015535882, 0.029009728, -0.08916876, -0.06753526, 0.020334395, 0.055428382, 0.0115093775, 0.06384058, 0.072528556, -0.041949242, -0.015535882, -0.03274729, -0.12819558, -0.041949242, 0.029009728, 0.046579935, -0.041949242, 0.002727432, 0.046579935, -0.09623664, 0.14228301, -0.07573012, 0.072528556, 0.089322746, -0.015535882, -0.03274729, 0.002727432, -0.015535882, 0.037555885, -0.15604173, 0.029009728, 0.089322746, -0.023952426, 0.046579935, 0.12422956, -0.13837565, -0.023952426, 0.046579935, -0.023952426, 0.029009728, 0.089322746, -0.12819558, -0.050689768, 0.08125669, 0.18776496, 0.037555885, 0.072528556, -0.09623664, 0.08125669, 0.046579935},
    {0.020334395, 0.037555885, -0.023952426, -0.03274729, -0.006590562, -0.023952426, 0.029009728, -0.08262928, -0.08262928, 0.06384058, -0.050689768, -0.06753526, -0.059006978, 0.06384058, -0.041949242, -0.07573012, -0.050689768, 0.037555885, 0.055428382, -0.059006978, -0.023952426, 0.06384058, 0.055428382, 0.055428382, 0.0115093775, 0.002727432, -0.006590562, 0.020334395, -0.09623664, 0.046579935, -0.06753526, 0.029009728, 0.020334395, -0.023952426, 0.020334395, -0.023952426, 0.029009728, 0.072528556, 0.072528556, -0.059006978, 0.046579935, -0.059006978, 0.0115093775, 0.055428382, -0.006590562, 0.046579935, 0.046579935, -0.07573012, 0.037555885, 0.0115093775, 0.072528556, 0.029009728, 0.072528556, -0.06753526, -0.059006978, 0.002727432, -0.050689768, -0.07573012, 0.0115093775, 0.046579935, -0.023952426, -0.023952426, 0.002727432, -0.08916876, -0.07573012, -0.07573012, -0.10304619, 0.037555885, -0.03274729, -0.08262928, -0.09623664, 0.046579935, -0.006590562, 0.055428382, -0.08262928, 0.055428382, 0.055428382, -0.041949242, 0.055428382, -0.06753526, -0.023952426, -0.015535882, -0.059006978, 0.06384058, -0.006590562, 0.0115093775, -0.023952426, -0.07573012, -0.08262928, 0.055428382, -0.006590562, 0.029009728, 0.08125669, -0.08916876, -0.03274729, 0.037555885, 0.046579935, 0.0115093775, -0.015535882, -0.041949242, -0.006590562, 0.002727432, -0.059006978, -0.03274729, -0.08262928, -0.041949242, -0.06753526, 0.002727432, 0.020334395, 0.046579935, -0.041949242, 0.002727432, 0.08125669, -0.015535882, 0.037555885, -0.041949242, 0.037555885, -0.015535882, -0.07573012, 0.020334395},
    {-0.12819558, -0.06753526, 0.046579935, -0.015535882, -0.023952426, 0.0115093775, 0.002727432, 0.06384058, -0.050689768, 0.12422956, 0.10793478, 0.046579935, -0.17997561, -0.050689768, 0.072528556, -0.059006978, 0.17059664, 0.055428382, -0.08916876, -0.015535882, -0.03274729, -0.06753526, -0.059006978, -0.059006978, -0.09623664, 0.098597094, 0.046579935, 0.037555885, 0.037555885, -0.08916876, -0.050689768, 0.046579935, 0.020334395, -0.059006978, 0.08125669, -0.13837565, -0.03274729, -0.015535882, 0.17914534, 0.020334395, 0.055428382, 0.055428382, 0.16031246, 0.0115093775, -0.06753526, -0.015535882, -0.023952426, -0.11913206, 0.037555885, 0.029009728, -0.041949242, -0.015535882, 0.037555885, 0.0115093775, 0.072528556, 0.020334395, 0.13388956, 0.089322746, 0.002727432, -0.023952426, 0.020334395, 0.029009728, -0.12819558, 0.13388956, 0.072528556, 0.06384058, 0.06384058, -0.08262928, 0.14228301, -0.050689768, -0.09623664, -0.015535882, 0.10793478, 0.17914534, -0.015535882, 0.12422956, -0.03274729, -0.041949242, -0.09623664, -0.041949242, -0.09623664, -0.006590562, 0.19722468, 0.029009728, -0.041949242, -0.08262928, -0.03274729, 0.046579935, 0.0115093775, 0.072528556, 0.06384058, -0.03274729, -0.09623664, -0.006590562, -0.07573012, 0.029009728, 0.12422956, -0.08916876, -0.006590562, 0.11594932, 0.06384058, -0.11107996, 0.08125669, -0.050689768, -0.023952426, 0.0115093775, 0.072528556, -0.07573012, -0.041949242, -0.08262928, 0.002727432, 0.046579935, 0.055428382, -0.006590562, 0.055428382, -0.08262928, 0.020334395, -0.07573012, -0.059006978, 0.072528556},
    {-0.050689768, -0.050689768, -0.059006978, 0.06384058, 0.0115093775, 0.046579935, -0.08262928, -0.006590562, 0.06384058, -0.050689768, 0.089322746, 0.08125669, -0.023952426, -0.006590562, 0.072528556, 0.06384058, -0.03274729, -0.03274729, -0.08262928, -0.041949242, -0.006590562, -0.015535882, -0.08262928, 0.037555885, -0.041949242, 0.037555885, 0.020334395, -0.050689768, 0.089322746, -0.03274729, -0.07573012, 0.037555885, -0.06753526, -0.08916876, -0.06753526, 0.037555885, -0.059006978, 0.08125669, 0.089322746, 0.06384058, 0.046579935, 0.002727432, 0.002727432, 0.020334395, -0.050689768, -0.023952426, -0.03274729, -0.059006978, 0.002727432, -0.059006978, 0.037555885, 0.06384058, 0.029009728, -0.059006978, 0.0115093775, 0.0115093775, 0.0115093775, 0.072528556, -0.041949242, -0.041949242, -0.03274729, -0.023952426, -0.07573012, -0.041949242, 0.0115093775, -0.041949242, -0.059006978, 0.06384058, -0.023952426, 0.046579935, 0.0115093775, 0.002727432, 0.08125669, -0.08262928, -0.08262928, 0.002727432, -0.023952426, -0.08262928, -0.03274729, 0.020334395, 0.089322746, -0.07573012, 0.072528556, 0.037555885, -0.06753526, -0.050689768, -0.08262928, -0.08916876, 0.055428382, -0.03274729, -0.059006978, 0.055428382, 0.002727432, -0.08262928, 0.089322746, 0.002727432, -0.050689768, -0.08262928, 0.020334395, -0.059006978, 0.020334395, 0.046579935, -0.015535882, -0.03274729, 0.037555885, -0.08916876, -0.03274729, -0.050689768, -0.03274729, 0.020334395, -0.015535882, 0.06384058, 0.0115093775, -0.08916876, -0.015535882, -0.023952426, 0.037555885, 0.029009728, -0.023952426, 0.055428382},
    {-0.015535882, 0.08125669, 0.029009728, 0.089322746, -0.006590562, 0.029009728, -0.059006978, 0.06384058, 0.029009728, 0.0115093775, 0.046579935, -0.06753526, -0.11913206, 0.037555885, -0.03274729, 0.046579935, -0.041949242, -0.023952426, 0.06384058, 0.12422956, 0.11594932, -0.006590562, -0.015535882, -0.09623664, -0.11913206, 0.17059664, 0.055428382, -0.015535882, 0.029009728, -0.006590562, 0.0115093775, -0.09623664, 0.12422956, 0.12422956, 0.029009728, -0.015535882, -0.1643807, 0.089322746, 0.046579935, -0.050689768, -0.023952426, 0.037555885, -0.14798556, 0.098597094, -0.006590562, 0.072528556, -0.06753526, 0.08125669, 0.0115093775, -0.015535882, -0.050689768, -0.023952426, -0.015535882, 0.0115093775, 0.072528556, -0.06753526, 0.06384058, -0.023952426, 0.055428382, 0.12422956, 0.08125669, -0.023952426, 0.002727432, -0.03274729, -0.059006978, 0.06384058, 0.06384058, 0.098597094, 0.089322746, 0.11594932, -0.07573012, 0.029009728, -0.06753526, -0.050689768, 0.11594932, -0.050689768, 0.002727432, 0.046579935, -0.059006978, 0.098597094, -0.023952426, 0.089322746, 0.17914534, 0.072528556, -0.059006978, 0.06384058, -0.006590562, -0.006590562, 0.029009728, -0.03274729, -0.023952426, 0.020334395, -0.015535882, 0.0115093775, -0.07573012, -0.11107996, -0.050689768, 0.08125669, 0.0115093775, -0.07573012, -0.050689768, -0.023952426, 0.046579935, -0.07573012, -0.015535882, 0.046579935, -0.006590562, -0.08262928, 0.13388956, -0.10304619, 0.020334395, 0.029009728, -0.06753526, -0.050689768, 0.020334395, 0.089322746, 0.16031246, 0.08125669, 0.089322746, 0.037555885},
    {-0.14798556, -0.08262928, 0.10793478, -0.006590562, -0.03274729, 0.16031246, -0.023952426, 0.037555885, 0.08125669, -0.03274729, 0.072528556, 0.029009728, -0.050689768, -0.06753526, 0.055428382, 0.06384058, 0.19722468, 0.002727432, -0.041949242, 0.002727432, 0.0115093775, 0.18776496, -0.08916876, 0.06384058, 0.098597094, 0.029009728, 0.055428382, 0.072528556, 0.098597094, -0.03274729, -0.03274729, 0.072528556, -0.059006978, -0.15604173, -0.08262928, -0.09623664, -0.006590562, -0.08916876, 0.046579935, 0.08125669, -0.006590562, -0.11913206, 0.12422956, 0.0115093775, -0.08262928, -0.059006978, -0.023952426, 0.0115093775, -0.10304619, 0.002727432, -0.015535882, 0.11594932, 0.037555885, -0.10304619, 0.08125669, -0.03274729, 0.072528556, -0.015535882, -0.023952426, -0.015535882, -0.10304619, -0.03274729, -0.10304619, 0.037555885, 0.072528556, 0.12422956, -0.07573012, 0.0115093775, 0.06384058, 0.029009728, 0.002727432, 0.12422956, -0.041949242, 0.20691325, 0.072528556, 0.18776496, 0.11594932, 0.15134633, 0.055428382, 0.020334395, 0.029009728, 0.12422956, 0.18776496, 0.06384058, 0.0115093775, 0.002727432, 0.020334395, 0.08125669, 0.002727432, 0.037555885, -0.07573012, 0.029009728, -0.11107996, -0.1643807, -0.059006978, -0.10304619, 0.11594932, -0.015535882, -0.07573012, -0.023952426, 0.098597094, -0.10304619, 0.072528556, 0.08125669, 0.046579935, 0.020334395, -0.050689768, 0.037555885, 0.12422956, 0.12422956, -0.023952426, -0.08916876, -0.015535882, -0.006590562, -0.11913206, -0.12819558, -0.09623664, 0.0115093775, -0.06753526, 0.055428382},
    {0.072528556, 0.0115093775, 0.0115093775, -0.059006978, 0.089322746, -0.08916876, 0.055428382, -0.059006978, -0.015535882, 0.002727432, 0.072528556, 0.020334395, -0.041949242, 0.020334395, 0.002727432, -0.15604173, -0.050689768, 0.072528556, 0.046579935, 0.089322746, -0.07573012, 0.046579935, -0.06753526, 0.08125669, 0.055428382, 0.029009728, -0.08262928, -0.09623664, -0.050689768, 0.002727432, 0.11594932, 0.037555885, -0.006590562, -0.11107996, -0.11107996, -0.08916876, 0.029009728, -0.059006978, 0.037555885, -0.11913206, -0.08916876, 0.10793478, -0.08262928, -0.14798556, -0.023952426, 0.046579935, -0.14798556, 0.072528556, -0.03274729, 0.089322746, 0.002727432, 0.11594932, 0.002727432, -0.08262928, -0.08262928, 0.06384058, 0.098597094, 0.002727432, -0.041949242, -0.059006978, -0.06753526, 0.029009728, 0.055428382, -0.11107996, -0.023952426, -0.006590562, 0.20691325, 0.0115093775, 0.046579935, -0.041949242, 0.11594932, -0.03274729, -0.023952426, -0.07573012, -0.050689768, -0.023952426, 0.020334395, -0.050689768, -0.050689768, -0.03274729, -0.023952426, -0.11107996, -0.006590562, 0.002727432, -0.15604173, 0.14228301, -0.059006978, 0.020334395, -0.03274729, -0.09623664, -0.006590562, 0.06384058, 0.0115093775, 0.029009728, 0.072528556, 0.046579935, -0.11107996, -0.07573012, -0.059006978, 0.055428382, -0.015535882, -0.07573012, 0.020334395, 0.089322746, -0.14798556, 0.002727432, 0.17914534, 0.055428382, 0.002727432, 0.098597094, -0.06753526, 0.15134633, -0.006590562, -0.050689768, 0.002727432, 0.06384058, -0.07573012, 0.06384058, -0.059006978, 0.002727432},
    {-0.03274729, -0.041949242, 0.046579935, 0.055428382, 0.029009728, -0.041949242, -0.015535882, 0.029009728, 0.046579935, 0.08125669, 0.08125669, 0.055428382, -0.041949242, 0.020334395, -0.07573012, 0.072528556, -0.041949242, -0.06753526, 0.06384058, 0.0115093775, 0.055428382, 0.06384058, -0.03274729, 0.029009728, -0.07573012, -0.07573012, 0.089322746, 0.002727432, 0.055428382, -0.006590562, -0.10304619, -0.059006978, 0.002727432, 0.06384058, 0.037555885, -0.03274729, 0.089322746, 0.029009728, -0.08916876, 0.029009728, 0.020334395, 0.055428382, 0.055428382, 0.020334395, -0.023952426, -0.015535882, 0.002727432, 0.08125669, 0.029009728, 0.06384058, 0.0115093775, -0.07573012, -0.006590562, -0.059006978, 0.098597094, 0.002727432, -0.11913206, -0.015535882, -0.10304619, -0.050689768, 0.020334395, 0.06384058, 0.046579935, -0.08262928, -0.041949242, 0.029009728, 0.06384058, -0.059006978, 0.020334395, 0.08125669, -0.015535882, 0.055428382, 0.002727432, 0.046579935, -0.015535882, -0.08262928, 0.002727432, 0.06384058, 0.037555885, -0.11107996, -0.07573012, -0.041949242, -0.041949242, 0.046579935, 0.002727432, 0.020334395, 0.002727432, -0.059006978, -0.09623664, -0.006590562, 0.002727432, -0.03274729, 0.072528556, -0.050689768, 0.072528556, 0.020334395, -0.006590562, -0.03274729, -0.08262928, -0.059006978, 0.072528556, -0.06753526, 0.0115093775, -0.050689768, -0.015535882, 0.089322746, -0.03274729, -0.059006978, 0.002727432, -0.023952426, -0.059006978, 0.020334395, 0.055428382, 0.037555885, -0.08262928, -0.03274729, 0.11594932, -0.07573012, 0.0115093775, 0.06384058},
    {-0.09623664, -0.006590562, 0.089322746, -0.023952426, -0.11913206, -0.059006978, -0.050689768, -0.06753526, -0.09623664, 0.037555885, 0.055428382, -0.13837565, 0.0115093775, 0.11594932, -0.006590562, -0.023952426, 0.089322746, -0.015535882, 0.14228301, 0.13388956, 0.002727432, 0.06384058, -0.08916876, -0.006590562, -0.08262928, -0.059006978, -0.041949242, -0.07573012, 0.020334395, -0.015535882, -0.023952426, -0.050689768, 0.06384058, -0.015535882, 0.13388956, -0.006590562, -0.006590562, -0.015535882, 0.072528556, 0.089322746, -0.006590562, 0.029009728, -0.023952426, 0.089322746, 0.089322746, 0.072528556, 0.037555885, 0.020334395, -0.023952426, 0.08125669, 0.06384058, 0.002727432, 0.029009728, 0.029009728, 0.020334395, -0.08262928, 0.098597094, 0.020334395, -0.08916876, 0.14228301, 0.089322746, 0.12422956, -0.08262928, -0.015535882, -0.07573012, 0.16031246, 0.0115093775, -0.07573012, 0.037555885, 0.055428382, 0.11594932, 0.046579935, 0.10793478, -0.06753526, 0.16031246, 0.08125669, 0.089322746, -0.11913206, -0.050689768, 0.002727432, 0.08125669, -0.023952426, 0.16031246, 0.020334395, 0.08125669, -0.14798556, -0.015535882, 0.020334395, -0.006590562, -0.08916876, 0.002727432, -0.041949242, -0.11913206, -0.050689768, 0.06384058, 0.020334395, 0.029009728, 0.046579935, 0.046579935, 0.002727432, 0.072528556, -0.07573012, -0.07573012, 0.0115093775, -0.03274729, 0.002727432, -0.006590562, -0.03274729, 0.0115093775, -0.041949242, -0.09623664, 0.029009728, 0.072528556, -0.03274729, 0.098597094, -0.08262928, -0.09623664, -0.023952426, 0.055428382, 0.046579935},
    {-0.14798556, -0.08262928, 0.06384058, 0.046579935, 0.072528556, 0.11594932, -0.006590562, -0.023952426, 0.0115093775, -0.050689768, -0.023952426, 0.055428382, -0.050689768, 0.029009728, 0.002727432, 0.08125669, 0.14228301, -0.006590562, 0.0115093775, -0.08262928, -0.06753526, 0.029009728, 0.08125669, -0.08916876, -0.08262928, 0.12422956, 0.029009728, 0.10793478, 0.10793478, 0.06384058, -0.08916876, 0.14228301, -0.14798556, 0.06384058, 0.020334395, -0.023952426, -0.059006978, 0.037555885, 0.10793478, -0.06753526, 0.046579935, 0.11594932, 0.13388956, 0.06384058, -0.19652168, 0.037555885, 0.020334395, -0.06753526, -0.015535882, 0.072528556, 0.046579935, 0.12422956, 0.046579935, -0.09623664, 0.06384058, 0.089322746, 0.12422956, 0.055428382, 0.072528556, 0.072528556, -0.03274729, 0.098597094, -0.050689768, 0.037555885, -0.06753526, 0.098597094, -0.041949242, 0.098597094, 0.14228301, -0.006590562, -0.023952426, 0.10793478, -0.03274729, 0.12422956, 0.089322746, 0.029009728, 0.0115093775, 0.002727432, -0.07573012, -0.050689768, -0.09623664, 0.11594932, 0.18776496, 0.0115093775, 0.098597094, 0.072528556, 0.029009728, -0.07573012, 0.06384058, 0.020334395, 0.046579935, 0.08125669, -0.059006978, -0.06753526, 0.055428382, -0.09623664, 0.098597094, -0.08262928, 0.046579935, -0.041949242, 0.002727432, -0.03274729, -0.059006978, 0.0115093775, 0.037555885, -0.15604173, 0.029009728, -0.006590562, 0.098597094, -0.050689768, -0.07573012, 0.089322746, 0.020334395, 0.029009728, 0.046579935, -0.015535882, 0.06384058, -0.006590562, 0.06384058, -0.041949242},
    {0.029009728, 0.072528556, -0.050689768, 0.06384058, 0.029009728, 0.072528556, -0.059006978, -0.059006978, -0.041949242, 0.020334395, -0.07573012, 0.002727432, -0.08262928, -0.03274729, -0.050689768, 0.002727432, 0.020334395, -0.08262928, -0.041949242, -0.06753526, 0.089322746, 0.029009728, 0.08125669, -0.07573012, -0.09623664, -0.08916876, 0.002727432, 0.029009728, -0.03274729, 0.0115093775, 0.06384058, 0.029009728, 0.10793478, -0.08262928, 0.072528556, 0.0115093775, 0.0115093775, -0.07573012, -0.07573012, -0.059006978, 0.046579935, -0.015535882, 0.055428382, 0.06384058, -0.03274729, 0.020334395, -0.006590562, -0.041949242, 0.06384058, 0.08125669, 0.089322746, 0.020334395, 0.072528556, -0.08262928, 0.037555885, 0.002727432, -0.07573012, 0.046579935, -0.03274729, -0.059006978, 0.046579935, -0.006590562, 0.020334395, -0.015535882, -0.08262928, 0.002727432, 0.0115093775, 0.0115093775, -0.03274729, -0.07573012, -0.03274729, -0.08262928, -0.07573012, -0.07573012, 0.0115093775, -0.07573012, 0.072528556, 0.020334395, -0.006590562, 0.089322746, -0.041949242, 0.046579935, -0.006590562, 0.037555885, 0.0115093775, 0.055428382, 0.072528556, -0.050689768, -0.06753526, -0.059006978, 0.037555885, -0.06753526, 0.072528556, -0.041949242, 0.020334395, 0.055428382, 0.002727432, -0.07573012, -0.006590562, -0.059006978, -0.06753526, -0.06753526, -0.059006978, 0.06384058, 0.046579935, 0.046579935, 0.0115093775, 0.072528556, -0.08262928, -0.006590562, 0.002727432, -0.03274729, 0.0115093775, 0.029009728, 0.002727432, 0.002727432, -0.08262928, 0.046579935, -0.059006978, 0.037555885},
    {0.089322746, 0.037555885, 0.089322746, -0.03274729, -0.059006978, -0.10304619, 0.002727432, -0.050689768, 0.08125669, 0.055428382, 0.10793478, 0.06384058, 0.08125669, -0.041949242, 0.029009728, 0.0115093775, -0.13837565, -0.07573012, -0.03274729, -0.023952426, 0.089322746, 0.055428382, -0.015535882, -0.06753526, 0.12422956, 0.055428382, -0.08916876, 0.0115093775, 0.06384058, 0.0115093775, 0.0115093775, -0.14798556, 0.072528556, -0.050689768, -0.17997561, 0.14228301, -0.11913206, 0.14228301, -0.023952426, -0.13837565, 0.037555885, 0.046579935, -0.041949242, 0.046579935, 0.089322746, -0.059006978, 0.06384058, 0.029009728, -0.14798556, -0.11107996, -0.050689768, 0.08125669, -0.06753526, -0.03274729, -0.14798556, 0.020334395, -0.11107996, -0.006590562, 0.055428382, 0.002727432, 0.037555885, -0.059006978, -0.015535882, -0.015535882, 0.020334395, 0.055428382, -0.06753526, 0.072528556, 0.046579935, -0.041949242, -0.07573012, -0.14798556, 0.12422956, 0.0115093775, -0.08916876, -0.2110842, -0.050689768, 0.037555885, 0.029009728, -0.07573012, 0.037555885, -0.11107996, -0.12819558, -0.08916876, -0.09623664, 0.072528556, 0.037555885, -0.09623664, -0.08916876, 0.072528556, -0.050689768, -0.059006978, 0.098597094, 0.055428382, -0.07573012, -0.08262928, 0.072528556, -0.08262928, 0.08125669, -0.07573012, -0.015535882, 0.19722468, 0.029009728, 0.072528556, -0.11107996, 0.055428382, -0.10304619, 0.0115093775, 0.089322746, 0.037555885, -0.07573012, 0.072528556, 0.046579935, -0.041949242, -0.023952426, -0.03274729, 0.002727432, 0.002727432, 0.08125669, -0.08262928},
    {0.11594932, -0.08262928, -0.015535882, -0.06753526, 0.055428382, 0.002727432, -0.03274729, 0.046579935, -0.03274729, 0.002727432, 0.055428382, 0.12422956, -0.059006978, 0.06384058, 0.0115093775, -0.041949242, -0.15604173, 0.08125669, 0.11594932, 0.08125669, 0.14228301, -0.06753526, -0.023952426, 0.08125669, -0.11107996, 0.11594932, 0.037555885, 0.046579935, -0.08916876, -0.08916876, 0.072528556, -0.11107996, 0.17059664, 0.15134633, -0.015535882, -0.03274729, 0.020334395, 0.089322746, -0.08916876, -0.023952426, -0.006590562, 0.055428382, -0.15604173, -0.015535882, 0.15134633, 0.055428382, -0.050689768, 0.055428382, -0.059006978, -0.06753526, -0.03274729, 0.037555885, -0.06753526, 0.06384058, -0.10304619, 0.08125669, 0.037555885, 0.089322746, 0.08125669, -0.03274729, 0.029009728, 0.089322746, 0.06384058, -0.006590562, 0.046579935, 0.11594932, 0.046579935, -0.050689768, 0.08125669, -0.059006978, 0.020334395, -0.07573012, 0.089322746, -0.15604173, -0.041949242, -0.07573012, 0.046579935, 0.072528556, -0.006590562, 0.14228301, 0.046579935, -0.023952426, 0.0115093775, 0.0115093775, -0.15604173, 0.037555885, -0.07573012, 0.0115093775, -0.023952426, 0.08125669, -0.015535882, 0.0115093775, 0.046579935, 0.10793478, -0.015535882, 0.06384058, -0.08262928, -0.006590562, -0.050689768, 0.029009728, 0.020334395, -0.023952426, -0.050689768, -0.015535882, -0.059006978, -0.023952426, -0.006590562, -0.006590562, 0.089322746, 0.020334395, -0.10304619, 0.17059664, 0.08125669, -0.08916876, -0.059006978, -0.08262928, 0.14228301, 0.06384058, 0.046579935, 0.020334395},
    {0.072528556, -0.015535882, 0.089322746, -0.023952426, 0.06384058, -0.06753526, 0.029009728, -0.015535882, -0.03274729, -0.006590562, 0.002727432, -0.07573012, -0.08262928, -0.006590562, -0.03274729, 0.020334395, -0.015535882, -0.059006978, -0.050689768, 0.037555885, 0.020334395, -0.08916876, 0.072528556, 0.08125669, 0.08125669, 0.037555885, -0.08262928, -0.023952426, 0.0115093775, -0.08262928, -0.023952426, 0.029009728, -0.050689768, -0.059006978, -0.006590562, -0.023952426, -0.059006978, -0.015535882, 0.002727432, -0.08916876, -0.015535882, -0.006590562, 0.020334395, -0.06753526, -0.03274729, -0.07573012, 0.08125669, -0.050689768, -0.041949242, 0.037555885, 0.020334395, -0.07573012, 0.0115093775, -0.023952426, -0.015535882, -0.041949242, -0.08916876, -0.03274729, -0.023952426, 0.072528556, 0.020334395, 0.08125669, 0.072528556, -0.08262928, -0.06753526, 0.089322746, 0.08125669, -0.006590562, -0.050689768, -0.03274729, -0.023952426, -0.050689768, 0.029009728, 0.0115093775, 0.089322746, 0.002727432, -0.07573012, -0.03274729, -0.08262928, -0.08916876, -0.041949242, -0.006590562, 0.0115093775, 0.055428382, 0.029009728, -0.015535882, -0.050689768, -0.03274729, -0.059006978, -0.041949242, -0.07573012, 0.072528556, 0.020334395, 0.002727432, 0.002727432, -0.06753526, -0.015535882, 0.08125669, 0.020334395, -0.06753526, 0.08125669, -0.041949242, 0.072528556, 0.002727432, 0.06384058, -0.08916876, 0.06384058, 0.046579935, -0.050689768, -0.006590562, -0.050689768, -0.059006978, -0.041949242, 0.06384058, -0.07573012, -0.059006978, -0.08262928, -0.059006978, 0.089322746, 0.0115093775},
    {0.098597094, 0.06384058, -0.006590562, -0.03274729, -0.006590562, -0.050689768, -0.041949242, 0.06384058, 0.11594932, -0.006590562, 0.020334395, -0.059006978, 0.08125669, -0.023952426, -0.03274729, 0.089322746, 0.002727432, -0.015535882, 0.072528556, -0.06753526, -0.10304619, -0.08916876, 0.046579935, 0.08125669, -0.023952426, -0.015535882, 0.089322746, -0.10304619, 0.055428382, -0.03274729, 0.037555885, 0.08125669, 0.046579935, 0.046579935, 0.072528556, -0.015535882, -0.015535882, 0.037555885, -0.09623664, 0.029009728, -0.03274729, 0.002727432, 0.055428382, -0.08262928, -0.11913206, 0.046579935, -0.059006978, 0.072528556, 0.002727432, -0.050689768, 0.08125669, -0.050689768, 0.046579935, -0.023952426, 0.055428382, -0.006590562, -0.03274729, -0.023952426, -0.06753526, 0.089322746, -0.015535882, 0.14228301, 0.0115093775, 0.10793478, 0.089322746, -0.09623664, -0.059006978, 0.037555885, -0.08916876, 0.12422956, 0.089322746, 0.072528556, 0.046579935, -0.09623664, -0.11107996, 0.002727432, -0.06753526, -0.09623664, 0.002727432, 0.020334395, -0.050689768, 0.072528556, 0.037555885, -0.03274729, 0.037555885, -0.03274729, -0.08262928, 0.098597094, -0.015535882, -0.03274729, 0.029009728, -0.059006978, 0.0115093775, 0.17059664, -0.059006978, 0.072528556, 0.029009728, -0.050689768, 0.055428382, -0.03274729, -0.09623664, -0.006590562, 0.020334395, 0.046579935, 0.055428382, -0.08262928, 0.10793478, -0.07573012, -0.14798556, 0.002727432, -0.041949242, -0.041949242, -0.006590562, 0.020334395, 0.055428382, 0.002727432, -0.03274729, -0.03274729, -0.059006978, -0.006590562},
    {-0.06753526, -0.07573012, -0.11913206, -0.023952426, 0.029009728, 0.029009728, -0.041949242, 0.0115093775, -0.059006978, -0.006590562, -0.006590562, -0.059006978, 0.19722468, -0.006590562, 0.046579935, 0.11594932, -0.14798556, -0.050689768, 0.037555885, 0.0115093775, -0.08262928, -0.17394252, -0.050689768, 0.002727432, 0.002727432, -0.14798556, 0.055428382, -0.03274729, -0.07573012, 0.089322746, 0.037555885, -0.041949242, 0.037555885, -0.03274729, 0.055428382, 0.11594932, -0.006590562, 0.098597094, 0.10793478, 0.11594932, -0.11913206, -0.006590562, 0.16031246, -0.050689768, 0.06384058, -0.06753526, 0.08125669, 0.002727432, 0.037555885, 0.002727432, 0.072528556, -0.09623664, 0.08125669, 0.12422956, 0.06384058, 0.046579935, 0.037555885, -0.041949242, -0.023952426, -0.023952426, 0.0115093775, 0.037555885, 0.0115093775, -0.050689768, -0.050689768, -0.03274729, -0.19652168, -0.015535882, -0.006590562, -0.006590562, -0.041949242, 0.020334395, -0.08916876, -0.050689768, -0.041949242, 0.046579935, -0.050689768, 0.020334395, -0.03274729, 0.029009728, 0.072528556, 0.089322746, -0.19652168, 0.072528556, 0.037555885, -0.059006978, -0.006590562, -0.06753526, 0.029009728, 0.002727432, 0.089322746, -0.10304619, 0.0115093775, 0.11594932, 0.08125669, 0.089322746, -0.07573012, 0.055428382, -0.03274729, 0.08125669, 0.002727432, 0.020334395, -0.006590562, -0.023952426, -0.023952426, -0.006590562, 0.029009728, 0.089322746, -0.041949242, -0.08262928, 0.0115093775, -0.050689768, 0.055428382, -0.07573012, 0.06384058, 0.17059664, -0.059006978, -0.06753526, 0.055428382, 0.029009728},
    {0.098597094, 0.020334395, -0.015535882, -0.041949242, 0.08125669, 0.11594932, -0.050689768, -0.006590562, -0.10304619, -0.059006978, -0.08916876, 0.0115093775, 0.13388956, 0.020334395, 0.06384058, 0.11594932, -0.041949242, -0.041949242, -0.03274729, -0.15604173, -0.13837565, 0.037555885, -0.041949242, 0.055428382, 0.089322746, -0.13837565, 0.06384058, 0.020334395, -0.06753526, 0.0115093775, 0.10793478, 0.072528556, -0.15604173, -0.006590562, 0.055428382, -0.03274729, 0.072528556, 0.029009728, -0.006590562, 0.046579935, 0.029009728, 0.08125669, 0.089322746, -0.023952426, -0.10304619, 0.037555885, 0.020334395, 0.055428382, 0.089322746, 0.10793478, -0.08916876, 0.046579935, -0.015535882, 0.06384058, 0.055428382, -0.08262928, 0.08125669, 0.002727432, 0.098597094, 0.029009728, 0.072528556, -0.023952426, -0.059006978, -0.006590562, -0.03274729, -0.041949242, -0.03274729, 0.08125669, -0.015535882, -0.050689768, 0.098597094, -0.050689768, -0.11913206, 0.098597094, 0.020334395, -0.006590562, 0.046579935, 0.037555885, -0.059006978, -0.07573012, -0.023952426, 0.020334395, -0.12819558, 0.002727432, 0.072528556, -0.03274729, 0.020334395, 0.029009728, 0.055428382, 0.098597094, -0.015535882, 0.072528556, -0.006590562, -0.041949242, -0.08916876, 0.046579935, -0.059006978, -0.059006978, -0.015535882, 0.10793478, 0.020334395, 0.002727432, -0.023952426, -0.006590562, 0.0115093775, -0.08916876, 0.089322746, 0.037555885, -0.059006978, -0.050689768, 0.072528556, -0.06753526, -0.07573012, -0.050689768, -0.03274729, 0.08125669, -0.050689768, 0.046579935, 0.089322746, 0.046579935},
    {0.072528556, 0.002727432, -0.015535882, -0.03274729, -0.08916876, 0.072528556, -0.059006978, -0.07573012, 0.15134633, -0.059006978, 0.029009728, 0.10793478, 0.11594932, -0.059006978, -0.08262928, 0.08125669, -0.09623664, -0.050689768, 0.072528556, 0.11594932, -0.07573012, 0.06384058, 0.002727432, -0.050689768, 0.15134633, -0.050689768, 0.029009728, 0.08125669, -0.07573012, -0.08262928, -0.11107996, 0.0115093775, 0.029009728, 0.10793478, -0.13837565, -0.023952426, -0.023952426, 0.08125669, -0.015535882, 0.06384058, 0.046579935, 0.098597094, -0.015535882, 0.16031246, 0.098597094, -0.050689768, -0.006590562, -0.041949242, 0.029009728, 0.089322746, -0.07573012, 0.072528556, 0.098597094, 0.089322746, 0.020334395, 0.072528556, -0.006590562, -0.03274729, -0.09623664, 0.0115093775, 0.072528556, 0.037555885, -0.023952426, 0.072528556, -0.07573012, -0.023952426, -0.1643807, -0.041949242, -0.1643807, -0.059006978, -0.050689768, 0.08125669, -0.050689768, 0.06384058, -0.015535882, 0.08125669, -0.041949242, 0.020334395, 0.072528556, -0.050689768, 0.046579935, -0.08262928, -0.09623664, -0.059006978, 0.10793478, -0.08262928, -0.041949242, -0.015535882, 0.098597094, 0.037555885, 0.046579935, -0.023952426, -0.11913206, 0.037555885, 0.037555885, 0.11594932, -0.12819558, 0.029009728, -0.041949242, -0.059006978, 0.055428382, 0.16031246, -0.015535882, -0.023952426, 0.037555885, 0.10793478, -0.14798556, 0.055428382, -0.08262928, 0.08125669, 0.098597094, 0.020334395, 0.037555885, 0.072528556, -0.09623664, 0.089322746, 0.037555885, 0.08125669, -0.07573012, -0.059006978},
    {0.089322746, 0.0115093775, -0.059006978, 0.06384058, -0.041949242, 0.002727432, -0.041949242, 0.08125669, 0.029009728, 0.046579935, 0.08125669, 0.08125669, 0.11594932, 0.020334395, 0.020334395, 0.06384058, 0.0115093775, -0.08262928, -0.08916876, 0.002727432, -0.11107996, -0.14798556, -0.08262928, 0.037555885, 0.020334395, -0.11107996, 0.0115093775, 0.16031246, -0.09623664, -0.07573012, 0.12422956, 0.046579935, -0.09623664, 0.046579935, -0.015535882, -0.006590562, 0.098597094, -0.006590562, 0.11594932, -0.059006978, -0.03274729, 0.046579935, 0.06384058, -0.12819558, -0.015535882, 0.089322746, -0.13837565, -0.07573012, 0.046579935, -0.07573012, -0.03274729, -0.11913206, 0.055428382, 0.002727432, -0.023952426, -0.006590562, 0.037555885, -0.06753526, -0.050689768, -0.006590562, -0.08262928, 0.22508818, 0.046579935, -0.050689768, -0.006590562, -0.12819558, 0.037555885, 0.072528556, -0.03274729, 0.002727432, 0.14228301, -0.023952426, -0.015535882, 0.0115093775, 0.002727432, 0.06384058, -0.059006978, -0.041949242, -0.006590562, 0.10793478, -0.09623664, 0.06384058, -0.11913206, -0.07573012, 0.037555885, -0.006590562, 0.029009728, 0.0115093775, 0.037555885, 0.002727432, 0.098597094, -0.03274729, -0.11913206, 0.098597094, -0.041949242, 0.08125669, -0.12819558, 0.0115093775, -0.07573012, 0.14228301, -0.023952426, 0.046579935, -0.06753526, 0.0115093775, 0.046579935, -0.15604173, 0.08125669, -0.059006978, -0.07573012, -0.041949242, -0.015535882, -0.006590562, 0.002727432, -0.03274729, -0.08916876, 0.072528556, -0.17394252, -0.08916876, -0.08262928, -0.023952426},
    {-0.059006978, -0.06753526, 0.06384058, 0.089322746, 0.0115093775, 0.06384058, -0.023952426, -0.08262928, 0.098597094, 0.072528556, -0.006590562, -0.08916876, -0.03274729, -0.041949242, -0.07573012, 0.0115093775, 0.029009728, 0.0115093775, 0.046579935, 0.072528556, 0.0115093775, 0.11594932, -0.006590562, 0.089322746, -0.023952426, -0.015535882, -0.023952426, 0.072528556, -0.023952426, 0.020334395, -0.08262928, -0.050689768, 0.15134633, -0.023952426, 0.13388956, 0.12422956, 0.098597094, 0.029009728, -0.015535882, -0.03274729, 0.029009728, -0.06753526, 0.037555885, 0.06384058, 0.08125669, -0.07573012, 0.08125669, -0.023952426, 0.089322746, -0.050689768, 0.046579935, -0.03274729, 0.098597094, -0.06753526, 0.11594932, 0.029009728, -0.11107996, -0.06753526, 0.098597094, 0.12422956, 0.046579935, 0.12422956, -0.006590562, -0.023952426, 0.020334395, 0.12422956, 0.072528556, 0.002727432, 0.020334395, -0.08262928, -0.015535882, 0.11594932, -0.023952426, -0.07573012, 0.020334395, 0.089322746, 0.055428382, 0.098597094, 0.002727432, -0.059006978, 0.055428382, -0.041949242, -0.015535882, -0.06753526, 0.15134633, -0.015535882, -0.050689768, -0.006590562, -0.07573012, 0.037555885, 0.12422956, -0.08916876, -0.006590562, -0.12819558, -0.050689768, -0.041949242, 0.20691325, -0.041949242, -0.06753526, 0.055428382, 0.020334395, -0.03274729, -0.050689768, -0.08262928, 0.037555885, 0.0115093775, -0.006590562, -0.006590562, 0.046579935, -0.006590562, 0.0115093775, 0.002727432, 0.08125669, -0.08916876, -0.041949242, -0.08916876, -0.03274729, 0.089322746, 0.046579935, 0.0115093775},
    {0.089322746, 0.046579935, 0.002727432, -0.015535882, 0.037555885, -0.006590562, -0.015535882, 0.055428382, -0.09623664, 0.046579935, 0.06384058, -0.006590562, -0.015535882, -0.015535882, -0.015535882, 0.002727432, 0.055428382, -0.06753526, -0.059006978, -0.12819558, 0.11594932, 0.11594932, 0.046579935, -0.050689768, 0.037555885, -0.03274729, -0.059006978, 0.06384058, -0.09623664, -0.08262928, 0.13388956, 0.06384058, -0.015535882, -0.12819558, 0.002727432, 0.06384058, 0.098597094, -0.09623664, -0.07573012, -0.050689768, -0.03274729, -0.041949242, 0.06384058, -0.023952426, -0.041949242, -0.03274729, 0.002727432, 0.11594932, -0.03274729, -0.041949242, -0.041949242, 0.089322746, 0.020334395, 0.055428382, -0.10304619, -0.059006978, -0.059006978, 0.029009728, 0.037555885, -0.023952426, 0.055428382, -0.12819558, -0.10304619, 0.089322746, 0.037555885, 0.046579935, 0.06384058, -0.10304619, 0.055428382, -0.11107996, -0.059006978, -0.09623664, 0.11594932, 0.055428382, 0.020334395, 0.11594932, 0.020334395, 0.10793478, 0.0115093775, -0.06753526, 0.055428382, -0.03274729, 0.08125669, 0.046579935, -0.06753526, 0.08125669, 0.046579935, 0.055428382, 0.029009728, -0.041949242, 0.089322746, 0.14228301, 0.098597094, -0.050689768, 0.046579935, -0.08262928, 0.15134633, 0.029009728, 0.046579935, -0.17997561, -0.10304619, 0.072528556, -0.08262928, 0.089322746, 0.020334395, 0.06384058, -0.006590562, -0.09623664, 0.15134633, 0.089322746, -0.015535882, -0.041949242, 0.046579935, -0.023952426, 0.10793478, -0.10304619, 0.046579935, -0.050689768, 0.0115093775, -0.041949242},
    {-0.08262928, 0.046579935, 0.029009728, -0.015535882, -0.015535882, 0.002727432, 0.055428382, 0.037555885, -0.041949242, -0.041949242, -0.041949242, -0.050689768, 0.0115093775, -0.13837565, 0.002727432, 0.11594932, -0.023952426, 0.055428382, -0.06753526, -0.023952426, -0.12819558, -0.023952426, -0.06753526, -0.08262928, 0.029009728, 0.029009728, -0.050689768, 0.072528556, 0.046579935, 0.072528556, -0.023952426, 0.020334395, -0.059006978, 0.0115093775, 0.098597094, 0.098597094, 0.002727432, 0.089322746, -0.06753526, 0.037555885, 0.046579935, 0.18776496, 0.037555885, 0.072528556, -0.041949242, -0.08262928, -0.015535882, -0.050689768, 0.072528556, -0.041949242, 0.089322746, 0.098597094, 0.046579935, -0.09623664, -0.015535882, -0.050689768, 0.046579935, -0.006590562, 0.089322746, 0.002727432, 0.037555885, 0.002727432, 0.10793478, -0.050689768, 0.029009728, -0.03274729, 0.029009728, 0.002727432, -0.10304619, 0.055428382, 0.029009728, 0.055428382, 0.029009728, 0.029009728, 0.002727432, -0.06753526, -0.041949242, -0.059006978, 0.020334395, -0.03274729, 0.046579935, 0.055428382, 0.020334395, -0.015535882, -0.050689768, 0.055428382, -0.023952426, 0.029009728, -0.041949242, -0.015535882, 0.089322746, 0.08125669, 0.046579935, 0.06384058, -0.08916876, -0.11107996, -0.015535882, -0.006590562, 0.037555885, -0.050689768, 0.046579935, 0.11594932, -0.08262928, -0.050689768, 0.072528556, 0.046579935, -0.12819558, 0.046579935, -0.041949242, 0.11594932, -0.015535882, 0.002727432, -0.03274729, -0.015535882, 0.072528556, -0.006590562, 0.055428382, -0.015535882, -0.03274729, 0.037555885},
    {-0.041949242, 0.072528556, -0.07573012, 0.037555885, 0.020334395, -0.015535882, 0.020334395, 0.002727432, -0.015535882, 0.029009728, -0.11107996, 0.0115093775, 0.098597094, 0.08125669, -0.08262928, 0.037555885, -0.023952426, 0.06384058, -0.07573012, 0.055428382, 0.08125669, 0.055428382, -0.041949242, 0.089322746, -0.041949242, -0.12819558, 0.037555885, -0.03274729, -0.08262928, -0.023952426, -0.12819558, 0.098597094, -0.023952426, 0.08125669, 0.0115093775, 0.037555885, 0.020334395, -0.023952426, 0.037555885, -0.059006978, 0.002727432, -0.15604173, 0.089322746, -0.08262928, 0.098597094, 0.055428382, 0.08125669, 0.0115093775, 0.12422956, 0.020334395, -0.006590562, -0.11107996, 0.18776496, -0.08262928, -0.041949242, -0.059006978, -0.10304619, -0.06753526, 0.0115093775, 0.11594932, 0.002727432, 0.089322746, 0.002727432, 0.020334395, -0.059006978, -0.03274729, 0.0115093775, 0.037555885, -0.17394252, -0.10304619, -0.006590562, 0.17914534, -0.12819558, -0.059006978, 0.08125669, 0.11594932, -0.08262928, 0.06384058, -0.08916876, 0.0115093775, -0.08262928, 0.037555885, 0.08125669, 0.029009728, 0.11594932, -0.050689768, 0.055428382, -0.041949242, 0.06384058, -0.06753526, -0.059006978, -0.13837565, 0.020334395, -0.023952426, -0.08262928, 0.10793478, 0.055428382, 0.055428382, -0.050689768, 0.06384058, 0.002727432, 0.002727432, 0.046579935, 0.089322746, 0.08125669, 0.17059664, 0.020334395, 0.0115093775, -0.023952426, 0.089322746, 0.029009728, -0.12819558, 0.002727432, -0.03274729, -0.041949242, 0.14228301, -0.13837565, -0.03274729, 0.037555885, 0.002727432},
    {-0.050689768, -0.059006978, 0.06384058, -0.041949242, -0.050689768, -0.050689768, -0.03274729, -0.059006978, -0.041949242, 0.020334395, -0.015535882, 0.029009728, -0.10304619, 0.0115093775, -0.006590562, 0.037555885, 0.072528556, 0.08125669, -0.08262928, 0.046579935, -0.041949242, 0.037555885, 0.08125669, 0.072528556, -0.023952426, -0.006590562, 0.08125669, 0.14228301, 0.08125669, 0.037555885, -0.015535882, -0.11913206, -0.059006978, 0.037555885, -0.14798556, 0.14228301, -0.050689768, 0.055428382, 0.098597094, -0.18867645, 0.08125669, 0.11594932, -0.15604173, 0.098597094, 0.020334395, -0.041949242, 0.098597094, -0.07573012, -0.08916876, 0.002727432, 0.072528556, 0.06384058, 0.002727432, -0.10304619, 0.06384058, -0.015535882, 0.046579935, 0.072528556, -0.07573012, 0.098597094, -0.041949242, -0.023952426, 0.08125669, -0.10304619, 0.002727432, -0.023952426, 0.089322746, 0.046579935, -0.059006978, 0.12422956, -0.11107996, -0.041949242, 0.089322746, 0.037555885, 0.0115093775, -0.06753526, 0.046579935, 0.11594932, -0.06753526, -0.08262928, -0.023952426, 0.0115093775, -0.03274729, 0.029009728, -0.015535882, 0.0115093775, -0.006590562, -0.050689768, 0.08125669, -0.059006978, 0.029009728, 0.089322746, 0.098597094, -0.006590562, -0.006590562, 0.037555885, -0.006590562, -0.03274729, 0.089322746, -0.12819558, -0.023952426, 0.072528556, -0.06753526, 0.055428382, -0.11107996, -0.07573012, -0.006590562, -0.050689768, 0.14228301, 0.072528556, 0.12422956, 0.08125669, -0.06753526, 0.055428382, -0.07573012, -0.006590562, -0.11107996, 0.08125669, 0.029009728, -0.08262928},
    {0.002727432, -0.08262928, 0.029009728, 0.055428382, 0.020334395, -0.08262928, 0.002727432, 0.08125669, -0.015535882, 0.055428382, -0.07573012, -0.08916876, 0.12422956, 0.072528556, -0.059006978, -0.08262928, 0.0115093775, -0.006590562, 0.10793478, -0.023952426, -0.08916876, -0.11913206, 0.06384058, 0.055428382, 0.029009728, -0.050689768, 0.0115093775, -0.059006978, -0.015535882, -0.041949242, 0.046579935, 0.10793478, 0.0115093775, -0.041949242, 0.020334395, 0.037555885, -0.15604173, 0.089322746, 0.046579935, 0.08125669, -0.12819558, 0.06384058, 0.089322746, 0.06384058, 0.10793478, 0.037555885, 0.055428382, -0.10304619, -0.041949242, 0.10793478, -0.08262928, 0.08125669, -0.07573012, 0.11594932, -0.06753526, 0.029009728, 0.020334395, -0.07573012, -0.006590562, -0.03274729, -0.08916876, -0.041949242, -0.11913206, 0.055428382, 0.046579935, 0.11594932, -0.08262928, -0.17394252, 0.13388956, -0.10304619, 0.055428382, -0.059006978, 0.089322746, -0.06753526, -0.10304619, 0.06384058, 0.13388956, -0.1643807, 0.046579935, 0.06384058, 0.037555885, 0.072528556, 0.002727432, -0.06753526, -0.09623664, -0.07573012, -0.041949242, 0.08125669, -0.08916876, -0.09623664, 0.072528556, -0.03274729, 0.06384058, -0.06753526, 0.072528556, 0.089322746, 0.055428382, -0.07573012, -0.03274729, 0.037555885, -0.041949242, 0.089322746, -0.06753526, 0.020334395, -0.059006978, -0.006590562, -0.041949242, -0.050689768, 0.089322746, 0.06384058, -0.059006978, -0.08916876, 0.002727432, -0.006590562, 0.08125669, -0.023952426, -0.006590562, 0.072528556, 0.055428382, -0.06753526},
    {-0.11107996, 0.08125669, -0.08916876, 0.020334395, -0.08916876, -0.03274729, 0.08125669, -0.07573012, -0.11913206, -0.006590562, 0.002727432, -0.059006978, 0.046579935, 0.002727432, -0.006590562, -0.050689768, -0.023952426, 0.06384058, -0.050689768, 0.072528556, 0.046579935, -0.059006978, 0.002727432, -0.023952426, 0.15134633, -0.050689768, -0.015535882, 0.16031246, 0.10793478, -0.06753526, 0.06384058, 0.14228301, -0.03274729, -0.12819558, 0.072528556, -0.059006978, 0.072528556, 0.0115093775, -0.041949242, 0.11594932, -0.03274729, 0.089322746, 0.11594932, 0.020334395, 0.020334395, 0.029009728, 0.0115093775, -0.050689768, 0.072528556, 0.037555885, -0.015535882, -0.023952426, 0.029009728, 0.020334395, 0.037555885, -0.059006978, 0.089322746, -0.08916876, -0.09623664, 0.072528556, -0.06753526, 0.089322746, -0.11913206, 0.12422956, 0.089322746, 0.020334395, 0.046579935, -0.11107996, 0.029009728, 0.002727432, -0.050689768, 0.15134633, -0.03274729, 0.020334395, -0.006590562, 0.12422956, 0.055428382, -0.10304619, -0.059006978, -0.041949242, 0.002727432, -0.006590562, -0.023952426, 0.089322746, 0.08125669, 0.037555885, 0.098597094, -0.06753526, -0.12819558, -0.09623664, 0.002727432, 0.098597094, -0.06753526, -0.11107996, -0.015535882, -0.050689768, 0.046579935, -0.03274729, -0.041949242, -0.11913206, 0.055428382, -0.041949242, 0.072528556, 0.072528556, -0.041949242, -0.041949242, 0.002727432, -0.07573012, 0.055428382, 0.072528556, 0.08125669, -0.09623664, 0.06384058, -0.050689768, 0.002727432, 0.055428382, -0.12819558, -0.041949242, -0.006590562, 0.002727432},
    {-0.09623664, -0.041949242, 0.002727432, -0.041949242, 0.055428382, 0.06384058, 0.089322746, 0.046579935, -0.03274729, 0.098597094, 0.046579935, -0.07573012, -0.10304619, 0.002727432, 0.055428382, -0.023952426, 0.0115093775, -0.023952426, -0.03274729, 0.098597094, 0.002727432, 0.0115093775, -0.07573012, 0.055428382, -0.006590562, 0.12422956, 0.002727432, 0.0115093775, -0.03274729, -0.006590562, -0.06753526, -0.023952426, -0.050689768, -0.08916876, 0.06384058, -0.050689768, -0.059006978, 0.0115093775, 0.046579935, 0.046579935, 0.072528556, 0.002727432, -0.041949242, 0.08125669, -0.041949242, 0.029009728, 0.002727432, 0.029009728, 0.089322746, 0.055428382, -0.06753526, 0.037555885, 0.002727432, -0.041949242, 0.037555885, 0.055428382, 0.037555885, 0.055428382, -0.03274729, -0.050689768, 0.055428382, -0.041949242, -0.11107996, 0.055428382, 0.002727432, 0.12422956, 0.06384058, 0.029009728, 0.037555885, 0.072528556, 0.08125669, -0.050689768, 0.020334395, 0.0115093775, 0.098597094, 0.12422956, 0.002727432, -0.015535882, 0.055428382, 0.020334395, 0.08125669, -0.041949242, 0.037555885, -0.023952426, 0.089322746, -0.07573012, 0.002727432, 0.037555885, -0.059006978, -0.09623664, 0.055428382, -0.13837565, -0.03274729, -0.03274729, 0.06384058, 0.037555885, 0.002727432, -0.03274729, 0.046579935, 0.046579935, -0.06753526, -0.08916876, 0.055428382, 0.046579935, -0.08262928, -0.07573012, 0.020334395, -0.023952426, -0.07573012, -0.07573012, -0.08916876, -0.059006978, 0.072528556, -0.041949242, 0.12422956, -0.023952426, -0.06753526, -0.006590562, -0.015535882, -0.023952426},
    {0.020334395, 0.046579935, -0.08916876, 0.020334395, 0.046579935, -0.11107996, 0.055428382, 0.072528556, -0.023952426, -0.09623664, 0.08125669, 0.046579935, -0.12819558, 0.11594932, 0.072528556, -0.10304619, 0.0115093775, 0.072528556, 0.072528556, 0.06384058, 0.002727432, -0.09623664, -0.041949242, 0.0115093775, -0.050689768, 0.12422956, -0.050689768, 0.072528556, -0.015535882, -0.023952426, -0.08262928, 0.020334395, 0.10793478, -0.09623664, 0.037555885, -0.050689768, -0.10304619, 0.22508818, 0.12422956, -0.059006978, -0.006590562, 0.020334395, 0.098597094, -0.15604173, -0.03274729, -0.006590562, -0.11913206, -0.10304619, -0.17997561, -0.08916876, 0.06384058, 0.0115093775, -0.09623664, -0.050689768, -0.10304619, 0.029009728, 0.08125669, 0.08125669, 0.020334395, -0.12819558, -0.11107996, 0.08125669, -0.023952426, 0.14228301, 0.0115093775, 0.046579935, 0.15134633, 0.046579935, 0.17914534, -0.041949242, -0.041949242, -0.09623664, 0.16031246, 0.11594932, -0.08916876, -0.11913206, 0.06384058, -0.1643807, -0.09623664, 0.037555885, 0.002727432, -0.08262928, -0.015535882, -0.023952426, -0.050689768, 0.002727432, 0.020334395, 0.08125669, -0.03274729, -0.11913206, 0.072528556, 0.098597094, 0.020334395, 0.15134633, -0.023952426, -0.12819558, 0.029009728, -0.041949242, -0.023952426, 0.089322746, -0.03274729, 0.0115093775, 0.029009728, -0.015535882, -0.059006978, -0.006590562, 0.037555885, -0.07573012, 0.098597094, 0.037555885, -0.050689768, 0.16031246, 0.0115093775, 0.0115093775, 0.13388956, 0.098597094, 0.046579935, -0.041949242, -0.09623664, -0.015535882},
    {-0.06753526, -0.015535882, -0.006590562, 0.0115093775, -0.015535882, -0.12819558, 0.046579935, 0.020334395, 0.002727432, 0.089322746, 0.098597094, 0.046579935, 0.12422956, 0.17059664, -0.08262928, 0.046579935, -0.015535882, -0.06753526, 0.10793478, -0.015535882, -0.06753526, -0.023952426, -0.08916876, -0.09623664, -0.18867645, 0.020334395, 0.020334395, -0.13837565, -0.050689768, 0.002727432, 0.072528556, -0.12819558, 0.13388956, 0.055428382, 0.0115093775, 0.098597094, 0.002727432, 0.17059664, -0.03274729, -0.006590562, 0.002727432, 0.072528556, 0.089322746, -0.050689768, -0.03274729, -0.006590562, 0.037555885, -0.13837565, -0.08262928, 0.0115093775, 0.037555885, -0.11107996, 0.06384058, -0.015535882, -0.023952426, -0.023952426, 0.06384058, -0.06753526, 0.037555885, 0.020334395, -0.050689768, -0.006590562, -0.041949242, 0.14228301, 0.002727432, 0.046579935, 0.089322746, -0.03274729, 0.046579935, -0.050689768, -0.041949242, -0.023952426, 0.13388956, -0.09623664, -0.015535882, 0.020334395, 0.037555885, -0.03274729, 0.029009728, 0.037555885, 0.046579935, 0.06384058, -0.13837565, 0.046579935, 0.10793478, -0.041949242, 0.055428382, 0.11594932, 0.020334395, -0.11107996, 0.08125669, -0.023952426, 0.072528556, 0.11594932, 0.0115093775, -0.11107996, -0.006590562, 0.06384058, -0.041949242, -0.07573012, -0.11913206, -0.059006978, 0.0115093775, 0.06384058, 0.10793478, -0.023952426, -0.041949242, 0.037555885, -0.07573012, 0.002727432, 0.06384058, 0.029009728, 0.002727432, 0.08125669, 0.20691325, 0.089322746, -0.12819558, -0.041949242, 0.08125669, 0.0115093775},
    {-0.041949242, 0.020334395, 0.10793478, -0.07573012, 0.020334395, 0.029009728, -0.09623664, 0.037555885, 0.06384058, 0.055428382, -0.023952426, -0.06753526, -0.015535882, -0.15604173, 0.020334395, 0.046579935, 0.06384058, 0.037555885, 0.0115093775, -0.050689768, -0.06753526, 0.08125669, 0.020334395, 0.037555885, 0.072528556, -0.09623664, -0.07573012, -0.06753526, 0.037555885, -0.023952426, 0.072528556, -0.08262928, 0.11594932, -0.023952426, 0.06384058, 0.14228301, 0.098597094, -0.12819558, -0.10304619, 0.046579935, -0.059006978, -0.06753526, -0.023952426, -0.015535882, 0.11594932, -0.08916876, 0.08125669, 0.08125669, -0.006590562, 0.08125669, 0.037555885, -0.041949242, 0.06384058, -0.041949242, -0.041949242, -0.03274729, -0.10304619, 0.029009728, 0.089322746, 0.098597094, -0.006590562, -0.07573012, 0.046579935, -0.07573012, 0.06384058, 0.029009728, 0.06384058, -0.050689768, 0.06384058, -0.006590562, -0.06753526, 0.072528556, -0.03274729, -0.015535882, 0.12422956, -0.050689768, -0.07573012, 0.098597094, -0.03274729, -0.12819558, -0.08916876, 0.037555885, -0.06753526, 0.08125669, 0.046579935, 0.089322746, -0.06753526, 0.029009728, -0.09623664, 0.15134633, -0.050689768, -0.07573012, 0.089322746, -0.09623664, 0.002727432, 0.055428382, -0.023952426, 0.072528556, -0.050689768, 0.020334395, -0.03274729, 0.11594932, -0.06753526, 0.08125669, 0.020334395, 0.14228301, -0.06753526, 0.089322746, 0.046579935, -0.041949242, 0.055428382, 0.002727432, -0.050689768, -0.08916876, -0.059006978, 0.029009728, 0.089322746, -0.08262928, -0.06753526, -0.08262928},
    {-0.08262928, -0.059006978, 0.046579935, 0.08125669, -0.08262928, -0.015535882, 0.0115093775, -0.006590562, 0.098597094, 0.029009728, 0.020334395, -0.08916876, 0.029009728, -0.08916876, -0.06753526, -0.18867645, 0.18776496, 0.055428382, -0.050689768, -0.11913206, 0.14228301, 0.18776496, -0.041949242, -0.006590562, -0.08262928, 0.055428382, 0.072528556, -0.059006978, -0.023952426, -0.015535882, -0.07573012, 0.06384058, 0.029009728, -0.12819558, -0.006590562, -0.14798556, -0.041949242, -0.041949242, -0.09623664, 0.12422956, -0.041949242, -0.041949242, 0.055428382, 0.11594932, -0.023952426, -0.006590562, 0.14228301, -0.023952426, -0.015535882, -0.12819558, 0.037555885, 0.055428382, -0.006590562, 0.0115093775, 0.098597094, 0.037555885, 0.06384058, 0.002727432, 0.10793478, 0.15134633, 0.0115093775, -0.07573012, -0.08262928, -0.08262928, -0.050689768, 0.072528556, 0.029009728, -0.03274729, 0.072528556, -0.006590562, -0.07573012, -0.03274729, -0.041949242, 0.10793478, 0.089322746, 0.020334395, -0.11913206, 0.06384058, -0.023952426, -0.041949242, -0.006590562, 0.020334395, 0.072528556, -0.08262928, 0.037555885, 0.046579935, 0.06384058, 0.08125669, -0.10304619, 0.13388956, 0.029009728, -0.015535882, 0.15134633, -0.17394252, 0.037555885, 0.098597094, 0.21745212, 0.0115093775, -0.041949242, 0.029009728, -0.09623664, -0.03274729, 0.046579935, 0.06384058, -0.06753526, 0.037555885, -0.06753526, -0.08262928, 0.0115093775, 0.046579935, 0.12422956, -0.18867645, 0.08125669, 0.029009728, -0.07573012, -0.050689768, 0.12422956, 0.0115093775, 0.002727432, 0.020334395},
    {0.002727432, -0.059006978, 0.072528556, -0.06753526, -0.059006978, 0.055428382, 0.055428382, 0.055428382, 0.0115093775, 0.002727432, 0.029009728, 0.002727432, 0.15134633, 0.029009728, 0.002727432, 0.14228301, 0.12422956, -0.08262928, 0.11594932, 0.055428382, -0.041949242, 0.0115093775, -0.08262928, -0.07573012, -0.03274729, -0.07573012, -0.015535882, -0.015535882, 0.098597094, 0.0115093775, -0.050689768, 0.089322746, -0.041949242, 0.037555885, -0.041949242, 0.072528556, 0.11594932, 0.046579935, -0.12819558, -0.006590562, 0.055428382, 0.10793478, 0.10793478, 0.12422956, -0.13837565, 0.072528556, -0.06753526, -0.08916876, 0.055428382, 0.0115093775, 0.072528556, 0.072528556, 0.12422956, -0.050689768, 0.08125669, 0.055428382, -0.07573012, 0.08125669, 0.055428382, 0.029009728, -0.015535882, -0.059006978, -0.03274729, 0.10793478, 0.037555885, -0.08916876, -0.15604173, 0.06384058, -0.11107996, -0.023952426, -0.006590562, 0.12422956, -0.08262928, -0.015535882, 0.020334395, 0.12422956, 0.08125669, 0.029009728, -0.050689768, -0.041949242, -0.023952426, -0.08262928, 0.072528556, 0.055428382, 0.14228301, 0.072528556, -0.015535882, 0.002727432, -0.08262928, 0.06384058, 0.055428382, -0.03274729, -0.050689768, 0.072528556, -0.041949242, 0.002727432, -0.059006978, -0.006590562, -0.050689768, -0.06753526, 0.089322746, 0.037555885, -0.059006978, -0.07573012, -0.050689768, 0.046579935, -0.07573012, 0.046579935, -0.023952426, 0.072528556, 0.029009728, -0.059006978, 0.002727432, -0.023952426, 0.029009728, 0.10793478, 0.06384058, -0.015535882, 0.0115093775, 0.06384058},
    {-0.07573012, 0.06384058, 0.089322746, -0.006590562, -0.041949242, -0.03274729, 0.072528556, 0.0115093775, -0.050689768, 0.055428382, -0.041949242, -0.059006978, -0.03274729, 0.072528556, 0.055428382, -0.07573012, 0.020334395, 0.002727432, 0.037555885, 0.020334395, -0.041949242, -0.08262928, 0.037555885, -0.023952426, 0.0115093775, 0.089322746, 0.029009728, -0.08262928, -0.06753526, -0.023952426, -0.041949242, -0.06753526, -0.041949242, 0.055428382, -0.03274729, -0.08262928, 0.06384058, 0.0115093775, -0.041949242, -0.041949242, 0.08125669, -0.006590562, 0.020334395, 0.08125669, -0.08262928, -0.03274729, 0.020334395, 0.06384058, 0.002727432, -0.041949242, 0.020334395, 0.06384058, -0.006590562, -0.041949242, -0.006590562, -0.06753526, 0.029009728, -0.059006978, 0.055428382, -0.006590562, -0.015535882, -0.08916876, 0.020334395, -0.06753526, -0.059006978, -0.023952426, 0.029009728, -0.03274729, 0.046579935, -0.023952426, -0.08262928, -0.059006978, 0.08125669, 0.055428382, -0.06753526, 0.055428382, -0.006590562, -0.06753526, -0.06753526, 0.037555885, 0.020334395, 0.020334395, 0.046579935, -0.006590562, -0.08916876, 0.072528556, 0.037555885, -0.023952426, -0.006590562, -0.015535882, 0.002727432, 0.037555885, 0.06384058, 0.055428382, 0.029009728, -0.08262928, -0.06753526, -0.03274729, 0.046579935, -0.050689768, 0.020334395, -0.041949242, 0.037555885, -0.07573012, 0.046579935, -0.08916876, -0.08916876, 0.055428382, -0.041949242, 0.029009728, -0.03274729, 0.037555885, 0.06384058, -0.03274729, -0.03274729, 0.0115093775, 0.089322746, 0.0115093775, 0.055428382, -0.06753526},
    {-0.041949242, -0.015535882, 0.037555885, 0.002727432, 0.046579935, 0.17914534, -0.08262928, -0.08916876, -0.09623664, -0.09623664, -0.06753526, 0.072528556, -0.09623664, -0.023952426, -0.059006978, 0.0115093775, -0.041949242, 0.046579935, 0.0115093775, 0.046579935, 0.08125669, -0.10304619, -0.03274729, 0.08125669, 0.0115093775, -0.041949242, 0.020334395, 0.002727432, -0.08262928, 0.037555885, -0.006590562, 0.0115093775, 0.089322746, 0.14228301, 0.020334395, 0.0115093775, 0.08125669, -0.08916876, 0.029009728, -0.17394252, 0.10793478, 0.072528556, -0.07573012, 0.029009728, -0.006590562, 0.072528556, -0.07573012, -0.08916876, -0.006590562, -0.006590562, -0.059006978, -0.03274729, 0.10793478, -0.03274729, -0.059006978, 0.037555885, 0.10793478, 0.072528556, 0.06384058, -0.08916876, -0.059006978, 0.098597094, 0.19722468, -0.13837565, 0.037555885, 0.08125669, 0.06384058, 0.098597094, -0.015535882, -0.023952426, -0.050689768, 0.14228301, -0.15604173, -0.041949242, -0.050689768, 0.072528556, 0.098597094, -0.11913206, 0.072528556, 0.0115093775, -0.07573012, -0.006590562, 0.098597094, 0.020334395, 0.089322746, -0.006590562, -0.09623664, -0.023952426, 0.020334395, 0.098597094, -0.09623664, 0.046579935, -0.1643807, 0.002727432, 0.055428382, -0.050689768, 0.12422956, -0.015535882, 0.0115093775, 0.098597094, 0.10793478, -0.08262928, 0.06384058, -0.08916876, 0.046579935, -0.059006978, 0.037555885, -0.006590562, -0.11107996, -0.041949242, 0.098597094, 0.18776496, -0.11913206, 0.029009728, -0.06753526, 0.089322746, -0.08262928, 0.055428382, 0.002727432, 0.037555885},
    {0.15134633, 0.0115093775, -0.023952426, -0.015535882, -0.006590562, -0.006590562, -0.015535882, 0.0115093775, 0.14228301, -0.07573012, -0.07573012, 0.072528556, 0.08125669, -0.03274729, 0.020334395, 0.020334395, -0.11107996, -0.03274729, 0.06384058, 0.06384058, 0.046579935, 0.16031246, -0.03274729, -0.041949242, -0.050689768, -0.015535882, 0.089322746, -0.08916876, -0.10304619, 0.06384058, 0.12422956, -0.11913206, 0.098597094, 0.14228301, 0.020334395, -0.023952426, -0.023952426, 0.002727432, -0.11913206, 0.046579935, 0.08125669, 0.098597094, 0.029009728, 0.046579935, 0.06384058, -0.050689768, -0.006590562, 0.037555885, -0.041949242, -0.08262928, 0.089322746, -0.006590562, 0.08125669, 0.002727432, -0.08262928, 0.0115093775, -0.12819558, -0.07573012, 0.046579935, 0.12422956, -0.015535882, 0.002727432, 0.055428382, -0.10304619, -0.050689768, -0.10304619, 0.16031246, 0.11594932, -0.08916876, 0.13388956, -0.050689768, 0.029009728, -0.006590562, -0.15604173, 0.08125669, -0.03274729, -0.023952426, 0.037555885, 0.098597094, 0.029009728, -0.006590562, -0.03274729, -0.041949242, 0.037555885, 0.089322746, 0.06384058, 0.037555885, -0.050689768, 0.098597094, 0.17059664, 0.06384058, 0.046579935, -0.015535882, 0.0115093775, -0.050689768, 0.046579935, -0.015535882, 0.055428382, 0.037555885, -0.050689768, 0.06384058, 0.002727432, 0.08125669, 0.089322746, 0.12422956, 0.089322746, -0.08262928, -0.041949242, 0.037555885, -0.03274729, -0.06753526, 0.11594932, -0.06753526, -0.041949242, 0.0115093775, 0.055428382, 0.11594932, -0.041949242, 0.046579935, 0.072528556},
    {0.12422956, 0.072528556, -0.08262928, 0.089322746, 0.037555885, 0.072528556, -0.006590562, -0.059006978, -0.006590562, 0.002727432, 0.08125669, -0.08916876, -0.006590562, 0.055428382, -0.015535882, -0.050689768, -0.08262928, 0.002727432, -0.006590562, 0.002727432, -0.041949242, 0.037555885, -0.03274729, 0.020334395, -0.06753526, 0.002727432, 0.06384058, 0.072528556, -0.08262928, 0.020334395, 0.17059664, -0.06753526, 0.037555885, 0.029009728, 0.037555885, 0.12422956, -0.03274729, -0.08916876, 0.08125669, -0.11107996, -0.10304619, 0.15134633, -0.08262928, -0.050689768, 0.10793478, -0.015535882, 0.002727432, 0.029009728, 0.002727432, -0.06753526, 0.002727432, 0.08125669, -0.050689768, 0.0115093775, -0.10304619, -0.03274729, 0.002727432, -0.059006978, -0.03274729, 0.037555885, 0.020334395, -0.08262928, -0.03274729, -0.11107996, 0.029009728, -0.07573012, 0.12422956, -0.006590562, 0.020334395, -0.03274729, -0.06753526, -0.023952426, 0.072528556, -0.09623664, -0.023952426, -0.059006978, -0.12819558, -0.059006978, 0.002727432, -0.12819558, 0.002727432, -0.050689768, -0.11913206, 0.046579935, -0.050689768, 0.12422956, -0.06753526, 0.046579935, 0.0115093775, 0.055428382, 0.10793478, 0.17914534, -0.015535882, -0.015535882, -0.059006978, -0.10304619, -0.050689768, -0.023952426, -0.03274729, -0.08916876, 0.0115093775, 0.0115093775, -0.08262928, -0.006590562, 0.029009728, -0.15604173, 0.12422956, -0.050689768, 0.12422956, 0.12422956, 0.037555885, 0.020334395, 0.098597094, 0.055428382, 0.08125669, -0.08916876, 0.029009728, 0.020334395, 0.0115093775, -0.03274729},
    {-0.041949242, 0.08125669, -0.059006978, 0.020334395, 0.08125669, -0.015535882, -0.015535882, -0.08262928, -0.06753526, -0.015535882, 0.046579935, -0.015535882, -0.11107996, -0.041949242, 0.037555885, -0.06753526, -0.023952426, 0.037555885, -0.08916876, 0.055428382, -0.08262928, -0.08916876, 0.08125669, -0.015535882, -0.06753526, 0.055428382, -0.015535882, -0.006590562, 0.089322746, 0.020334395, 0.089322746, 0.089322746, -0.023952426, -0.03274729, -0.03274729, -0.015535882, 0.020334395, -0.08262928, -0.050689768, -0.06753526, 0.072528556, 0.072528556, 0.0115093775, 0.0115093775, -0.07573012, -0.041949242, -0.059006978, 0.002727432, 0.046579935, 0.10793478, -0.041949242, 0.08125669, 0.046579935, 0.06384058, 0.072528556, 0.0115093775, 0.055428382, -0.08262928, 0.089322746, 0.0115093775, 0.046579935, 0.029009728, -0.03274729, 0.037555885, 0.08125669, 0.06384058, -0.08916876, -0.006590562, -0.09623664, 0.06384058, 0.020334395, -0.006590562, -0.050689768, 0.06384058, -0.015535882, 0.06384058, 0.098597094, 0.10793478, -0.06753526, -0.03274729, 0.072528556, 0.055428382, -0.06753526, -0.006590562, 0.0115093775, 0.002727432, -0.015535882, -0.06753526, -0.041949242, -0.059006978, -0.07573012, 0.08125669, 0.0115093775, -0.006590562, -0.07573012, -0.059006978, -0.08262928, 0.002727432, 0.08125669, -0.023952426, -0.041949242, 0.046579935, -0.059006978, -0.08916876, 0.072528556, -0.006590562, 0.0115093775, 0.037555885, 0.020334395, 0.020334395, 0.08125669, -0.03274729, 0.020334395, 0.08125669, 0.046579935, 0.0115093775, 0.046579935, -0.08262928, 0.002727432, 0.072528556},
    {0.037555885, -0.08262928, -0.08916876, -0.006590562, 0.0115093775, 0.029009728, -0.08916876, 0.06384058, 0.08125669, 0.037555885, -0.041949242, -0.07573012, 0.029009728, -0.19652168, -0.08262928, 0.037555885, -0.03274729, 0.029009728, -0.14798556, -0.10304619, -0.08916876, 0.08125669, 0.020334395, 0.08125669, 0.0115093775, -0.09623664, -0.041949242, -0.015535882, 0.020334395, -0.050689768, -0.06753526, -0.023952426, -0.12819558, 0.029009728, 0.0115093775, 0.072528556, 0.037555885, -0.059006978, 0.17059664, -0.07573012, -0.03274729, 0.10793478, -0.006590562, -0.050689768, 0.08125669, -0.03274729, 0.029009728, 0.020334395, 0.089322746, 0.072528556, -0.023952426, 0.08125669, 0.002727432, 0.002727432, 0.13388956, 0.089322746, 0.089322746, 0.089322746, -0.006590562, -0.041949242, -0.06753526, -0.059006978, 0.14228301, -0.08262928, -0.07573012, 0.002727432, 0.16031246, 0.12422956, 0.13388956, 0.10793478, -0.06753526, 0.098597094, -0.023952426, -0.023952426, -0.11913206, -0.07573012, -0.041949242, 0.0115093775, 0.089322746, -0.11107996, -0.03274729, -0.11107996, 0.046579935, -0.006590562, -0.023952426, 0.046579935, -0.023952426, -0.015535882, -0.006590562, 0.15134633, -0.050689768, 0.089322746, -0.015535882, -0.006590562, 0.037555885, -0.10304619, -0.006590562, 0.037555885, 0.0115093775, 0.029009728, -0.006590562, 0.14228301, -0.06753526, 0.046579935, 0.029009728, -0.08916876, -0.015535882, 0.037555885, -0.041949242, 0.16031246, -0.09623664, -0.03274729, -0.08916876, -0.023952426, -0.14798556, 0.098597094, -0.050689768, -0.023952426, 0.0115093775, 0.037555885},
    {0.002727432, 0.037555885, -0.07573012, -0.07573012, -0.015535882, -0.08262928, -0.03274729, -0.08262928, -0.03274729, -0.11107996, 0.037555885, -0.015535882, 0.072528556, -0.08262928, 0.046579935, 0.08125669, -0.059006978, -0.023952426, 0.08125669, -0.08916876, -0.11107996, -0.11913206, -0.041949242, 0.06384058, -0.041949242, -0.050689768, 0.029009728, 0.098597094, -0.050689768, 0.06384058, 0.089322746, -0.015535882, 0.12422956, 0.13388956, 0.08125669, 0.0115093775, 0.14228301, -0.059006978, 0.029009728, -0.08916876, -0.03274729, 0.055428382, 0.0115093775, -0.06753526, 0.06384058, -0.06753526, 0.08125669, 0.089322746, 0.098597094, 0.06384058, 0.0115093775, -0.12819558, 0.029009728, 0.10793478, -0.059006978, -0.06753526, -0.006590562, 0.037555885, -0.015535882, -0.006590562, 0.06384058, 0.089322746, 0.12422956, 0.029009728, 0.072528556, -0.12819558, 0.10793478, 0.046579935, -0.006590562, -0.07573012, 0.029009728, -0.050689768, -0.06753526, -0.050689768, -0.015535882, 0.037555885, -0.08262928, -0.11107996, -0.023952426, 0.046579935, -0.09623664, 0.037555885, -0.08916876, 0.055428382, 0.098597094, -0.041949242, -0.006590562, -0.023952426, -0.015535882, -0.03274729, 0.020334395, 0.002727432, -0.023952426, -0.023952426, -0.08916876, 0.10793478, -0.006590562, 0.046579935, -0.08916876, 0.098597094, 0.029009728, -0.03274729, 0.072528556, 0.0115093775, 0.072528556, -0.10304619, -0.050689768, -0.06753526, -0.11913206, 0.055428382, -0.041949242, 0.029009728, 0.037555885, 0.020334395, -0.041949242, -0.023952426, -0.041949242, 0.08125669, -0.050689768, 0.002727432},
    {-0.08262928, 0.08125669, -0.059006978, -0.06753526, -0.07573012, 0.002727432, 0.089322746, 0.0115093775, 0.0115093775, 0.055428382, 0.08125669, -0.06753526, -0.023952426, 0.072528556, -0.03274729, -0.023952426, 0.029009728, -0.03274729, 0.029009728, -0.07573012, -0.050689768, 0.06384058, -0.023952426, 0.089322746, -0.03274729, 0.055428382, 0.08125669, 0.055428382, -0.03274729, -0.08262928, -0.041949242, 0.046579935, -0.041949242, 0.072528556, -0.006590562, -0.06753526, 0.098597094, -0.08916876, 0.020334395, 0.072528556, -0.006590562, -0.023952426, -0.03274729, -0.006590562, -0.07573012, -0.03274729, 0.089322746, 0.06384058, 0.055428382, 0.046579935, -0.041949242, 0.055428382, -0.03274729, 0.089322746, -0.041949242, -0.059006978, -0.041949242, -0.059006978, 0.020334395, 0.06384058, 0.055428382, -0.006590562, 0.037555885, -0.08262928, 0.046579935, 0.020334395, -0.023952426, 0.06384058, 0.037555885, -0.023952426, -0.059006978, 0.055428382, -0.03274729, -0.03274729, -0.050689768, -0.08916876, -0.09623664, -0.08916876, 0.06384058, -0.08916876, 0.002727432, 0.046579935, 0.029009728, 0.029009728, -0.041949242, 0.0115093775, 0.020334395, 0.08125669, 0.055428382, -0.015535882, -0.059006978, 0.037555885, -0.006590562, -0.023952426, 0.08125669, 0.06384058, 0.002727432, -0.050689768, -0.07573012, -0.050689768, 0.046579935, -0.041949242, 0.072528556, -0.08916876, -0.050689768, 0.10793478, 0.046579935, 0.0115093775, -0.03274729, -0.059006978, -0.059006978, 0.06384058, 0.06384058, -0.059006978, -0.06753526, 0.055428382, -0.006590562, 0.055428382, -0.08262928, -0.08262928},
    {-0.006590562, 0.055428382, 0.0115093775, 0.029009728, -0.06753526, -0.15604173, 0.08125669, 0.002727432, 0.046579935, -0.015535882, 0.055428382, -0.023952426, -0.08916876, 0.055428382, -0.041949242, -0.11107996, 0.089322746, 0.08125669, -0.059006978, 0.002727432, -0.06753526, 0.072528556, 0.055428382, 0.020334395, 0.072528556, -0.015535882, -0.07573012, 0.002727432, 0.12422956, 0.002727432, -0.050689768, -0.07573012, 0.17914534, -0.059006978, 0.089322746, 0.08125669, -0.041949242, 0.037555885, 0.14228301, -0.059006978, 0.029009728, -0.006590562, 0.055428382, -0.11913206, 0.17914534, 0.08125669, -0.08916876, -0.059006978, 0.037555885, -0.1643807, 0.037555885, -0.10304619, 0.002727432, 0.072528556, -0.023952426, -0.041949242, 0.072528556, -0.03274729, 0.0115093775, -0.08916876, -0.12819558, 0.10793478, -0.07573012, 0.089322746, -0.08262928, 0.029009728, 0.16031246, 0.089322746, 0.12422956, -0.059006978, -0.041949242, 0.0115093775, 0.19722468, 0.0115093775, 0.020334395, -0.10304619, -0.023952426, -0.059006978, -0.023952426, 0.020334395, -0.08262928, -0.041949242, -0.10304619, -0.06753526, 0.046579935, -0.050689768, -0.059006978, 0.16031246, 0.08125669, 0.002727432, -0.06753526, 0.13388956, -0.023952426, -0.050689768, -0.006590562, -0.08916876, 0.17059664, -0.023952426, -0.03274729, -0.023952426, -0.10304619, 0.11594932, -0.059006978, 0.046579935, 0.098597094, 0.072528556, 0.0115093775, -0.050689768, -0.08262928, 0.037555885, -0.050689768, 0.089322746, -0.041949242, 0.002727432, -0.050689768, -0.08262928, -0.12819558, -0.023952426, -0.050689768, 0.046579935},
    {-0.09623664, 0.002727432, -0.07573012, 0.055428382, 0.029009728, 0.08125669, -0.059006978, -0.08916876, -0.059006978, 0.06384058, 0.002727432, 0.072528556, 0.002727432, 0.037555885, -0.006590562, -0.015535882, 0.0115093775, -0.006590562, 0.037555885, 0.15134633, 0.08125669, -0.07573012, 0.020334395, -0.08262928, -0.050689768, 0.072528556, -0.015535882, 0.098597094, -0.03274729, -0.08262928, 0.0115093775, 0.10793478, -0.08916876, 0.06384058, -0.08262928, -0.050689768, -0.041949242, 0.020334395, -0.11107996, 0.020334395, 0.0115093775, -0.023952426, 0.037555885, 0.037555885, 0.029009728, 0.002727432, -0.07573012, 0.0115093775, -0.08262928, -0.041949242, -0.006590562, -0.050689768, -0.09623664, 0.08125669, 0.06384058, -0.006590562, 0.055428382, 0.0115093775, -0.07573012, -0.10304619, 0.037555885, -0.041949242, 0.020334395, 0.046579935, -0.041949242, -0.050689768, -0.03274729, -0.03274729, 0.0115093775, -0.015535882, -0.023952426, -0.015535882, -0.023952426, 0.055428382, 0.002727432, 0.08125669, 0.029009728, -0.11913206, 0.002727432, 0.12422956, 0.020334395, -0.059006978, -0.08916876, -0.03274729, 0.0115093775, -0.015535882, -0.06753526, -0.041949242, 0.072528556, 0.002727432, 0.089322746, 0.0115093775, -0.015535882, 0.10793478, 0.072528556, 0.020334395, -0.050689768, -0.015535882, 0.020334395, -0.041949242, -0.06753526, -0.041949242, 0.072528556, 0.0115093775, -0.08262928, -0.023952426, 0.089322746, 0.046579935, -0.09623664, 0.002727432, -0.03274729, 0.029009728, 0.002727432, 0.037555885, -0.06753526, -0.11107996, 0.098597094, -0.07573012, -0.041949242, 0.037555885},
    {0.11594932, -0.050689768, 0.002727432, -0.041949242, -0.08262928, -0.11913206, -0.023952426, -0.050689768, 0.12422956, -0.09623664, -0.06753526, -0.050689768, 0.13388956, 0.089322746, -0.03274729, -0.023952426, 0.002727432, -0.041949242, 0.002727432, 0.06384058, -0.023952426, -0.08916876, 0.002727432, -0.07573012, 0.08125669, 0.037555885, -0.041949242, -0.06753526, 0.0115093775, -0.03274729, 0.029009728, -0.041949242, 0.12422956, 0.055428382, 0.0115093775, 0.11594932, 0.020334395, -0.006590562, 0.072528556, -0.041949242, -0.015535882, -0.11107996, 0.046579935, 0.089322746, 0.098597094, -0.06753526, 0.029009728, 0.10793478, 0.098597094, -0.03274729, 0.0115093775, -0.07573012, -0.023952426, 0.0115093775, -0.050689768, -0.006590562, -0.06753526, -0.03274729, -0.06753526, 0.046579935, 0.0115093775, 0.029009728, -0.015535882, -0.050689768, 0.089322746, -0.050689768, 0.06384058, -0.041949242, 0.029009728, -0.10304619, 0.046579935, 0.0115093775, 0.098597094, -0.13837565, -0.06753526, -0.10304619, 0.089322746, 0.020334395, 0.020334395, 0.046579935, -0.03274729, -0.07573012, 0.029009728, 0.055428382, 0.037555885, -0.06753526, -0.041949242, -0.03274729, -0.059006978, -0.06753526, -0.06753526, 0.002727432, 0.10793478, -0.10304619, -0.059006978, 0.037555885, -0.059006978, -0.006590562, -0.08916876, -0.03274729, -0.07573012, 0.037555885, -0.006590562, -0.050689768, 0.020334395, 0.15134633, 0.020334395, -0.07573012, -0.041949242, 0.002727432, 0.0115093775, 0.037555885, -0.03274729, 0.072528556, -0.023952426, 0.06384058, -0.041949242, 0.089322746, 0.046579935, -0.006590562},
    {0.002727432, -0.03274729, 0.002727432, -0.050689768, -0.006590562, -0.03274729, -0.041949242, -0.08262928, -0.06753526, -0.006590562, 0.029009728, -0.041949242, -0.006590562, -0.023952426, -0.006590562, 0.0115093775, -0.023952426, 0.029009728, -0.06753526, -0.006590562, -0.023952426, 0.037555885, 0.002727432, 0.0115093775, -0.023952426, -0.006590562, 0.055428382, -0.07573012, 0.0115093775, 0.072528556, -0.07573012, 0.0115093775, -0.08916876, 0.046579935, -0.006590562, -0.07573012, -0.03274729, 0.089322746, 0.089322746, 0.020334395, 0.055428382, -0.059006978, 0.002727432, -0.08262928, 0.055428382, 0.08125669, -0.023952426, 0.046579935, -0.03274729, 0.06384058, 0.072528556, -0.08262928, 0.046579935, 0.037555885, 0.037555885, 0.08125669, -0.041949242, -0.07573012, 0.089322746, -0.08262928, -0.08916876, -0.08262928, -0.050689768, 0.020334395, 0.020334395, -0.059006978, -0.015535882, -0.050689768, -0.08262928, 0.029009728, -0.006590562, -0.06753526, -0.07573012, -0.03274729, -0.041949242, -0.06753526, -0.023952426, 0.08125669, 0.072528556, -0.08262928, 0.055428382, 0.08125669, -0.041949242, 0.08125669, 0.055428382, 0.072528556, -0.006590562, -0.041949242, 0.06384058, 0.08125669, -0.050689768, 0.08125669, 0.072528556, 0.037555885, -0.059006978, 0.055428382, -0.059006978, -0.059006978, -0.08262928, -0.050689768, -0.03274729, 0.072528556, 0.06384058, 0.08125669, 0.072528556, 0.046579935, -0.050689768, 0.037555885, 0.002727432, -0.08916876, -0.015535882, -0.041949242, -0.059006978, 0.089322746, -0.015535882, 0.055428382, -0.06753526, 0.002727432, 0.089322746, -0.08916876},
    {-0.09623664, 0.072528556, 0.029009728, 0.037555885, -0.03274729, -0.050689768, 0.029009728, -0.07573012, 0.08125669, 0.046579935, -0.015535882, 0.046579935, -0.041949242, -0.023952426, 0.072528556, 0.089322746, 0.029009728, 0.072528556, -0.015535882, -0.03274729, -0.023952426, 0.055428382, -0.023952426, 0.072528556, -0.006590562, 0.046579935, 0.072528556, 0.08125669, 0.0115093775, -0.023952426, -0.023952426, -0.03274729, 0.072528556, 0.046579935, 0.029009728, -0.03274729, -0.07573012, -0.041949242, -0.023952426, 0.020334395, -0.023952426, 0.037555885, 0.072528556, -0.03274729, -0.006590562, -0.050689768, 0.037555885, -0.023952426, 0.029009728, 0.0115093775, -0.06753526, -0.03274729, -0.06753526, -0.08916876, -0.06753526, -0.08916876, 0.046579935, -0.015535882, -0.059006978, 0.06384058, 0.08125669, -0.023952426, 0.037555885, -0.07573012, 0.046579935, 0.0115093775, -0.050689768, 0.0115093775, 0.029009728, 0.046579935, 0.06384058, -0.023952426, -0.023952426, -0.06753526, -0.023952426, 0.002727432, 0.06384058, -0.059006978, -0.041949242, -0.050689768, 0.072528556, 0.08125669, -0.03274729, 0.037555885, -0.07573012, 0.020334395, -0.07573012, -0.07573012, -0.006590562, -0.03274729, 0.029009728, 0.029009728, -0.015535882, 0.089322746, -0.015535882, -0.08262928, 0.06384058, 0.0115093775, 0.08125669, -0.041949242, -0.023952426, 0.046579935, 0.08125669, -0.015535882, -0.07573012, 0.06384058, -0.07573012, 0.046579935, -0.015535882, 0.020334395, -0.023952426, 0.089322746, 0.037555885, 0.002727432, -0.041949242, -0.08262928, -0.08916876, -0.006590562, 0.08125669, 0.046579935},
    {-0.08916876, 0.0115093775, 0.046579935, -0.06753526, -0.08262928, -0.041949242, -0.08262928, -0.006590562, -0.059006978, 0.098597094, 0.06384058, 0.002727432, 0.0115093775, 0.037555885, 0.0115093775, 0.020334395, 0.002727432, 0.020334395, -0.03274729, 0.029009728, 0.089322746, 0.13388956, -0.06753526, 0.08125669, -0.059006978, 0.002727432, -0.041949242, 0.0115093775, -0.06753526, 0.046579935, -0.08262928, -0.08916876, -0.08916876, -0.023952426, 0.06384058, -0.015535882, 0.072528556, -0.08916876, 0.098597094, -0.10304619, -0.07573012, -0.1643807, 0.0115093775, 0.046579935, 0.18776496, 0.055428382, 0.11594932, 0.12422956, 0.12422956, -0.08262928, 0.029009728, 0.0115093775, 0.098597094, -0.07573012, -0.015535882, 0.0115093775, 0.13388956, -0.07573012, 0.08125669, 0.046579935, 0.046579935, 0.12422956, 0.098597094, -0.06753526, 0.020334395, 0.002727432, 0.08125669, 0.055428382, 0.055428382, -0.11913206, -0.03274729, 0.10793478, 0.06384058, 0.029009728, -0.050689768, 0.098597094, -0.015535882, -0.10304619, -0.041949242, -0.09623664, 0.002727432, -0.03274729, 0.046579935, 0.072528556, -0.11913206, -0.10304619, 0.089322746, 0.055428382, 0.055428382, -0.03274729, -0.03274729, -0.023952426, 0.08125669, -0.18867645, 0.020334395, 0.089322746, -0.050689768, 0.08125669, 0.0115093775, 0.16031246, 0.037555885, 0.0115093775, -0.07573012, -0.041949242, -0.050689768, 0.020334395, -0.006590562, -0.07573012, -0.10304619, 0.08125669, -0.006590562, -0.12819558, -0.059006978, 0.08125669, 0.037555885, 0.0115093775, 0.037555885, -0.050689768, -0.10304619, 0.06384058},
    {0.002727432, 0.029009728, 0.08125669, -0.041949242, -0.050689768, 0.002727432, 0.0115093775, -0.050689768, -0.10304619, -0.059006978, -0.023952426, -0.11913206, -0.08262928, -0.041949242, -0.023952426, 0.020334395, 0.10793478, 0.002727432, 0.002727432, 0.10793478, 0.055428382, 0.11594932, -0.03274729, 0.029009728, -0.11107996, 0.17914534, 0.072528556, -0.14798556, 0.10793478, -0.041949242, 0.11594932, 0.037555885, 0.16031246, 0.055428382, 0.020334395, 0.13388956, -0.03274729, -0.03274729, 0.002727432, -0.050689768, -0.050689768, -0.07573012, -0.023952426, 0.08125669, 0.10793478, 0.0115093775, -0.041949242, 0.020334395, -0.03274729, 0.08125669, 0.089322746, -0.06753526, -0.08916876, -0.07573012, 0.11594932, -0.041949242, 0.002727432, -0.023952426, 0.029009728, 0.098597094, 0.098597094, 0.046579935, -0.14798556, -0.050689768, -0.059006978, 0.19722468, 0.13388956, -0.015535882, 0.17059664, 0.11594932, -0.006590562, -0.023952426, -0.041949242, -0.10304619, 0.19722468, -0.015535882, -0.03274729, -0.03274729, -0.09623664, 0.10793478, -0.023952426, 0.020334395, 0.17914534, -0.023952426, -0.06753526, -0.006590562, -0.023952426, -0.006590562, 0.0115093775, 0.0115093775, 0.06384058, 0.098597094, 0.0115093775, -0.050689768, 0.020334395, 0.020334395, 0.18776496, 0.020334395, 0.089322746, 0.002727432, 0.055428382, -0.06753526, 0.055428382, 0.037555885, -0.11913206, 0.08125669, 0.046579935, 0.037555885, 0.06384058, -0.015535882, -0.03274729, 0.11594932, -0.006590562, 0.046579935, -0.006590562, -0.11107996, 0.13388956, 0.037555885, 0.08125669, -0.041949242},
    {-0.023952426, -0.006590562, 0.089322746, -0.041949242, 0.06384058, -0.041949242, 0.029009728, -0.023952426, 0.020334395, 0.072528556, -0.023952426, -0.03274729, 0.020334395, 0.046579935, -0.041949242, 0.072528556, 0.002727432, -0.059006978, 0.002727432, 0.08125669, -0.041949242, -0.050689768, 0.055428382, -0.050689768, 0.072528556, -0.06753526, -0.08262928, 0.046579935, 0.037555885, -0.015535882, -0.006590562, 0.046579935, 0.0115093775, 0.0115093775, -0.07573012, 0.0115093775, -0.059006978, 0.072528556, 0.002727432, 0.029009728, -0.06753526, 0.06384058, 0.002727432, -0.015535882, -0.015535882, -0.006590562, -0.08262928, -0.07573012, -0.08262928, -0.03274729, 0.037555885, 0.072528556, 0.046579935, -0.041949242, -0.08916876, -0.006590562, 0.046579935, 0.029009728, -0.050689768, 0.08125669, -0.023952426, -0.09623664, -0.059006978, -0.015535882, -0.006590562, 0.055428382, -0.10304619, 0.072528556, 0.029009728, 0.089322746, -0.023952426, -0.08262928, -0.041949242, -0.08916876, 0.046579935, 0.089322746, -0.059006978, 0.029009728, 0.072528556, -0.06753526, 0.089322746, 0.072528556, 0.08125669, -0.041949242, -0.041949242, -0.059006978, -0.023952426, -0.08262928, -0.08262928, -0.023952426, -0.015535882, -0.03274729, -0.041949242, -0.015535882, -0.041949242, -0.06753526, 0.08125669, -0.050689768, -0.03274729, -0.03274729, 0.029009728, 0.08125669, 0.002727432, 0.0115093775, -0.08916876, 0.020334395, 0.020334395, 0.08125669, -0.050689768, -0.059006978, -0.06753526, 0.089322746, 0.055428382, 0.08125669, -0.006590562, 0.029009728, -0.07573012, 0.06384058, 0.029009728, 0.046579935},
    {-0.08262928, -0.041949242, 0.037555885, 0.08125669, -0.03274729, 0.002727432, -0.059006978, -0.06753526, -0.006590562, -0.08916876, -0.015535882, -0.006590562, -0.041949242, 0.002727432, -0.08916876, -0.041949242, 0.055428382, 0.08125669, -0.041949242, -0.059006978, -0.023952426, -0.06753526, -0.08262928, -0.059006978, 0.072528556, -0.023952426, -0.08262928, -0.06753526, -0.041949242, 0.020334395, 0.06384058, -0.06753526, -0.006590562, -0.09623664, 0.037555885, 0.037555885, 0.11594932, -0.041949242, 0.037555885, -0.03274729, 0.037555885, -0.023952426, 0.089322746, -0.059006978, -0.015535882, 0.0115093775, -0.023952426, 0.029009728, 0.037555885, 0.002727432, -0.023952426, 0.06384058, 0.046579935, 0.020334395, -0.06753526, -0.041949242, 0.002727432, -0.015535882, 0.002727432, -0.03274729, -0.059006978, -0.041949242, -0.041949242, -0.023952426, 0.020334395, -0.06753526, 0.029009728, -0.041949242, -0.006590562, 0.06384058, 0.0115093775, 0.002727432, -0.09623664, -0.041949242, 0.098597094, 0.072528556, -0.03274729, -0.03274729, 0.002727432, 0.055428382, -0.059006978, -0.041949242, -0.023952426, -0.08262928, -0.059006978, 0.10793478, 0.06384058, 0.046579935, 0.002727432, 0.0115093775, -0.08916876, -0.03274729, 0.098597094, 0.055428382, -0.06753526, -0.03274729, -0.050689768, 0.002727432, -0.041949242, -0.03274729, -0.023952426, 0.08125669, -0.041949242, 0.089322746, 0.072528556, 0.037555885, -0.059006978, -0.03274729, -0.059006978, -0.041949242, 0.06384058, -0.06753526, -0.006590562, 0.055428382, 0.055428382, -0.050689768, -0.006590562, 0.089322746, 0.06384058, 0.046579935},
    {-0.059006978, 0.055428382, 0.10793478, -0.03274729, 0.046579935, 0.002727432, 0.06384058, -0.041949242, 0.08125669, 0.072528556, 0.0115093775, -0.023952426, -0.11913206, -0.041949242, -0.050689768, -0.03274729, -0.059006978, -0.015535882, -0.015535882, -0.07573012, -0.023952426, 0.055428382, -0.059006978, -0.06753526, -0.050689768, 0.10793478, 0.072528556, 0.055428382, 0.002727432, 0.089322746, 0.020334395, 0.06384058, -0.050689768, 0.055428382, -0.03274729, -0.11913206, 0.029009728, 0.029009728, 0.08125669, -0.059006978, 0.046579935, 0.072528556, 0.098597094, 0.037555885, -0.14798556, 0.020334395, 0.029009728, -0.03274729, -0.08262928, 0.06384058, -0.015535882, -0.006590562, 0.08125669, -0.08916876, -0.023952426, -0.08916876, 0.12422956, 0.08125669, 0.089322746, 0.037555885, 0.020334395, 0.08125669, -0.03274729, 0.098597094, -0.050689768, -0.08262928, -0.11107996, 0.029009728, 0.10793478, 0.020334395, -0.059006978, 0.098597094, -0.07573012, 0.037555885, -0.06753526, 0.072528556, -0.050689768, 0.072528556, -0.07573012, -0.023952426, -0.08262928, 0.08125669, 0.14228301, -0.08916876, 0.12422956, 0.10793478, -0.07573012, 0.072528556, -0.023952426, 0.072528556, 0.029009728, -0.08916876, -0.050689768, 0.11594932, -0.08262928, -0.14798556, -0.006590562, 0.029009728, -0.059006978, 0.037555885, 0.037555885, 0.08125669, -0.041949242, -0.041949242, 0.002727432, -0.03274729, -0.015535882, 0.055428382, -0.09623664, -0.14798556, 0.037555885, 0.17059664, -0.050689768, -0.06753526, 0.10793478, 0.072528556, 0.002727432, -0.03274729, 0.10793478, -0.08916876},
    {-0.08262928, 0.037555885, -0.059006978, 0.029009728, -0.059006978, -0.006590562, 0.037555885, 0.037555885, -0.13837565, 0.037555885, 0.037555885, -0.041949242, -0.03274729, 0.020334395, 0.029009728, -0.050689768, 0.046579935, 0.072528556, 0.06384058, -0.03274729, 0.029009728, 0.020334395, 0.08125669, -0.059006978, -0.11913206, -0.006590562, 0.072528556, -0.015535882, 0.029009728, 0.046579935, 0.089322746, 0.15134633, 0.029009728, 0.06384058, 0.15134633, 0.13388956, -0.08916876, -0.041949242, 0.08125669, 0.055428382, 0.06384058, -0.12819558, 0.11594932, -0.041949242, 0.08125669, 0.029009728, 0.089322746, 0.020334395, 0.098597094, 0.11594932, 0.037555885, -0.059006978, 0.098597094, 0.055428382, 0.15134633, 0.029009728, 0.17059664, -0.050689768, 0.020334395, 0.17914534, 0.08125669, 0.12422956, -0.13837565, 0.14228301, 0.055428382, 0.19722468, -0.09623664, -0.2110842, 0.17059664, 0.037555885, 0.098597094, -0.015535882, 0.11594932, -0.006590562, 0.13388956, 0.098597094, 0.037555885, -0.10304619, -0.050689768, 0.10793478, -0.11107996, 0.10793478, 0.13388956, 0.037555885, -0.059006978, -0.13837565, -0.050689768, -0.041949242, -0.06753526, -0.03274729, 0.037555885, -0.041949242, -0.03274729, 0.020334395, -0.015535882, -0.059006978, 0.0115093775, 0.072528556, 0.089322746, 0.020334395, 0.020334395, -0.15604173, 0.029009728, 0.06384058, -0.06753526, -0.15604173, -0.041949242, -0.08262928, 0.089322746, -0.03274729, -0.015535882, -0.14798556, -0.03274729, -0.050689768, 0.13388956, -0.059006978, 0.029009728, -0.006590562, 0.0115093775, 0.046579935},
    {0.13388956, -0.06753526, 0.089322746, -0.059006978, 0.002727432, -0.023952426, -0.059006978, -0.07573012, 0.029009728, 0.046579935, 0.055428382, -0.10304619, -0.023952426, 0.11594932, -0.08262928, -0.03274729, 0.002727432, -0.050689768, -0.03274729, -0.050689768, 0.06384058, 0.046579935, 0.055428382, 0.046579935, -0.015535882, 0.002727432, 0.020334395, -0.12819558, -0.11913206, -0.006590562, -0.006590562, -0.006590562, 0.08125669, -0.050689768, 0.046579935, -0.006590562, -0.050689768, -0.14798556, -0.006590562, 0.089322746, 0.072528556, -0.09623664, -0.08262928, -0.023952426, 0.08125669, -0.041949242, 0.098597094, 0.072528556, 0.072528556, -0.19652168, 0.037555885, 0.12422956, 0.0115093775, 0.089322746, -0.08262928, 0.037555885, 0.002727432, -0.006590562, 0.046579935, -0.023952426, -0.023952426, -0.09623664, 0.046579935, 0.06384058, 0.055428382, 0.15134633, 0.020334395, -0.11107996, -0.08262928, -0.07573012, 0.098597094, -0.050689768, 0.15134633, 0.037555885, 0.072528556, -0.023952426, -0.07573012, 0.098597094, -0.050689768, 0.098597094, -0.041949242, -0.041949242, 0.072528556, -0.015535882, -0.10304619, -0.050689768, -0.023952426, 0.020334395, 0.020334395, -0.10304619, -0.09623664, 0.072528556, 0.037555885, -0.08262928, 0.089322746, 0.098597094, 0.13388956, 0.055428382, 0.046579935, -0.059006978, 0.0115093775, 0.037555885, 0.06384058, 0.06384058, 0.072528556, 0.12422956, -0.03274729, -0.059006978, 0.08125669, 0.020334395, -0.050689768, -0.18867645, -0.059006978, -0.07573012, 0.06384058, -0.050689768, 0.089322746, -0.041949242, -0.050689768, -0.03274729},
    {0.11594932, 0.037555885, 0.029009728, -0.006590562, 0.0115093775, -0.006590562, -0.03274729, -0.015535882, 0.17914534, 0.046579935, 0.10793478, 0.072528556, 0.029009728, 0.020334395, 0.08125669, 0.089322746, -0.041949242, -0.015535882, -0.11107996, 0.0115093775, 0.037555885, -0.050689768, 0.055428382, 0.020334395, 0.055428382, 0.002727432, 0.002727432, 0.055428382, -0.059006978, 0.06384058, -0.11107996, -0.07573012, 0.020334395, 0.055428382, 0.046579935, 0.089322746, 0.046579935, 0.002727432, 0.055428382, -0.07573012, 0.08125669, -0.07573012, -0.12819558, 0.020334395, 0.06384058, 0.0115093775, 0.08125669, 0.072528556, 0.055428382, -0.059006978, -0.015535882, 0.06384058, -0.12819558, 0.020334395, 0.055428382, 0.08125669, -0.050689768, -0.07573012, 0.08125669, 0.08125669, -0.06753526, 0.089322746, 0.098597094, -0.06753526, -0.06753526, -0.03274729, -0.041949242, 0.037555885, -0.15604173, -0.006590562, -0.08916876, -0.06753526, 0.08125669, -0.07573012, -0.006590562, -0.14798556, -0.11913206, 0.16031246, 0.0115093775, 0.08125669, -0.03274729, 0.089322746, -0.06753526, -0.050689768, -0.006590562, 0.037555885, -0.07573012, -0.08262928, -0.050689768, 0.072528556, 0.037555885, 0.037555885, 0.0115093775, -0.03274729, 0.06384058, 0.13388956, -0.041949242, 0.072528556, -0.03274729, -0.07573012, -0.08916876, 0.037555885, -0.023952426, -0.059006978, 0.037555885, 0.029009728, -0.023952426, -0.08916876, -0.041949242, 0.06384058, 0.046579935, -0.09623664, 0.029009728, 0.06384058, -0.03274729, -0.08262928, -0.06753526, -0.08262928, 0.037555885, 0.08125669},
    {0.23973547, -0.050689768, -0.06753526, -0.015535882, 0.06384058, 0.002727432, -0.059006978, 0.002727432, 0.089322746, -0.041949242, -0.059006978, 0.11594932, 0.0115093775, -0.03274729, -0.050689768, -0.15604173, -0.041949242, 0.046579935, -0.13837565, 0.002727432, 0.08125669, 0.046579935, -0.08262928, -0.006590562, 0.08125669, 0.002727432, 0.046579935, -0.08916876, -0.17394252, 0.037555885, 0.055428382, 0.16031246, 0.089322746, -0.03274729, 0.002727432, -0.023952426, 0.029009728, -0.17997561, -0.11913206, -0.059006978, -0.006590562, -0.09623664, -0.059006978, -0.08916876, 0.15134633, -0.015535882, 0.029009728, 0.12422956, 0.020334395, -0.07573012, -0.041949242, 0.029009728, 0.072528556, 0.002727432, -0.10304619, 0.046579935, -0.03274729, 0.002727432, 0.10793478, -0.06753526, 0.002727432, 0.046579935, 0.11594932, -0.03274729, 0.072528556, -0.059006978, 0.06384058, -0.14798556, 0.06384058, 0.046579935, -0.050689768, -0.12819558, 0.0115093775, -0.059006978, 0.055428382, 0.089322746, 0.072528556, 0.16031246, -0.10304619, 0.10793478, -0.06753526, -0.11913206, 0.029009728, 0.072528556, -0.19652168, 0.046579935, 0.029009728, -0.023952426, -0.11107996, 0.037555885, -0.11913206, 0.19722468, 0.16031246, -0.10304619, 0.06384058, 0.17059664, -0.015535882, -0.03274729, -0.023952426, 0.055428382, -0.015535882, -0.059006978, -0.03274729, 0.037555885, -0.03274729, 0.15134633, 0.11594932, 0.0115093775, 0.046579935, 0.17914534, 0.0115093775, -0.11913206, 0.055428382, 0.089322746, -0.050689768, -0.015535882, 0.17914534, 0.046579935, -0.08916876, 0.072528556},
