// N2D2 auto-generated file.
// @ Mon Sep 16 12:33:02 2019

#ifndef N2D2_EXPORTC_FC2_LAYER_H
#define N2D2_EXPORTC_FC2_LAYER_H

#include "typedefs.h"
#include "env.h"

#define FC2_NB_OUTPUTS 10
#define FC2_NB_CHANNELS 84
#define FC2_OUTPUT_OFFSET 0
#define FC2_ACTIVATION Linear
#define FC2_SHIFT 0
static BDATA_T fc2_biases[FC2_NB_OUTPUTS] = {0, 0, 0, 0, 0, 0, 0, 0, 0, 0};
#define FC2_NB_WEIGHTS (FC2_NB_OUTPUTS*FC2_NB_CHANNELS)

static WDATA_T fc2_weights[FC2_NB_OUTPUTS][FC2_NB_CHANNELS] = 
{
    {0.21994491, -0.013183811, 0.21994491, -0.085725814, 0.0937794, 0.13079534, 0.06002778, -0.19661804, 0.13079534, 0.0937794, -0.12080501, 0.0937794, -0.19661804, 0.027041093, -0.15988205, -0.12080501, 0.13079534, 0.06002778, 0.06002778, 0.06002778, -0.24035856, -0.085725814, 0.027041093, 0.3106035, 0.17272452, 0.28107107, 0.13079534, -0.049655586, -0.013183811, 0.027041093, 0.21994491, -0.12080501, 0.17272452, 0.3106035, 0.06002778, -0.35014316, -0.049655586, 0.0937794, -0.049655586, 0.21994491, 0.06002778, -0.049655586, -0.085725814, -0.085725814, -0.085725814, -0.12080501, 0.06002778, -0.049655586, -0.35014316, 0.0937794, -0.013183811, 0.027041093, -0.085725814, -0.085725814, -0.24035856, -0.085725814, -0.013183811, -0.12080501, 0.06002778, -0.12080501, -0.15988205, -0.085725814, -0.085725814, 0.027041093, -0.085725814, 0.027041093, 0.13079534, 0.17272452, -0.085725814, 0.3106035, -0.049655586, -0.19661804, -0.38800377, -0.085725814, -0.049655586, 0.0937794, -0.049655586, -0.27330643, 0.06002778, 0.21994491, -0.085725814, -0.15988205, 0.06002778, -0.013183811},
    {-0.049655586, 0.027041093, -0.38800377, -0.049655586, 0.027041093, 0.0937794, 0.0937794, -0.12080501, 0.06002778, -0.085725814, 0.06002778, 0.0937794, -0.15988205, 0.17272452, 0.06002778, 0.06002778, -0.19661804, -0.013183811, -0.085725814, 0.21994491, -0.24035856, 0.06002778, 0.06002778, -0.049655586, 0.13079534, 0.027041093, -0.085725814, 0.17272452, 0.28107107, 0.17272452, -0.15988205, 0.13079534, -0.19661804, 0.0937794, -0.049655586, -0.27330643, -0.19661804, 0.25258878, 0.3106035, 0.13079534, -0.049655586, 0.0937794, 0.0937794, 0.28107107, 0.06002778, 0.25258878, 0.06002778, 0.0937794, 0.13079534, 0.0937794, -0.12080501, 0.027041093, -0.049655586, 0.0937794, -0.049655586, 0.027041093, 0.17272452, -0.085725814, -0.31472445, 0.027041093, 0.0937794, 0.06002778, 0.25258878, 0.13079534, 0.17272452, -0.085725814, -0.049655586, -0.19661804, -0.15988205, 0.0937794, 0.17272452, -0.19661804, 0.17272452, -0.049655586, -0.049655586, 0.027041093, 0.0937794, 0.027041093, -0.085725814, -0.19661804, -0.15988205, 0.0937794, 0.0937794, 0.21994491},
    {0.06002778, 0.13079534, -0.24035856, 0.3106035, 0.21994491, -0.085725814, 0.06002778, -0.12080501, -0.049655586, 0.027041093, -0.15988205, -0.085725814, -0.15988205, -0.19661804, -0.19661804, -0.12080501, -0.049655586, -0.31472445, 0.06002778, 0.06002778, -0.013183811, -0.12080501, 0.13079534, 0.13079534, -0.049655586, 0.0937794, 0.28107107, 0.17272452, -0.27330643, -0.013183811, 0.28107107, 0.027041093, -0.24035856, -0.15988205, -0.085725814, -0.049655586, 0.17272452, -0.15988205, -0.31472445, -0.19661804, -0.049655586, 0.28107107, 0.17272452, -0.19661804, -0.085725814, 0.13079534, 0.25258878, -0.12080501, 0.17272452, -0.049655586, 0.13079534, 0.027041093, 0.0937794, 0.06002778, -0.24035856, 0.027041093, 0.06002778, 0.027041093, -0.15988205, -0.049655586, 0.28107107, -0.049655586, -0.15988205, 0.027041093, 0.21994491, -0.013183811, -0.31472445, -0.085725814, 0.17272452, 0.28107107, 0.13079534, -0.24035856, 0.0937794, -0.12080501, -0.12080501, -0.085725814, -0.12080501, 0.06002778, -0.049655586, 0.13079534, 0.17272452, 0.3106035, 0.06002778, -0.19661804},
    {-0.27330643, 0.06002778, -0.013183811, 0.13079534, 0.25258878, 0.0937794, -0.049655586, -0.24035856, -0.049655586, 0.0937794, 0.3106035, 0.027041093, -0.085725814, 0.36308715, -0.15988205, -0.049655586, 0.13079534, -0.049655586, -0.049655586, -0.15988205, -0.12080501, 0.027041093, -0.12080501, -0.15988205, -0.085725814, -0.19661804, -0.19661804, 0.027041093, 0.25258878, -0.24035856, 0.17272452, -0.12080501, 0.13079534, 0.06002778, 0.06002778, 0.027041093, -0.085725814, -0.15988205, 0.36308715, -0.19661804, -0.013183811, -0.24035856, -0.38800377, -0.24035856, 0.17272452, -0.41565925, -0.24035856, -0.049655586, 0.0937794, -0.12080501, -0.013183811, -0.049655586, -0.013183811, 0.21994491, -0.013183811, 0.027041093, 0.06002778, -0.15988205, 0.3106035, 0.28107107, -0.19661804, 0.21994491, -0.24035856, 0.06002778, 0.027041093, 0.027041093, -0.013183811, 0.17272452, 0.21994491, -0.35014316, -0.085725814, -0.085725814, 0.06002778, 0.06002778, -0.049655586, -0.19661804, 0.06002778, 0.17272452, 0.027041093, 0.0937794, 0.17272452, 0.17272452, -0.049655586, -0.085725814},
    {-0.15988205, 0.06002778, 0.25258878, -0.013183811, -0.12080501, 0.06002778, 0.06002778, 0.3106035, -0.12080501, 0.06002778, -0.27330643, -0.085725814, 0.0937794, -0.24035856, 0.3106035, 0.027041093, -0.19661804, -0.31472445, -0.049655586, 0.38891906, 0.25258878, 0.0937794, -0.19661804, 0.0937794, -0.27330643, 0.28107107, -0.12080501, -0.27330643, 0.0937794, 0.027041093, 0.13079534, 0.17272452, 0.06002778, -0.12080501, 0.027041093, 0.28107107, -0.049655586, -0.15988205, -0.085725814, -0.013183811, -0.013183811, -0.12080501, 0.06002778, 0.17272452, -0.049655586, 0.027041093, -0.15988205, 0.06002778, 0.0937794, -0.085725814, 0.17272452, -0.12080501, 0.027041093, -0.15988205, -0.049655586, -0.085725814, -0.049655586, -0.15988205, -0.45046765, 0.13079534, 0.13079534, 0.28107107, 0.0937794, -0.013183811, -0.12080501, 0.027041093, 0.0937794, 0.25258878, -0.085725814, -0.15988205, 0.06002778, -0.085725814, 0.17272452, 0.3106035, 0.06002778, 0.027041093, 0.06002778, -0.19661804, 0.0937794, 0.027041093, 0.21994491, -0.12080501, -0.15988205, 0.06002778},
    {0.0937794, 0.13079534, 0.13079534, -0.12080501, -0.085725814, -0.049655586, -0.049655586, 0.21994491, -0.38800377, -0.085725814, 0.36308715, -0.12080501, 0.21994491, 0.36308715, -0.049655586, 0.13079534, 0.17272452, 0.38891906, -0.013183811, -0.049655586, -0.049655586, -0.049655586, -0.085725814, -0.31472445, -0.15988205, -0.19661804, 0.06002778, 0.0937794, -0.24035856, -0.013183811, -0.085725814, 0.25258878, -0.12080501, 0.06002778, 0.0937794, 0.13079534, -0.15988205, 0.06002778, -0.049655586, -0.12080501, -0.013183811, 0.28107107, -0.12080501, -0.049655586, -0.15988205, 0.17272452, -0.19661804, -0.049655586, -0.049655586, 0.13079534, -0.24035856, 0.027041093, -0.12080501, -0.12080501, 0.13079534, 0.027041093, -0.049655586, 0.21994491, 0.0937794, -0.35014316, -0.049655586, -0.41565925, 0.027041093, -0.049655586, -0.19661804, 0.027041093, 0.027041093, 0.0937794, 0.17272452, -0.15988205, -0.35014316, 0.13079534, 0.21994491, -0.085725814, -0.085725814, -0.049655586, -0.085725814, -0.013183811, -0.085725814, -0.31472445, -0.085725814, 0.13079534, -0.085725814, 0.06002778},
    {0.25258878, -0.12080501, 0.13079534, -0.12080501, -0.12080501, -0.12080501, -0.013183811, -0.085725814, -0.049655586, 0.027041093, 0.13079534, -0.12080501, -0.013183811, -0.085725814, 0.06002778, 0.027041093, -0.31472445, 0.21994491, -0.085725814, -0.12080501, -0.15988205, 0.0937794, 0.13079534, 0.21994491, 0.21994491, 0.0937794, 0.21994491, -0.35014316, 0.13079534, 0.13079534, -0.19661804, -0.15988205, -0.12080501, -0.19661804, 0.13079534, 0.13079534, 0.17272452, -0.19661804, -0.049655586, -0.013183811, -0.085725814, 0.027041093, 0.027041093, -0.12080501, 0.06002778, 0.027041093, -0.049655586, 0.0937794, -0.24035856, -0.013183811, -0.27330643, -0.013183811, -0.049655586, -0.12080501, -0.38800377, -0.013183811, -0.085725814, 0.17272452, -0.12080501, -0.15988205, 0.06002778, -0.049655586, 0.17272452, 0.13079534, 0.17272452, 0.06002778, 0.21994491, 0.3106035, 0.28107107, -0.085725814, -0.19661804, 0.28107107, -0.12080501, 0.17272452, 0.06002778, 0.13079534, -0.049655586, 0.0937794, -0.085725814, -0.12080501, -0.35014316, -0.013183811, 0.21994491, -0.12080501},
    {0.0937794, -0.049655586, -0.19661804, -0.085725814, -0.013183811, -0.013183811, -0.049655586, 0.027041093, -0.085725814, -0.085725814, -0.12080501, 0.0937794, 0.21994491, -0.12080501, 0.13079534, -0.049655586, 0.06002778, -0.013183811, 0.027041093, -0.27330643, 0.28107107, 0.06002778, -0.049655586, -0.085725814, -0.085725814, -0.049655586, -0.35014316, 0.027041093, -0.12080501, -0.013183811, 0.06002778, -0.15988205, -0.19661804, -0.27330643, -0.19661804, -0.38800377, -0.27330643, 0.17272452, 0.17272452, 0.21994491, 0.06002778, 0.13079534, 0.21994491, -0.013183811, 0.13079534, 0.13079534, 0.027041093, -0.049655586, -0.31472445, 0.21994491, 0.06002778, 0.06002778, -0.013183811, 0.13079534, 0.3106035, 0.13079534, 0.13079534, -0.013183811, 0.0937794, 0.13079534, 0.027041093, 0.38891906, -0.24035856, 0.17272452, 0.17272452, 0.06002778, 0.06002778, -0.35014316, -0.19661804, 0.3106035, -0.049655586, -0.013183811, -0.049655586, -0.049655586, 0.027041093, 0.38891906, 0.0937794, 0.06002778, 0.28107107, -0.27330643, 0.13079534, -0.013183811, -0.085725814, 0.17272452},
    {0.3106035, 0.06002778, -0.085725814, -0.19661804, -0.013183811, -0.049655586, -0.085725814, -0.085725814, -0.049655586, 0.027041093, 0.17272452, -0.013183811, -0.085725814, -0.27330643, 0.25258878, 0.06002778, 0.06002778, -0.013183811, 0.0937794, -0.24035856, 0.21994491, 0.06002778, -0.013183811, 0.13079534, 0.027041093, -0.31472445, 0.17272452, -0.049655586, -0.049655586, -0.085725814, -0.12080501, -0.27330643, 0.17272452, 0.17272452, -0.15988205, 0.3106035, 0.0937794, -0.19661804, -0.15988205, -0.27330643, 0.027041093, 0.13079534, -0.24035856, 0.13079534, 0.027041093, -0.049655586, 0.21994491, 0.027041093, 0.21994491, 0.06002778, 0.06002778, 0.027041093, -0.049655586, 0.06002778, 0.06002778, 0.0937794, -0.013183811, -0.27330643, 0.17272452, -0.15988205, -0.31472445, 0.027041093, -0.27330643, -0.12080501, 0.17272452, 0.06002778, -0.049655586, 0.06002778, -0.24035856, -0.19661804, 0.28107107, 0.17272452, 0.027041093, -0.049655586, 0.17272452, -0.013183811, -0.085725814, 0.06002778, -0.24035856, 0.38891906, -0.12080501, -0.24035856, 0.027041093, 0.0937794},
    {-0.41565925, -0.19661804, -0.049655586, 0.13079534, 0.027041093, 0.027041093, -0.049655586, 0.28107107, 0.38891906, 0.0937794, 0.027041093, -0.013183811, 0.28107107, -0.19661804, -0.24035856, 0.13079534, 0.3106035, 0.027041093, -0.085725814, 0.0937794, 0.06002778, -0.085725814, 0.25258878, 0.0937794, -0.15988205, -0.085725814, -0.085725814, 0.0937794, 0.06002778, -0.013183811, -0.27330643, 0.17272452, 0.13079534, -0.12080501, 0.027041093, -0.013183811, 0.3106035, 0.06002778, -0.013183811, 0.0937794, -0.049655586, -0.41565925, 0.06002778, 0.21994491, -0.049655586, -0.013183811, -0.085725814, -0.12080501, 0.0937794, -0.19661804, 0.06002778, -0.049655586, 0.06002778, -0.35014316, 0.36308715, 0.06002778, -0.12080501, 0.17272452, 0.21994491, 0.13079534, -0.013183811, -0.31472445, 0.3106035, -0.049655586, -0.5030411, 0.06002778, 0.21994491, -0.013183811, -0.12080501, -0.013183811, -0.085725814, -0.049655586, -0.15988205, -0.31472445, 0.06002778, -0.31472445, 0.027041093, -0.24035856, 0.06002778, 0.13079534, 0.13079534, -0.19661804, 0.027041093, -0.085725814}
};


#endif // N2D2_EXPORTC_FC2_LAYER_H
