// N2D2 auto-generated file.
// @ Mon Sep 16 12:44:48 2019

#ifndef N2D2_EXPORTC_FC1_LAYER_H
#define N2D2_EXPORTC_FC1_LAYER_H

#include "typedefs.h"
#define FC1_NB_OUTPUTS 84
#define FC1_NB_CHANNELS 120
#define FC1_OUTPUT_OFFSET 0

#define FC1_ACTIVATION Rectifier
#define FC1_SHIFT 0
static const BDATA_T fc1_biases[FC1_NB_OUTPUTS] = {0, 0, 0, 0, 0, 0, 0, 0, 0, 0, 0, 0, 0, 0, 0, 0, 0, 0, 0, 0, 0, 0, 0, 0, 0, 0, 0, 0, 0, 0, 0, 0, 0, 0, 0, 0, 0, 0, 0, 0, 0, 0, 0, 0, 0, 0, 0, 0, 0, 0, 0, 0, 0, 0, 0, 0, 0, 0, 0, 0, 0, 0, 0, 0, 0, 0, 0, 0, 0, 0, 0, 0, 0, 0, 0, 0, 0, 0, 0, 0, 0, 0, 0, 0};
#define FC1_NB_WEIGHTS (FC1_NB_OUTPUTS*FC1_NB_CHANNELS)

static const WDATA_T fc1_weights[FC1_NB_OUTPUTS][FC1_NB_CHANNELS] = 
{
    {1067, -3377, 1532, 985, -672, 2481, -3742, -150, 2266, 1192, -1494, -662, 460, 3470, -6932, 1859, 546, -4544, -962, -6550, 982, 284, -3924, 4266, -13137, -330, 1462, 6452, 2967, -905, -546, 774, 1790, -842, 222, 300, -1972, 1520, -5595, 1449, 3679, -1456, -2697, 872, 1216, -2812, 1719, 524, 130, -8454, 972, -433, -1988, 2974, 3398, -1010, 283, -5940, 4957, 2096, 330, 4640, 6758, -7702, -4371, -5538, -8177, -9654, 3793, -383, -6516, -2105, -421, 1903, -48, -839, 2435, -1631, 1461, 1805, -826, -2449, 520, -2188, 2502, 2258, 3632, 3955, -5225, 3077, 58, 1039, -238, 6114, 344, -802, -478, -518, -1602, -391, -4116, 1666, -5971, -2329, 1740, 509, -19336, 1079, 2078, -64, 1821, 4278, 2241, 1950, -16201, -11579, 3173, 1473, 2678, 518},
    {-786, -407, -76, -345, -235, -184, -926, 355, 328, -950, -542, -111, 222, -1054, -346, 332, 589, -391, 1070, -270, -141, -156, -264, 514, -1794, 233, -138, -135, 26, 379, 548, 743, -307, -1037, 57, -60, -368, -182, 670, 556, -37, -548, -93, -1365, 340, -231, -488, -298, 638, -585, 236, 317, -620, -758, -465, 736, -52, 21, -1247, -171, -1146, 456, 382, -668, -284, -540, 379, 392, -98, -97, -392, -152, 203, -427, -281, 468, 631, -520, -272, -54, -265, -283, -1097, 1143, 270, -191, -292, -553, -216, 215, 538, 334, 488, 478, -552, -98, 459, -140, 1157, 161, -557, -407, 249, 350, -145, -1189, -343, 13, 1011, 644, -101, 761, -801, -561, 424, 318, 121, 119, -173, 65},
    {1574, 1180, -15562, 1040, -1191, -3368, 4034, 2566, 1527, -277, -6026, -13219, 1718, -14730, -6996, 195, 3271, -52, -5680, -13439, 167, 665, 4157, 3342, 1597, -1044, 4068, -5044, 3064, -2358, -855, 21, 2713, -754, 2906, 1088, 1712, 1925, 2906, 2463, 3260, -5148, 4480, 975, 3531, -6851, 789, -196, 2809, 4323, 203, -319, -1686, -15430, 3270, 1197, 671, 427, 3761, 3459, 1572, -9361, 3033, 1636, -5472, -1191, -1380, 2944, 4866, 729, 3493, -2854, 1391, 3826, -967, 907, -4543, -128, 3049, 3570, -12308, -4419, 662, 1440, 5355, -4397, 277, 2626, 1190, 3644, 3013, -31, 1718, 2774, 818, -5612, -595, 1255, 103, -809, -410, -185, 1051, -1135, -9128, -512, 3166, 2609, 255, 360, -4082, -4473, 942, 2988, -5830, 3412, 1073, -11228, -352, 90},
    {-5269, -2040, 1901, 3003, 1626, -5877, 1575, 4115, 383, 952, 3332, 1386, 1533, 3869, 605, 337, -25325, -3920, -11676, -924, -320, -284, -333, -693, -8388, -857, -4606, -486, -3334, -758, -57, -1238, -2236, -89, 4197, -320, -3656, 5200, -4106, 5050, 2576, -2703, 3394, 899, -522, -10751, 2367, 226, 1315, 2655, -871, 251, -1698, 188, 687, 1061, -1051, 458, 4212, -715, 1167, -10699, 1417, -8760, 907, -5708, -21758, -1401, 1350, 204, 4246, 3233, -10558, 2495, 137, 651, 1436, 670, 1966, 2904, 3265, 223, 941, -2881, 2062, 3406, -7891, -15849, 5369, -955, 2929, 588, -68, 4965, 511, -2134, 737, 4964, 5742, 138, 4482, 1265, 6438, 795, 40, 582, 2520, 979, 360, -1285, 5424, 1433, -6859, 3004, 3929, 188, -4023, -1633, -13037, -313},
    {2020, -146, -15594, 391, -586, -3833, 4059, 2594, 3000, -316, -5350, -13403, 2250, -15285, -7387, 199, 4067, -949, -5540, -13330, 661, -424, 5102, 3643, 2275, -1194, 2649, -5237, 3721, -2382, -353, -44, 3314, -695, 3099, 646, 919, 2332, 3570, 3080, 1077, -5615, 3963, 1650, 3344, -6867, 1664, -5, 2290, 3556, -346, -540, -2046, -15807, 3458, 242, 504, 692, 3578, 4051, 2082, -9541, 3944, 765, -6353, -1908, -1671, 911, 4513, 691, 3990, -3500, 1778, 3791, 391, 1440, -5066, -64, 2419, 1769, -13529, -4491, 2, 1667, 6291, -3806, -1808, 2608, 595, 3042, 3930, 727, 18, 2982, 1783, -4436, -1775, 158, 447, -13, -1519, 1096, 2197, -1403, -9168, -15, 4207, -71, 1066, -12, -3625, -4264, -70, 2938, -6428, 3287, 2181, -10715, -711, 445},
    {-198, -2987, 2055, -739, 143, 2507, -3363, 715, 3348, -603, -1, 88, 1636, 4178, -7501, 2363, 1069, -5356, -1588, -6980, -1480, 685, -4295, 5870, -12075, -332, 1113, 5555, 1559, -1127, -519, -104, 590, -92, 2038, -639, -2064, 1217, -4669, 2596, 4075, -669, -2226, 290, 709, -2830, 1599, -634, 143, -7482, 970, -426, 47, 2535, 3241, -1320, -224, -5847, 3718, 1113, 1064, 3850, 6014, -7807, -4678, -6465, -8634, -10335, 2116, -364, -6202, -3464, 426, 3732, -1130, -450, 2176, -1650, 2213, 1019, -831, -1174, 85, -1878, 1836, 1698, 3779, 5392, -5335, 2377, 2087, -36, 443, 6197, 1800, -1739, -2026, -409, -1702, 753, -4900, 2512, -5989, -958, 1070, -703, -21016, 3532, 893, 198, 1800, 6540, 1857, 3765, -17431, -12327, 2337, 1368, 2023, -450},
    {-6341, -1821, 2595, 4329, 2442, -6549, 1302, 3117, 657, 384, 1532, -104, 1667, 3462, -425, -624, -26209, -2807, -12276, -142, -1062, 587, -1203, -771, -8956, -141, -4952, -824, -3901, -962, -1632, -510, -2835, 662, 3787, -834, -3575, 4362, -3510, 4352, 3066, -2408, 2030, 941, -59, -12011, 1334, -95, 561, 3315, 200, -22, -2336, -538, 76, 1596, -17, 660, 5928, -130, 651, -10042, 1189, -9893, 595, -5732, -22514, -522, 1157, 52, 5079, 2668, -11378, 2663, -360, 226, 1290, 2401, 2687, 4004, 2075, 966, 504, -2252, 1643, 416, -8319, -15728, 3893, -1181, 3026, 672, -1312, 5385, 932, -811, 1030, 3037, 5378, 858, 2883, 486, 7412, 123, -1063, -359, 3431, -555, -1033, -528, 4809, 1746, -5991, 3773, 3959, 1528, -3710, -1244, -13826, 407},
    {3612, -614, 4170, 1544, 3061, 1415, -2832, 3774, 2613, 2264, 4005, -9439, -15353, 2718, -1576, 1329, 1636, -929, -7956, 2277, 152, 570, 171, 2384, -4316, -303, -14208, -1371, -347, -5712, -799, 1993, -4242, -667, 1031, 136, 4736, -1564, 828, -25575, 2613, -6998, -1675, 735, -2626, -4167, 1256, 606, -2734, -1016, -732, -461, -6047, 3947, -4504, 1034, -494, 3016, 6849, -268, 1497, -6625, 3838, -10396, -7434, -740, 4323, 3170, -5815, 531, -2883, -4149, -6127, 1613, -8877, 121, -1357, 3903, 2246, 1770, -16434, 1149, -650, -139, -819, 1295, -5627, -9314, 947, -1840, 685, 554, -400, -177, 439, -87, -1539, 939, -3042, -1398, 6274, 1207, 3539, 1283, 1342, -315, 1036, 1642, 2484, 1484, 2500, -7365, -2781, 840, 2784, -6594, 1852, 680, 1225, 752},
    {-20034, -284, 4048, 3551, 2377, -6150, 186, 693, -273, 856, -4501, 1464, -458, -10907, 4593, 457, 3408, -8044, 4403, -1607, 665, -492, -1247, 4245, 108, -221, 2270, 1965, 538, -12532, 224, 471, 169, -1790, -1437, -138, 5317, 4362, -1137, -12651, 2134, -5391, 5103, 645, -592, 1760, 2835, 58, 353, 3897, 1523, 228, -657, -1925, -4228, -1909, -924, -3136, 3903, 326, 590, -2372, 4837, -16805, 3216, -1435, -1467, -5064, 764, 5252, 3963, 1840, -241, 749, -1746, -2000, -573, 454, 3579, 1640, 3425, -16247, 3591, -428, 804, 2225, -15955, 4031, -920, -2612, 1130, -354, -1257, -2297, 630, 2934, 726, -4046, -3819, -786, -9961, -6565, -164, -1170, -13640, 637, 1996, -1611, -426, -1725, 1339, 1789, 2774, -11197, 1361, -468, 1158, 3102, -4562, 1314},
    {2489, 51, 1694, 2457, -291, -866, 2959, 1012, 716, -956, 2438, 5583, -7987, -3393, 489, -10, 2810, 5875, -7279, -9882, -447, 53, -3674, -1382, -2449, 423, -651, 30, 1267, 3276, -251, 1341, 3336, -779, 6157, 107, 1741, 4765, 1687, -6712, 2948, -2641, -1308, 3237, -516, -955, -5684, 499, 5122, -6531, 738, 307, 5942, 2109, 1773, 107, 605, -5558, -16948, 756, 1211, -2387, 6392, -815, 3301, 2049, -2617, -1849, 3711, 8590, 1980, 4669, 909, 1117, -1752, 1490, 288, -723, 3227, 2043, -9319, 88, -212, -2027, 1221, 1423, -1567, 3325, -2752, 268, -9470, 93, -305, 1844, 582, 1195, 993, 157, 2265, 451, 1781, -8579, 5052, 3229, -2870, 201, -10034, 3827, 184, 1760, 3166, 7693, -4525, 543, 1079, -64, 5469, 916, 3202, -543},
    {665, -3750, 1790, -499, -555, 1518, -3209, -60, 2585, 832, -504, -407, 16, 3868, -7753, 1654, 2026, -3897, -683, -7228, 446, 3034, -3887, 3515, -13807, -734, 212, 7141, 2860, -1598, -296, 174, 1271, -316, 1759, 991, -1793, -324, -5204, 1348, 3840, 157, -1683, 1003, 408, -3081, 2116, 942, -691, -8002, -563, 216, -680, 2586, 3944, -1883, 93, -5236, 4031, 535, 859, 3630, 7256, -8353, -4434, -6897, -8902, -10549, 1594, -742, -7281, -2962, 1110, 2595, -61, 784, 2337, -1500, 211, 1011, -498, -1945, -158, -1671, 1263, 1326, 4011, 3837, -5301, 1791, -88, -424, -545, 5498, 1046, -1324, -1132, 20, -1186, 1159, -4270, 1931, -4875, -1438, 1860, 272, -20255, 3908, 1010, -668, 1325, 3957, 830, 2476, -16026, -11622, 3593, 2426, 1830, 214},
    {-5601, -1154, 1964, 4369, 1639, -6612, 2775, 4057, 68, 73, 1842, -201, 1153, 3622, -125, -382, -25823, -2636, -12971, 421, -484, 403, -1070, -276, -8584, -204, -4539, -168, -4758, -1148, 315, -1081, -2309, -959, 3387, 41, -4120, 4762, -5198, 4748, 851, -1754, 1868, 1248, -733, -11379, 2080, -1280, 292, 2004, -658, 1145, -1395, 1905, 1585, 1646, 538, 1020, 6354, 251, 126, -9602, 1470, -9459, 585, -5522, -22099, -2528, 1150, 357, 5598, 1592, -12015, 1646, 16, 1083, 1011, 1209, 1885, 3134, 2427, 648, 750, -2960, 3204, 1458, -8280, -16255, 4942, -601, 3541, -101, -961, 5940, -511, -1467, 982, 5351, 6496, -453, 4068, 1338, 5657, 620, -438, 37, 3644, -1183, 77, -182, 4230, -52, -6296, 3723, 4699, 1115, -3544, -666, -13828, -47},
    {1412, -1059, -81, 1545, -611, -2182, -1441, 2631, 1492, 823, 2836, 1372, 2701, 2797, -2483, 86, 480, 2298, -4001, 1952, -52, 805, -789, 1044, 803, -826, -1662, 377, 834, -796, -533, -674, -2938, -50, 2179, 431, 1607, 2202, -1134, 6454, 4650, -5234, 457, 1323, 390, -1404, 1820, -975, 1715, 801, 1324, 318, -2400, 930, 1681, 912, 1007, -2285, 4741, 1601, 425, -2051, 2981, -4941, -72, -1902, -4380, 1511, -197, 131, 2312, 583, 722, -315, 501, 1207, -550, 607, 2480, 1022, 2185, -6292, 862, -548, 40, 1940, 1695, -1077, 1558, -310, 3144, 188, 1129, 912, 507, -75, 322, 2173, 63, 366, 1963, -382, 865, 177, 3275, 163, 3128, -11, 84, 253, 1674, -1538, -1851, 749, 1362, 506, -1048, -632, -4403, -33},
    {1176, -120, 4218, 2759, 2732, 1322, -2908, 3058, 3457, 1259, 4577, -9273, -15233, 1839, -1262, -384, 2970, -1827, -7029, 636, -808, 652, -1576, 3772, -3807, -233, -14925, -269, -1694, -6727, -811, 2047, -3040, -1530, -30, 312, 5801, -1099, 1066, -24331, 2941, -6887, -2003, 691, -2325, -4722, 1664, 57, -2493, 494, -64, -218, -5848, 810, -4440, 845, 502, 4590, 6256, 57, -286, -7948, 4233, -10965, -8471, -390, 4964, 4180, -4592, 39, -2620, -3873, -5211, 2758, -9214, -370, 147, 4113, 2174, 1499, -16769, 2013, -691, -1324, -440, 1668, -6160, -9373, 1097, -2641, 1085, 510, 555, -644, 732, -1072, -819, 973, -3611, -501, 7332, 209, 1360, 1343, 739, 200, 2903, 3201, 1714, 2332, 1669, -6700, -2235, 1499, 2969, -8655, 1313, 925, 443, 622},
    {2293, -400, 4318, 741, 2135, -10469, -178, -2482, 1322, -487, 455, -3078, -10342, -11435, 1504, -86, 1471, -5392, -13509, -7268, 409, 391, -691, -1917, -1497, -948, -2428, -95, -13832, 4824, -529, 608, 3028, -650, 2175, -155, 1715, 1044, -1639, -1783, -14729, 3014, 5236, -348, 1357, 2097, -2310, 83, 2120, -5804, -702, 472, -346, -4221, 2545, 75, -232, 1561, 3219, 5077, 1057, -778, 1844, 365, 6933, -2462, -697, -3279, 3914, -757, 197, 1247, 2122, 5446, -1055, -304, -1010, 707, 1854, 1974, 1989, 5440, -36, -371, 139, 1437, -6166, 2249, -423, 2800, 5984, 507, 358, -4217, -608, 6103, 1067, -892, -1774, -362, -7894, -2559, -2510, 2583, -1680, -72, 5355, 1160, 844, 3566, 3198, 3815, 26, -3776, 572, 1374, 3045, -6949, -7737, 662},
    {862, -585, 5683, 2195, -456, 3321, 1223, 87, -212, -644, -7899, -5561, -630, 2997, 1925, 1160, 3931, -1472, 1018, -2164, -3, -419, 2964, 1171, 713, -473, 1852, 1072, 2844, -4039, -236, 196, 228, 1966, 2458, 513, 1607, -538, -3123, -299, -22460, 1951, -3188, 1189, 2628, 2668, -7511, -668, 2866, 2090, 261, -498, -3639, -8687, 1723, -483, 389, -3896, 5627, -1552, 1411, -48, 2387, 1688, 61, -3030, 328, -7469, 820, 1310, 2198, 1831, 2186, -12469, -3587, 1204, 167, -1243, 727, 1635, 577, 3763, -432, 199, -189, 87, -2222, -3919, -1078, -2388, -20992, 12, 70, 1963, 2875, 2443, 1292, 968, -3950, 324, -285, -4120, 7276, 5790, -8, 21, 3198, -9627, -356, 2527, 1784, -1187, -1158, -2712, 3297, 2788, 3033, 98, 2561, 895},
    {1975, 431, 355, 2703, -283, -1732, 2446, 371, 946, -331, 1554, 6443, -8415, -3750, -8, -376, 2678, 4853, -7537, -9961, -819, -864, -3647, -1431, -3340, -725, -870, -137, 1477, 1833, 92, 992, 2852, -234, 4301, 42, 660, 4925, 347, -7197, 2822, -2814, 191, 1703, -532, -488, -5250, -142, 5360, -6037, -288, -1609, 6139, 1441, 1654, -1127, 373, -5133, -15878, 67, 204, -1804, 6088, -427, 4327, 956, -3656, -1273, 4789, 7193, 1715, 4451, 1101, 341, -2063, 937, -240, -1010, 3522, 2719, -9137, -714, -1424, -2898, 1523, 2347, -540, 2567, -1068, -325, -9755, -583, -287, 2465, 196, 368, 917, 33, 3240, -453, 2460, -8624, 4931, 3320, -3558, -332, -10167, 3673, 2107, 1094, 2803, 5838, -4422, -899, 2603, -973, 4517, 1628, 2733, -701},
    {143, -1830, 2075, 848, -773, 2604, -4247, 99, 2270, 1011, -158, 64, 1387, 3937, -6878, 89, -141, -4038, -1388, -8514, 429, 1151, -3692, 5132, -12483, -142, 649, 6336, 2000, -2139, 85, 1187, 1292, 359, 1340, 428, -2146, 1131, -4034, 2493, 2703, 457, -2600, 1239, -253, -3506, 1163, -617, 292, -8302, 157, -808, -607, 2165, 3249, -1544, 15, -5813, 3939, 2682, 225, 3482, 5941, -7282, -4543, -5440, -8752, -10154, 1503, -675, -7467, -3746, 268, 4715, 31, 772, 1963, -505, 2033, 2102, 431, -2195, 248, -2178, 2559, 1759, 2383, 4521, -5047, 3135, 167, 308, 263, 6366, 988, -1847, -498, -622, -1964, 3, -3811, 1478, -6075, -2628, 1440, -779, -19830, 4094, 559, 212, 1125, 3667, 1209, 3879, -15689, -11909, 3296, 1491, 3056, -87},
    {2447, -297, 2258, 18, 811, -10253, 285, -1012, 1505, -712, 432, -3571, -10801, -12522, 1874, -23, 361, -4407, -12025, -6226, 204, 48, -1024, -274, -309, -1201, -973, -755, -13769, 5881, -303, 1100, 2029, 447, 1965, -949, 637, 1569, -3252, -1334, -14611, 3033, 5910, 784, 754, 2038, -1769, -38, 1984, -5699, -502, 142, -960, -5612, 3590, -100, 159, 1221, 1680, 6482, 333, -1456, 813, -815, 7252, -603, -399, -3092, 4211, -193, 564, 2288, 1843, 3430, -213, 299, 102, -298, 33, 989, 1664, 5609, -911, -815, 1277, 3260, -7180, 1851, -1261, 3478, 4829, 222, 239, -4892, -72, 6286, 2539, -56, -988, 342, -8100, -3177, -2047, 3774, -1252, 107, 4902, 1448, -117, 3339, 3385, 4402, -716, -3770, 1701, 2030, 2316, -7039, -8077, 21},
    {3368, -255, 2509, -7, 960, -11346, -328, -1020, 2199, -750, 1667, -2250, -10959, -11816, -121, 640, 452, -5405, -12598, -6198, -682, 134, -1461, -1358, -1495, 898, -2410, -488, -13335, 5774, 515, 127, 1555, -768, 2889, -589, 1931, 521, -1827, -3547, -14579, 4557, 5644, 62, 1494, 1785, -1786, -568, 1602, -5525, 227, 94, 831, -4826, 2213, -1862, 385, 2037, 2766, 4852, 1548, -859, 951, -688, 5883, -1561, -528, -3046, 3044, 862, 136, 2513, 2081, 3746, -1819, 136, 173, 1138, 2535, 2303, 1067, 5270, -491, -642, 56, 1837, -6325, 2033, -986, 2837, 4615, -672, 665, -4733, -412, 6263, 629, -899, -2014, -287, -7629, -2257, -2167, 4025, -3401, 31, 3945, 1870, 1028, 4108, 3416, 4653, -1197, -3946, -283, 2352, 1668, -6159, -7100, 217},
    {3709, 202, -14122, 1291, -1947, 500, -1565, -1120, 1208, 993, -3142, 2247, 3407, -9088, -17463, 330, 3329, -751, -948, 704, 120, 90, -1792, 1527, 10, -685, 1544, 2845, -413, -5512, -631, -30, -6127, -762, -581, -917, 3191, 5800, -743, 3029, 4564, 845, -3292, 1539, -633, 2811, -625, 768, 2746, -18972, 1414, -106, -4211, 367, 1833, -156, 573, -10490, 3465, 1936, 702, -851, 4641, -16789, 4312, -72, -1532, -4316, -2017, 2037, 1381, 2982, 2747, -20429, -2600, 4121, -1058, 558, 4713, 272, 3323, -2289, 665, 3994, -1559, 2037, 1359, 1394, 87, 1973, 2681, -969, 938, -4574, 741, 1894, 1105, -802, -1375, 747, 1981, -546, -6776, -877, 1120, -735, 4626, 2362, 1228, 534, 4100, -1384, -9522, -9435, 2235, 27, -8487, -620, -7686, -89},
    {698, 1013, 5227, 1992, -511, 2959, 868, -299, 337, -1486, -7654, -6698, 363, 1518, 1421, -185, 2853, -1762, 2945, -2049, 890, -1031, 1328, 223, 891, 587, 3330, 105, 4140, -4580, -83, -779, 234, 2137, 2524, -755, 1815, 1673, -2615, 107, -22939, 1715, -3358, 1124, 1165, 2686, -7457, -59, 3018, 2129, -278, 612, -3683, -8041, 3069, -213, 600, -3143, 6799, 1251, 931, -683, 2638, 4102, 801, -3309, 2125, -6471, 553, 1796, 285, 1363, 2124, -13601, -3849, 727, 668, -1872, 1428, 787, 119, 3317, -134, 43, -987, 602, -2602, -4801, -94, -4165, -19927, -780, 672, 3178, 1860, 1547, 2011, -49, -3370, 619, -447, -3266, 7147, 5812, -896, -480, 4158, -9941, -16, 3403, 2235, -1042, -1233, -1803, 3292, 2220, 1894, -183, 1445, -939},
    {1089, 252, 5354, 2538, 413, 3383, 984, 202, 1859, -557, -7890, -5755, -430, 2563, 2711, 1, 3929, -1364, 453, -1730, 764, 322, 1648, 896, 1266, 693, 3209, 1226, 4156, -3948, 172, -521, 780, 3519, 951, -38, 1301, 978, -3453, -778, -22940, 2291, -2727, 932, 1751, 2476, -7394, 536, 2483, 2194, 963, -109, -3514, -8646, 1983, -471, -48, -2643, 6544, -614, 496, -214, 3018, 3647, 1441, -3854, 991, -7732, -128, 2718, 1503, 1180, 3277, -13206, -2527, 997, -446, -1062, 1017, 1489, 791, 3908, -193, -67, -420, -576, -3461, -5297, -114, -3163, -21036, -529, 330, 3081, 1911, 1288, 421, -963, -3797, 792, -95, -3752, 6696, 5409, -543, -67, 2428, -8051, 336, 2884, 1505, -2200, -881, -1004, 3652, 1725, 2073, 435, 942, 281},
    {308, 797, 5186, 1702, -133, 3238, 864, 860, 1043, -1033, -8149, -5284, -533, 2713, 2219, 501, 3494, -182, 313, -3034, 445, -404, 2019, -243, 1450, 524, 2491, -293, 4160, -4417, -64, -693, 542, 2149, 1550, 381, 1773, 1359, -2629, -269, -22068, 2120, -3304, 1974, 783, 3360, -7413, -1278, 3885, 1469, 292, -160, -3111, -8168, 2198, -433, -363, -3335, 6381, 88, 2015, -826, 3339, 4805, 1580, -3870, 2485, -6958, 479, 1598, 2378, 2046, 2658, -12466, -3119, 1528, 394, -2431, 1897, 1046, 969, 4402, -880, 221, -1033, -789, -3918, -4606, -853, -2774, -20854, 427, 833, 3900, 584, 1836, 1633, -119, -3398, 353, -984, -3727, 5816, 5386, 880, -467, 3628, -9486, 584, 2945, 2942, -1510, -1378, -1702, 2573, 2519, 2263, -355, 2323, -332},
    {4201, -655, -14681, 1875, -1904, -356, 29, 444, 686, 458, -2482, 1801, 4359, -8334, -18097, -645, 3617, -870, -1068, 1430, 236, -41, -1162, 1221, -43, 504, 1481, 1438, -938, -5484, -100, 503, -7065, -872, 245, 3, 2774, 6913, -1778, 2014, 5690, 1239, -3577, 2402, -543, 2473, -948, -147, 4236, -19011, 1390, -248, -4014, 1487, 1542, 830, -87, -10048, 4377, 1977, 1525, -308, 4958, -16848, 4607, -20, -1420, -3877, -926, 2023, 1556, 2003, 3968, -20595, -2869, 3816, -1806, 149, 4481, -560, 2128, -2062, -798, 4534, -982, 1721, 2697, 1704, -1781, 1461, 3022, 154, 1900, -4642, 62, 2170, 1208, -733, -648, 47, 1330, -288, -5530, -191, 1505, 354, 4240, 1723, 498, 295, 4519, -489, -9827, -8098, 1932, 86, -7925, 68, -6323, 146},
    {-19361, -1624, 3185, 3271, 1692, -5823, 1428, 240, -304, 470, -5054, 2654, 1062, -11877, 4343, -33, 4439, -7999, 3253, -1545, 559, -86, -1841, 3666, 815, -189, 762, 2080, 1777, -11226, -153, 583, -424, -2242, -15, 708, 5359, 4520, -429, -12825, 2740, -4797, 3821, 1749, -626, 1947, 3166, 363, 1738, 3253, -234, 243, -1669, -3372, -5558, -725, 439, -3289, 4357, -1539, 427, -2403, 5492, -16405, 2187, -890, -1958, -4539, -122, 5292, 2293, 1395, -149, -61, -804, -1638, -428, 527, 2527, 2327, 3865, -16329, 2895, -617, 254, 2756, -16846, 3645, -2195, -1103, 339, -134, -566, -2763, 1102, 3465, -258, -3748, -3491, -506, -10262, -6994, -1725, -880, -14393, 1495, 2409, -1663, 34, -224, -236, 678, 3764, -10564, 1117, -780, 1887, 3065, -5394, 269},
    {3226, -163, 3088, 3068, 1435, -207, -3959, 3208, 216, -880, 542, 1436, 1993, -12522, 1082, -16, 4403, -12575, -14254, 1132, 124, 1294, -3544, 4280, -1305, 328, -16954, 5540, 4077, 2276, -590, 852, -13039, -406, 2502, -98, 2573, -1043, -4770, 724, 5013, -4817, 630, -266, -981, 3287, -16411, 227, -441, -224, -1236, -165, -6479, 2877, 2614, -1395, 77, -11141, 4271, 1598, 1244, -1740, 846, 1670, 2207, -1194, -6838, 1793, -2476, 1677, 412, 1956, 3917, 478, -4298, 1048, 641, -2624, -325, -41, 2874, -15968, 537, -2368, -1646, -20388, -2698, 2717, -5930, -2401, 772, 922, -1178, 2536, 4859, 4386, 1315, -1480, 2036, 471, 1477, -1078, 1115, 2314, -11263, 310, 3762, -14573, 632, 2552, 1689, -470, 310, 4002, 2358, 179, -2200, 1001, -6935, -178},
    {1468, -413, -1368, 1389, -1014, -2300, 2437, 799, 547, -612, 1512, 5315, -9123, -4561, -953, -230, 2568, 5619, -7181, -10206, 153, -905, -4406, -1203, -2458, 446, 312, -858, 1137, 2583, 2, 460, 2016, -146, 4398, -113, 336, 4409, 762, -8081, 3458, -1996, -232, 1617, 626, -1837, -5928, -390, 4452, -6344, -266, -489, 5070, 440, 1382, -1369, -185, -5743, -15910, 1256, 1000, -2346, 6598, -648, 2320, 1169, -4821, -1631, 3531, 7973, 1440, 4573, 652, -284, -1815, 584, -160, -920, 4726, 2268, -9330, -2155, -918, -2172, 1470, 1608, -1184, 1880, -1610, -324, -9931, -589, 654, 1979, 88, 828, 1329, -56, 2573, -378, 1404, -9248, 3802, 3163, -3111, -280, -9051, 3454, 1146, 838, 2233, 6991, -4171, 842, 826, -103, 6155, 1389, 2538, -287},
    {1211, -415, 1016, 3477, 231, -2036, 2374, 1210, 763, -404, 2371, 5823, -8546, -3673, -973, -294, 3171, 5927, -7299, -9829, -270, -333, -4523, -1861, -1907, -60, 482, 151, 434, 2410, -720, 1263, 2317, 286, 5823, 105, 1195, 3954, 1108, -6776, 4330, -3049, -1067, 3181, 1030, -758, -5045, -79, 5640, -6618, 937, -933, 5422, 1149, 2053, -761, -533, -4552, -16007, -619, 695, -1111, 6725, -1816, 1669, 679, -3064, -1095, 3754, 8764, 3024, 4187, 1098, 1705, -939, 480, -1019, -332, 4343, 2574, -10003, -649, -698, -1340, 1114, 2737, -2129, 3387, -2957, -194, -9164, 446, -82, 1072, 666, 1222, 916, -399, 2771, 1483, 1304, -8858, 5428, 3838, -2704, 397, -9604, 4704, 1496, 1819, 1931, 6901, -5079, -159, 2197, -693, 6462, 1936, 3494, 549},
    {2888, -33, 3314, 623, 2624, -10168, -272, -351, 1705, -1324, -70, -3730, -10378, -12225, 1018, -385, -538, -5255, -12455, -6206, 648, -523, -1512, -2131, -1931, -579, -1258, -284, -13722, 4804, -8, 484, 2803, -864, 2241, -335, 2842, 2169, -2939, -2244, -13731, 2894, 4979, 664, 412, 1615, -2570, 383, 1873, -5818, 91, 769, -195, -4149, 4425, 288, -74, 2432, 3052, 5335, 621, -925, 1466, -962, 5890, -665, -587, -3617, 4092, 44, -1133, 2509, 1696, 3160, -602, 219, -1232, 1284, 2092, 2364, 2953, 5205, 2, -131, -340, 2630, -6437, 995, 545, 2774, 5103, 218, -89, -3648, -687, 4383, 851, -290, -1084, -671, -6902, -2768, -1535, 2306, -825, 901, 5632, 1815, -168, 4555, 2946, 3931, -1540, -3759, 1084, 2638, 2634, -7084, -7504, -72},
    {1717, -754, 88, 2371, -677, -1046, 1963, 634, -53, -1299, 1215, 5860, -8941, -3815, -177, 554, 1988, 5843, -7831, -10183, 636, 126, -2872, -446, -2087, -186, -758, -446, 1119, 589, 52, 1326, 2524, -1236, 4838, 695, 1411, 4861, 638, -6454, 3704, -2093, 532, 3237, 525, -43, -5244, -415, 3996, -7010, 376, 173, 6671, 1533, 1952, -1038, -19, -5505, -16218, -261, 528, -1930, 6804, -2204, 2813, 1754, -4088, -1501, 3348, 8585, 2359, 4350, 1872, -170, -1705, -18, 760, -1085, 2317, 2877, -9325, 290, -785, -2328, 560, 2587, -1542, 4050, -1119, -33, -9605, 476, 496, 2468, 1461, -930, 1137, -1470, 3331, 901, 2036, -8284, 6014, 3655, -3710, -129, -10189, 3434, 1013, 551, 3817, 6073, -5202, -81, 1510, -664, 5563, 841, 3644, 461},
    {4039, -311, -14811, 2892, -2087, 567, -206, 160, 1160, -265, -2872, 2786, 2330, -8111, -17347, 442, 4365, -1789, -2217, 2340, -811, 906, -1529, 2262, -566, -169, 1239, 2149, -2431, -5711, 94, 278, -6388, -377, 581, -498, 3427, 5931, -1294, 2573, 6546, 547, -3011, 1961, -1921, 2550, 277, 32, 2572, -17547, 1159, 720, -4317, 1793, 1883, 802, -10, -9550, 3777, 1839, 1222, -1883, 4740, -17389, 4567, -924, -2772, -4497, -76, 1871, 1099, 2527, 1355, -19354, -782, 4241, -923, 1015, 3580, -859, 2456, -1474, 607, 3943, -703, 2483, 1226, -166, -211, 1314, 3644, -661, 743, -3750, 1331, 3653, 2247, -803, -1271, 1167, 2978, -235, -6330, -1177, 1674, -1040, 4808, 1344, 716, 1750, 4463, -1554, -9761, -8888, 1722, -175, -8179, -551, -6444, -40},
    {681, -2677, 2210, -1278, 409, 2066, -3837, -514, 2715, -194, -849, -1170, 199, 4169, -7363, 1867, 2269, -4287, -670, -6031, 39, 614, -2943, 4534, -13798, -1351, 1100, 5990, 1973, -1435, -1115, 323, 1933, -151, 507, 168, -1380, -374, -4669, 1918, 3370, 55, -2601, -54, -5, -3135, 459, 202, 546, -8962, 824, 311, -717, 2674, 3766, -569, -593, -6166, 4709, 1849, 338, 3717, 5243, -8251, -5378, -5936, -8651, -10190, 2738, -940, -7499, -2828, 788, 2206, -1331, 571, 2793, -824, 2895, 1336, 1033, -2388, 217, -1691, 3004, 359, 2792, 3246, -6182, 2089, 849, 950, 341, 6301, 830, -941, -2022, -1030, -1719, 806, -4403, 1363, -5861, -1094, 1438, 1472, -19866, 1947, 358, -304, 1056, 4566, 1002, 3287, -16052, -11640, 3605, 1701, 2511, -566},
    {2851, -75, -14737, 1250, 304, -3434, 4072, 4274, 3125, -846, -5968, -13895, 1766, -15125, -6683, -284, 4670, 777, -5226, -14190, -331, 921, 5689, 3069, 2520, -936, 4655, -5547, 2741, -2418, 1449, -498, 2126, 825, 3254, -624, 797, 2531, 3908, 3972, 4308, -5357, 4082, 2707, 3153, -6327, 766, 225, 3340, 4267, -293, -8, -1385, -16109, 2475, 1122, -789, 1856, 4769, 2455, 1096, -9959, 3599, 1438, -5638, -3389, -884, 2061, 3380, 512, 3552, -2444, 1796, 4322, 179, 1536, -4630, -837, 2910, 3264, -13418, -4799, -178, 1739, 5773, -4275, -1243, 3013, 879, 2922, 5327, 1319, 1096, 2767, 706, -4950, -1636, 1362, 610, 427, -76, 845, 1612, -1296, -9025, -15, 4669, 3360, 1312, 887, -4641, -4519, -74, 3660, -6534, 2631, 2099, -11030, -1234, 403},
    {2718, -181, -14424, 2831, -2325, 668, -332, -716, -38, 1644, -2269, 3421, 4645, -8499, -17250, -943, 3022, -695, -2756, 3123, 120, -556, -936, 1731, 572, -383, 1772, 1475, -926, -5975, -527, 804, -5340, -748, -335, 683, 3006, 4555, -1814, 2996, 6279, 1501, -3319, 1974, -1264, 3279, 431, 659, 3315, -18822, 1250, 519, -3990, 2865, 1351, 396, 430, -9524, 5162, 1739, 1073, -892, 3467, -17228, 5370, -214, -2596, -3656, -1045, 1099, 1127, 2560, 2071, -20600, -1459, 3901, -409, -951, 3436, -451, 2517, -2235, 1190, 3534, -247, 2781, 3524, 494, -1326, 623, 3675, -555, 1914, -5061, 1041, 3991, 1318, -1008, -1289, -1041, 1211, 428, -6762, -1366, 2852, -719, 4527, 497, 359, 1046, 4262, -654, -9348, -9811, 2732, 348, -7998, 1045, -6300, 303},
    {-19096, 553, 5318, 3647, 1945, -4976, -60, 65, -442, 1365, -4544, 2832, -286, -12109, 5949, 646, 4123, -7922, 4828, -730, -141, -2263, -1134, 2260, 152, 440, 765, 1529, 1658, -11102, 51, 605, 174, -2218, 590, 1, 6213, 3653, -491, -12278, 3368, -5589, 4564, 220, -791, 1716, 4057, -450, 498, 3626, 314, -24, -711, -715, -5914, 67, 190, -3178, 3849, -1051, 705, -2240, 6277, -17477, 2746, -1049, -2962, -3767, 778, 4325, 4198, 1950, 292, -599, -1059, -861, 206, -311, 3206, 1364, 4326, -15780, 3677, -786, -359, 4050, -15402, 4128, -2071, -1943, 1336, 697, -97, -1807, 39, 2944, 1044, -4939, -3295, -187, -10994, -6425, 1727, -680, -13178, 1071, 1775, -1243, -494, -716, 489, 1880, 2548, -9989, 2059, -1027, 2653, 3874, -5949, -978},
    {1605, -928, 6893, 1494, 1690, 3268, -2236, 2742, 3247, 1364, 4241, -10355, -15501, 3060, -780, 257, 2145, -889, -7395, 1289, 414, 1166, 174, 3877, -5219, 71, -14896, -142, -1518, -5501, -112, 2974, -2473, -36, 565, 515, 3940, -1115, 655, -24726, 3300, -5919, -1633, 1519, -3232, -4298, 1438, -1842, -1897, 1055, 250, -118, -6992, 4241, -3909, 399, 652, 3924, 4949, -527, 35, -7197, 4236, -11084, -8377, -366, 3082, 2845, -5163, -115, -1754, -4292, -6110, 2058, -8442, -3, 382, 4655, 2976, 710, -15205, 2278, -976, -624, -313, 802, -5513, -10286, 1804, -1062, -773, 17, -291, 191, 49, -585, -534, 238, -4326, -552, 7679, 1162, 2201, 762, 1196, -348, 265, 2006, 2692, 2755, 1354, -6880, -3003, 1231, 2254, -7462, 1085, 2385, 1195, 139},
    {-20314, -718, 3595, 4587, 1511, -5710, -296, 1534, -153, 367, -4657, 3920, 471, -11270, 5033, 273, 5692, -8728, 4578, -769, 1421, -1518, -1674, 3117, 2059, -481, 685, 2474, 2304, -10967, -178, 1317, -980, -1578, 204, -108, 5932, 5324, -1317, -12208, 2438, -5495, 3473, 864, -1764, 1608, 4432, 532, 809, 2101, 1815, -183, -1574, -409, -4784, -1444, 408, -3233, 4344, -615, -244, -2214, 5562, -17671, 1276, -871, -2838, -3748, 308, 6006, 3923, 381, 1924, -813, -1445, -1583, -182, -1395, 3236, 962, 2120, -15823, 2949, -471, 959, 1357, -15871, 3673, -2175, -1920, 556, -252, 707, -1579, 115, 2929, -96, -3529, -2423, 189, -10678, -6594, -855, -366, -14069, 638, 374, -523, -979, 17, 63, 482, 3285, -10603, 840, -719, 1166, 4048, -5764, 32},
    {3790, 794, -15371, 855, 467, -3297, 4033, 3254, 4340, -382, -5792, -12371, 2410, -14195, -7072, 174, 4495, -872, -5525, -13124, 107, 355, 4686, 4883, 2405, -1260, 3943, -4354, 3664, -2842, -103, 131, 2584, -202, 3230, -581, 2094, 2197, 4065, 1653, 1029, -4619, 4060, 1664, 2605, -6210, 629, -228, 2829, 2859, -822, 95, -2498, -16755, 3291, 1511, -541, 196, 5582, 3103, 917, -9160, 3835, 2784, -5892, -1149, 408, 1824, 4960, 896, 4525, -1873, 2319, 3118, 543, 1177, -4804, -491, 3265, 2202, -12856, -5151, 877, 935, 5024, -4089, -126, 3069, 768, 3003, 2236, -821, 144, 3201, 680, -5306, -1690, 1195, -920, -670, 418, 492, 1933, -3148, -9185, -536, 3545, 1297, 1364, 1146, -3285, -4155, 565, 2411, -6380, 2727, 1086, -10725, -1125, 437},
    {1037, -103, 665, 2828, -868, -756, 4753, 206, 580, -452, 3310, 3942, -7847, -2376, 458, 604, -735, 2820, -8557, -7059, -913, -236, -4147, -619, -3008, -102, -1254, 151, 1149, -572, -37, -144, 2490, -384, 4011, -148, 191, 4728, 3123, -7543, 734, -6146, -1287, 608, -374, -2738, -3424, -194, 5597, -4896, -243, -76, 11083, 984, 1050, -215, 724, -5206, -9890, -1207, 1199, -2525, 4342, -1516, 2907, 3199, -3710, 707, 1814, 5942, 4231, 6543, 2089, 761, -2349, 1095, -422, 476, 2462, 1203, -7474, -2416, -246, -777, 1936, 1794, -1991, 3792, -875, -490, -4064, 32, 549, 3023, -628, 225, 341, 181, 4945, -990, 640, -5583, 4987, 3006, -2733, 770, -6688, 1745, 586, 533, 1149, 5574, -5087, 1133, 2677, -809, 1506, 940, 3764, -119},
    {-659, -328, 3863, 1308, -803, 2910, 1007, 192, 661, -1417, -7088, -6139, 686, 2151, 945, -472, 1720, -1982, 1117, -2851, -262, -31, 1726, 219, 1348, 493, 1793, -72, 3694, -4411, 423, -152, 547, 3239, 2207, 163, 1244, 408, -3232, 327, -22061, 1859, -3738, 1579, 1410, 2575, -6752, 321, 3127, 2428, 77, -563, -3424, -7589, 2708, -555, -430, -5259, 4974, -470, 734, -570, 3379, 3071, 357, -3449, 440, -7065, 677, 690, 1217, 268, 2077, -12962, -3249, 238, 65, -1882, 1008, 24, -638, 3931, -1239, 351, -695, 787, -3277, -4893, -651, -3345, -20189, 414, 275, 1970, 1219, 3062, 1949, 647, -4158, -747, -1040, -3026, 7356, 5466, -573, -388, 2748, -9670, -96, 3300, 1205, -1098, -825, -977, 2949, 2382, 1657, -324, 1274, -537},
    {3278, -452, -14043, 2778, -1308, 211, -136, -1219, 1500, 926, -3876, 1279, 3592, -8353, -17643, 1353, 2419, 148, -980, 810, -1031, 586, -1032, 1283, 133, -603, 2752, 798, -1437, -5717, -883, 455, -6136, 101, 635, -421, 3720, 5049, -1020, 2973, 5187, 2325, -2721, 1806, -1032, 2231, 113, 520, 3556, -18636, 1168, -791, -3920, 2371, 2340, 118, -601, -9781, 3110, 2608, 2662, -1382, 3652, -16446, 4536, 763, -2276, -4239, -674, 2462, 1364, 1438, 2901, -20501, -1067, 3636, -513, -199, 4646, -876, 2932, -2960, 359, 3210, -952, 2381, 2919, 1984, -37, 1417, 2362, 252, 1594, -4941, 1114, 3079, 2034, -904, -1554, -727, 3524, -595, -6466, -1111, 1851, -1772, 4084, 1675, 1354, 1043, 5833, -1042, -9024, -10629, 2657, -283, -8150, 61, -6652, 671},
    {5416, -346, -13831, 1295, -1237, -164, -888, -1180, 990, -114, -3654, 1162, 3327, -8684, -18031, 473, 4033, -2220, -1003, 1387, -917, 1149, -1458, 2706, 128, 988, 635, 2451, -1174, -5594, 275, 598, -6956, -42, 412, -742, 4064, 4287, -669, 2416, 5907, 1279, -2953, 2631, -1536, 4092, -836, -413, 3882, -18658, 193, -475, -4545, 990, 3284, 1098, -192, -9777, 4467, 1755, 1917, -1021, 4548, -16983, 4150, -257, -2681, -4210, -2147, 2139, 462, 1876, 2474, -20567, -2099, 3549, -1179, 584, 3279, -60, 3267, -3085, 250, 4462, -1741, 373, 2044, 853, -423, 998, 2363, -816, 1308, -5204, 2000, 2847, 1900, -1150, -2625, -853, 3293, 141, -6965, 437, 1249, -171, 3258, 1782, 914, 1915, 3578, -709, -9690, -9299, 1793, -47, -8440, -237, -6417, 134},
    {383, -3043, 1809, 302, 699, 1266, -4281, 274, 2868, -210, -626, -656, 366, 3497, -7114, 2506, 1511, -3145, -772, -6586, -150, 1647, -4524, 4958, -12830, 831, -55, 7341, 1491, -1322, -680, -328, 1538, -264, 1865, 359, -1719, -36, -5125, 1280, 4125, -271, -2526, 1349, 1146, -2952, 1184, 501, -2009, -8164, 1067, 336, -1048, 3249, 3588, -1099, 345, -5199, 5335, 718, 269, 2910, 5547, -8841, -4699, -6754, -7791, -10448, 3693, -579, -6580, -2607, -567, 3520, -764, -651, 1934, 85, 1889, 900, -1420, -1473, 728, -2011, 1881, 1573, 4745, 3551, -4192, 1867, -384, 68, -248, 6381, 595, -809, -2203, -958, -1062, 781, -3442, 2556, -5665, -1229, 1813, 613, -19255, 3757, 1957, -478, 1011, 3899, 1854, 3878, -16724, -11715, 4289, 1740, 2212, 36},
    {1718, 309, 3220, 426, 1439, -9801, -396, -1940, 1810, 84, -657, -2599, -10706, -11740, 1454, 915, 1620, -5313, -12734, -5672, 900, 975, -633, -1982, -902, -330, -1378, 103, -14062, 3812, -612, 352, 2869, -763, 2346, 670, 1311, 2593, -2422, -3250, -14298, 3511, 5172, 468, 978, 2685, -2852, -769, 1915, -4937, 70, 227, 44, -3764, 2388, -892, -376, 2226, 2212, 4730, 318, -1606, 2306, -1520, 5727, -1467, -305, -3483, 2890, -758, -664, 1594, 2247, 3533, -1018, 23, -383, 1394, 1190, 2236, 1945, 5572, -264, 921, 273, 1417, -6091, 2566, 167, 3807, 5687, -873, -133, -4582, -535, 5504, 248, -1263, -1564, 985, -8131, -3420, -2609, 2625, -609, -146, 3923, 1825, 682, 2879, 3457, 4078, -617, -5788, -460, 2069, 2025, -6407, -6980, -336},
    {-19882, -931, 3800, 2322, 2380, -4883, -260, 592, -691, 578, -3797, 3011, 475, -10524, 4876, 95, 4924, -8079, 3213, -1151, 843, -1024, -438, 2247, 1886, 763, 516, 1788, 1182, -11062, 246, 23, 609, -2491, -668, -1812, 5174, 5213, -1178, -12794, 2734, -5346, 4315, 930, -824, 2012, 3034, -542, 270, 1948, 107, 967, -1845, -759, -4941, -1275, -681, -2881, 3088, 134, 788, -1649, 5572, -17828, 2845, -1222, -2006, -4208, 274, 4756, 3586, 1351, 1774, -516, -625, -1268, -328, 332, 3758, 1159, 2891, -15078, 1529, -596, -7, 1511, -14974, 3229, -2236, -1755, 910, 1802, -257, -1964, 805, 2747, 751, -4346, -2662, 63, -10437, -7184, 58, -1552, -13905, 757, 1062, -627, 314, -1406, -264, 913, 3027, -10068, 1233, -940, 3321, 3339, -6208, -389},
    {2986, 842, 3803, -26, 1890, -10728, 343, -929, 550, -1354, -560, -3076, -10291, -12757, 1354, 1675, 550, -5397, -12538, -5384, 38, -779, -2251, -1526, -1561, -685, -1158, 441, -13713, 4589, -455, 305, 1985, -28, 1639, -110, 2123, 2049, -2753, -2029, -15289, 3505, 5606, -747, 941, 1600, -1753, 778, 1182, -5432, -290, 251, -886, -3665, 2818, -667, 231, 343, 3757, 5414, 516, -617, 2484, -927, 6231, -276, -145, -3357, 3035, -618, 196, 2344, 2205, 4054, -1358, 1407, -1632, 773, 1371, 1226, 1596, 5854, -786, -757, 1753, 1935, -6392, 734, 597, 3275, 5522, 531, 554, -4444, 17, 5154, 569, -1202, -1792, -1264, -7734, -3030, -1463, 2343, -1328, 24, 4333, 530, 711, 3767, 3570, 3189, -1020, -4523, 1953, 2333, 1825, -6644, -7258, -727},
    {-4605, -2528, 1081, 4511, 1810, -8034, 1625, 4289, -831, 420, 2166, 866, 979, 4277, -1259, -873, -26440, -2671, -12531, 332, -776, -478, -957, -759, -8243, -320, -4620, -1117, -4011, -305, -351, -1640, -2549, -485, 4489, 1244, -4569, 4624, -3299, 2869, 2924, -2845, 2234, 511, -164, -11002, 1930, -244, 766, 1910, -1318, -1010, -2074, 821, 676, 1795, -165, 1288, 6156, -258, 1645, -10568, 965, -10668, -338, -6247, -22227, -824, 1412, 931, 3951, 1783, -11615, 2502, -1218, 1365, 1115, 1552, 1708, 3994, 740, 455, 822, -3020, 2725, 1355, -8639, -16816, 4724, -1853, 3725, -1306, -407, 5064, 228, -1524, 602, 3494, 5986, -225, 3297, 526, 6540, 184, 935, -1327, 2420, 288, 319, 695, 4848, 2025, -5747, 3630, 4086, 474, -3609, -2271, -13055, 487},
    {2688, 334, 6, 1734, 360, -2062, 1813, 668, 1457, -2122, 1844, 5061, -9254, -2634, -1962, 347, 2262, 4430, -7115, -10002, 173, -190, -3857, -675, -3719, -1789, -374, -426, 1245, 932, 734, 1650, 1895, -754, 5869, 722, 1082, 3220, 1883, -6763, 2762, -3238, -907, 2148, -720, -1099, -5274, 292, 5417, -5667, 972, -1063, 4203, 817, 2747, -1330, -121, -3822, -15449, 758, 1128, -2327, 6910, 342, 2665, 788, -4469, -2303, 3092, 7547, 2709, 5037, 1022, -161, -2038, 1162, -218, 409, 3574, 1658, -9111, -95, -432, -2065, 621, 1486, -2265, 2604, -2317, -267, -9397, 179, 116, 1263, 551, 91, 1112, 110, 2113, -338, 2325, -9712, 5187, 1818, -2561, -246, -9568, 2505, 1128, 1299, 3009, 8870, -4556, 1667, 1155, -521, 5265, 909, 2737, 377},
    {2078, -1329, -3343, 513, 421, -8499, 2136, 858, 2840, -357, -2858, -11789, -324, -15497, -1099, 1389, 1981, 1624, -10911, -13683, -533, -252, 551, 2325, 2163, -334, 2889, -1443, -3073, 192, 362, 303, 4628, -750, 2242, 391, 3152, 2044, 29, 569, -1850, 1986, 4959, 1094, 1931, -3001, -1003, -386, 2340, -360, 320, -858, -2817, -15186, 3477, 299, 1088, 2138, 3454, 3870, 948, -6484, 4232, 1845, 1441, -2760, -699, 1303, 4980, -995, 804, -1981, 2574, 4708, 2510, 556, -3088, -1299, 2647, 2536, -4025, 1231, -645, 572, 3268, -890, 1522, 3281, -107, 3909, 2477, 212, 672, 566, 1298, 190, 147, -122, -670, -71, -1832, -375, 607, 218, -7385, 763, 4799, 2421, 1226, 2484, -1369, -817, 658, 1718, -2357, 2694, 1384, -11742, -2531, -17},
    {245, -621, 5167, 2535, 369, 4200, 946, -525, 1073, -839, -8479, -5438, -790, 2198, 847, -89, 4239, -1084, 621, -2066, -329, -187, 2065, 1212, 921, 383, 2329, 1172, 4388, -5145, 349, -1213, -284, 3242, 2490, -506, 1343, 392, -4182, -695, -21817, 2284, -2355, 1476, 1857, 2446, -7378, 427, 3037, 2123, 549, -964, -3444, -8253, 2116, -1017, 279, -3473, 5016, -718, 789, -25, 4303, 4296, 1248, -3441, 1777, -6538, 737, 504, 1935, 967, 2636, -12943, -1751, 558, -246, -1010, 1056, 1278, -180, 5196, -656, 369, -725, -786, -3170, -5131, -655, -2745, -20587, 370, 281, 2857, 1712, 3323, 696, 1548, -3514, 1755, -774, -3561, 5697, 6192, 574, 64, 3973, -9660, 75, 2330, 779, -1517, -2042, -979, 3346, 2228, 2395, 707, 890, -671},
    {1503, -738, 5111, 605, -299, 3233, 1344, -683, 841, -540, -7714, -5454, -1141, 1542, 1736, 216, 1903, -1992, 490, -1640, -766, -501, 1823, 746, 1176, 509, 900, 1179, 2260, -5026, 49, -949, -265, 765, 1473, -427, 1539, 311, -3413, -1241, -22316, 1692, -3173, 902, 1863, 2731, -7887, 858, 2631, 759, -109, -1088, -3984, -8957, 3346, -321, 1092, -3785, 4405, -269, 968, -1112, 1715, 2605, 54, -3494, 1166, -7762, 1137, 947, 2657, 1381, 3026, -13481, -2269, 600, 346, -1158, 1503, 1719, 1557, 3531, -471, 594, -1126, -561, -3142, -4671, -55, -3097, -20695, -722, 1238, 2601, 270, 1030, 1906, 957, -3106, 183, -1137, -2680, 5882, 4783, -661, -220, 2927, -8969, -539, 3589, 1643, -1515, -1932, -1289, 3879, 2104, 2340, -501, 1935, 113},
    {-5338, -1911, 1870, 4774, 651, -6640, 649, 2560, -906, 1619, 2733, 1111, 1684, 4534, -964, -162, -25197, -2203, -12871, 113, 860, 287, -797, -166, -8098, 29, -4796, -656, -4383, -1921, -1054, -1412, -1834, 1265, 3925, 201, -3443, 5185, -4323, 3822, 3266, -2811, 1444, 1484, -396, -10830, 4284, 777, 1584, 1361, -902, -27, -2219, 279, -312, 2338, -373, 207, 4714, -420, 1839, -10245, 1095, -9491, 513, -6786, -22054, -2466, 1039, 534, 5674, 1833, -10698, 2893, -282, 449, 469, 1412, 1183, 3727, 2415, 1774, 1663, -2886, 2706, 3229, -7679, -15622, 5290, -936, 2683, -890, -229, 5772, 1165, -2462, 927, 3218, 5882, -43, 3692, 647, 7429, 1052, 85, -704, 3384, 1359, 542, -1062, 3874, 1558, -5983, 2699, 4287, 877, -4495, -191, -13315, -451},
    {-1648, -2475, 3418, -1110, -610, 2402, -4217, 354, 2976, 275, -1113, 305, 638, 5504, -6988, 1083, 268, -5316, -1135, -7282, -194, 2073, -4604, 4626, -11793, 248, -668, 6590, 806, -1401, 195, 1063, 2693, -370, 2391, 919, -1355, 62, -4358, 851, 4044, 15, -1604, 1782, 1309, -2672, 2590, 877, -728, -7566, -59, -867, -1305, 2363, 3675, -531, -407, -5560, 4016, 142, 343, 3625, 5908, -7013, -4295, -6878, -8135, -10111, 2206, -1237, -7015, -2720, 619, 2458, -1384, -365, 1407, -1143, 642, 1480, 1433, -1700, 489, -2275, 2015, 1763, 1920, 3136, -4674, 2174, 362, 1182, -48, 4575, 1743, -1792, -580, -547, -1613, 906, -4802, 1473, -6267, -2498, -470, 265, -19881, 1740, 665, 694, 1208, 4970, 2462, 3997, -16221, -11415, 3063, 2440, 1287, 193},
    {4110, -1478, -8051, 1513, -737, -2056, -308, 62, 44, 926, -1513, 2942, 3988, -8025, -10192, -899, 2675, 3289, -3511, -270, 344, 1536, -3174, 2087, 2569, 454, 634, 2381, -115, -7556, -661, -272, -5621, 14, 889, -912, 3343, 4965, -1752, 3054, 5023, -1076, -2374, 1301, -2054, 1343, 686, -69, 3974, -12011, 342, -345, -4053, 2300, 1431, 418, 403, -9251, 3416, 1967, 1834, -1057, 4486, -18640, 4039, -373, -4276, -3634, -625, 1257, 1968, 2234, 1561, -16515, -3935, 3176, -829, 651, 5225, -325, 2520, -3791, 986, 3729, -898, 2828, 5027, 1513, -525, -159, 3462, 218, 1307, -3952, 1141, 1766, 330, 1268, -460, 1156, 755, -1387, -3856, -1502, 7476, -1184, 3310, 1850, 450, 2086, 4891, -265, -8627, -9547, 742, -1003, -6140, 810, -10320, 245},
    {1792, -13, 4475, 1349, 3180, 1762, -2387, 3458, 3801, 2246, 3997, -8999, -15382, 2393, -1703, -101, 2701, -1068, -7544, 526, -766, 1826, 321, 2996, -4674, -882, -14000, -617, -2452, -5733, -976, 2561, -3893, 645, -359, -104, 4189, -1625, 289, -24398, 2426, -6735, -2014, 628, -2266, -4297, 1942, 57, -3107, -273, 345, 128, -5588, 925, -3416, 560, 318, 2368, 6048, 196, 275, -7087, 3344, -10289, -8654, -150, 4962, 3319, -3702, -99, -2634, -4822, -7087, 1399, -7720, -98, -27, 4154, 2307, 268, -16356, 1363, -1124, -689, 563, 1092, -5297, -9765, 1368, -1236, 235, -310, 345, -198, 1178, 771, -639, 393, -2699, 63, 8410, 992, 2788, 686, 1609, 327, 1484, 1359, 837, 1993, 2375, -6481, -3135, 885, 1397, -7232, 2129, 1955, 1498, 1002},
    {3570, -189, 1192, 1881, 445, -19, -4462, 2679, 1336, 1114, 229, -387, 3439, -13335, 1893, -719, 3593, -13092, -14051, 2613, 142, 1203, -3142, 3578, -2018, 379, -16938, 6109, 3870, 1719, -263, 1199, -11984, -1507, 2636, 331, 3245, 17, -4452, 825, 3696, -5285, -273, -543, -302, 2408, -16473, 100, -1064, -1057, -105, -268, -6338, 3121, 2198, 62, -319, -11599, 5033, 2181, 524, -2905, 817, 1490, 1322, -1330, -6110, 1145, -2795, 1197, 1807, 2216, 4096, -201, -4640, 703, 700, -1725, 1814, -610, 4423, -17763, 792, -2774, -2734, -21381, -2763, 3409, -6105, -4090, 1751, 754, -518, 1515, 5827, 4776, -383, -2649, 1547, -146, 3007, -1548, 1405, 1041, -12357, -835, 3116, -15075, -21, 1891, 1830, -1254, -680, 4281, 3656, -1021, -2256, 1469, -7505, -785},
    {1256, -311, 692, 1873, -536, -2377, 1979, 1379, 881, -1190, 2021, 5755, -7987, -4089, 641, -579, 3244, 5669, -6977, -11036, -331, -450, -3955, -1938, -2600, 891, -637, 107, 534, 1468, 413, 1852, 3343, -1161, 4690, -34, 851, 4174, 681, -6061, 4305, -2575, -363, 2123, -114, -1260, -5124, 266, 4374, -6091, -1415, 28, 5059, 1561, 1809, -891, -531, -5407, -15753, 645, 592, -2268, 7388, -838, 2984, 1434, -5446, -2001, 3491, 8701, 2890, 3422, 1967, 902, -1990, 518, -716, -750, 3378, 2326, -9244, -1086, 149, -916, 581, 1675, -1290, 3768, -2827, 672, -10056, 35, -7, 2222, 790, -420, 602, 645, 1888, -364, 1579, -9286, 5008, 2308, -2721, -151, -9782, 3973, 475, 1290, 3830, 7247, -3717, 404, 1294, -139, 6801, 1779, 2931, -392},
    {-19435, -160, 3374, 3376, 1835, -5989, 277, 461, -837, 870, -3497, 2003, 1293, -11440, 4477, 573, 4521, -7517, 2854, -2112, -327, -1239, -904, 4409, 297, -538, 1446, 2324, 3159, -10898, 332, -379, -178, -1635, 737, -41, 4487, 4486, -1201, -11868, 1931, -4448, 5562, 1206, -341, 303, 4013, 153, 614, 3525, 670, 102, -1186, -1787, -5477, -762, -264, -2776, 4203, -720, 364, -2691, 5960, -17216, 1959, -1696, -2825, -4228, -208, 5946, 4038, 1342, 1184, -421, -1228, -1186, -25, -249, 2660, 3155, 1354, -15990, 3327, 381, -310, 2314, -14939, 4210, -2218, -747, -349, -340, -373, -2414, 30, 4335, 1615, -3856, -3064, 310, -10260, -7060, -790, -99, -13378, 1289, 99, -525, -226, -5, 639, 1390, 3688, -10996, 995, -1161, 1350, 3399, -5600, 576},
    {2227, 936, -15978, 624, -1474, -3892, 3309, 2493, 2079, -1297, -6811, -13165, 3234, -15176, -6695, 618, 2671, -496, -4836, -14160, 561, 620, 4957, 4065, 2641, -738, 3978, -4262, 3215, -2883, -326, -515, 2743, 95, 1832, 545, 2158, 2881, 4882, 2158, 1950, -4349, 4055, 1493, 2564, -6379, -110, 590, 2457, 3205, -613, -280, -1968, -15666, 2116, 1521, 272, 1300, 3899, 2803, 1834, -9024, 4085, 1894, -5192, -994, -841, 1489, 4549, 1207, 3264, -2016, 1424, 3337, 188, 1426, -3651, -771, 2072, 2800, -12337, -5483, 173, 331, 5682, -4978, -1703, 2840, 800, 4085, 2317, 22, 49, 2666, 334, -3699, -1581, 919, 231, 944, 890, 1441, 2330, -1696, -8786, 153, 3890, 2949, -205, 1048, -5149, -4586, -478, 2970, -5865, 3391, 3580, -10968, -596, 370},
    {3800, -1033, 1379, 1656, 1113, -1452, -3502, 2359, 1872, -1043, 511, 995, 1718, -13354, 1627, 839, 3042, -12750, -14269, 1598, 258, 2365, -3746, 4700, -1766, -382, -16280, 6199, 3928, 2656, -116, 1061, -11387, -2319, 2081, 122, 1311, -104, -4735, 2942, 2429, -4366, 204, -833, -446, 884, -16541, 144, -1046, -720, 185, 698, -6572, 2363, 3042, -1244, -577, -11139, 4849, 2879, 922, -2681, 83, 2241, 1793, -2896, -6220, 1786, -2479, 1289, 1230, 1946, 5016, 880, -4869, 1300, 71, -1804, 1614, -656, 2410, -17294, 1290, -2684, -941, -19610, -3015, 1991, -5237, -2385, 2555, 328, 521, 1880, 5474, 4589, 53, -1749, 1370, 512, 1268, -651, 626, 2071, -11623, -548, 5676, -14680, -69, 1186, 3673, -570, -300, 5586, 2898, -1133, -1917, 21, -7196, 919},
    {1059, 585, 4981, 1760, -1148, 3698, 1575, -364, 982, -791, -8148, -6175, -504, 2143, 1872, -383, 2034, -1100, 1143, -2011, 444, 1229, 2394, 644, -123, 1111, 2389, 190, 4054, -3997, 90, -167, 494, 2172, 1222, -264, 1542, 1058, -2736, -79, -21761, 1662, -2866, 1021, 1382, 2106, -6876, -1159, 2118, 1303, 43, 606, -3456, -8739, 2704, 523, -351, -3478, 5430, 187, 1104, 878, 2062, 3340, 812, -4055, 2289, -6766, 350, 878, 1619, 2431, 2177, -13137, -2214, 517, 103, -1555, 1525, 576, 236, 3582, -810, 755, -924, -1280, -3513, -5123, -1004, -3975, -20017, -147, -442, 3211, 1561, 3361, 591, 759, -4317, 7, -1610, -3520, 5462, 4559, -152, -410, 2522, -8997, 83, 2174, 2355, -494, -535, -1723, 2410, 1919, 831, -239, 2880, -354},
    {3481, -838, -14680, 222, 141, -3894, 4269, 2434, 3431, -568, -6093, -12794, 1909, -13873, -7498, 469, 4090, -1106, -5342, -13179, 586, -856, 4584, 3764, 2155, -1046, 3381, -4759, 2499, -1822, -255, 160, 3122, 1057, 2843, -1096, 2957, 3154, 4042, 2255, 2052, -5708, 4474, 724, 2263, -6902, 1176, 27, 3564, 3417, -1788, 295, -2177, -17164, 3239, 1374, -244, 1056, 4730, 4009, 931, -8986, 3642, 700, -6007, -1752, -795, 1569, 3700, 594, 4101, -2871, 3008, 2718, 308, 1510, -4232, 378, 2976, 1759, -12860, -6325, 114, 835, 6145, -5872, -514, 2903, 1318, 3757, 3255, -483, 635, 3336, 1447, -5686, -1313, 1254, 420, 610, -619, 57, 1366, -502, -9569, -200, 3457, 1087, 502, 1222, -4318, -5138, -104, 3891, -6346, 2062, 1631, -11451, -251, 508},
    {2174, 167, -14964, 122, -408, -3442, 4084, 2305, 3428, -1280, -5618, -13878, 2517, -15007, -7711, 131, 3777, -1295, -5365, -12857, 238, -505, 3577, 4893, 1867, -867, 4336, -4615, 3228, -3600, -64, 238, 2530, 721, 2672, -866, 2854, 2315, 3843, 1807, 2749, -5619, 3284, 736, 2266, -7541, -104, -30, 3005, 3417, 81, 168, -2987, -15819, 3125, 993, 654, 1618, 4544, 3690, 1711, -8914, 3110, 251, -5156, -1590, -365, 2914, 3507, -240, 3421, -1885, 1288, 2820, 35, 1929, -4020, -635, 2170, 3260, -13604, -5055, 735, 365, 5422, -4326, -930, 732, 1059, 4022, 4294, -557, 942, 3166, 1617, -5237, -789, 884, 674, -114, -467, -603, 1641, -1530, -9058, 498, 2361, 2522, 922, 1342, -4566, -4570, -632, 4322, -7095, 2470, 1799, -10667, -801, 122},
    {3357, -554, -14317, 2429, -1893, -469, -326, -203, 602, -176, -2494, 1605, 3998, -9174, -18094, 325, 3436, -310, -165, 895, 258, -99, -1723, 931, 137, -678, 1382, 2016, -1162, -4893, -675, -328, -6453, 234, -161, 225, 3926, 5489, -2647, 3191, 5448, 2163, -2967, 1713, -789, 1889, 255, -681, 2390, -19119, 1109, -775, -4173, 2523, 1722, 889, 545, -9046, 3420, 1595, 2212, -997, 3426, -16155, 4184, -509, -2001, -3696, -982, 1749, 1479, 2804, 2873, -20322, -2537, 3280, -358, 584, 5622, 337, 3692, -3424, 313, 4358, 722, 1665, 2351, -138, -1071, 1472, 2131, -472, 573, -4132, 1156, 1756, 1162, -1165, -1467, -201, 174, 89, -6382, -960, 1478, -988, 2268, 2780, 663, 845, 4685, -157, -9755, -9747, 3243, -1478, -8595, 1627, -7633, -1129},
    {2651, -430, 2634, -80, 982, -11042, 542, -1053, 1493, -1480, 300, -3001, -9682, -11496, 832, 830, 2144, -5724, -12122, -6697, 271, -176, -1256, -1831, -1036, 4, -1119, 396, -14677, 4328, -270, 186, 3061, -189, 2173, -199, 1240, 1239, -2640, -2273, -14828, 2417, 5900, 103, 1164, 2366, -3215, 566, 1728, -5228, 832, -282, -451, -4016, 2277, -882, -85, 1392, 2834, 5086, 928, -1369, 1839, -1673, 6392, -320, 319, -3379, 2569, 9, -889, 1814, 2057, 3058, -633, -302, -338, 499, 2182, 2871, 914, 6232, -335, -1236, 273, 2073, -6514, 999, -69, 4047, 5102, 558, 90, -4625, 42, 5908, 769, -1386, -2021, -418, -7736, -2785, -1950, 2176, -1447, 89, 4105, 861, -66, 4283, 3068, 3369, -1103, -4198, 846, 2447, 759, -6999, -7277, -296},
    {1610, -1077, -16017, -61, -1558, -2744, 3783, 2720, 3255, -466, -6111, -13347, 3464, -13703, -7046, 1371, 4474, 378, -4572, -12820, 189, 239, 4738, 4085, 2515, -233, 3722, -4597, 3363, -1790, 122, -147, 3468, -893, 2718, 215, 2729, 1941, 3342, 3051, 3277, -4868, 3561, 1363, 1415, -6535, -92, 1381, 3355, 4156, 491, 309, -1943, -15901, 1970, 604, -689, 1735, 3560, 2357, 1163, -9210, 4238, 1115, -5793, -1129, -1364, 1756, 4409, 777, 3575, -2827, 642, 3341, -323, 1598, -4521, -891, 2434, 2604, -13930, -4824, -208, 1154, 5940, -4952, 146, 1574, 1394, 2766, 5118, 365, 182, 2240, 1757, -5886, -1052, 277, -20, 734, -1410, 739, 1261, -1964, -9113, 34, 4784, 1709, 713, 870, -3402, -4430, 1317, 3592, -6310, 2515, 771, -9954, -1467, -384},
    {-5019, -574, 1489, 3892, 1410, -6195, 1596, 2491, 378, 1093, 3068, 234, 285, 4028, 283, 85, -26627, -3295, -12968, 548, -43, -476, -724, -2, -7904, -433, -4341, 47, -3998, -1440, 358, -1760, -1744, -793, 3724, -252, -3573, 3957, -2985, 3752, 2748, -3837, 712, 1997, -1343, -10375, 1963, 1857, 604, 1876, -441, 485, -1396, 653, 1099, 308, 561, -101, 3111, -568, 1454, -10525, 1723, -10287, -445, -6397, -22613, -463, 1461, -21, 5185, 3331, -11958, 2757, -404, 633, 108, 2106, 2600, 3072, -620, 563, 1108, -2319, 2928, 2338, -8272, -15750, 5306, -2395, 2151, 206, -85, 4978, 96, -2041, 677, 4421, 7115, -417, 3678, 742, 7227, 1506, -333, -984, 3304, -1712, -39, -2036, 3469, 2665, -6165, 2976, 4211, 582, -3569, -1181, -13418, -614},
    {3264, 783, 336, 1768, 456, -939, -3051, 4112, 1506, -7, 603, 441, 2090, -13864, 1515, -486, 3680, -13153, -14661, 2302, -624, 1564, -3175, 3058, -1601, -475, -17007, 4741, 2721, 2273, -362, 2279, -12249, -895, 4124, 80, 2113, -503, -4501, 761, 5549, -4456, 308, -275, -1595, 1403, -16949, -214, -349, 27, 460, 649, -6111, 3035, 1342, -500, 911, -11820, 3022, 3245, 470, -2378, 47, 127, 1819, -1336, -7417, 2136, -1477, 1841, 2954, 1997, 3994, 1691, -6073, 981, 1533, -3217, 3117, -1074, 3760, -17107, 481, -2555, -603, -20863, -3794, 1955, -6322, -3029, 1725, 157, -363, 1287, 6279, 4637, -325, -1401, 1919, -784, 1691, -1170, 1562, 415, -12097, -696, 2351, -13652, 382, 1376, 3250, 154, 242, 5880, 2296, -1393, -1442, 1086, -7227, -855},
    {1936, -309, 3706, -416, 891, -9867, 243, -1101, 1053, -2269, -28, -3381, -10582, -11814, 1619, 897, 1596, -5287, -12260, -6346, 196, 649, -1961, -1087, -1172, -564, -1748, 400, -13621, 3015, 144, 616, 3634, -687, 1848, -240, 2469, 2210, -1903, -1730, -14198, 2910, 5808, -92, 1440, 2981, -2127, 526, 1954, -5656, 578, -981, -165, -4409, 3089, -107, 705, 762, 2812, 6356, 499, -1680, 1078, -1924, 5832, -2353, -861, -2981, 4551, -832, 92, 2089, 2117, 3903, -668, -338, -834, 588, 2038, 2264, 1337, 5727, -13, -924, 709, 3121, -7130, 3148, 119, 4617, 5306, 294, 7, -3712, -1033, 5797, 1298, -1477, -2316, -253, -7814, -3572, -2201, 3225, -1252, -254, 4551, 1743, -49, 3350, 2665, 2900, -398, -4059, 1829, 2183, 966, -6154, -7740, 119},
    {951, -2045, 3799, 2014, 2249, 2488, -2950, 2927, 1693, 1109, 1684, -5592, -5170, 4181, -683, 62, -3834, -1952, -10549, 1680, -186, -328, -118, 1289, -6903, -240, -11957, -1386, -1967, -4237, 121, 996, -2930, 30, 364, 319, 1265, 3310, 1685, -2140, 3986, -5933, -1684, 447, -1293, -7439, 2000, 299, -2153, 225, -654, -732, -6468, 1697, -3292, 1120, -364, 4121, 5287, 568, 1580, -9262, 3545, -12017, -4204, 1942, 6592, 1581, -3669, -457, -537, -2819, -8720, 3284, -2375, 120, 1234, 2920, 2183, 801, -4460, 1673, 243, -1020, 858, 2578, -6787, -13746, 3456, -1771, 2203, 120, -53, 1954, 1276, -1481, -1504, 2651, -945, -123, 5935, 1866, 5289, 1953, 493, -281, 2787, 967, 1922, 1458, 1991, -5137, -3748, 1257, 2946, -1575, 402, 1783, -805, 810},
    {930, -511, 4800, 2112, 2810, 2349, -2552, 4082, 3286, 1146, 5873, -9544, -15822, 2853, -2001, -1311, 2934, -1810, -7172, 1050, -481, 1274, -888, 3018, -4719, 794, -14831, -1756, -1914, -5439, -872, 2048, -3245, -798, 597, -53, 4447, -873, 1448, -24813, 2976, -5723, -2927, 985, -2568, -3806, 1842, 439, -3608, -547, -478, 738, -5860, 2829, -4773, 1023, -989, 3301, 5822, -354, 412, -7641, 3420, -11052, -7148, 1136, 5728, 4713, -4621, 276, -3325, -3659, -6644, 1938, -8500, -612, -198, 3258, 3961, 1066, -16196, 1640, -215, -1363, -990, 912, -5460, -9073, 902, -2249, 1012, -1066, 87, 524, 1608, -457, -1866, 296, -3517, -833, 7845, 1882, 2828, 347, 669, -539, 1640, 2534, 1988, 1292, 2949, -8045, -3310, 2524, 2034, -7157, 1472, 1904, 458, -467},
    {-5859, -1661, 2797, 4177, -523, -6693, 1994, 2880, -77, 379, 734, 1671, 2107, 3034, 1169, -682, -26222, -2755, -11897, 68, 102, -187, -1439, -412, -7796, 71, -4056, -16, -2468, -1297, -37, -1473, -2391, -1026, 3892, 1090, -3021, 5006, -4378, 5130, 1501, -3173, 1185, 823, 163, -11018, 1194, 813, 788, 3219, -1250, 385, -1272, 128, 957, 1133, -157, 765, 4500, -215, 927, -9605, 1861, -9280, 220, -6546, -21958, -2929, 1037, -421, 4683, 1736, -11591, 1822, -842, 1450, 1399, 193, 2477, 2980, 1432, 1456, 125, -2442, 1631, 1584, -7943, -16019, 4396, 153, 1318, 461, -1408, 6706, -609, -2521, 634, 5205, 5471, 559, 3146, 1305, 6195, 1154, -1175, 20, 4282, -1046, -911, -971, 2900, 1866, -5539, 4367, 4640, 1951, -3604, -4, -13394, 555},
    {2280, 223, 4672, 3064, 1775, 1643, -2253, 4350, 1626, 2754, 5040, -8924, -16815, 2755, -1817, 386, 2456, -1665, -7087, 1310, -32, 1077, -135, 2054, -4273, 84, -14747, -640, -1556, -5977, -339, 1512, -3100, 125, 279, 154, 5151, -708, -521, -23891, 3254, -7064, -2610, 1889, -2879, -4315, 2207, 111, -2159, -880, 52, 807, -6835, 2626, -4153, 296, -571, 3835, 5972, -594, -135, -6949, 3842, -10762, -8042, -1009, 4315, 3136, -5459, 73, -800, -4062, -5101, 1859, -8938, -45, 1003, 3561, 3615, 1493, -16079, 2552, -1007, -4, -485, 490, -5666, -9168, 1376, -1836, 237, -261, 586, -77, 621, -612, -1363, 985, -4072, -1649, 6048, 1498, 3229, 1658, 1292, 333, 2134, 1838, 1797, 3108, 2376, -6722, -3636, 2578, 3165, -8007, 2322, 1575, 1490, -360},
    {-19929, 3, 3525, 3818, -95, -5262, -559, 640, -1578, 771, -3945, 1905, -114, -11686, 4446, -588, 5011, -7976, 3770, -2345, 150, -988, -936, 3085, 729, -354, 762, 2009, 1805, -11386, -957, 721, 417, -2015, 172, -136, 4155, 4880, -105, -11717, 2591, -5547, 4099, 1309, -1000, 2176, 3274, 61, 1000, 2330, 570, 258, -1953, -1639, -4778, -840, -606, -4059, 1747, -1404, -236, -1370, 5929, -16103, 3099, -977, -1619, -4406, 96, 6101, 4494, 586, -489, 349, -1474, -1579, -3, -517, 3935, 2453, 1622, -16423, 2731, -2090, 340, 2867, -15517, 5085, -2100, -1307, 225, 570, -179, -2597, 662, 3559, 1363, -3481, -3073, -350, -10007, -6775, 755, -715, -12964, 1341, 643, -959, -1038, -147, 891, 544, 3930, -10568, -771, -1025, 2242, 3455, -5185, -589},
    {4029, -1469, 2864, 2543, 402, -1440, -2675, 3383, 1780, 224, -53, 1495, 1807, -12826, 2265, 68, 3717, -12732, -14141, 2339, -493, 989, -3951, 3603, -1727, 221, -16037, 4358, 3278, 3649, 624, 1301, -10233, -861, 1501, -290, 1956, -530, -4586, 1742, 4079, -5830, -355, 372, -1006, 666, -16598, 215, -546, -2183, 56, -255, -5621, 3232, 1596, -955, -387, -11695, 1764, 2978, 138, -3281, 493, 2142, 1353, -2435, -6095, 1910, -2860, 800, 427, 1591, 5223, 633, -5078, -42, 136, -2137, 1501, -869, 2333, -15907, 1063, -2153, -586, -19523, -3612, 2519, -6371, -3157, 887, -163, -777, 532, 4956, 3777, 405, -1732, 1576, 338, 2106, -1141, -158, 1133, -11822, 410, 3101, -14167, 853, 640, 2016, -123, 614, 5304, 2598, -1122, -1167, 621, -7618, -754},
    {772, -2950, 2343, -650, -597, 2895, -4202, 358, 2882, 1944, -148, -249, -14, 5311, -7515, 2063, -174, -4922, -743, -7135, -43, 1138, -4605, 3557, -12729, -1188, -341, 5373, 2639, -1462, 385, -130, 2969, -211, 387, -348, -1907, 328, -4615, 2377, 5275, -14, -2307, 1546, 196, -3214, 2704, -96, 1514, -7913, -304, 58, -1482, 3587, 3176, -817, 355, -5666, 3928, 94, -209, 5094, 6104, -6856, -4775, -5589, -8317, -10198, 1570, -1092, -6769, -3341, 27, 3354, -505, -19, 2326, -358, 974, -30, 820, -1881, -15, -1541, 1570, 1658, 4228, 5525, -4732, 2883, 594, 661, -1052, 7214, 912, -1610, -1305, -1335, -979, -366, -3556, 1727, -5647, -1316, 1338, -497, -20744, 2588, 2195, 299, 1245, 5335, 1624, 3393, -17087, -11290, 3279, 969, 2224, 863},
    {3135, 882, 3277, 2144, 1019, -763, -2487, 2790, 1357, -167, 920, -153, 1702, -13556, 2534, 598, 4320, -12637, -15760, 2447, 376, 2456, -3903, 3382, -2067, 485, -16669, 4920, 3432, 2887, 170, 1413, -12365, -707, 2319, -407, 2762, -597, -4912, 893, 4030, -5057, -510, 359, -1452, 1313, -17159, 62, -1052, -242, -745, 510, -6406, 2865, 492, -1207, 1150, -11104, 3281, 2098, -246, -2375, 724, 2120, 372, -2140, -6953, 2490, -1800, 771, 1739, 1350, 3851, 394, -5584, 252, 1048, -3340, 1469, -2237, 2253, -17276, 1345, -2141, -903, -20263, -3213, 2016, -6240, -3268, 2430, 114, 278, 1676, 6098, 4322, -162, -1673, 3196, 486, 2807, 20, 2088, 1288, -11908, -796, 3270, -14958, -879, 1767, 3076, -527, -119, 4476, 2620, -771, -2701, 1238, -7097, -247},
    {2262, -895, 669, 2230, -1105, -2156, 1780, 342, 1275, -101, 1933, 6375, -8365, -4106, -25, -172, 3319, 5400, -6693, -9802, 256, 150, -4271, -1327, -2202, -654, -438, 37, 1092, 2236, 464, 1449, 2462, -392, 5598, -296, 1176, 4680, 446, -6538, 3582, -2587, -482, 3963, -87, -427, -5942, -408, 5303, -7234, 556, 434, 5313, 756, 1316, 131, 909, -4863, -15501, -1243, 323, -1383, 6281, -458, 2896, 1292, -4736, -1555, 2999, 8651, 3255, 3582, 229, 879, -1454, -253, 483, -731, 4893, 2319, -10153, -153, 1185, -1527, 614, 1487, -733, 3215, -2955, -23, -10672, -722, -1111, 728, 1554, 196, 607, -130, 2744, -9, 1641, -9058, 5489, 3509, -3316, -377, -10038, 3837, 197, 1151, 2946, 7483, -4222, -266, 2153, -1481, 6645, 2108, 2043, -1461},
    {2925, 27, 3273, 1841, 1202, -906, -3679, 2842, 925, 2, 439, 1426, 2296, -13057, 1807, 151, 4647, -12734, -14708, 2104, 74, 1066, -4080, 2335, -1198, -231, -16724, 4728, 4830, 2233, 454, 868, -12096, -1013, 2766, 50, 2926, 588, -4697, 786, 3980, -4793, -344, 339, -8, 2368, -16029, -408, -1581, -376, -348, -1349, -6668, 3066, 1479, -292, -14, -10442, 3860, 2998, 685, -2648, 352, 2826, 1498, -1641, -6515, 1891, -2389, 1192, 1600, 1036, 3842, 92, -5524, 714, 415, -2897, 2003, -715, 2483, -16359, 944, -1680, -633, -21799, -3606, 2516, -5386, -2437, 1145, 48, 92, 2187, 3619, 4059, -235, -3196, 1491, 476, 1299, -1005, 913, 1220, -11858, -626, 3794, -14822, -331, 1551, 2571, -910, -141, 4666, 4009, -646, -1910, 14, -6840, 290},
    {-463, -2736, 2096, 76, -961, 1509, -3774, 1071, 3168, 1028, -1283, -37, 1059, 3192, -6999, 2068, 3113, -4545, -550, -6764, 186, 1589, -4177, 4218, -13108, 430, 919, 6233, 3588, -1499, -444, 432, 1650, 474, 707, -627, -1496, 333, -4635, 896, 4085, 421, -3073, -36, 1201, -3446, 3481, -205, 188, -7900, 239, 431, -1280, 3463, 2248, -783, 487, -6514, 4965, -865, -192, 3536, 6291, -7967, -4988, -6197, -8514, -9917, 2198, -647, -6874, -3949, 418, 2380, -832, 580, 2616, -1062, 580, 1005, 291, -1920, 572, -2070, 2502, 1377, 5027, 3135, -5834, 784, 805, -652, 429, 6552, 1329, -491, -2101, 20, -679, 665, -3763, 2361, -5306, -2079, 1635, 1020, -20001, 2057, 1334, 475, 915, 4663, 2555, 3624, -16654, -12010, 4057, 2466, 2718, -642},
    {-1621, -1121, 4670, 1725, 1405, 1743, -44, 440, 869, -210, -627, 400, 172, -2238, 2468, -420, 4280, -9733, 8508, -46, -112, -209, 34, -333, 327, -338, 1869, 1490, 188, 424, 1238, -68, 1110, -17, 1637, -589, 903, 1798, 437, 180, -59, 3281, 1042, 722, -499, 2323, 1422, -878, 1201, 3566, -685, -670, -3113, 2279, -1056, 1074, -422, -1944, 4310, 2611, 1778, -3527, 1723, 823, 528, -896, 394, -1680, 986, 569, 1114, 424, 1200, 290, 1304, 1369, -255, 818, 1903, 1041, 1220, 2934, 58, -2075, 270, 570, -7753, -988, -423, -791, -326, -967, 756, 129, 280, 2611, 1291, -630, -1570, 51, -1171, -1502, 1671, 2646, -6526, -716, 2690, -2887, -837, 1673, 1717, 1199, 26, -1823, 1471, 904, 2387, 1456, -1000, -1030},
    {2852, -518, 6553, 1620, 2075, 3204, -2254, 3227, 2763, 1983, 4571, -8843, -15941, 3963, -1745, -92, 3195, -1110, -7014, 1755, 279, 1168, -932, 3749, -4194, -717, -14539, -606, -126, -5799, 130, 2139, -3595, -417, 122, -621, 5137, -1686, 216, -24008, 4804, -7143, -2520, 817, -1777, -3950, 1559, -63, -2531, 2068, 1000, 107, -5910, 3036, -4445, 1031, -37, 3614, 6119, 69, 971, -6681, 4180, -10628, -8692, -31, 5544, 3149, -4877, -602, -2924, -3809, -5256, 2697, -8141, -1563, -72, 3072, 4181, 2012, -17013, 940, -1458, -307, -764, 1369, -5988, -10322, 2624, -2542, -1146, 396, -72, 717, 571, -679, -1373, 1239, -3732, 64, 6946, 1373, 3804, 1604, 1576, 99, 883, 1529, 1569, 1628, 1983, -7604, -2762, 2542, 3237, -8162, 2302, 2466, 1331, 116},
    {3314, -162, 2607, 2261, 543, -527, -3781, 2785, 1450, -62, 323, 43, 2585, -13419, 2063, 82, 3916, -12520, -15750, 3024, 797, 2453, -2913, 2983, -1159, -589, -16277, 5081, 3782, 3005, 1018, 775, -11176, -470, 2813, 336, 2689, -1146, -4732, 787, 5514, -5180, -17, 87, -1265, 1779, -17227, 105, -649, -457, 1070, -388, -7236, 4741, 1606, -674, -955, -10721, 4562, 1808, 417, -3658, -283, 3226, 1498, -1398, -7732, 953, -2078, 1531, 2032, 2404, 3416, 471, -4653, 417, 801, -1890, 1936, -940, 3329, -15785, 882, -2819, -256, -21483, -2947, 2156, -6028, -1636, 4378, -54, 285, 1178, 5072, 3289, 53, -1571, 1056, -700, 1877, -605, 2386, 367, -11402, -1851, 4353, -13842, -43, 2392, 4327, -199, 212, 4424, 3134, -258, -2959, 1197, -7046, 909}};

#endif // N2D2_EXPORTC_FC1_LAYER_H
