// N2D2 auto-generated file.
// @ Mon Sep 16 12:33:02 2019

#ifndef N2D2_EXPORTC_CONV2_LAYER_H
#define N2D2_EXPORTC_CONV2_LAYER_H

#include "typedefs.h"
#include <stdlib.h>

#define CONV2_NB_OUTPUTS 16
#define CONV2_NB_CHANNELS 6
#define CONV2_OUTPUTS_WIDTH 10
#define CONV2_OUTPUTS_HEIGHT 10
#define CONV2_OX_SIZE 10
#define CONV2_OY_SIZE 10
#define CONV2_CHANNELS_WIDTH 14
#define CONV2_CHANNELS_HEIGHT 14
#define CONV2_KERNEL_WIDTH 5
#define CONV2_KERNEL_HEIGHT 5
#define CONV2_SUB_SAMPLE_X 1
#define CONV2_SUB_SAMPLE_Y 1
#define CONV2_STRIDE_X 1
#define CONV2_STRIDE_Y 1
#define CONV2_PADDING_X 0
#define CONV2_PADDING_Y 0
#define CONV2_OUTPUT_OFFSET 0
#define CONV2_ACTIVATION Rectifier
#define CONV2_SHIFT 0

static BDATA_T conv2_biases[CONV2_NB_OUTPUTS] = {0, 0, 0, 0, 0, 0, 0, 0, 0, 0, 0, 0, 0, 0, 0, 0};

static WDATA_T conv2_weights[CONV2_NB_OUTPUTS][CONV2_NB_CHANNELS][CONV2_KERNEL_HEIGHT][CONV2_KERNEL_WIDTH] = {
  {
    {
      {-0.014496776f, -0.0735029f, -0.053830065f, 0.03335852f, -0.09699388f},
      {-0.053830065f, -0.014496776f, -0.0735029f, -0.035363223f, 0.009668785f},
      {-0.035363223f, 0.03335852f, -0.09699388f, -0.18698308f, -0.0735029f},
      {-0.0735029f, 0.03335852f, -0.053830065f, -0.09699388f, -0.035363223f},
      {-0.09699388f, 0.03335852f, -0.0735029f, 0.03335852f, 0.056257296f}
    },
    {
      {0.03335852f, 0.009668785f, -0.014496776f, 0.056257296f, 0.10655328f},
      {0.056257296f, 0.056257296f, 0.07922348f, 0.13356732f, -0.0735029f},
      {0.009668785f, -0.15663868f, -0.18698308f, -0.21276793f, -0.21276793f},
      {0.03335852f, -0.12101351f, -0.2365359f, -0.26322144f, -0.0735029f},
      {0.056257296f, -0.035363223f, -0.053830065f, -0.0735029f, -0.014496776f}
    },
    {
      {-0.014496776f, 0.13356732f, 0.13356732f, 0.07922348f, 0.009668785f},
      {-0.014496776f, -0.035363223f, 0.009668785f, -0.035363223f, -0.0735029f},
      {0.13356732f, 0.056257296f, 0.16236714f, -0.014496776f, 0.03335852f},
      {-0.035363223f, 0.056257296f, 0.07922348f, 0.056257296f, 0.03335852f},
      {-0.0735029f, 0.03335852f, 0.03335852f, 0.056257296f, 0.03335852f}
    },
    {
      {-0.035363223f, 0.009668785f, 0.03335852f, 0.13356732f, -0.014496776f},
      {0.07922348f, 0.13356732f, 0.056257296f, 0.056257296f, 0.056257296f},
      {-0.0735029f, 0.009668785f, -0.12101351f, -0.0735029f, -0.053830065f},
      {-0.053830065f, 0.009668785f, 0.056257296f, 0.009668785f, 0.07922348f},
      {-0.035363223f, 0.009668785f, 0.056257296f, -0.0735029f, -0.014496776f}
    },
    {
      {0.13356732f, 0.30023298f, 0.51665956f, 0.4254756f, 0.2464633f},
      {0.10655328f, 0.22328071f, 0.16236714f, 0.009668785f, -0.053830065f},
      {-0.09699388f, -0.12101351f, -0.32489556f, -0.053830065f, 0.009668785f},
      {-0.035363223f, 0.07922348f, 0.22328071f, 0.2464633f, 0.16236714f},
      {-0.053830065f, 0.10655328f, 0.16236714f, -0.014496776f, -0.15663868f}
    },
    {
      {-0.035363223f, -0.035363223f, 0.056257296f, -0.035363223f, 0.07922348f},
      {-0.12101351f, 0.009668785f, -0.014496776f, -0.014496776f, -0.15663868f},
      {0.009668785f, -0.014496776f, -0.014496776f, 0.10655328f, 0.009668785f},
      {-0.09699388f, -0.053830065f, 0.03335852f, 0.07922348f, -0.053830065f},
      {-0.053830065f, -0.014496776f, 0.056257296f, 0.009668785f, -0.053830065f}
    }
  },
  {
    {
      {-0.035363223f, 0.009668785f, -0.0735029f, -0.053830065f, 0.056257296f},
      {-0.0735029f, 0.03335852f, -0.053830065f, -0.0735029f, -0.0735029f},
      {0.03335852f, -0.09699388f, -0.014496776f, -0.035363223f, -0.0735029f},
      {-0.035363223f, 0.03335852f, -0.053830065f, -0.09699388f, 0.10655328f},
      {-0.053830065f, -0.035363223f, 0.009668785f, -0.053830065f, 0.10655328f}
    },
    {
      {-0.12101351f, -0.18698308f, -0.15663868f, 0.03335852f, 0.056257296f},
      {0.056257296f, -0.035363223f, -0.2365359f, -0.053830065f, -0.12101351f},
      {0.056257296f, 0.13356732f, -0.053830065f, 0.009668785f, -0.09699388f},
      {0.10655328f, 0.056257296f, 0.10655328f, 0.16236714f, 0.13356732f},
      {-0.035363223f, 0.03335852f, 0.03335852f, 0.10655328f, 0.16236714f}
    },
    {
      {-0.0735029f, 0.009668785f, -0.053830065f, -0.053830065f, -0.035363223f},
      {-0.035363223f, 0.03335852f, 0.009668785f, -0.0735029f, -0.053830065f},
      {0.056257296f, 0.10655328f, 0.056257296f, -0.053830065f, -0.053830065f},
      {-0.053830065f, -0.09699388f, -0.09699388f, 0.07922348f, 0.009668785f},
      {0.03335852f, -0.035363223f, -0.014496776f, 0.009668785f, -0.0735029f}
    },
    {
      {-0.09699388f, 0.03335852f, 0.056257296f, 0.03335852f, 0.07922348f},
      {0.03335852f, -0.014496776f, 0.009668785f, -0.014496776f, 0.009668785f},
      {-0.035363223f, 0.056257296f, 0.07922348f, -0.0735029f, -0.053830065f},
      {0.03335852f, 0.13356732f, 0.03335852f, -0.014496776f, -0.014496776f},
      {0.056257296f, 0.07922348f, 0.056257296f, -0.014496776f, -0.053830065f}
    },
    {
      {-0.18698308f, -0.09699388f, -0.09699388f, -0.014496776f, 0.03335852f},
      {0.03335852f, -0.0735029f, -0.15663868f, -0.15663868f, -0.12101351f},
      {0.056257296f, 0.16236714f, 0.07922348f, 0.10655328f, -0.15663868f},
      {0.10655328f, 0.13356732f, 0.13356732f, 0.07922348f, 0.16236714f},
      {-0.014496776f, -0.053830065f, -0.09699388f, -0.014496776f, -0.014496776f}
    },
    {
      {0.056257296f, -0.014496776f, -0.0735029f, -0.035363223f, -0.0735029f},
      {-0.014496776f, 0.03335852f, -0.014496776f, -0.035363223f, -0.053830065f},
      {-0.014496776f, -0.09699388f, -0.014496776f, -0.0735029f, 0.056257296f},
      {0.009668785f, -0.09699388f, -0.0735029f, -0.014496776f, -0.09699388f},
      {0.056257296f, 0.009668785f, 0.03335852f, -0.0735029f, 0.009668785f}
    }
  },
  {
    {
      {0.056257296f, -0.035363223f, 0.07922348f, 0.03335852f, -0.0735029f},
      {0.009668785f, 0.07922348f, 0.03335852f, -0.0735029f, -0.0735029f},
      {-0.035363223f, 0.10655328f, 0.009668785f, -0.035363223f, -0.0735029f},
      {0.07922348f, 0.07922348f, -0.09699388f, -0.09699388f, -0.035363223f},
      {0.07922348f, 0.009668785f, 0.009668785f, 0.03335852f, 0.009668785f}
    },
    {
      {-0.035363223f, 0.056257296f, -0.09699388f, -0.09699388f, -0.12101351f},
      {-0.035363223f, 0.056257296f, -0.053830065f, -0.014496776f, -0.035363223f},
      {-0.053830065f, 0.056257296f, -0.12101351f, -0.18698308f, -0.15663868f},
      {0.07922348f, 0.03335852f, -0.0735029f, -0.053830065f, 0.056257296f},
      {0.03335852f, 0.16236714f, 0.009668785f, 0.16236714f, 0.19378215f}
    },
    {
      {-0.014496776f, -0.053830065f, -0.0735029f, -0.0735029f, 0.03335852f},
      {-0.053830065f, -0.035363223f, 0.03335852f, 0.03335852f, -0.035363223f},
      {-0.014496776f, -0.014496776f, -0.0735029f, -0.0735029f, -0.053830065f},
      {-0.0735029f, 0.07922348f, 0.03335852f, -0.014496776f, -0.014496776f},
      {0.03335852f, 0.03335852f, 0.056257296f, -0.0735029f, -0.035363223f}
    },
    {
      {0.03335852f, 0.03335852f, -0.053830065f, -0.0735029f, 0.009668785f},
      {0.03335852f, -0.014496776f, 0.009668785f, -0.035363223f, -0.09699388f},
      {-0.0735029f, -0.053830065f, -0.014496776f, -0.09699388f, -0.0735029f},
      {-0.035363223f, -0.035363223f, -0.014496776f, 0.03335852f, 0.10655328f},
      {-0.053830065f, 0.10655328f, 0.009668785f, 0.07922348f, 0.009668785f}
    },
    {
      {0.056257296f, -0.0735029f, -0.12101351f, -0.12101351f, -0.0735029f},
      {0.009668785f, -0.014496776f, -0.15663868f, -0.15663868f, -0.15663868f},
      {0.056257296f, -0.12101351f, -0.12101351f, -0.053830065f, -0.035363223f},
      {0.16236714f, 0.16236714f, 0.03335852f, 0.10655328f, 0.22328071f},
      {0.10655328f, 0.056257296f, 0.2464633f, 0.13356732f, 0.10655328f}
    },
    {
      {-0.035363223f, -0.053830065f, 0.03335852f, 0.009668785f, -0.014496776f},
      {-0.0735029f, -0.0735029f, 0.056257296f, -0.0735029f, 0.009668785f},
      {-0.035363223f, -0.0735029f, 0.009668785f, -0.053830065f, 0.056257296f},
      {-0.014496776f, -0.035363223f, 0.03335852f, -0.053830065f, 0.009668785f},
      {-0.035363223f, -0.035363223f, 0.056257296f, 0.03335852f, 0.07922348f}
    }
  },
  {
    {
      {-0.035363223f, 0.03335852f, 0.056257296f, 0.009668785f, -0.035363223f},
      {-0.053830065f, -0.053830065f, -0.053830065f, 0.07922348f, -0.0735029f},
      {0.03335852f, 0.03335852f, -0.053830065f, -0.014496776f, 0.009668785f},
      {0.07922348f, 0.009668785f, -0.035363223f, -0.053830065f, 0.03335852f},
      {-0.035363223f, 0.056257296f, -0.0735029f, -0.053830065f, -0.0735029f}
    },
    {
      {-0.0735029f, -0.014496776f, 0.07922348f, 0.03335852f, 0.03335852f},
      {-0.014496776f, 0.009668785f, -0.014496776f, -0.035363223f, -0.0735029f},
      {0.03335852f, 0.03335852f, -0.053830065f, -0.035363223f, -0.0735029f},
      {-0.053830065f, -0.014496776f, 0.056257296f, 0.009668785f, 0.009668785f},
      {-0.035363223f, -0.0735029f, 0.056257296f, 0.009668785f, 0.009668785f}
    },
    {
      {-0.014496776f, 0.009668785f, -0.0735029f, -0.0735029f, -0.053830065f},
      {-0.053830065f, -0.0735029f, -0.053830065f, -0.053830065f, 0.056257296f},
      {0.009668785f, -0.053830065f, 0.009668785f, -0.035363223f, 0.056257296f},
      {-0.035363223f, 0.03335852f, -0.053830065f, 0.03335852f, -0.014496776f},
      {0.056257296f, 0.056257296f, -0.0735029f, 0.009668785f, -0.035363223f}
    },
    {
      {-0.035363223f, -0.053830065f, 0.07922348f, 0.03335852f, -0.053830065f},
      {0.009668785f, -0.0735029f, -0.053830065f, -0.053830065f, 0.07922348f},
      {-0.035363223f, 0.056257296f, -0.0735029f, 0.07922348f, -0.035363223f},
      {0.009668785f, 0.07922348f, -0.0735029f, -0.0735029f, -0.014496776f},
      {-0.035363223f, -0.0735029f, -0.053830065f, -0.053830065f, 0.03335852f}
    },
    {
      {-0.014496776f, 0.07922348f, 0.009668785f, 0.009668785f, -0.014496776f},
      {0.03335852f, 0.07922348f, 0.009668785f, -0.053830065f, -0.0735029f},
      {-0.035363223f, -0.014496776f, -0.0735029f, -0.053830065f, -0.035363223f},
      {0.03335852f, -0.014496776f, -0.0735029f, -0.035363223f, -0.0735029f},
      {0.03335852f, 0.009668785f, -0.035363223f, 0.03335852f, -0.053830065f}
    },
    {
      {0.03335852f, -0.014496776f, -0.0735029f, 0.056257296f, -0.035363223f},
      {-0.0735029f, 0.07922348f, -0.0735029f, 0.03335852f, 0.009668785f},
      {-0.0735029f, -0.0735029f, -0.0735029f, -0.053830065f, 0.03335852f},
      {0.009668785f, -0.014496776f, 0.03335852f, -0.014496776f, 0.056257296f},
      {0.009668785f, -0.014496776f, 0.03335852f, 0.07922348f, 0.03335852f}
    }
  },
  {
    {
      {0.07922348f, -0.053830065f, -0.0735029f, 0.07922348f, -0.014496776f},
      {0.10655328f, -0.035363223f, 0.056257296f, 0.03335852f, -0.035363223f},
      {-0.09699388f, 0.056257296f, 0.03335852f, -0.014496776f, 0.03335852f},
      {-0.0735029f, 0.009668785f, 0.07922348f, -0.053830065f, 0.03335852f},
      {0.056257296f, -0.053830065f, -0.035363223f, 0.03335852f, -0.014496776f}
    },
    {
      {0.056257296f, 0.03335852f, 0.056257296f, -0.09699388f, 0.009668785f},
      {0.10655328f, -0.053830065f, -0.035363223f, -0.053830065f, 0.009668785f},
      {-0.09699388f, 0.056257296f, -0.014496776f, 0.07922348f, -0.014496776f},
      {0.009668785f, 0.07922348f, -0.014496776f, -0.014496776f, -0.0735029f},
      {-0.09699388f, -0.014496776f, -0.035363223f, -0.035363223f, -0.053830065f}
    },
    {
      {0.07922348f, -0.053830065f, 0.07922348f, -0.053830065f, -0.053830065f},
      {0.03335852f, -0.035363223f, 0.03335852f, -0.053830065f, -0.0735029f},
      {0.056257296f, -0.0735029f, 0.009668785f, -0.053830065f, 0.009668785f},
      {-0.0735029f, -0.014496776f, 0.009668785f, -0.0735029f, 0.056257296f},
      {0.056257296f, -0.014496776f, -0.0735029f, 0.07922348f, -0.014496776f}
    },
    {
      {0.03335852f, -0.0735029f, 0.056257296f, -0.0735029f, 0.03335852f},
      {0.009668785f, 0.056257296f, -0.0735029f, 0.03335852f, -0.0735029f},
      {0.03335852f, -0.053830065f, 0.07922348f, 0.056257296f, -0.053830065f},
      {0.009668785f, -0.053830065f, 0.07922348f, -0.053830065f, 0.03335852f},
      {0.056257296f, 0.03335852f, -0.014496776f, 0.056257296f, 0.07922348f}
    },
    {
      {-0.035363223f, 0.009668785f, -0.014496776f, 0.009668785f, -0.0735029f},
      {0.009668785f, 0.009668785f, 0.03335852f, 0.03335852f, -0.09699388f},
      {-0.014496776f, 0.10655328f, -0.014496776f, 0.03335852f, -0.12101351f},
      {0.10655328f, 0.056257296f, -0.035363223f, -0.0735029f, 0.03335852f},
      {-0.09699388f, -0.035363223f, 0.009668785f, 0.07922348f, 0.13356732f}
    },
    {
      {0.009668785f, -0.0735029f, -0.035363223f, -0.035363223f, -0.014496776f},
      {0.009668785f, 0.056257296f, -0.014496776f, 0.03335852f, 0.056257296f},
      {-0.0735029f, 0.009668785f, 0.009668785f, 0.009668785f, 0.009668785f},
      {0.056257296f, 0.07922348f, 0.056257296f, -0.014496776f, -0.035363223f},
      {-0.053830065f, -0.0735029f, -0.014496776f, 0.009668785f, 0.009668785f}
    }
  },
  {
    {
      {-0.0735029f, 0.07922348f, -0.0735029f, 0.056257296f, 0.009668785f},
      {0.009668785f, -0.014496776f, 0.03335852f, 0.03335852f, -0.12101351f},
      {-0.053830065f, -0.035363223f, -0.014496776f, 0.10655328f, -0.12101351f},
      {-0.09699388f, -0.035363223f, 0.009668785f, 0.10655328f, -0.014496776f},
      {-0.035363223f, -0.053830065f, -0.12101351f, 0.009668785f, 0.13356732f}
    },
    {
      {-0.0735029f, 0.03335852f, -0.12101351f, -0.18698308f, -0.09699388f},
      {-0.09699388f, 0.2464633f, 0.13356732f, -0.2365359f, -0.26322144f},
      {-0.035363223f, 0.2464633f, 0.47191885f, 0.07922348f, -0.34302524f},
      {-0.15663868f, -0.09699388f, 0.32547376f, 0.50078076f, 0.009668785f},
      {-0.2365359f, -0.2365359f, -0.09699388f, 0.26763755f, 0.22328071f}
    },
    {
      {0.03335852f, 0.009668785f, -0.035363223f, -0.014496776f, -0.035363223f},
      {0.03335852f, 0.16236714f, 0.07922348f, 0.07922348f, 0.009668785f},
      {0.03335852f, 0.03335852f, 0.13356732f, 0.13356732f, 0.009668785f},
      {-0.014496776f, 0.009668785f, -0.053830065f, -0.035363223f, 0.056257296f},
      {0.07922348f, 0.07922348f, 0.03335852f, -0.035363223f, 0.009668785f}
    },
    {
      {0.056257296f, -0.053830065f, -0.014496776f, -0.014496776f, -0.035363223f},
      {0.07922348f, 0.009668785f, 0.07922348f, -0.12101351f, -0.09699388f},
      {-0.053830065f, -0.014496776f, 0.07922348f, 0.03335852f, -0.0735029f},
      {0.009668785f, -0.035363223f, 0.10655328f, 0.13356732f, -0.09699388f},
      {-0.014496776f, -0.053830065f, -0.035363223f, 0.07922348f, -0.0735029f}
    },
    {
      {0.19378215f, 0.07922348f, -0.15663868f, -0.12101351f, -0.014496776f},
      {0.009668785f, 0.16236714f, 0.07922348f, -0.21276793f, -0.28894508f},
      {-0.18698308f, 0.009668785f, 0.26763755f, 0.19378215f, -0.32489556f},
      {-0.15663868f, -0.0735029f, 0.07922348f, 0.22328071f, -0.09699388f},
      {0.07922348f, -0.09699388f, -0.18698308f, 0.03335852f, 0.009668785f}
    },
    {
      {0.009668785f, -0.035363223f, 0.056257296f, 0.03335852f, -0.035363223f},
      {-0.035363223f, -0.053830065f, 0.009668785f, -0.014496776f, 0.03335852f},
      {0.03335852f, 0.009668785f, -0.09699388f, -0.0735029f, -0.0735029f},
      {0.009668785f, 0.03335852f, -0.014496776f, -0.09699388f, -0.053830065f},
      {-0.014496776f, 0.10655328f, 0.009668785f, -0.09699388f, -0.12101351f}
    }
  },
  {
    {
      {-0.014496776f, -0.014496776f, -0.014496776f, -0.014496776f, 0.07922348f},
      {0.10655328f, 0.056257296f, -0.014496776f, 0.009668785f, 0.10655328f},
      {0.009668785f, 0.009668785f, -0.053830065f, 0.03335852f, 0.07922348f},
      {0.009668785f, 0.07922348f, -0.014496776f, 0.13356732f, 0.16236714f},
      {-0.053830065f, 0.03335852f, -0.0735029f, 0.13356732f, 0.16236714f}
    },
    {
      {0.03335852f, -0.09699388f, -0.15663868f, -0.09699388f, -0.035363223f},
      {0.16236714f, 0.056257296f, -0.15663868f, -0.09699388f, -0.014496776f},
      {0.22328071f, -0.014496776f, -0.18698308f, 0.03335852f, 0.2464633f},
      {0.16236714f, -0.12101351f, -0.12101351f, 0.30023298f, 0.32547376f},
      {0.009668785f, -0.0735029f, -0.18698308f, 0.45139715f, 0.32547376f}
    },
    {
      {-0.09699388f, -0.014496776f, -0.035363223f, 0.009668785f, 0.07922348f},
      {-0.053830065f, -0.053830065f, -0.014496776f, -0.014496776f, -0.053830065f},
      {0.009668785f, 0.03335852f, -0.0735029f, -0.12101351f, 0.056257296f},
      {-0.09699388f, -0.0735029f, -0.15663868f, 0.009668785f, 0.07922348f},
      {-0.053830065f, 0.009668785f, -0.014496776f, 0.03335852f, -0.014496776f}
    },
    {
      {-0.014496776f, -0.12101351f, 0.009668785f, -0.12101351f, -0.0735029f},
      {-0.035363223f, -0.035363223f, 0.03335852f, -0.014496776f, 0.009668785f},
      {-0.014496776f, -0.053830065f, 0.009668785f, 0.10655328f, 0.009668785f},
      {-0.014496776f, -0.014496776f, -0.053830065f, -0.035363223f, 0.03335852f},
      {-0.035363223f, -0.053830065f, -0.09699388f, 0.056257296f, 0.07922348f}
    },
    {
      {0.009668785f, 0.03335852f, -0.0735029f, -0.15663868f, -0.053830065f},
      {0.10655328f, 0.056257296f, -0.0735029f, 0.07922348f, 0.16236714f},
      {0.009668785f, -0.12101351f, -0.12101351f, 0.10655328f, -0.014496776f},
      {-0.15663868f, -0.2365359f, 0.009668785f, -0.014496776f, -0.15663868f},
      {-0.035363223f, -0.15663868f, 0.13356732f, 0.07922348f, -0.12101351f}
    },
    {
      {-0.0735029f, -0.035363223f, -0.053830065f, -0.035363223f, -0.09699388f},
      {0.056257296f, -0.035363223f, -0.09699388f, -0.014496776f, -0.053830065f},
      {0.009668785f, 0.009668785f, 0.009668785f, -0.053830065f, -0.0735029f},
      {-0.014496776f, -0.0735029f, 0.13356732f, -0.053830065f, -0.12101351f},
      {0.03335852f, -0.035363223f, 0.056257296f, -0.053830065f, -0.014496776f}
    }
  },
  {
    {
      {-0.035363223f, -0.15663868f, -0.014496776f, -0.12101351f, -0.12101351f},
      {-0.035363223f, -0.15663868f, -0.15663868f, 0.009668785f, -0.014496776f},
      {-0.09699388f, -0.12101351f, -0.014496776f, 0.009668785f, -0.053830065f},
      {-0.053830065f, 0.009668785f, -0.09699388f, -0.035363223f, -0.014496776f},
      {0.03335852f, 0.009668785f, 0.07922348f, -0.0735029f, 0.009668785f}
    },
    {
      {0.13356732f, -0.035363223f, 0.13356732f, 0.009668785f, -0.18698308f},
      {0.009668785f, 0.07922348f, 0.13356732f, 0.13356732f, 0.056257296f},
      {-0.18698308f, -0.053830065f, -0.0735029f, 0.16236714f, 0.22328071f},
      {-0.09699388f, -0.014496776f, -0.18698308f, -0.2365359f, 0.13356732f},
      {0.13356732f, 0.03335852f, -0.053830065f, -0.32489556f, -0.053830065f}
    },
    {
      {0.13356732f, 0.16236714f, 0.07922348f, 0.19378215f, 0.10655328f},
      {-0.035363223f, -0.0735029f, -0.053830065f, 0.07922348f, 0.056257296f},
      {0.10655328f, 0.07922348f, 0.03335852f, 0.056257296f, 0.03335852f},
      {0.009668785f, 0.009668785f, 0.009668785f, -0.014496776f, -0.053830065f},
      {-0.014496776f, 0.009668785f, 0.009668785f, -0.014496776f, -0.035363223f}
    },
    {
      {0.009668785f, 0.07922348f, 0.07922348f, 0.056257296f, 0.07922348f},
      {0.07922348f, 0.13356732f, 0.16236714f, 0.10655328f, 0.03335852f},
      {-0.09699388f, -0.0735029f, -0.035363223f, 0.13356732f, 0.07922348f},
      {0.03335852f, -0.035363223f, -0.09699388f, -0.035363223f, -0.014496776f},
      {0.07922348f, 0.07922348f, -0.014496776f, -0.0735029f, -0.09699388f}
    },
    {
      {0.13356732f, 0.26763755f, 0.3567231f, 0.22328071f, 0.2464633f},
      {0.03335852f, 0.03335852f, 0.16236714f, 0.26763755f, 0.19378215f},
      {-0.15663868f, -0.15663868f, -0.12101351f, 0.07922348f, 0.19378215f},
      {0.10655328f, -0.053830065f, -0.15663868f, -0.18698308f, 0.009668785f},
      {0.16236714f, -0.09699388f, -0.18698308f, -0.2365359f, -0.0735029f}
    },
    {
      {-0.053830065f, 0.07922348f, 0.10655328f, 0.10655328f, 0.009668785f},
      {-0.035363223f, -0.014496776f, 0.056257296f, -0.09699388f, -0.014496776f},
      {-0.014496776f, 0.10655328f, 0.009668785f, 0.056257296f, 0.03335852f},
      {0.056257296f, 0.07922348f, 0.07922348f, 0.07922348f, -0.035363223f},
      {0.056257296f, 0.009668785f, -0.09699388f, 0.07922348f, -0.014496776f}
    }
  },
  {
    {
      {0.03335852f, -0.014496776f, 0.03335852f, -0.035363223f, 0.07922348f},
      {-0.053830065f, -0.12101351f, 0.10655328f, 0.19378215f, 0.07922348f},
      {0.009668785f, 0.03335852f, 0.16236714f, 0.2464633f, -0.0735029f},
      {0.03335852f, 0.03335852f, 0.07922348f, 0.13356732f, -0.014496776f},
      {0.03335852f, 0.03335852f, 0.03335852f, -0.035363223f, 0.07922348f}
    },
    {
      {-0.0735029f, 0.056257296f, -0.014496776f, -0.035363223f, -0.21276793f},
      {-0.09699388f, -0.2365359f, 0.19378215f, 0.38591933f, -0.0735029f},
      {-0.18698308f, -0.32489556f, 0.38591933f, 0.45139715f, -0.15663868f},
      {-0.15663868f, -0.09699388f, 0.38591933f, 0.3567231f, 0.03335852f},
      {0.03335852f, 0.056257296f, 0.22328071f, 0.26763755f, 0.13356732f}
    },
    {
      {0.009668785f, 0.056257296f, -0.09699388f, 0.056257296f, -0.014496776f},
      {0.03335852f, -0.035363223f, -0.0735029f, 0.056257296f, 0.03335852f},
      {0.056257296f, -0.18698308f, -0.014496776f, 0.03335852f, 0.056257296f},
      {-0.053830065f, -0.053830065f, 0.009668785f, 0.056257296f, 0.10655328f},
      {-0.09699388f, 0.009668785f, -0.014496776f, -0.014496776f, 0.13356732f}
    },
    {
      {-0.09699388f, -0.09699388f, 0.03335852f, 0.03335852f, -0.0735029f},
      {-0.12101351f, 0.009668785f, 0.056257296f, 0.03335852f, 0.009668785f},
      {-0.09699388f, -0.09699388f, 0.03335852f, 0.056257296f, 0.03335852f},
      {-0.0735029f, -0.014496776f, 0.009668785f, 0.03335852f, 0.056257296f},
      {-0.09699388f, 0.03335852f, 0.07922348f, 0.07922348f, -0.053830065f}
    },
    {
      {-0.035363223f, -0.053830065f, 0.009668785f, 0.10655328f, -0.12101351f},
      {-0.21276793f, -0.053830065f, 0.13356732f, 0.10655328f, 0.009668785f},
      {-0.09699388f, 0.009668785f, 0.07922348f, -0.18698308f, 0.009668785f},
      {0.10655328f, -0.15663868f, -0.18698308f, -0.0735029f, -0.09699388f},
      {-0.12101351f, -0.12101351f, -0.09699388f, -0.014496776f, -0.15663868f}
    },
    {
      {0.009668785f, 0.07922348f, 0.07922348f, 0.009668785f, 0.056257296f},
      {0.03335852f, -0.014496776f, -0.014496776f, 0.056257296f, -0.014496776f},
      {-0.014496776f, 0.19378215f, 0.07922348f, -0.12101351f, 0.056257296f},
      {0.10655328f, 0.16236714f, -0.035363223f, -0.014496776f, -0.035363223f},
      {0.03335852f, 0.009668785f, -0.035363223f, 0.056257296f, 0.03335852f}
    }
  },
  {
    {
      {0.03335852f, 0.009668785f, 0.03335852f, 0.009668785f, -0.053830065f},
      {-0.014496776f, -0.035363223f, -0.053830065f, 0.03335852f, 0.03335852f},
      {-0.09699388f, -0.035363223f, -0.09699388f, -0.09699388f, -0.035363223f},
      {-0.09699388f, 0.03335852f, -0.0735029f, -0.09699388f, -0.12101351f},
      {-0.0735029f, -0.035363223f, -0.014496776f, -0.014496776f, 0.07922348f}
    },
    {
      {-0.053830065f, -0.035363223f, 0.19378215f, 0.13356732f, 0.13356732f},
      {-0.0735029f, 0.056257296f, 0.16236714f, 0.10655328f, 0.16236714f},
      {0.009668785f, -0.15663868f, -0.21276793f, -0.12101351f, -0.014496776f},
      {0.03335852f, 0.009668785f, -0.18698308f, -0.26322144f, -0.26322144f},
      {0.009668785f, 0.056257296f, 0.056257296f, -0.0735029f, 0.009668785f}
    },
    {
      {-0.014496776f, -0.014496776f, 0.009668785f, 0.03335852f, 0.03335852f},
      {0.056257296f, -0.035363223f, 0.056257296f, 0.07922348f, 0.03335852f},
      {0.056257296f, -0.035363223f, -0.035363223f, -0.014496776f, -0.09699388f},
      {-0.014496776f, 0.056257296f, 0.009668785f, -0.035363223f, 0.056257296f},
      {-0.035363223f, -0.014496776f, 0.03335852f, -0.053830065f, -0.035363223f}
    },
    {
      {0.03335852f, 0.056257296f, 0.056257296f, -0.014496776f, -0.035363223f},
      {-0.035363223f, -0.053830065f, -0.014496776f, 0.13356732f, 0.10655328f},
      {-0.053830065f, 0.03335852f, 0.009668785f, -0.09699388f, -0.014496776f},
      {-0.0735029f, -0.014496776f, -0.014496776f, -0.035363223f, -0.12101351f},
      {0.009668785f, -0.014496776f, 0.13356732f, 0.07922348f, 0.07922348f}
    },
    {
      {-0.014496776f, -0.014496776f, 0.13356732f, 0.26763755f, 0.16236714f},
      {0.009668785f, 0.07922348f, 0.13356732f, 0.16236714f, 0.10655328f},
      {-0.0735029f, -0.15663868f, -0.28894508f, -0.28894508f, -0.12101351f},
      {-0.09699388f, 0.03335852f, 0.07922348f, 0.07922348f, -0.035363223f},
      {0.16236714f, 0.16236714f, 0.19378215f, 0.13356732f, 0.13356732f}
    },
    {
      {-0.035363223f, 0.03335852f, -0.014496776f, 0.03335852f, 0.03335852f},
      {-0.014496776f, 0.056257296f, 0.009668785f, 0.009668785f, 0.03335852f},
      {-0.014496776f, -0.014496776f, -0.09699388f, -0.014496776f, -0.053830065f},
      {-0.014496776f, -0.053830065f, -0.014496776f, 0.10655328f, 0.03335852f},
      {-0.0735029f, -0.053830065f, -0.0735029f, 0.009668785f, -0.0735029f}
    }
  },
  {
    {
      {0.03335852f, -0.035363223f, -0.0735029f, -0.035363223f, -0.035363223f},
      {0.056257296f, 0.03335852f, 0.03335852f, -0.014496776f, -0.014496776f},
      {0.03335852f, -0.0735029f, -0.014496776f, -0.014496776f, 0.03335852f},
      {0.009668785f, -0.09699388f, 0.03335852f, 0.009668785f, 0.07922348f},
      {0.03335852f, -0.035363223f, 0.009668785f, 0.009668785f, 0.03335852f}
    },
    {
      {-0.12101351f, 0.009668785f, -0.035363223f, 0.07922348f, 0.22328071f},
      {-0.014496776f, -0.035363223f, 0.056257296f, 0.056257296f, 0.03335852f},
      {-0.0735029f, -0.09699388f, -0.15663868f, -0.053830065f, 0.16236714f},
      {-0.12101351f, -0.15663868f, -0.09699388f, 0.07922348f, 0.10655328f},
      {-0.09699388f, -0.12101351f, -0.09699388f, 0.16236714f, 0.07922348f}
    },
    {
      {0.009668785f, -0.053830065f, 0.07922348f, 0.03335852f, -0.053830065f},
      {0.056257296f, 0.07922348f, 0.07922348f, -0.035363223f, -0.035363223f},
      {-0.035363223f, 0.056257296f, 0.07922348f, -0.014496776f, -0.014496776f},
      {-0.053830065f, 0.07922348f, -0.053830065f, 0.009668785f, -0.035363223f},
      {0.009668785f, 0.009668785f, -0.014496776f, -0.053830065f, 0.056257296f}
    },
    {
      {-0.0735029f, 0.07922348f, 0.03335852f, -0.035363223f, 0.07922348f},
      {0.009668785f, 0.07922348f, 0.07922348f, -0.0735029f, -0.053830065f},
      {0.009668785f, -0.09699388f, 0.009668785f, -0.035363223f, -0.053830065f},
      {0.03335852f, -0.09699388f, -0.014496776f, 0.07922348f, -0.014496776f},
      {0.056257296f, 0.10655328f, 0.056257296f, -0.053830065f, -0.053830065f}
    },
    {
      {0.056257296f, 0.19378215f, 0.19378215f, 0.13356732f, -0.053830065f},
      {0.13356732f, 0.056257296f, -0.09699388f, -0.09699388f, -0.09699388f},
      {-0.12101351f, -0.2365359f, -0.12101351f, 0.16236714f, 0.19378215f},
      {-0.09699388f, -0.09699388f, 0.13356732f, 0.26763755f, -0.035363223f},
      {0.2464633f, 0.26763755f, 0.10655328f, 0.009668785f, -0.035363223f}
    },
    {
      {0.03335852f, 0.009668785f, -0.035363223f, -0.035363223f, -0.09699388f},
      {0.07922348f, -0.014496776f, -0.053830065f, 0.056257296f, 0.009668785f},
      {0.009668785f, -0.0735029f, 0.03335852f, 0.056257296f, -0.014496776f},
      {-0.09699388f, 0.03335852f, 0.10655328f, 0.009668785f, 0.009668785f},
      {0.03335852f, 0.03335852f, 0.056257296f, -0.014496776f, -0.053830065f}
    }
  },
  {
    {
      {-0.09699388f, 0.03335852f, 0.07922348f, 0.13356732f, 0.056257296f},
      {-0.035363223f, 0.16236714f, 0.07922348f, 0.009668785f, 0.07922348f},
      {0.22328071f, 0.10655328f, 0.03335852f, -0.053830065f, 0.009668785f},
      {0.19378215f, -0.014496776f, -0.035363223f, 0.03335852f, -0.035363223f},
      {0.056257296f, -0.09699388f, -0.014496776f, -0.014496776f, -0.035363223f}
    },
    {
      {-0.2365359f, 0.10655328f, 0.07922348f, 0.07922348f, 0.03335852f},
      {0.009668785f, 0.3567231f, 0.07922348f, -0.09699388f, -0.09699388f},
      {0.4254756f, 0.4254756f, -0.18698308f, -0.28894508f, 0.03335852f},
      {0.30023298f, -0.035363223f, -0.2365359f, -0.2365359f, -0.09699388f},
      {0.10655328f, -0.18698308f, -0.12101351f, 0.056257296f, -0.053830065f}
    },
    {
      {-0.09699388f, -0.014496776f, 0.009668785f, -0.0735029f, 0.056257296f},
      {-0.09699388f, -0.035363223f, -0.014496776f, 0.03335852f, 0.056257296f},
      {0.03335852f, 0.10655328f, -0.053830065f, 0.009668785f, -0.035363223f},
      {0.056257296f, -0.014496776f, -0.053830065f, 0.07922348f, 0.056257296f},
      {0.056257296f, 0.03335852f, 0.009668785f, 0.07922348f, -0.014496776f}
    },
    {
      {0.07922348f, -0.014496776f, 0.13356732f, 0.056257296f, 0.009668785f},
      {0.009668785f, -0.053830065f, 0.03335852f, 0.03335852f, -0.035363223f},
      {0.056257296f, 0.009668785f, -0.053830065f, -0.12101351f, -0.053830065f},
      {0.009668785f, 0.056257296f, 0.009668785f, -0.09699388f, 0.056257296f},
      {-0.0735029f, -0.035363223f, 0.03335852f, -0.035363223f, -0.0735029f}
    },
    {
      {0.13356732f, 0.3567231f, 0.2464633f, 0.16236714f, -0.12101351f},
      {0.30023298f, 0.13356732f, -0.28894508f, -0.21276793f, -0.12101351f},
      {0.10655328f, -0.2365359f, -0.15663868f, -0.053830065f, 0.03335852f},
      {-0.18698308f, -0.18698308f, 0.056257296f, 0.056257296f, 0.009668785f},
      {-0.18698308f, 0.056257296f, 0.10655328f, 0.056257296f, -0.014496776f}
    },
    {
      {0.10655328f, 0.13356732f, 0.056257296f, 0.056257296f, -0.0735029f},
      {0.16236714f, -0.0735029f, -0.12101351f, -0.014496776f, -0.014496776f},
      {-0.0735029f, -0.12101351f, 0.03335852f, 0.009668785f, -0.014496776f},
      {-0.12101351f, -0.09699388f, -0.0735029f, 0.03335852f, 0.009668785f},
      {-0.0735029f, -0.053830065f, 0.009668785f, 0.07922348f, -0.0735029f}
    }
  },
  {
    {
      {0.03335852f, -0.014496776f, 0.009668785f, -0.0735029f, 0.07922348f},
      {0.009668785f, -0.014496776f, -0.12101351f, -0.09699388f, -0.09699388f},
      {0.009668785f, -0.053830065f, -0.12101351f, -0.035363223f, -0.014496776f},
      {-0.0735029f, -0.12101351f, -0.035363223f, -0.035363223f, 0.009668785f},
      {0.056257296f, -0.0735029f, -0.014496776f, -0.014496776f, 0.03335852f}
    },
    {
      {0.03335852f, -0.15663868f, -0.15663868f, -0.15663868f, 0.07922348f},
      {0.10655328f, 0.16236714f, -0.035363223f, -0.21276793f, -0.18698308f},
      {0.16236714f, 0.22328071f, 0.22328071f, 0.10655328f, 0.03335852f},
      {-0.0735029f, -0.053830065f, 0.10655328f, 0.056257296f, 0.07922348f},
      {-0.09699388f, -0.18698308f, -0.18698308f, -0.035363223f, -0.15663868f}
    },
    {
      {0.056257296f, 0.10655328f, -0.014496776f, -0.035363223f, -0.035363223f},
      {0.13356732f, 0.056257296f, 0.13356732f, 0.03335852f, 0.009668785f},
      {-0.053830065f, -0.014496776f, 0.009668785f, 0.03335852f, 0.07922348f},
      {0.009668785f, 0.056257296f, 0.009668785f, -0.053830065f, 0.056257296f},
      {-0.014496776f, 0.03335852f, -0.035363223f, 0.07922348f, -0.0735029f}
    },
    {
      {-0.014496776f, -0.035363223f, -0.0735029f, -0.035363223f, 0.056257296f},
      {0.03335852f, 0.07922348f, -0.014496776f, -0.09699388f, -0.09699388f},
      {0.13356732f, 0.13356732f, 0.10655328f, 0.16236714f, -0.053830065f},
      {-0.09699388f, 0.07922348f, 0.056257296f, 0.07922348f, -0.014496776f},
      {-0.035363223f, -0.0735029f, -0.0735029f, -0.053830065f, -0.035363223f}
    },
    {
      {-0.0735029f, -0.0735029f, -0.2365359f, -0.09699388f, -0.014496776f},
      {0.22328071f, 0.22328071f, -0.014496776f, -0.09699388f, -0.15663868f},
      {0.13356732f, 0.32547376f, 0.50078076f, 0.50078076f, 0.13356732f},
      {-0.12101351f, -0.053830065f, 0.03335852f, -0.053830065f, 0.009668785f},
      {0.009668785f, -0.12101351f, -0.09699388f, 0.009668785f, -0.12101351f}
    },
    {
      {-0.035363223f, 0.009668785f, 0.009668785f, -0.053830065f, 0.03335852f},
      {-0.09699388f, 0.03335852f, 0.009668785f, 0.10655328f, 0.03335852f},
      {-0.053830065f, -0.0735029f, 0.056257296f, -0.014496776f, 0.10655328f},
      {0.07922348f, 0.03335852f, 0.056257296f, -0.0735029f, -0.053830065f},
      {0.03335852f, -0.053830065f, -0.014496776f, 0.07922348f, 0.009668785f}
    }
  },
  {
    {
      {0.009668785f, -0.014496776f, -0.014496776f, -0.035363223f, 0.056257296f},
      {-0.0735029f, 0.07922348f, 0.009668785f, 0.056257296f, 0.056257296f},
      {-0.053830065f, 0.056257296f, 0.009668785f, 0.009668785f, 0.056257296f},
      {0.056257296f, -0.035363223f, -0.0735029f, -0.053830065f, -0.035363223f},
      {-0.09699388f, -0.09699388f, -0.12101351f, 0.009668785f, -0.035363223f}
    },
    {
      {-0.12101351f, 0.009668785f, -0.014496776f, 0.03335852f, 0.056257296f},
      {0.10655328f, 0.22328071f, 0.16236714f, 0.19378215f, 0.13356732f},
      {0.19378215f, 0.10655328f, 0.07922348f, 0.056257296f, 0.009668785f},
      {-0.014496776f, -0.12101351f, -0.18698308f, -0.28894508f, -0.18698308f},
      {-0.09699388f, -0.12101351f, -0.3738477f, -0.28894508f, -0.21276793f}
    },
    {
      {0.009668785f, 0.009668785f, -0.014496776f, 0.07922348f, 0.07922348f},
      {-0.014496776f, -0.035363223f, 0.07922348f, -0.053830065f, -0.053830065f},
      {-0.053830065f, -0.053830065f, -0.035363223f, -0.053830065f, -0.035363223f},
      {-0.035363223f, 0.056257296f, 0.009668785f, -0.014496776f, -0.0735029f},
      {-0.014496776f, 0.009668785f, -0.035363223f, -0.053830065f, -0.0735029f}
    },
    {
      {-0.035363223f, -0.0735029f, -0.014496776f, 0.056257296f, -0.035363223f},
      {0.10655328f, 0.03335852f, -0.014496776f, 0.13356732f, 0.07922348f},
      {-0.014496776f, 0.10655328f, 0.13356732f, 0.03335852f, 0.10655328f},
      {-0.014496776f, -0.15663868f, -0.12101351f, -0.09699388f, -0.014496776f},
      {0.056257296f, 0.03335852f, -0.09699388f, -0.12101351f, 0.03335852f}
    },
    {
      {0.009668785f, -0.014496776f, 0.03335852f, 0.07922348f, 0.009668785f},
      {0.22328071f, 0.22328071f, 0.3567231f, 0.3567231f, 0.19378215f},
      {0.07922348f, 0.13356732f, 0.16236714f, 0.07922348f, -0.014496776f},
      {-0.32489556f, -0.34302524f, -0.42853105f, -0.26322144f, -0.15663868f},
      {0.10655328f, -0.0735029f, -0.12101351f, 0.03335852f, 0.16236714f}
    },
    {
      {-0.014496776f, 0.03335852f, 0.03335852f, -0.014496776f, 0.056257296f},
      {0.03335852f, 0.03335852f, 0.07922348f, -0.053830065f, 0.03335852f},
      {-0.0735029f, -0.09699388f, -0.014496776f, -0.053830065f, 0.009668785f},
      {0.009668785f, -0.035363223f, -0.09699388f, 0.03335852f, 0.07922348f},
      {-0.014496776f, 0.009668785f, 0.056257296f, 0.03335852f, -0.014496776f}
    },
  },
  {
    {
      {-0.0735029f, -0.014496776f, -0.15663868f, -0.15663868f, -0.15663868f},
      {-0.15663868f, -0.053830065f, -0.18698308f, -0.09699388f, -0.014496776f},
      {-0.09699388f, -0.15663868f, -0.12101351f, -0.09699388f, -0.035363223f},
      {-0.09699388f, -0.053830065f, -0.035363223f, -0.09699388f, -0.09699388f},
      {-0.053830065f, -0.12101351f, -0.12101351f, 0.03335852f, 0.07922348f}
    },
    {
      {0.03335852f, -0.053830065f, -0.18698308f, -0.18698308f, -0.12101351f},
      {0.10655328f, 0.22328071f, 0.07922348f, 0.009668785f, 0.03335852f},
      {-0.053830065f, 0.16236714f, 0.07922348f, 0.03335852f, -0.053830065f},
      {-0.15663868f, -0.15663868f, -0.15663868f, -0.09699388f, -0.053830065f},
      {-0.0735029f, -0.15663868f, -0.32489556f, -0.15663868f, -0.053830065f}
    },
    {
      {0.10655328f, 0.16236714f, 0.07922348f, 0.10655328f, 0.056257296f},
      {0.13356732f, 0.16236714f, 0.07922348f, 0.056257296f, 0.056257296f},
      {0.10655328f, 0.13356732f, 0.19378215f, 0.03335852f, -0.035363223f},
      {0.13356732f, 0.16236714f, 0.07922348f, 0.07922348f, 0.03335852f},
      {0.056257296f, -0.014496776f, -0.053830065f, -0.09699388f, -0.014496776f}
    },
    {
      {-0.0735029f, -0.035363223f, -0.0735029f, -0.0735029f, -0.0735029f},
      {0.13356732f, 0.16236714f, 0.13356732f, 0.16236714f, 0.13356732f},
      {0.10655328f, 0.10655328f, 0.16236714f, 0.07922348f, -0.035363223f},
      {-0.014496776f, -0.035363223f, -0.035363223f, -0.0735029f, -0.09699388f},
      {0.10655328f, 0.03335852f, 0.056257296f, -0.014496776f, -0.09699388f}
    },
    {
      {0.10655328f, -0.15663868f, -0.0735029f, 0.13356732f, 0.10655328f},
      {0.056257296f, 0.51665956f, 0.50078076f, 0.47191885f, 0.19378215f},
      {-0.053830065f, 0.30023298f, 0.19378215f, 0.03335852f, -0.053830065f},
      {-0.15663868f, -0.21276793f, -0.014496776f, 0.19378215f, -0.014496776f},
      {0.16236714f, 0.13356732f, 0.16236714f, 0.056257296f, -0.053830065f}
    },
    {
      {0.009668785f, -0.014496776f, 0.009668785f, 0.03335852f, -0.014496776f},
      {0.009668785f, 0.056257296f, 0.03335852f, -0.035363223f, -0.014496776f},
      {-0.035363223f, -0.035363223f, -0.014496776f, 0.03335852f, -0.12101351f},
      {0.07922348f, -0.0735029f, 0.07922348f, 0.056257296f, 0.009668785f},
      {0.03335852f, 0.009668785f, 0.056257296f, 0.009668785f, -0.09699388f}
    }
  },
  {
    {
      {0.009668785f, -0.053830065f, 0.056257296f, 0.056257296f, -0.035363223f},
      {0.009668785f, -0.053830065f, 0.056257296f, -0.014496776f, 0.10655328f},
      {0.03335852f, -0.035363223f, -0.014496776f, 0.009668785f, 0.13356732f},
      {-0.053830065f, 0.03335852f, 0.03335852f, 0.056257296f, 0.009668785f},
      {0.056257296f, -0.014496776f, 0.009668785f, 0.009668785f, 0.009668785f}
    },
    {
      {0.07922348f, 0.10655328f, -0.035363223f, -0.12101351f, 0.056257296f},
      {0.009668785f, -0.0735029f, -0.15663868f, -0.15663868f, 0.07922348f},
      {0.13356732f, -0.014496776f, -0.12101351f, -0.0735029f, 0.19378215f},
      {0.056257296f, 0.056257296f, -0.014496776f, -0.053830065f, 0.16236714f},
      {0.009668785f, -0.035363223f, 0.03335852f, -0.053830065f, 0.16236714f}
    },
    {
      {0.056257296f, 0.03335852f, -0.0735029f, -0.0735029f, -0.0735029f},
      {0.009668785f, -0.0735029f, 0.03335852f, 0.03335852f, -0.053830065f},
      {0.03335852f, -0.053830065f, 0.03335852f, -0.053830065f, 0.07922348f},
      {0.009668785f, 0.03335852f, -0.053830065f, 0.03335852f, 0.009668785f},
      {0.056257296f, -0.0735029f, 0.03335852f, -0.014496776f, 0.009668785f}
    },
    {
      {-0.035363223f, 0.03335852f, -0.014496776f, -0.0735029f, -0.014496776f},
      {-0.035363223f, 0.056257296f, -0.12101351f, 0.07922348f, -0.014496776f},
      {-0.053830065f, -0.0735029f, -0.09699388f, -0.053830065f, 0.009668785f},
      {0.07922348f, -0.035363223f, 0.009668785f, -0.0735029f, 0.03335852f},
      {-0.014496776f, -0.09699388f, -0.035363223f, 0.03335852f, 0.03335852f}
    },
    {
      {-0.035363223f, -0.014496776f, 0.009668785f, -0.0735029f, 0.03335852f},
      {-0.15663868f, -0.053830065f, -0.0735029f, -0.035363223f, -0.035363223f},
      {0.13356732f, 0.056257296f, -0.0735029f, 0.009668785f, -0.0735029f},
      {0.16236714f, 0.10655328f, 0.056257296f, 0.07922348f, -0.0735029f},
      {-0.12101351f, -0.09699388f, -0.053830065f, 0.056257296f, -0.09699388f}
    },
    {
      {0.07922348f, -0.0735029f, -0.0735029f, 0.10655328f, 0.03335852f},
      {-0.053830065f, -0.0735029f, -0.053830065f, -0.035363223f, -0.014496776f},
      {-0.035363223f, 0.07922348f, -0.035363223f, -0.035363223f, -0.035363223f},
      {-0.053830065f, 0.056257296f, 0.056257296f, 0.03335852f, -0.09699388f},
      {0.056257296f, 0.009668785f, 0.009668785f, 0.009668785f, -0.09699388f}
    }
  }
  
};



#endif // N2D2_EXPORTC_CONV2_LAYER_H
