// N2D2 auto-generated file.
// @ Mon Sep 16 12:33:02 2019

#ifndef N2D2_EXPORTC_FC1_LAYER_H
#define N2D2_EXPORTC_FC1_LAYER_H

#include "typedefs.h"
#include "conv3.h"
#define FC1_NB_OUTPUTS 84
#define FC1_NB_CHANNELS 120
#define FC1_OUTPUT_OFFSET 0
#define FC1_ACTIVATION Rectifier
#define FC1_SHIFT 0
static BDATA_T fc1_biases[FC1_NB_OUTPUTS] = {0, 0, 0, 0, 0, 0, 0, 0, 0, 0, 0, 0, 0, 0, 0, 0, 0, 0, 0, 0, 0, 0, 0, 0, 0, 0, 0, 0, 0, 0, 0, 0, 0, 0, 0, 0, 0, 0, 0, 0, 0, 0, 0, 0, 0, 0, 0, 0, 0, 0, 0, 0, 0, 0, 0, 0, 0, 0, 0, 0, 0, 0, 0, 0, 0, 0, 0, 0, 0, 0, 0, 0, 0, 0, 0, 0, 0, 0, 0, 0, 0, 0, 0, 0};
#define FC1_NB_WEIGHTS (FC1_NB_OUTPUTS*FC1_NB_CHANNELS)

static WDATA_T fc1_weights[FC1_NB_OUTPUTS][FC1_NB_CHANNELS] = 
{
    {0.009250940f, -0.02926620f, 0.01327440f, 0.008535620f, -0.005825760f, 0.02150020f, -0.03243780f, -0.001297300f, 0.01963780f, 0.01033280f, -0.01295110f, -0.005741480f, 0.003991310f, 0.03007740f, -0.06008650f, 0.01611070f, 0.004732110f, -0.03938450f, -0.008335860f, -0.05677510f, 0.008511410f, 0.002464730f, -0.03401280f, 0.03697370f, -0.1138610f, -0.002864390f, 0.01267040f, 0.05592320f, 0.02571590f, -0.007844060f, -0.004734910f, 0.006705120f, 0.01551080f, -0.007299980f, 0.001922300f, 0.002604380f, -0.01709620f, 0.01317050f, -0.04849350f, 0.01255820f, 0.03188880f, -0.01261690f, -0.02337460f, 0.007556280f, 0.01053790f, -0.02437230f, 0.01490210f, 0.004540760f, 0.001123660f, -0.07327130f, 0.008426030f, -0.003754280f, -0.01722980f, 0.02577480f, 0.02945110f, -0.008754330f, 0.002449570f, -0.05148840f, 0.04296490f, 0.01817030f, 0.002861090f, 0.04021610f, 0.05857660f, -0.06675670f, -0.03788910f, -0.04799760f, -0.07087350f, -0.08367730f, 0.03287550f, -0.003322860f, -0.05647910f, -0.01824430f, -0.003652680f, 0.01649420f, -0.0004159980f, -0.007272350f, 0.02110960f, -0.01413710f, 0.01266390f, 0.01564510f, -0.007161380f, -0.02122370f, 0.004505100f, -0.01896680f, 0.02168290f, 0.01957150f, 0.03147840f, 0.03427660f, -0.04528540f, 0.02667070f, 0.0005038620f, 0.009004740f, -0.002066840f, 0.05299470f, 0.002980740f, -0.006950800f, -0.004146890f, -0.004493750f, -0.01388850f, -0.003388510f, -0.03567440f, 0.01444050f, -0.05175600f, -0.02018410f, 0.01508480f, 0.004411140f, -0.1675920f, 0.009351750f, 0.01801020f, -0.0005551150f, 0.01578600f, 0.03708170f, 0.01942220f, 0.01689970f, -0.1404240f, -0.1003580f, 0.02749930f, 0.01276350f, 0.02321240f, 0.004490200f},
    {-0.006811470f, -0.003524560f, -0.0006544310f, -0.002987390f, -0.002033550f, -0.001594160f, -0.008025230f, 0.003076840f, 0.002845520f, -0.008234180f, -0.004697790f, -0.0009590080f, 0.001925000f, -0.009131370f, -0.002997790f, 0.002874820f, 0.005105510f, -0.003389070f, 0.009272360f, -0.002336620f, -0.001224060f, -0.001350810f, -0.002286900f, 0.004457630f, -0.01554990f, 0.002018670f, -0.001198980f, -0.001168460f, 0.0002227630f, 0.003284780f, 0.004748470f, 0.006442930f, -0.002661310f, -0.008990060f, 0.0004926800f, -0.0005192950f, -0.003186740f, -0.001573740f, 0.005807830f, 0.004821790f, -0.0003214500f, -0.004748390f, -0.0008043230f, -0.01183500f, 0.002944410f, -0.002003580f, -0.004228790f, -0.002583770f, 0.005529980f, -0.005073280f, 0.002046930f, 0.002744150f, -0.005372420f, -0.006566860f, -0.004034210f, 0.006375920f, -0.0004536140f, 0.0001814960f, -0.01081010f, -0.001480990f, -0.009928680f, 0.003954430f, 0.003306970f, -0.005786990f, -0.002461320f, -0.004678020f, 0.003287010f, 0.003393450f, -0.0008458420f, -0.0008392670f, -0.003395760f, -0.001315140f, 0.001758970f, -0.003696730f, -0.002434930f, 0.004059210f, 0.005467340f, -0.004506550f, -0.002359650f, -0.0004706350f, -0.002301030f, -0.002448830f, -0.009506460f, 0.009904890f, 0.002340960f, -0.001657040f, -0.002531600f, -0.004797370f, -0.001874940f, 0.001866260f, 0.004658840f, 0.002898960f, 0.004233600f, 0.004143230f, -0.004784100f, -0.0008480060f, 0.003977220f, -0.001209140f, 0.01003070f, 0.001394390f, -0.004827020f, -0.003526270f, 0.002154940f, 0.003037600f, -0.001252590f, -0.01030700f, -0.002969820f, 0.0001165740f, 0.008761880f, 0.005581460f, -0.0008758030f, 0.006592600f, -0.006946330f, -0.004864340f, 0.003671350f, 0.002757430f, 0.001048090f, 0.001035700f, -0.001500380f, 0.0005633450f},
    {0.01363890f, 0.01023060f, -0.1348870f, 0.009012120f, -0.01032270f, -0.02919140f, 0.03496650f, 0.02223790f, 0.01323770f, -0.002401360f, -0.05222900f, -0.1145730f, 0.01489160f, -0.1276700f, -0.06064190f, 0.001691770f, 0.02834800f, -0.0004490200f, -0.04922930f, -0.1164830f, 0.001446830f, 0.005763020f, 0.03603160f, 0.02896500f, 0.01383830f, -0.009045210f, 0.03525810f, -0.04371440f, 0.02655460f, -0.02043550f, -0.007408660f, 0.0001857210f, 0.02351100f, -0.006534560f, 0.02518570f, 0.009426460f, 0.01484210f, 0.01668390f, 0.02518620f, 0.02134550f, 0.02825660f, -0.04461650f, 0.03882690f, 0.008454560f, 0.03060400f, -0.05938490f, 0.006841880f, -0.001695340f, 0.02435050f, 0.03747150f, 0.001759120f, -0.002762910f, -0.01461300f, -0.1337410f, 0.02834270f, 0.01037080f, 0.005813320f, 0.003699210f, 0.03259980f, 0.02998460f, 0.01362240f, -0.08113950f, 0.02628560f, 0.01418090f, -0.04742710f, -0.01032630f, -0.01195920f, 0.02551750f, 0.04218000f, 0.006317920f, 0.03027140f, -0.02473990f, 0.01205480f, 0.03315900f, -0.008381670f, 0.007857290f, -0.03937380f, -0.001108760f, 0.02643070f, 0.03094640f, -0.1066790f, -0.03830170f, 0.005733970f, 0.01248330f, 0.04641580f, -0.03811230f, 0.002402580f, 0.02276420f, 0.01031090f, 0.03158680f, 0.02611920f, -0.0002699520f, 0.01489370f, 0.02404290f, 0.007086000f, -0.04864410f, -0.005155320f, 0.01087870f, 0.0008897690f, -0.007015400f, -0.003550930f, -0.001599290f, 0.009107970f, -0.009834510f, -0.07911980f, -0.004434100f, 0.02744310f, 0.02261670f, 0.002207560f, 0.003123470f, -0.03538330f, -0.03876730f, 0.008168580f, 0.02590160f, -0.05053050f, 0.02957310f, 0.009302760f, -0.09731760f, -0.003054980f, 0.0007840670f},
    {-0.04566960f, -0.01767740f, 0.01647760f, 0.02602890f, 0.01409430f, -0.05093830f, 0.01365350f, 0.03566340f, 0.003322700f, 0.008251140f, 0.02887690f, 0.01201040f, 0.01328470f, 0.03353820f, 0.005247900f, 0.002916640f, -0.2195080f, -0.03397800f, -0.1011990f, -0.008011940f, -0.002775620f, -0.002465830f, -0.002888960f, -0.006005260f, -0.07270460f, -0.007428670f, -0.03992550f, -0.004211650f, -0.02889750f, -0.006567560f, -0.0004945250f, -0.01073100f, -0.01937970f, -0.0007750270f, 0.03637450f, -0.002775150f, -0.03169260f, 0.04506740f, -0.03558700f, 0.04376800f, 0.02232760f, -0.02342730f, 0.02941910f, 0.007788960f, -0.004521440f, -0.09318260f, 0.02051420f, 0.001958600f, 0.01139470f, 0.02301580f, -0.007552200f, 0.002176390f, -0.01471340f, 0.001630070f, 0.005955820f, 0.009197290f, -0.009113500f, 0.003968470f, 0.03650450f, -0.006197130f, 0.01011860f, -0.09273670f, 0.01227860f, -0.07592940f, 0.007862910f, -0.04947670f, -0.1885870f, -0.01214280f, 0.01170500f, 0.001766040f, 0.03680010f, 0.02802560f, -0.09151500f, 0.02162310f, 0.001184420f, 0.005638510f, 0.01244690f, 0.005811460f, 0.01704100f, 0.02517350f, 0.02830030f, 0.001929090f, 0.008153270f, -0.02497350f, 0.01787570f, 0.02951910f, -0.06839640f, -0.1373680f, 0.04653720f, -0.008275940f, 0.02538740f, 0.005094170f, -0.0005932070f, 0.04303540f, 0.004427960f, -0.01849980f, 0.006385010f, 0.04302910f, 0.04976580f, 0.001194010f, 0.03885070f, 0.01096550f, 0.05580140f, 0.006889890f, 0.0003425710f, 0.005045420f, 0.02183880f, 0.008482430f, 0.003122680f, -0.01113770f, 0.04701290f, 0.01242340f, -0.05944720f, 0.02604070f, 0.03405120f, 0.001630480f, -0.03487350f, -0.01415460f, -0.1129940f, -0.002711730f},
    {0.01750620f, -0.001265840f, -0.1351620f, 0.003392960f, -0.005081360f, -0.03322540f, 0.03517700f, 0.02248170f, 0.02600460f, -0.002741330f, -0.04637240f, -0.1161710f, 0.01950560f, -0.1324840f, -0.06403010f, 0.001727550f, 0.03524630f, -0.008225980f, -0.04802190f, -0.1155410f, 0.005728550f, -0.003672230f, 0.04422470f, 0.03157830f, 0.01972230f, -0.01034810f, 0.02296210f, -0.04539020f, 0.03225040f, -0.02064170f, -0.003063510f, -0.0003801430f, 0.02872000f, -0.006022370f, 0.02686090f, 0.005599290f, 0.007964260f, 0.02021680f, 0.03094300f, 0.02669820f, 0.009337510f, -0.04867200f, 0.03434970f, 0.01430070f, 0.02898140f, -0.05951900f, 0.01441970f, -4.676620e-05f, 0.01984810f, 0.03081720f, -0.002999540f, -0.004684200f, -0.01773630f, -0.1370030f, 0.02997640f, 0.002100320f, 0.004366940f, 0.005996790f, 0.03100790f, 0.03510960f, 0.01804820f, -0.08269890f, 0.03418500f, 0.006631980f, -0.05506800f, -0.01653740f, -0.01448080f, 0.007895420f, 0.03911880f, 0.005986960f, 0.03458680f, -0.03033560f, 0.01541480f, 0.03285470f, 0.003386130f, 0.01248270f, -0.04390530f, -0.0005550110f, 0.02096410f, 0.01533240f, -0.1172620f, -0.03892980f, 2.095800e-05f, 0.01444740f, 0.05453070f, -0.03299120f, -0.01567100f, 0.02260080f, 0.005153770f, 0.02636580f, 0.03406090f, 0.006301170f, 0.0001565700f, 0.02584280f, 0.01545640f, -0.03844910f, -0.01538380f, 0.001368570f, 0.003870880f, -0.0001104560f, -0.01316760f, 0.009502720f, 0.01904670f, -0.01216180f, -0.07946200f, -0.0001316500f, 0.03646130f, -0.0006176890f, 0.009237680f, -0.0001046920f, -0.03142240f, -0.03695630f, -0.0006099410f, 0.02546320f, -0.05571260f, 0.02848970f, 0.01890280f, -0.09287360f, -0.006165040f, 0.003860980f},
    {-0.001715610f, -0.02588660f, 0.01781590f, -0.006403210f, 0.001236320f, 0.02172910f, -0.02915250f, 0.006194110f, 0.02901770f, -0.005229840f, -1.188220e-05f, 0.0007646550f, 0.01417770f, 0.03620920f, -0.06501610f, 0.02048430f, 0.009265710f, -0.04642580f, -0.01376610f, -0.06049960f, -0.01282740f, 0.005935610f, -0.03722970f, 0.05087930f, -0.1046610f, -0.002875320f, 0.009649800f, 0.04814830f, 0.01351420f, -0.009769380f, -0.004500200f, -0.0009035230f, 0.005110090f, -0.0007991100f, 0.01766020f, -0.005541050f, -0.01789330f, 0.01054970f, -0.04047040f, 0.02249740f, 0.03532110f, -0.005800310f, -0.01929470f, 0.002512880f, 0.006143480f, -0.02453130f, 0.01385630f, -0.005497560f, 0.001237590f, -0.06485400f, 0.008407260f, -0.003694240f, 0.0004115760f, 0.02196840f, 0.02809240f, -0.01143890f, -0.001943640f, -0.05068200f, 0.03222880f, 0.009648340f, 0.009218000f, 0.03336910f, 0.05212330f, -0.06766520f, -0.04054450f, -0.05603450f, -0.07483800f, -0.08958050f, 0.01834250f, -0.003152730f, -0.05375220f, -0.03002440f, 0.003691630f, 0.03234770f, -0.009790700f, -0.003901300f, 0.01885920f, -0.01430500f, 0.01918500f, 0.008831490f, -0.007200380f, -0.01017510f, 0.0007328670f, -0.01627780f, 0.01590950f, 0.01472110f, 0.03275480f, 0.04673630f, -0.04624170f, 0.02059890f, 0.01808480f, -0.0003135890f, 0.003840310f, 0.05371620f, 0.01560040f, -0.01507240f, -0.01756120f, -0.003546560f, -0.01475390f, 0.006528620f, -0.04247240f, 0.02176870f, -0.05190700f, -0.008307170f, 0.009277630f, -0.006095510f, -0.1821560f, 0.03061000f, 0.007743240f, 0.001712460f, 0.01560440f, 0.05668480f, 0.01609490f, 0.03263490f, -0.1510800f, -0.1068450f, 0.02025390f, 0.01185320f, 0.01753620f, -0.003902990f},
    {-0.05495790f, -0.01578120f, 0.02249320f, 0.03752340f, 0.02116400f, -0.05676670f, 0.01128330f, 0.02701410f, 0.005693890f, 0.003329870f, 0.01328270f, -0.0009009790f, 0.01444990f, 0.03000690f, -0.003682650f, -0.005412130f, -0.2271650f, -0.02433320f, -0.1063980f, -0.001234180f, -0.009208080f, 0.005086330f, -0.01042600f, -0.006683180f, -0.07762610f, -0.001223320f, -0.04292320f, -0.007142820f, -0.03381140f, -0.008336860f, -0.01414100f, -0.004416710f, -0.02457390f, 0.005740450f, 0.03282180f, -0.007226860f, -0.03099010f, 0.03781130f, -0.03041910f, 0.03771800f, 0.02657340f, -0.02087050f, 0.01759340f, 0.008154850f, -0.0005149390f, -0.1041020f, 0.01156490f, -0.0008229830f, 0.004862040f, 0.02873250f, 0.001737640f, -0.0001904250f, -0.02024450f, -0.004662160f, 0.0006566050f, 0.01383080f, -0.0001514840f, 0.005718210f, 0.05138300f, -0.001122710f, 0.005641580f, -0.08703960f, 0.01030930f, -0.08574600f, 0.005156350f, -0.04968220f, -0.1951420f, -0.004525790f, 0.01002460f, 0.0004507230f, 0.04402510f, 0.02312120f, -0.09861810f, 0.02308320f, -0.003116370f, 0.001954790f, 0.01118150f, 0.02080910f, 0.02328530f, 0.03470130f, 0.01798670f, 0.008375560f, 0.004371310f, -0.01952020f, 0.01423750f, 0.003604100f, -0.07210300f, -0.1363220f, 0.03374430f, -0.01023750f, 0.02622370f, 0.005826730f, -0.01137110f, 0.04667120f, 0.008081550f, -0.007030290f, 0.008931480f, 0.02632190f, 0.04661580f, 0.007440210f, 0.02498530f, 0.004208510f, 0.06423940f, 0.001061830f, -0.009217320f, -0.003111320f, 0.02974230f, -0.004812270f, -0.008951570f, -0.004574870f, 0.04168590f, 0.01513430f, -0.05192720f, 0.03270230f, 0.03431610f, 0.01323990f, -0.03215380f, -0.01078150f, -0.1198370f, 0.003529920f},
    {0.03130780f, -0.005325820f, 0.03614270f, 0.01338210f, 0.02653040f, 0.01226820f, -0.02454230f, 0.03271480f, 0.02264630f, 0.01962350f, 0.03471290f, -0.08180920f, -0.1330740f, 0.02355470f, -0.01366420f, 0.01151800f, 0.01417810f, -0.008055580f, -0.06895450f, 0.01973410f, 0.001313400f, 0.004943280f, 0.001480740f, 0.02066280f, -0.03740650f, -0.002622360f, -0.1231480f, -0.01188640f, -0.003003460f, -0.04951230f, -0.006928920f, 0.01727050f, -0.03676700f, -0.005777600f, 0.008936840f, 0.001174810f, 0.04104740f, -0.01355570f, 0.007180020f, -0.2216670f, 0.02265060f, -0.06065370f, -0.01452030f, 0.006373160f, -0.02276320f, -0.03612130f, 0.01088870f, 0.005254480f, -0.02369660f, -0.008809200f, -0.006343150f, -0.003993470f, -0.05241370f, 0.03421010f, -0.03904210f, 0.008961560f, -0.004280520f, 0.02614320f, 0.05935950f, -0.002322940f, 0.01297550f, -0.05742080f, 0.03326390f, -0.09010520f, -0.06443780f, -0.006414300f, 0.03747330f, 0.02747740f, -0.05040460f, 0.004601460f, -0.02498640f, -0.03595720f, -0.05310850f, 0.01397880f, -0.07694030f, 0.001048510f, -0.01175910f, 0.03382770f, 0.01946450f, 0.01534150f, -0.1424450f, 0.009960340f, -0.005633680f, -0.001207240f, -0.007096730f, 0.01122560f, -0.04876850f, -0.08073300f, 0.008210930f, -0.01594610f, 0.005933730f, 0.004801270f, -0.003466060f, -0.001530300f, 0.003803330f, -0.0007576160f, -0.01333560f, 0.008139180f, -0.02637040f, -0.01211980f, 0.05437900f, 0.01045930f, 0.03067050f, 0.01111870f, 0.01162960f, -0.002729560f, 0.008977980f, 0.01423460f, 0.02153340f, 0.01286380f, 0.02167180f, -0.06383700f, -0.02410050f, 0.007284210f, 0.02412850f, -0.05715610f, 0.01605100f, 0.005897230f, 0.01062020f, 0.006515230f},
    {-0.1736410f, -0.002459050f, 0.03508760f, 0.03077850f, 0.02060140f, -0.05330560f, 0.001608520f, 0.006006890f, -0.002366070f, 0.007418840f, -0.03901200f, 0.01268510f, -0.003971480f, -0.09453780f, 0.03980980f, 0.003957430f, 0.02953960f, -0.06972230f, 0.03816340f, -0.01392510f, 0.005761940f, -0.004261110f, -0.01081050f, 0.03679540f, 0.0009329810f, -0.001915080f, 0.01967810f, 0.01703400f, 0.004665400f, -0.1086250f, 0.001939790f, 0.004086320f, 0.001463360f, -0.01551820f, -0.01245340f, -0.001196710f, 0.04608540f, 0.03780500f, -0.009851830f, -0.1096540f, 0.01849500f, -0.04672890f, 0.04423020f, 0.005588720f, -0.005127100f, 0.01525160f, 0.02456960f, 0.0004995740f, 0.003062450f, 0.03378030f, 0.01319960f, 0.001974850f, -0.005694090f, -0.01668630f, -0.03664740f, -0.01654760f, -0.008006500f, -0.02717960f, 0.03382870f, 0.002828470f, 0.005117320f, -0.02056220f, 0.04192810f, -0.1456530f, 0.02787070f, -0.01243630f, -0.01271510f, -0.04388990f, 0.006618400f, 0.04552010f, 0.03434840f, 0.01595090f, -0.002087490f, 0.006490800f, -0.01513440f, -0.01733520f, -0.004970070f, 0.003938400f, 0.03101960f, 0.01421040f, 0.02968350f, -0.1408190f, 0.03112320f, -0.003707600f, 0.006968220f, 0.01928290f, -0.1382860f, 0.03493820f, -0.007976260f, -0.02264170f, 0.009796690f, -0.003065740f, -0.01089480f, -0.01990710f, 0.005459260f, 0.02543110f, 0.006289330f, -0.03506980f, -0.03310320f, -0.006808690f, -0.08633640f, -0.05690270f, -0.001421720f, -0.01014480f, -0.1182230f, 0.005523580f, 0.01729800f, -0.01396490f, -0.003691740f, -0.01494780f, 0.01160900f, 0.01550300f, 0.02404570f, -0.09705310f, 0.01179700f, -0.004058870f, 0.01004030f, 0.02688620f, -0.03953820f, 0.01138620f},
    {0.02157230f, 0.0004462150f, 0.01467930f, 0.02129400f, -0.002519380f, -0.007503280f, 0.02564290f, 0.008770520f, 0.006209830f, -0.008284820f, 0.02112910f, 0.04839050f, -0.06923060f, -0.02941110f, 0.004239560f, -8.909670e-05f, 0.02435690f, 0.05092460f, -0.06308820f, -0.08564780f, -0.003875290f, 0.0004564970f, -0.03184780f, -0.01198010f, -0.02123000f, 0.003669470f, -0.005639540f, 0.0002572240f, 0.01097980f, 0.02839210f, -0.002176410f, 0.01161990f, 0.02891330f, -0.006752180f, 0.05336320f, 0.0009308110f, 0.01508740f, 0.04129970f, 0.01461870f, -0.05817360f, 0.02555410f, -0.02289310f, -0.01134050f, 0.02805710f, -0.004468160f, -0.008278800f, -0.04926770f, 0.004328740f, 0.04439880f, -0.05660900f, 0.006393300f, 0.002663860f, 0.05150560f, 0.01828240f, 0.01536540f, 0.0009305020f, 0.005245510f, -0.04817240f, -0.1468980f, 0.006552920f, 0.01049620f, -0.02069160f, 0.05540510f, -0.007068200f, 0.02860830f, 0.01775540f, -0.02267970f, -0.01602910f, 0.03216160f, 0.07445190f, 0.01716020f, 0.04047110f, 0.007880300f, 0.009685290f, -0.01518860f, 0.01291240f, 0.002496120f, -0.006268090f, 0.02797390f, 0.01770690f, -0.08077350f, 0.0007615000f, -0.001836090f, -0.01756720f, 0.01058170f, 0.01233500f, -0.01358150f, 0.02882040f, -0.02384870f, 0.002323490f, -0.08208000f, 0.0008083220f, -0.002647020f, 0.01598190f, 0.005040680f, 0.01036000f, 0.008610710f, 0.001356630f, 0.01963300f, 0.003911310f, 0.01543540f, -0.07435540f, 0.04378380f, 0.02799060f, -0.02487220f, 0.001741980f, -0.08697220f, 0.03317230f, 0.001592540f, 0.01525430f, 0.02744070f, 0.06667510f, -0.03921670f, 0.004705180f, 0.009353600f, -0.0005519860f, 0.04740400f, 0.007937570f, 0.02775170f, -0.004705630f},
    {0.005763770f, -0.03249910f, 0.01551280f, -0.004325120f, -0.004807800f, 0.01315590f, -0.02781820f, -0.0005210240f, 0.02240800f, 0.007210510f, -0.004371840f, -0.003523940f, 0.0001379450f, 0.03352170f, -0.06719600f, 0.01433570f, 0.01755710f, -0.03377300f, -0.005916780f, -0.06264550f, 0.003865830f, 0.02630020f, -0.03368770f, 0.03046680f, -0.1196760f, -0.006358920f, 0.001835330f, 0.06189780f, 0.02478990f, -0.01385470f, -0.002562020f, 0.001510170f, 0.01101760f, -0.002740050f, 0.01524560f, 0.008592590f, -0.01553940f, -0.002807320f, -0.04510440f, 0.01168120f, 0.03328230f, 0.001357210f, -0.01458830f, 0.008695720f, 0.003540460f, -0.02670290f, 0.01834240f, 0.008163700f, -0.005990180f, -0.06936030f, -0.004877920f, 0.001873010f, -0.005895720f, 0.02241180f, 0.03418530f, -0.01632090f, 0.0008039040f, -0.04538630f, 0.03494260f, 0.004639370f, 0.007447520f, 0.03146430f, 0.06288870f, -0.07239710f, -0.03843020f, -0.05977660f, -0.07715690f, -0.09143390f, 0.01381540f, -0.006433600f, -0.06310970f, -0.02567480f, 0.009619180f, 0.02249190f, -0.0005321190f, 0.006791190f, 0.02025260f, -0.01299970f, 0.001826450f, 0.008759310f, -0.004316670f, -0.01686000f, -0.001369920f, -0.01448760f, 0.01094580f, 0.01149340f, 0.03476680f, 0.03325680f, -0.04594400f, 0.01552020f, -0.0007625630f, -0.003671580f, -0.004724800f, 0.04765100f, 0.009066680f, -0.01147750f, -0.009808380f, 0.0001721580f, -0.01027630f, 0.01004700f, -0.03700980f, 0.01674080f, -0.04225260f, -0.01246520f, 0.01611990f, 0.002361580f, -0.1755570f, 0.03387480f, 0.008751200f, -0.005789850f, 0.01148600f, 0.03429700f, 0.007196200f, 0.02146140f, -0.1389040f, -0.1007300f, 0.03114020f, 0.02102830f, 0.01586080f, 0.001851960f},
    {-0.04854380f, -0.009999470f, 0.01702650f, 0.03787000f, 0.01421020f, -0.05731120f, 0.02405380f, 0.03516570f, 0.0005908490f, 0.0006284620f, 0.01596900f, -0.001738230f, 0.009997260f, 0.03139400f, -0.001082370f, -0.003308440f, -0.2238240f, -0.02285060f, -0.1124270f, 0.003653080f, -0.004196360f, 0.003496240f, -0.009278320f, -0.002390210f, -0.07440460f, -0.001771150f, -0.03934260f, -0.001459240f, -0.04124130f, -0.009949950f, 0.002729730f, -0.009371700f, -0.02001040f, -0.008309420f, 0.02935450f, 0.0003512840f, -0.03570650f, 0.04127840f, -0.04505140f, 0.04115210f, 0.007374660f, -0.01520160f, 0.01619160f, 0.01081630f, -0.006353350f, -0.09862490f, 0.01802800f, -0.01109800f, 0.002534470f, 0.01737230f, -0.005701380f, 0.009920650f, -0.01208930f, 0.01650900f, 0.01373860f, 0.01427010f, 0.004665630f, 0.008845120f, 0.05507570f, 0.002177550f, 0.001089990f, -0.08322080f, 0.01273850f, -0.08198220f, 0.005073820f, -0.04786490f, -0.1915440f, -0.02190980f, 0.009969710f, 0.003089960f, 0.04852010f, 0.01379700f, -0.1041430f, 0.01426250f, 0.0001385400f, 0.009385230f, 0.008762780f, 0.01047640f, 0.01633990f, 0.02716660f, 0.02103870f, 0.005615770f, 0.006500680f, -0.02565180f, 0.02777250f, 0.01263800f, -0.07176710f, -0.1408890f, 0.04283810f, -0.005210190f, 0.03069410f, -0.0008775010f, -0.008330070f, 0.05148760f, -0.004427060f, -0.01271520f, 0.008515310f, 0.04637550f, 0.05630130f, -0.003928420f, 0.03525800f, 0.01159290f, 0.04902980f, 0.005371010f, -0.003793580f, 0.0003202950f, 0.03158320f, -0.01025300f, 0.0006716970f, -0.001579470f, 0.03665980f, -0.0004528790f, -0.05456620f, 0.03227000f, 0.04072520f, 0.009666810f, -0.03071650f, -0.005774880f, -0.1198530f, -0.0004106270f},
    {0.01223600f, -0.009182620f, -0.0007017180f, 0.01339330f, -0.005300090f, -0.01890930f, -0.01249040f, 0.02280290f, 0.01293300f, 0.007135620f, 0.02458320f, 0.01189280f, 0.02341200f, 0.02424170f, -0.02151770f, 0.0007467030f, 0.004163410f, 0.01991540f, -0.03467660f, 0.01692040f, -0.0004489570f, 0.006974100f, -0.006836950f, 0.009048600f, 0.006960790f, -0.007155070f, -0.01440640f, 0.003271190f, 0.007228240f, -0.006900260f, -0.004617660f, -0.005843420f, -0.02546690f, -0.0004341830f, 0.01888830f, 0.003732070f, 0.01392580f, 0.01908240f, -0.009829460f, 0.05594100f, 0.04030720f, -0.04536500f, 0.003964600f, 0.01146680f, 0.003383800f, -0.01216500f, 0.01577400f, -0.008450070f, 0.01486380f, 0.006943430f, 0.01147440f, 0.002759280f, -0.02080070f, 0.008058530f, 0.01457350f, 0.007908870f, 0.008726080f, -0.01980840f, 0.04109660f, 0.01387240f, 0.003684080f, -0.01777710f, 0.02584080f, -0.04282260f, -0.0006246380f, -0.01648880f, -0.03796150f, 0.01309750f, -0.001711680f, 0.001134460f, 0.02004090f, 0.005057460f, 0.006260760f, -0.002731440f, 0.004341150f, 0.01046440f, -0.004768080f, 0.005257170f, 0.02149860f, 0.008854440f, 0.01894040f, -0.05453600f, 0.007472360f, -0.004753510f, 0.0003452730f, 0.01681150f, 0.01469120f, -0.009337660f, 0.01350820f, -0.002684280f, 0.02725110f, 0.001627900f, 0.009787080f, 0.007900710f, 0.004395070f, -0.0006543000f, 0.002792290f, 0.01883030f, 0.0005503150f, 0.003174940f, 0.01701620f, -0.003310180f, 0.007499450f, 0.001534610f, 0.02838980f, 0.001409090f, 0.02711160f, -9.467900e-05f, 0.0007274540f, 0.002195600f, 0.01450640f, -0.01333330f, -0.01604120f, 0.006491370f, 0.01180150f, 0.004384500f, -0.009081030f, -0.005477620f, -0.03815860f, -0.0002820020f},
    {0.01019010f, -0.001039380f, 0.03655700f, 0.02391740f, 0.02368270f, 0.01145800f, -0.02520930f, 0.02650760f, 0.02996670f, 0.01091490f, 0.03967240f, -0.08037300f, -0.1320310f, 0.01594210f, -0.01093640f, -0.003328730f, 0.02573970f, -0.01583980f, -0.06092520f, 0.005510030f, -0.006999830f, 0.005653200f, -0.01365790f, 0.03269410f, -0.03299810f, -0.002020380f, -0.1293590f, -0.002334980f, -0.01468080f, -0.05830510f, -0.007029360f, 0.01774360f, -0.02634560f, -0.01325800f, -0.0002580970f, 0.002700210f, 0.05027770f, -0.009523160f, 0.009239110f, -0.2108840f, 0.02549050f, -0.05969100f, -0.01736260f, 0.005991500f, -0.02014790f, -0.04092690f, 0.01442180f, 0.0004929790f, -0.02160480f, 0.004285500f, -0.0005525040f, -0.001891500f, -0.05068500f, 0.007018460f, -0.03848250f, 0.007326360f, 0.004354740f, 0.03978300f, 0.05422580f, 0.0004939780f, -0.002476180f, -0.06888850f, 0.03668570f, -0.09503730f, -0.07341980f, -0.003383770f, 0.04302830f, 0.03622740f, -0.03980520f, 0.0003371280f, -0.02270670f, -0.03356530f, -0.04517020f, 0.02390740f, -0.07986400f, -0.003204840f, 0.001274770f, 0.03564700f, 0.01884210f, 0.01298890f, -0.1453460f, 0.01744960f, -0.005985070f, -0.01147860f, -0.003815270f, 0.01445370f, -0.05339450f, -0.08123830f, 0.009508760f, -0.02289140f, 0.009399900f, 0.004422300f, 0.004809290f, -0.005582350f, 0.006348290f, -0.009287550f, -0.007102480f, 0.008433730f, -0.03129660f, -0.004344490f, 0.06355120f, 0.001810800f, 0.01178770f, 0.01164120f, 0.006406970f, 0.001736270f, 0.02516300f, 0.02774170f, 0.01485360f, 0.02021100f, 0.01446770f, -0.05807040f, -0.01936840f, 0.01299630f, 0.02573000f, -0.07502070f, 0.01138220f, 0.008014290f, 0.003842200f, 0.005394950f},
    {0.01987420f, -0.003463080f, 0.03742700f, 0.006420720f, 0.01850450f, -0.09074030f, -0.001542480f, -0.02150990f, 0.01145750f, -0.004217580f, 0.003942900f, -0.02668100f, -0.08964050f, -0.09911410f, 0.01303980f, -0.0007487290f, 0.01275370f, -0.04673870f, -0.1170850f, -0.06299100f, 0.003548730f, 0.003390040f, -0.005985180f, -0.01661300f, -0.01297700f, -0.008220790f, -0.02104630f, -0.0008198240f, -0.1198920f, 0.04181620f, -0.004582010f, 0.005271290f, 0.02624800f, -0.005637600f, 0.01884850f, -0.001342900f, 0.01486510f, 0.009046990f, -0.01420660f, -0.01545810f, -0.1276600f, 0.02612730f, 0.04537870f, -0.003014350f, 0.01176410f, 0.01817720f, -0.02002100f, 0.0007183290f, 0.01837710f, -0.05030710f, -0.006080760f, 0.004089590f, -0.003001130f, -0.03658540f, 0.02205750f, 0.0006487820f, -0.002009800f, 0.01352960f, 0.02790160f, 0.04400340f, 0.009160080f, -0.006744630f, 0.01598150f, 0.003160840f, 0.06009510f, -0.02133910f, -0.006045150f, -0.02842210f, 0.03392260f, -0.006565330f, 0.001707870f, 0.01080410f, 0.01839070f, 0.04720400f, -0.009145720f, -0.002631970f, -0.008754080f, 0.006129140f, 0.01607030f, 0.01710580f, 0.01724380f, 0.04715030f, -0.0003083270f, -0.003218650f, 0.001203600f, 0.01245910f, -0.05344440f, 0.01949250f, -0.003662030f, 0.02426890f, 0.05186320f, 0.004395950f, 0.003106400f, -0.03655370f, -0.005268570f, 0.05289690f, 0.009251050f, -0.007728340f, -0.01537480f, -0.003139150f, -0.06842360f, -0.02217820f, -0.02175350f, 0.02239050f, -0.01456250f, -0.0006276530f, 0.04641060f, 0.01005670f, 0.007312450f, 0.03090830f, 0.02772000f, 0.03306670f, 0.0002253560f, -0.03272770f, 0.004956290f, 0.01190760f, 0.02638820f, -0.06022940f, -0.06706180f, 0.005739770f},
    {0.007470590f, -0.005066780f, 0.04925910f, 0.01902450f, -0.003956290f, 0.02878300f, 0.01059990f, 0.0007550200f, -0.001836110f, -0.005584580f, -0.06846220f, -0.04820130f, -0.005458540f, 0.02597770f, 0.01668470f, 0.01005830f, 0.03407520f, -0.01276240f, 0.008827430f, -0.01875690f, -2.746730e-05f, -0.003628560f, 0.02569190f, 0.01014690f, 0.006177690f, -0.004099070f, 0.01605090f, 0.009295180f, 0.02465210f, -0.03500980f, -0.002048770f, 0.001697750f, 0.001973020f, 0.01703990f, 0.02130810f, 0.004444790f, 0.01392810f, -0.004661310f, -0.02706480f, -0.002594280f, -0.1946680f, 0.01690770f, -0.02762830f, 0.01030190f, 0.02277700f, 0.02312820f, -0.06510210f, -0.005789870f, 0.02483810f, 0.01811070f, 0.002261300f, -0.004317180f, -0.03153980f, -0.07529660f, 0.01493160f, -0.004185580f, 0.003375230f, -0.03377140f, 0.04876890f, -0.01345040f, 0.01223360f, -0.0004172990f, 0.02068960f, 0.01462990f, 0.0005280280f, -0.02626350f, 0.002842480f, -0.06473570f, 0.007110880f, 0.01135040f, 0.01904700f, 0.01587410f, 0.01895070f, -0.1080730f, -0.03108890f, 0.01043220f, 0.001449350f, -0.01077140f, 0.006300170f, 0.01416980f, 0.005000900f, 0.03261350f, -0.003748070f, 0.001721680f, -0.001641260f, 0.0007581670f, -0.01925710f, -0.03396460f, -0.009346040f, -0.02070050f, -0.1819470f, 0.0001059130f, 0.0006044180f, 0.01701390f, 0.02491820f, 0.02117550f, 0.01119470f, 0.008390860f, -0.03424020f, 0.002808540f, -0.002474160f, -0.03571000f, 0.06306300f, 0.05018470f, -7.304030e-05f, 0.0001862410f, 0.02771550f, -0.08344420f, -0.003081490f, 0.02190160f, 0.01546120f, -0.01029190f, -0.01003340f, -0.02350320f, 0.02857450f, 0.02416090f, 0.02628950f, 0.0008485890f, 0.02219330f, 0.007760990f},
    {0.01712040f, 0.003733610f, 0.003079270f, 0.02343110f, -0.002449860f, -0.01501250f, 0.02120250f, 0.003215530f, 0.008198330f, -0.002870920f, 0.01346870f, 0.05584340f, -0.07293950f, -0.03250290f, -6.867400e-05f, -0.003257330f, 0.02321280f, 0.04206260f, -0.06532540f, -0.08634050f, -0.007100380f, -0.007486300f, -0.03160710f, -0.01240050f, -0.02895210f, -0.006286350f, -0.007542300f, -0.001188600f, 0.01280070f, 0.01588460f, 0.0007956410f, 0.008602250f, 0.02472040f, -0.002026230f, 0.03727760f, 0.0003597260f, 0.005724310f, 0.04268340f, 0.003005580f, -0.06238240f, 0.02445910f, -0.02438950f, 0.001658950f, 0.01476170f, -0.004614750f, -0.004229590f, -0.04550170f, -0.001230070f, 0.04646190f, -0.05232750f, -0.002497600f, -0.01394330f, 0.05321290f, 0.01249080f, 0.01433850f, -0.009767800f, 0.003230970f, -0.04448860f, -0.1376210f, 0.0005822420f, 0.001767190f, -0.01563690f, 0.05276640f, -0.003698790f, 0.03750600f, 0.008284250f, -0.03168570f, -0.01103320f, 0.04151210f, 0.06234910f, 0.01486450f, 0.03857790f, 0.009542550f, 0.002955350f, -0.01787790f, 0.008119310f, -0.002080400f, -0.008755350f, 0.03052690f, 0.02356400f, -0.07919850f, -0.006192890f, -0.01234300f, -0.02511520f, 0.01319760f, 0.02034280f, -0.004679480f, 0.02225200f, -0.009258340f, -0.002816250f, -0.08454810f, -0.005057350f, -0.002485860f, 0.02136650f, 0.001702750f, 0.003188710f, 0.007949620f, 0.0002896630f, 0.02808260f, -0.003928520f, 0.02132040f, -0.07475230f, 0.04273630f, 0.02877170f, -0.03083880f, -0.002877870f, -0.08812530f, 0.03183700f, 0.01826080f, 0.009480040f, 0.02429250f, 0.05060240f, -0.03832950f, -0.007789840f, 0.02256250f, -0.008434100f, 0.03914730f, 0.01411270f, 0.02368620f, -0.006077210f},
    {0.001242390f, -0.01586320f, 0.01798090f, 0.007351700f, -0.006702940f, 0.02257070f, -0.03681120f, 0.0008568810f, 0.01967610f, 0.008758900f, -0.001367900f, 0.0005530870f, 0.01202010f, 0.03412290f, -0.05961420f, 0.0007682180f, -0.001219410f, -0.03500100f, -0.01203040f, -0.07379830f, 0.003718160f, 0.009978640f, -0.03200340f, 0.04448180f, -0.1081980f, -0.001232760f, 0.005625090f, 0.05491680f, 0.01733920f, -0.01854390f, 0.0007344370f, 0.01028780f, 0.01119990f, 0.003109210f, 0.01161530f, 0.003710670f, -0.01860180f, 0.009805620f, -0.03496540f, 0.02160590f, 0.02343110f, 0.003957520f, -0.02253420f, 0.01073620f, -0.002196500f, -0.03038420f, 0.01007760f, -0.005351500f, 0.002529270f, -0.07195420f, 0.001360610f, -0.007005860f, -0.005261620f, 0.01876790f, 0.02815640f, -0.01338380f, 0.0001324710f, -0.05038320f, 0.03414390f, 0.02324200f, 0.001948170f, 0.03017920f, 0.05149320f, -0.06312070f, -0.03937610f, -0.04715500f, -0.07585790f, -0.08800520f, 0.01303030f, -0.005853000f, -0.06471870f, -0.03247100f, 0.002325010f, 0.04086770f, 0.0002684540f, 0.006689250f, 0.01701680f, -0.004377620f, 0.01761990f, 0.01821710f, 0.003732180f, -0.01902760f, 0.002145910f, -0.01887610f, 0.02217610f, 0.01524420f, 0.02065730f, 0.03918370f, -0.04374720f, 0.02717500f, 0.001449500f, 0.002672400f, 0.002277320f, 0.05517520f, 0.008562000f, -0.01600890f, -0.004313070f, -0.005392570f, -0.01702530f, 2.429650e-05f, -0.03303200f, 0.01281480f, -0.05265580f, -0.02277570f, 0.01248010f, -0.006754610f, -0.1718760f, 0.03548890f, 0.004842530f, 0.001835780f, 0.009752340f, 0.03178300f, 0.01048180f, 0.03361910f, -0.1359820f, -0.1032220f, 0.02856830f, 0.01292720f, 0.02649060f, -0.0007557610f},
    {0.02120920f, -0.002578430f, 0.01957520f, 0.0001519420f, 0.007028430f, -0.08886620f, 0.002470540f, -0.008769970f, 0.01304150f, -0.006170260f, 0.003740980f, -0.03095110f, -0.09361400f, -0.1085370f, 0.01624540f, -0.0001966000f, 0.003131520f, -0.03819570f, -0.1042290f, -0.05396030f, 0.001767240f, 0.0004166160f, -0.008878250f, -0.002377870f, -0.002680560f, -0.01040690f, -0.008429920f, -0.006545910f, -0.1193410f, 0.05097010f, -0.002622550f, 0.009537910f, 0.01758240f, 0.003876750f, 0.01703090f, -0.008228760f, 0.005518840f, 0.01359760f, -0.02818600f, -0.01156160f, -0.1266390f, 0.02629080f, 0.05122100f, 0.006799130f, 0.006536900f, 0.01766310f, -0.01533040f, -0.0003310720f, 0.01719500f, -0.04939270f, -0.004346940f, 0.001228900f, -0.008322710f, -0.04864110f, 0.03111300f, -0.0008654140f, 0.001375780f, 0.01058020f, 0.01456400f, 0.05618150f, 0.002888800f, -0.01262190f, 0.007044710f, -0.007066960f, 0.06285480f, -0.005225280f, -0.003461790f, -0.02679700f, 0.03649750f, -0.001674140f, 0.004888240f, 0.01983270f, 0.01597100f, 0.02973250f, -0.001844030f, 0.002589160f, 0.0008856310f, -0.002581600f, 0.0002894790f, 0.008571270f, 0.01442130f, 0.04861530f, -0.007898370f, -0.007061710f, 0.01106730f, 0.02825350f, -0.06222940f, 0.01604370f, -0.01093090f, 0.03014360f, 0.04185250f, 0.001920400f, 0.002075100f, -0.04240230f, -0.0006247230f, 0.05448270f, 0.02200320f, -0.0004869520f, -0.008566370f, 0.002960720f, -0.07020520f, -0.02754080f, -0.01774400f, 0.03271130f, -0.01085100f, 0.0009286930f, 0.04248450f, 0.01255370f, -0.001014760f, 0.02894000f, 0.02934050f, 0.03815580f, -0.006205430f, -0.03267820f, 0.01474070f, 0.01759200f, 0.02007590f, -0.06101390f, -0.07000630f, 0.0001839950f},
    {0.02919410f, -0.002208160f, 0.02174880f, -6.045560e-05f, 0.008316650f, -0.09833770f, -0.002843990f, -0.008843850f, 0.01906240f, -0.006499680f, 0.01445070f, -0.01950190f, -0.09498720f, -0.1024180f, -0.001044500f, 0.005546170f, 0.003913780f, -0.04684980f, -0.1091970f, -0.05371730f, -0.005910930f, 0.001161950f, -0.01266210f, -0.01176720f, -0.01295500f, 0.007782520f, -0.02088430f, -0.004229050f, -0.1155800f, 0.05004900f, 0.004466020f, 0.001104080f, 0.01348200f, -0.006656020f, 0.02504290f, -0.005103500f, 0.01673380f, 0.004519730f, -0.01583260f, -0.03074500f, -0.1263650f, 0.03949490f, 0.04891770f, 0.0005364000f, 0.01295140f, 0.01547500f, -0.01548080f, -0.004923210f, 0.01388330f, -0.04788870f, 0.001964140f, 0.0008178160f, 0.007205210f, -0.04183030f, 0.01918030f, -0.01613460f, 0.003338600f, 0.01765600f, 0.02397790f, 0.04205520f, 0.01342080f, -0.007447370f, 0.008246010f, -0.005965960f, 0.05098890f, -0.01353120f, -0.004574960f, -0.02640040f, 0.02638790f, 0.007472990f, 0.001180460f, 0.02178010f, 0.01804120f, 0.03247030f, -0.01576480f, 0.001179680f, 0.001503620f, 0.009864900f, 0.02197460f, 0.01995890f, 0.009248430f, 0.04567520f, -0.004254800f, -0.005568160f, 0.0004822230f, 0.01592260f, -0.05482020f, 0.01761820f, -0.008544270f, 0.02459140f, 0.04000440f, -0.005821530f, 0.005764000f, -0.04102540f, -0.003566690f, 0.05428590f, 0.005454200f, -0.007790940f, -0.01745580f, -0.002483380f, -0.06612470f, -0.01955940f, -0.01878340f, 0.03488720f, -0.02948010f, 0.0002648820f, 0.03419300f, 0.01620960f, 0.008913270f, 0.03560310f, 0.02961080f, 0.04032570f, -0.01037510f, -0.03420390f, -0.002453300f, 0.02038560f, 0.01445740f, -0.05338460f, -0.06153570f, 0.001882640f},
    {0.03214500f, 0.001752770f, -0.1224020f, 0.01119370f, -0.01687880f, 0.004334500f, -0.01356650f, -0.009708130f, 0.01046720f, 0.008605680f, -0.02723520f, 0.01947270f, 0.02952840f, -0.07876930f, -0.1513630f, 0.002859380f, 0.02884990f, -0.006505050f, -0.008217770f, 0.006105500f, 0.001043110f, 0.0007807020f, -0.01553080f, 0.01323940f, 8.740320e-05f, -0.005938430f, 0.01337930f, 0.02465880f, -0.003582670f, -0.04777530f, -0.005466930f, -0.0002610950f, -0.05310150f, -0.006605270f, -0.005038340f, -0.007944910f, 0.02765560f, 0.05027260f, -0.006437170f, 0.02625470f, 0.03955910f, 0.007326510f, -0.02853500f, 0.01333780f, -0.005490480f, 0.02436280f, -0.005415480f, 0.006656290f, 0.02379970f, -0.1644390f, 0.01225420f, -0.0009179190f, -0.03650160f, 0.003183100f, 0.01588380f, -0.001355300f, 0.004969980f, -0.09092330f, 0.03002960f, 0.01677980f, 0.006086200f, -0.007374310f, 0.04022980f, -0.1455150f, 0.03737760f, -0.0006209060f, -0.01327920f, -0.03741180f, -0.01748480f, 0.01765860f, 0.01196850f, 0.02584630f, 0.02380570f, -0.1770710f, -0.02253660f, 0.03572170f, -0.009166740f, 0.004836970f, 0.04085370f, 0.002353700f, 0.02879820f, -0.01984100f, 0.005762570f, 0.03462050f, -0.01351480f, 0.01765730f, 0.01177870f, 0.01207950f, 0.0007524400f, 0.01710220f, 0.02323360f, -0.008397370f, 0.008132640f, -0.03964920f, 0.006423030f, 0.01641440f, 0.009573950f, -0.006953060f, -0.01191810f, 0.006473890f, 0.01717360f, -0.004730890f, -0.05872790f, -0.007597300f, 0.009706340f, -0.006369210f, 0.04009800f, 0.02047160f, 0.01064140f, 0.004625690f, 0.03553890f, -0.01199520f, -0.08253070f, -0.08177380f, 0.01937280f, 0.0002347040f, -0.07356230f, -0.005370670f, -0.06661980f, -0.0007728430f},
    {0.006053240f, 0.008781260f, 0.04530840f, 0.01726530f, -0.004427820f, 0.02564560f, 0.007519260f, -0.002591640f, 0.002920940f, -0.01288020f, -0.06634380f, -0.05805850f, 0.003145360f, 0.01315690f, 0.01231930f, -0.001607700f, 0.02472580f, -0.01526960f, 0.02552500f, -0.01776040f, 0.007713390f, -0.008937560f, 0.01151090f, 0.001929430f, 0.007720510f, 0.005088280f, 0.02886580f, 0.0009120880f, 0.03588600f, -0.03969720f, -0.0007237270f, -0.006752220f, 0.002031950f, 0.01852670f, 0.02187330f, -0.006544890f, 0.01573210f, 0.01450040f, -0.02266510f, 0.0009297490f, -0.1988240f, 0.01486220f, -0.02910760f, 0.009740100f, 0.01010070f, 0.02328300f, -0.06463740f, -0.0005137990f, 0.02616090f, 0.01844980f, -0.002408020f, 0.005303840f, -0.03192550f, -0.06969590f, 0.02660430f, -0.001850410f, 0.005200700f, -0.02723960f, 0.05893110f, 0.01084190f, 0.008072960f, -0.005923060f, 0.02286300f, 0.03555780f, 0.006942640f, -0.02868180f, 0.01841660f, -0.05608330f, 0.004793330f, 0.01556290f, 0.002471870f, 0.01181420f, 0.01841250f, -0.1178840f, -0.03336290f, 0.006302480f, 0.005788130f, -0.01622290f, 0.01237920f, 0.006819510f, 0.001029150f, 0.02874850f, -0.001164170f, 0.0003740870f, -0.008558180f, 0.005215740f, -0.02255230f, -0.04161110f, -0.0008187080f, -0.03609810f, -0.1727130f, -0.006756580f, 0.005824360f, 0.02754330f, 0.01612420f, 0.01340800f, 0.01742660f, -0.0004235490f, -0.02920830f, 0.005365770f, -0.003872920f, -0.02831200f, 0.06194750f, 0.05037240f, -0.007765090f, -0.004163330f, 0.03604170f, -0.08616460f, -0.0001400440f, 0.02949920f, 0.01937440f, -0.009032400f, -0.01068570f, -0.01562780f, 0.02853240f, 0.01924360f, 0.01642010f, -0.001586240f, 0.01252420f, -0.008142900f},
    {0.009435410f, 0.002181670f, 0.04640610f, 0.02199550f, 0.003575450f, 0.02932560f, 0.008527230f, 0.001753290f, 0.01611550f, -0.004825000f, -0.06838800f, -0.04987910f, -0.003728150f, 0.02221860f, 0.02349790f, 1.177910e-05f, 0.03405270f, -0.01182590f, 0.003926810f, -0.01499420f, 0.006620700f, 0.002792290f, 0.01428650f, 0.007764580f, 0.01096890f, 0.006004470f, 0.02781050f, 0.01062760f, 0.03602090f, -0.03422350f, 0.001493350f, -0.004517990f, 0.006762100f, 0.03050200f, 0.008242050f, -0.0003331010f, 0.01127850f, 0.008474180f, -0.02992450f, -0.006744400f, -0.1988360f, 0.01986080f, -0.02363240f, 0.008076680f, 0.01517800f, 0.02145680f, -0.06408750f, 0.004644460f, 0.02152470f, 0.01901270f, 0.008347140f, -0.0009417050f, -0.03046040f, -0.07493830f, 0.01719050f, -0.004078290f, -0.0004185810f, -0.02290500f, 0.05671740f, -0.005318250f, 0.004301290f, -0.001854440f, 0.02616210f, 0.03161200f, 0.01248650f, -0.03340790f, 0.008586490f, -0.06701320f, -0.001113290f, 0.02355980f, 0.01302630f, 0.01022440f, 0.02840740f, -0.1144640f, -0.02190510f, 0.008641620f, -0.003864160f, -0.009201430f, 0.008814830f, 0.01290280f, 0.006859680f, 0.03387110f, -0.001675060f, -0.0005780450f, -0.003641610f, -0.004989360f, -0.02999450f, -0.04591330f, -0.0009890801f, -0.02741270f, -0.1823290f, -0.004583160f, 0.002864460f, 0.02670700f, 0.01656650f, 0.01116410f, 0.003649820f, -0.008346770f, -0.03290730f, 0.006860620f, -0.0008221570f, -0.03252060f, 0.05803710f, 0.04687840f, -0.004706730f, -0.0005816850f, 0.02104680f, -0.06978050f, 0.002910460f, 0.02499740f, 0.01304540f, -0.01906660f, -0.007639670f, -0.008702840f, 0.03165310f, 0.01495070f, 0.01796720f, 0.003771370f, 0.008161520f, 0.002432060f},
    {0.002671680f, 0.006909900f, 0.04494590f, 0.01475590f, -0.001150250f, 0.02806110f, 0.007487860f, 0.007458290f, 0.009037960f, -0.008957580f, -0.07063530f, -0.04580240f, -0.004616250f, 0.02351190f, 0.01923620f, 0.004341570f, 0.03028370f, -0.001578030f, 0.002710960f, -0.02629520f, 0.003859970f, -0.003503670f, 0.01749640f, -0.002104370f, 0.01256540f, 0.004538750f, 0.02159110f, -0.002539950f, 0.03605820f, -0.03828020f, -0.0005577640f, -0.006007550f, 0.004700250f, 0.01863050f, 0.01343040f, 0.003306620f, 0.01536700f, 0.01177710f, -0.02279090f, -0.002332760f, -0.1912710f, 0.01837330f, -0.02863350f, 0.01711010f, 0.006789260f, 0.02912600f, -0.06424920f, -0.01107770f, 0.03367170f, 0.01273300f, 0.002533330f, -0.001384350f, -0.02696170f, -0.07079240f, 0.01905520f, -0.003748780f, -0.003143130f, -0.02891010f, 0.05530920f, 0.0007624290f, 0.01746210f, -0.007158280f, 0.02893770f, 0.04165030f, 0.01369490f, -0.03354570f, 0.02153570f, -0.06030730f, 0.004150750f, 0.01384670f, 0.02061490f, 0.01773240f, 0.02304130f, -0.1080470f, -0.02703790f, 0.01324690f, 0.003417910f, -0.02107320f, 0.01643980f, 0.009063820f, 0.008394630f, 0.03815820f, -0.007626490f, 0.001912020f, -0.008950110f, -0.006836350f, -0.03395630f, -0.03992400f, -0.007389030f, -0.02404010f, -0.1807540f, 0.003701860f, 0.007223190f, 0.03380040f, 0.005062120f, 0.01591590f, 0.01415270f, -0.001034390f, -0.02944830f, 0.003062640f, -0.008528120f, -0.03230350f, 0.05041190f, 0.04668490f, 0.007630280f, -0.004047130f, 0.03144260f, -0.08221580f, 0.005064190f, 0.02552860f, 0.02549740f, -0.01308810f, -0.01194010f, -0.01475010f, 0.02230180f, 0.02183380f, 0.01961410f, -0.003079900f, 0.02013030f, -0.002878400f},
    {0.03640940f, -0.005679080f, -0.1272460f, 0.01625150f, -0.01650400f, -0.003082140f, 0.0002535620f, 0.003850220f, 0.005949190f, 0.003972130f, -0.02151600f, 0.01560920f, 0.03778480f, -0.07223820f, -0.1568520f, -0.005593920f, 0.03135040f, -0.007540490f, -0.009256840f, 0.01239120f, 0.002049110f, -0.0003544900f, -0.01006920f, 0.01058660f, -0.0003761510f, 0.004367570f, 0.01283420f, 0.01246420f, -0.008127330f, -0.04753180f, -0.0008689060f, 0.004359910f, -0.06123670f, -0.007554540f, 0.002125300f, 2.366230e-05f, 0.02404170f, 0.05991550f, -0.01540820f, 0.01746060f, 0.04931610f, 0.01074110f, -0.03100010f, 0.02081800f, -0.004705520f, 0.02143390f, -0.008213350f, -0.001278350f, 0.03671630f, -0.1647810f, 0.01205210f, -0.002146200f, -0.03479110f, 0.01288480f, 0.01336320f, 0.007192390f, -0.0007563400f, -0.08709120f, 0.03793500f, 0.01713400f, 0.01321850f, -0.002669560f, 0.04297510f, -0.1460310f, 0.03993330f, -0.0001704420f, -0.01230890f, -0.03360550f, -0.008025690f, 0.01753710f, 0.01349080f, 0.01736250f, 0.03438990f, -0.1785030f, -0.02486810f, 0.03307350f, -0.01565480f, 0.001291880f, 0.03883880f, -0.004850190f, 0.01844690f, -0.01786970f, -0.006918640f, 0.03929780f, -0.008514370f, 0.01491320f, 0.02337340f, 0.01476890f, -0.01543310f, 0.01266510f, 0.02619460f, 0.001332000f, 0.01646420f, -0.04023100f, 0.0005341540f, 0.01880640f, 0.01047210f, -0.006351340f, -0.005618130f, 0.0004085430f, 0.01152740f, -0.002496710f, -0.04792880f, -0.001657260f, 0.01304870f, 0.003071230f, 0.03674610f, 0.01493710f, 0.004314990f, 0.002556270f, 0.03916590f, -0.004238970f, -0.08517150f, -0.07018660f, 0.01674640f, 0.0007410870f, -0.06868890f, 0.0005886250f, -0.05480060f, 0.001268550f},
    {-0.1678130f, -0.01407390f, 0.02760230f, 0.02834760f, 0.01466790f, -0.05047370f, 0.01238010f, 0.002078350f, -0.002633130f, 0.004073160f, -0.04380140f, 0.02300590f, 0.009206800f, -0.1029450f, 0.03764600f, -0.0002875660f, 0.03847820f, -0.06933450f, 0.02819130f, -0.01338740f, 0.004849440f, -0.0007413970f, -0.01595720f, 0.03177200f, 0.007066780f, -0.001638290f, 0.006601230f, 0.01802500f, 0.01540290f, -0.09730010f, -0.001326730f, 0.005052690f, -0.003673440f, -0.01943110f, -0.0001329890f, 0.006134580f, 0.04645260f, 0.03917950f, -0.003720850f, -0.1111640f, 0.02374660f, -0.04157980f, 0.03311420f, 0.01516200f, -0.005428460f, 0.01687250f, 0.02744380f, 0.003146770f, 0.01506790f, 0.02819210f, -0.002024910f, 0.002101880f, -0.01446330f, -0.02922770f, -0.04817650f, -0.006284010f, 0.003802590f, -0.02850920f, 0.03776560f, -0.01334150f, 0.003698600f, -0.02082840f, 0.04760600f, -0.1421940f, 0.01895640f, -0.007712520f, -0.01696910f, -0.03934020f, -0.001058040f, 0.04586700f, 0.01987490f, 0.01209040f, -0.001295240f, -0.0005326520f, -0.006971800f, -0.01420140f, -0.003709250f, 0.004564700f, 0.02190400f, 0.02017110f, 0.03349960f, -0.1415350f, 0.02509470f, -0.005346700f, 0.002203430f, 0.02388730f, -0.1460100f, 0.03159710f, -0.01902700f, -0.009560340f, 0.002934880f, -0.001158490f, -0.004902190f, -0.02394690f, 0.009551910f, 0.03002930f, -0.002234420f, -0.03248870f, -0.03026040f, -0.004385110f, -0.08894300f, -0.06062120f, -0.01495330f, -0.007629270f, -0.1247470f, 0.01296000f, 0.02088140f, -0.01441020f, 0.0002908230f, -0.001942590f, -0.002049500f, 0.005880870f, 0.03262210f, -0.09156500f, 0.009682630f, -0.006757490f, 0.01635210f, 0.02656930f, -0.04675050f, 0.002335340f},
    {0.02795940f, -0.001409250f, 0.02676390f, 0.02659470f, 0.01244110f, -0.001792900f, -0.03431170f, 0.02780410f, 0.001871110f, -0.007625610f, 0.004700730f, 0.01244430f, 0.01727370f, -0.1085330f, 0.009375660f, -0.0001397090f, 0.03816280f, -0.1089940f, -0.1235500f, 0.009808770f, 0.001077090f, 0.01122000f, -0.03071790f, 0.03709670f, -0.01131500f, 0.002840660f, -0.1469460f, 0.04802080f, 0.03534140f, 0.01973100f, -0.005111380f, 0.007382110f, -0.1130120f, -0.003515090f, 0.02168370f, -0.0008523150f, 0.02230350f, -0.009040650f, -0.04134450f, 0.006277920f, 0.04344680f, -0.04175490f, 0.005457550f, -0.002306630f, -0.008504300f, 0.02848970f, -0.1422400f, 0.001968340f, -0.003820420f, -0.001942280f, -0.01071330f, -0.001432870f, -0.05615350f, 0.02493260f, 0.02266110f, -0.01208910f, 0.0006708840f, -0.09656710f, 0.03702210f, 0.01385140f, 0.01078340f, -0.01508570f, 0.007330830f, 0.01447460f, 0.01912880f, -0.01034960f, -0.05926420f, 0.01553760f, -0.02145990f, 0.01453860f, 0.003571820f, 0.01695150f, 0.03395440f, 0.004142750f, -0.03724950f, 0.009082490f, 0.005552550f, -0.02273990f, -0.002817940f, -0.0003565230f, 0.02491300f, -0.1383990f, 0.004654310f, -0.02052510f, -0.01427050f, -0.1767140f, -0.02338290f, 0.02355280f, -0.05140070f, -0.02080950f, 0.006694540f, 0.007992770f, -0.01021220f, 0.02198400f, 0.04211840f, 0.03801170f, 0.01139790f, -0.01282650f, 0.01764450f, 0.004084370f, 0.01280450f, -0.009340670f, 0.009665210f, 0.02005690f, -0.09761750f, 0.002687540f, 0.03260690f, -0.1263080f, 0.005474610f, 0.02211770f, 0.01463960f, -0.004070590f, 0.002689210f, 0.03468770f, 0.02044120f, 0.001550190f, -0.01907080f, 0.008676230f, -0.06010690f, -0.001546810f},
    {0.01272690f, -0.003580160f, -0.01186090f, 0.01203960f, -0.008786750f, -0.01993900f, 0.02112540f, 0.006923630f, 0.004745420f, -0.005305750f, 0.01310270f, 0.04606780f, -0.07907140f, -0.03953260f, -0.008259980f, -0.001996860f, 0.02225960f, 0.04869920f, -0.06224000f, -0.08845670f, 0.001324270f, -0.007843530f, -0.03818960f, -0.01042410f, -0.02130540f, 0.003868550f, 0.002699980f, -0.007432500f, 0.009853600f, 0.02238640f, 2.088380e-05f, 0.003990390f, 0.01746990f, -0.001267650f, 0.03811610f, -0.0009762280f, 0.002911870f, 0.03821670f, 0.006605050f, -0.07004450f, 0.02997500f, -0.01730400f, -0.002013090f, 0.01401550f, 0.005429670f, -0.01592340f, -0.05137760f, -0.003383760f, 0.03858480f, -0.05498950f, -0.002302850f, -0.004238840f, 0.04394370f, 0.003816650f, 0.01198010f, -0.01186320f, -0.001605760f, -0.04977960f, -0.1378990f, 0.01088930f, 0.008668880f, -0.02033710f, 0.05718380f, -0.005616800f, 0.02010830f, 0.01013660f, -0.04178470f, -0.01413930f, 0.03060180f, 0.06910800f, 0.01248160f, 0.03964030f, 0.005648830f, -0.002461560f, -0.01572840f, 0.005061920f, -0.001385320f, -0.007972120f, 0.04096590f, 0.01966130f, -0.08086380f, -0.01868170f, -0.007957140f, -0.01882890f, 0.01274430f, 0.01393470f, -0.01026660f, 0.01629400f, -0.01395560f, -0.002810270f, -0.08607360f, -0.005103380f, 0.005668040f, 0.01715420f, 0.0007622280f, 0.007175830f, 0.01151490f, -0.0004863850f, 0.02229990f, -0.003279310f, 0.01217020f, -0.08015310f, 0.03295190f, 0.02741240f, -0.02696210f, -0.002429710f, -0.07845100f, 0.02993410f, 0.009936940f, 0.007267010f, 0.01935120f, 0.06059620f, -0.03615010f, 0.007299040f, 0.007156340f, -0.0008951800f, 0.05334780f, 0.01204160f, 0.02199850f, -0.002483460f},
    {0.01049320f, -0.003596850f, 0.008809910f, 0.03013640f, 0.001998320f, -0.01765120f, 0.02057290f, 0.01048740f, 0.006617460f, -0.003503840f, 0.02054890f, 0.05047070f, -0.07407540f, -0.03183930f, -0.008429770f, -0.002545720f, 0.02748780f, 0.05137410f, -0.06326710f, -0.08518900f, -0.002336110f, -0.002888180f, -0.03920200f, -0.01613360f, -0.01653070f, -0.0005174260f, 0.004178430f, 0.001311840f, 0.003760020f, 0.02088490f, -0.006236820f, 0.01094990f, 0.02008370f, 0.002480100f, 0.05047390f, 0.0009101800f, 0.01036030f, 0.03426880f, 0.009604160f, -0.05873010f, 0.03753020f, -0.02642540f, -0.009252490f, 0.02757260f, 0.008930760f, -0.006568650f, -0.04372350f, -0.0006804060f, 0.04888030f, -0.05736420f, 0.008119380f, -0.008083650f, 0.04699930f, 0.009957270f, 0.01779030f, -0.006591700f, -0.004620900f, -0.03945730f, -0.1387420f, -0.005361790f, 0.006027830f, -0.009633520f, 0.05828800f, -0.01574400f, 0.01446180f, 0.005881910f, -0.02656090f, -0.009494540f, 0.03254130f, 0.07596010f, 0.02620860f, 0.03629090f, 0.009512630f, 0.01477870f, -0.008138450f, 0.004160820f, -0.008832560f, -0.002876380f, 0.03764240f, 0.02231380f, -0.08669690f, -0.005620980f, -0.006047410f, -0.01161840f, 0.009655790f, 0.02372090f, -0.01845480f, 0.02935650f, -0.02562780f, -0.001680850f, -0.07942670f, 0.003865510f, -0.0007085220f, 0.009294890f, 0.005772930f, 0.01058980f, 0.007937920f, -0.003458440f, 0.02401400f, 0.01285040f, 0.01130640f, -0.07677910f, 0.04704840f, 0.03326530f, -0.02343970f, 0.003437470f, -0.08324490f, 0.04077050f, 0.01296420f, 0.01576760f, 0.01673260f, 0.05981700f, -0.04402100f, -0.001378510f, 0.01903830f, -0.006003050f, 0.05600710f, 0.01678120f, 0.03028050f, 0.004756490f},
    {0.02502810f, -0.0002880460f, 0.02872240f, 0.005402610f, 0.02274140f, -0.08813360f, -0.002355380f, -0.003042360f, 0.01477580f, -0.01147880f, -0.0006086380f, -0.03233320f, -0.08995000f, -0.1059600f, 0.008821280f, -0.003341000f, -0.004661130f, -0.04555010f, -0.1079560f, -0.05379070f, 0.005616470f, -0.004532400f, -0.01310730f, -0.01847250f, -0.01674120f, -0.005020820f, -0.01090460f, -0.002459840f, -0.1189320f, 0.04163460f, -7.202830e-05f, 0.004191390f, 0.02429500f, -0.007488560f, 0.01942040f, -0.002900000f, 0.02463120f, 0.01879970f, -0.02547430f, -0.01944740f, -0.1190160f, 0.02508540f, 0.04315260f, 0.005758590f, 0.003574450f, 0.01399880f, -0.02227400f, 0.003321030f, 0.01623510f, -0.05042760f, 0.0007900610f, 0.006662530f, -0.001687280f, -0.03596170f, 0.03835080f, 0.002493460f, -0.0006445950f, 0.02107630f, 0.02644900f, 0.04624370f, 0.005382570f, -0.008017490f, 0.01270550f, -0.008341190f, 0.05105400f, -0.005761090f, -0.005088610f, -0.03134990f, 0.03547130f, 0.0003824650f, -0.009824230f, 0.02174910f, 0.01469860f, 0.02738530f, -0.005216930f, 0.001895140f, -0.01067970f, 0.01112880f, 0.01813040f, 0.02049070f, 0.02559590f, 0.04511520f, 1.711350e-05f, -0.001132730f, -0.002947350f, 0.02279760f, -0.05579500f, 0.008627660f, 0.004720590f, 0.02404740f, 0.04422840f, 0.001891790f, -0.0007686540f, -0.03161820f, -0.005953990f, 0.03798880f, 0.007372560f, -0.002511770f, -0.009393620f, -0.005820100f, -0.05981930f, -0.02399320f, -0.01330720f, 0.01998420f, -0.007150090f, 0.007811120f, 0.04881620f, 0.01573350f, -0.001460260f, 0.03947770f, 0.02553440f, 0.03407230f, -0.01334710f, -0.03257710f, 0.009391210f, 0.02286310f, 0.02283370f, -0.06140180f, -0.06504150f, -0.0006218170f},
    {0.01488320f, -0.006538060f, 0.0007608020f, 0.02055380f, -0.005868670f, -0.009065530f, 0.01701800f, 0.005497200f, -0.0004563370f, -0.01126300f, 0.01053320f, 0.05079460f, -0.07749970f, -0.03306550f, -0.001537260f, 0.004799990f, 0.01722780f, 0.05064180f, -0.06787550f, -0.08826090f, 0.005515260f, 0.001091370f, -0.02488930f, -0.003866320f, -0.01809230f, -0.001611890f, -0.006571980f, -0.003869780f, 0.009701330f, 0.005100930f, 0.0004463750f, 0.01149610f, 0.02187980f, -0.01070880f, 0.04193360f, 0.006021250f, 0.01223220f, 0.04213310f, 0.005527220f, -0.05594050f, 0.03210400f, -0.01814100f, 0.004610900f, 0.02805410f, 0.004548230f, -0.0003755500f, -0.04545190f, -0.003597330f, 0.03463730f, -0.06076140f, 0.003256960f, 0.001503110f, 0.05781860f, 0.01328920f, 0.01691760f, -0.008992570f, -0.0001675880f, -0.04771810f, -0.1405650f, -0.002264650f, 0.004572230f, -0.01672790f, 0.05897580f, -0.01910570f, 0.02438320f, 0.01520030f, -0.03543650f, -0.01300680f, 0.02901530f, 0.07440620f, 0.02044500f, 0.03770380f, 0.01622240f, -0.001477080f, -0.01477750f, -0.0001578090f, 0.006585570f, -0.009401290f, 0.02008460f, 0.02493270f, -0.08082120f, 0.002514390f, -0.006804120f, -0.02017670f, 0.004853560f, 0.02242340f, -0.01336270f, 0.03510120f, -0.009697020f, -0.0002826230f, -0.08325440f, 0.004124250f, 0.004302960f, 0.02138850f, 0.01266520f, -0.008062610f, 0.009857970f, -0.01274380f, 0.02886990f, 0.007813320f, 0.01764330f, -0.07179730f, 0.05212680f, 0.03167940f, -0.03215440f, -0.001120450f, -0.08831540f, 0.02976390f, 0.008782230f, 0.004773230f, 0.03308800f, 0.05264170f, -0.04508600f, -0.0006991590f, 0.01308480f, -0.005756380f, 0.04821920f, 0.007291390f, 0.03158170f, 0.003999870f},
    {0.03500530f, -0.002691270f, -0.1283740f, 0.02506830f, -0.01809220f, 0.004913390f, -0.001785070f, 0.001386880f, 0.01005680f, -0.002298570f, -0.02489420f, 0.02415030f, 0.02019190f, -0.07030500f, -0.1503530f, 0.003828550f, 0.03783770f, -0.01550610f, -0.01921300f, 0.02028210f, -0.007030840f, 0.007856860f, -0.01325090f, 0.01960930f, -0.004902440f, -0.001465110f, 0.01074140f, 0.01862360f, -0.02106970f, -0.04949980f, 0.0008118190f, 0.002408000f, -0.05536710f, -0.003268880f, 0.005033750f, -0.004319100f, 0.02969990f, 0.05140590f, -0.01121310f, 0.02230070f, 0.05673860f, 0.004742800f, -0.02610020f, 0.01699730f, -0.01665190f, 0.02209930f, 0.002399630f, 0.0002768340f, 0.02229630f, -0.1520870f, 0.01004760f, 0.006240300f, -0.03742110f, 0.01554290f, 0.01632090f, 0.006951730f, -8.662910e-05f, -0.08277630f, 0.03273730f, 0.01594170f, 0.01059030f, -0.01632000f, 0.04108310f, -0.1507160f, 0.03958450f, -0.008008350f, -0.02402490f, -0.03897990f, -0.0006613400f, 0.01621960f, 0.009529190f, 0.02189990f, 0.01174850f, -0.1677470f, -0.006774740f, 0.03675780f, -0.008000250f, 0.008796940f, 0.03102940f, -0.007441450f, 0.02129050f, -0.01277360f, 0.005259000f, 0.03417340f, -0.006091700f, 0.02152560f, 0.01062900f, -0.001442630f, -0.001826730f, 0.01139060f, 0.03158180f, -0.005730210f, 0.006440450f, -0.03250460f, 0.01153880f, 0.03166590f, 0.01947980f, -0.006960270f, -0.01101230f, 0.01011650f, 0.02581280f, -0.002038770f, -0.05486380f, -0.01020440f, 0.01451180f, -0.009009900f, 0.04167660f, 0.01165310f, 0.006203310f, 0.01517170f, 0.03868380f, -0.01346570f, -0.08460350f, -0.07703450f, 0.01492290f, -0.001519950f, -0.07088830f, -0.004774210f, -0.05585690f, -0.0003425490f},
    {0.005904730f, -0.02320180f, 0.01915400f, -0.01107640f, 0.003546010f, 0.01790280f, -0.03326010f, -0.004458210f, 0.02353280f, -0.001680280f, -0.007355720f, -0.01013780f, 0.001725220f, 0.03613040f, -0.06381910f, 0.01617990f, 0.01967070f, -0.03715660f, -0.005803410f, -0.05227400f, 0.0003371490f, 0.005325360f, -0.02550530f, 0.03930210f, -0.1195940f, -0.01170560f, 0.009531170f, 0.05192240f, 0.01709760f, -0.01244010f, -0.009660350f, 0.002797700f, 0.01675270f, -0.001311910f, 0.004397100f, 0.001458780f, -0.01196500f, -0.003242960f, -0.04046710f, 0.01662180f, 0.02921130f, 0.0004771450f, -0.02254010f, -0.0004688870f, -4.225370e-05f, -0.02717340f, 0.003980270f, 0.001748730f, 0.004732390f, -0.07767370f, 0.007144320f, 0.002692550f, -0.006217830f, 0.02317920f, 0.03263930f, -0.004930540f, -0.005135740f, -0.05344750f, 0.04081560f, 0.01602920f, 0.002933370f, 0.03221700f, 0.04544010f, -0.07151870f, -0.04661730f, -0.05145300f, -0.07497870f, -0.08831990f, 0.02373410f, -0.008151080f, -0.06500080f, -0.02451330f, 0.006831620f, 0.01911670f, -0.01153790f, 0.004945120f, 0.02420820f, -0.007138340f, 0.02509440f, 0.01157740f, 0.008952780f, -0.02069830f, 0.001878360f, -0.01466060f, 0.02603610f, 0.003112080f, 0.02420100f, 0.02813750f, -0.05358550f, 0.01810900f, 0.007357910f, 0.008234590f, 0.002951760f, 0.05461720f, 0.007192940f, -0.008153890f, -0.01752490f, -0.008931140f, -0.01490000f, 0.006990080f, -0.03815890f, 0.01180960f, -0.05080060f, -0.009478930f, 0.01245980f, 0.01275790f, -0.1721870f, 0.01687680f, 0.003100580f, -0.002636200f, 0.009151640f, 0.03957530f, 0.008683470f, 0.02848860f, -0.1391320f, -0.1008910f, 0.03124750f, 0.01474290f, 0.02176200f, -0.004905900f},
    {0.02470830f, -0.0006537160f, -0.1277320f, 0.01083210f, 0.002638130f, -0.02976340f, 0.03529560f, 0.03704590f, 0.02708180f, -0.007329900f, -0.05172930f, -0.1204360f, 0.01530530f, -0.1310950f, -0.05792070f, -0.002462950f, 0.04047390f, 0.006732470f, -0.04529390f, -0.1229940f, -0.002866920f, 0.007984100f, 0.04930860f, 0.02660410f, 0.02184050f, -0.008111730f, 0.04035090f, -0.04808110f, 0.02376170f, -0.02095380f, 0.01255990f, -0.004317170f, 0.01842380f, 0.007146380f, 0.02820490f, -0.005404270f, 0.006909160f, 0.02193940f, 0.03386820f, 0.03442820f, 0.03733700f, -0.04642840f, 0.03537820f, 0.02346190f, 0.02732440f, -0.05483960f, 0.006639830f, 0.001951100f, 0.02895360f, 0.03698270f, -0.002535570f, -7.159430e-05f, -0.01200310f, -0.1396260f, 0.02144810f, 0.009727710f, -0.006837510f, 0.01609010f, 0.04133570f, 0.02127780f, 0.009503880f, -0.08632040f, 0.03119250f, 0.01246110f, -0.04886810f, -0.02937580f, -0.007664230f, 0.01786640f, 0.02929570f, 0.004436380f, 0.03078610f, -0.02118260f, 0.01556700f, 0.03746460f, 0.001550140f, 0.01331370f, -0.04012850f, -0.007253200f, 0.02521940f, 0.02829210f, -0.1162960f, -0.04159550f, -0.001541280f, 0.01507210f, 0.05004060f, -0.03705000f, -0.01076950f, 0.02611710f, 0.007618250f, 0.02532290f, 0.04617550f, 0.01143650f, 0.009501540f, 0.02398260f, 0.006119960f, -0.04290740f, -0.01418100f, 0.01180180f, 0.005283970f, 0.003700360f, -0.0006581430f, 0.007327130f, 0.01397550f, -0.01123570f, -0.07822820f, -0.0001324760f, 0.04047090f, 0.02911910f, 0.01137300f, 0.007687840f, -0.04022480f, -0.03916950f, -0.0006418390f, 0.03172200f, -0.05663710f, 0.02280760f, 0.01819410f, -0.09559930f, -0.01069210f, 0.003497080f},
    {0.02355480f, -0.001568590f, -0.1250200f, 0.02453470f, -0.02015140f, 0.005790090f, -0.002877760f, -0.006209630f, -0.0003326600f, 0.01424960f, -0.01966620f, 0.02965080f, 0.04026420f, -0.07366390f, -0.1495100f, -0.008173790f, 0.02619740f, -0.006027410f, -0.02388400f, 0.02706730f, 0.001040270f, -0.004821070f, -0.008111450f, 0.01500110f, 0.004959040f, -0.003317320f, 0.01535680f, 0.01278360f, -0.008027500f, -0.05178410f, -0.004570830f, 0.006972230f, -0.04628670f, -0.006481680f, -0.002902650f, 0.005923890f, 0.02605290f, 0.03948160f, -0.01572480f, 0.02596640f, 0.05442350f, 0.01301090f, -0.02876870f, 0.01711030f, -0.01095670f, 0.02841640f, 0.003731910f, 0.005711320f, 0.02873600f, -0.1631370f, 0.01083260f, 0.004499210f, -0.03458390f, 0.02483410f, 0.01171170f, 0.003430540f, 0.003728230f, -0.08254980f, 0.04474570f, 0.01507170f, 0.009298600f, -0.007731300f, 0.03005290f, -0.1493240f, 0.04654260f, -0.001854430f, -0.02249970f, -0.03169100f, -0.009059980f, 0.009526950f, 0.009765740f, 0.02218490f, 0.01794750f, -0.1785460f, -0.01264410f, 0.03381370f, -0.003543200f, -0.008240540f, 0.02978390f, -0.003912450f, 0.02181790f, -0.01936760f, 0.01031190f, 0.03063420f, -0.002139420f, 0.02410190f, 0.03054570f, 0.004285230f, -0.01149550f, 0.005399930f, 0.03184980f, -0.004813190f, 0.01658930f, -0.04386770f, 0.009024770f, 0.03459510f, 0.01142770f, -0.008736050f, -0.01117000f, -0.009019890f, 0.01049340f, 0.003712990f, -0.05860850f, -0.01183890f, 0.02471580f, -0.006235920f, 0.03923470f, 0.004305110f, 0.003108490f, 0.009068150f, 0.03693880f, -0.005664470f, -0.08102780f, -0.08503670f, 0.02367900f, 0.003019030f, -0.06932160f, 0.009056480f, -0.05460680f, 0.002627950f},
    {-0.1655100f, 0.004794230f, 0.04609380f, 0.03160870f, 0.01685510f, -0.04312690f, -0.0005234450f, 0.0005592750f, -0.003830510f, 0.01183140f, -0.03938410f, 0.02455040f, -0.002480910f, -0.1049520f, 0.05156500f, 0.005599120f, 0.03573450f, -0.06866640f, 0.04185050f, -0.006328400f, -0.001223670f, -0.01961140f, -0.009825640f, 0.01958680f, 0.001319430f, 0.003814890f, 0.006628370f, 0.01325430f, 0.01437460f, -0.09622390f, 0.0004412100f, 0.005243490f, 0.001504450f, -0.01922830f, 0.005116880f, 1.299530e-05f, 0.05384710f, 0.03166120f, -0.004259470f, -0.1064160f, 0.02919030f, -0.04843910f, 0.03955790f, 0.001903170f, -0.006857630f, 0.01487000f, 0.03516220f, -0.003902470f, 0.004320030f, 0.03142680f, 0.002717570f, -0.0002068450f, -0.006165200f, -0.006197330f, -0.05125930f, 0.0005765150f, 0.001644860f, -0.02754150f, 0.03336000f, -0.009113540f, 0.006107890f, -0.01941600f, 0.05440660f, -0.1514840f, 0.02380370f, -0.009090810f, -0.02567670f, -0.03264910f, 0.006742510f, 0.03749000f, 0.03638250f, 0.01689840f, 0.002534660f, -0.005188460f, -0.009179200f, -0.007465960f, 0.001783410f, -0.002699090f, 0.02778770f, 0.01182080f, 0.03749910f, -0.1367770f, 0.03187360f, -0.006813310f, -0.003111390f, 0.03510400f, -0.1334970f, 0.03578210f, -0.01794700f, -0.01684160f, 0.01157950f, 0.006038090f, -0.0008449170f, -0.01565870f, 0.0003407030f, 0.02551500f, 0.009052280f, -0.04280650f, -0.02856230f, -0.001619750f, -0.09528770f, -0.05569060f, 0.01496440f, -0.005890180f, -0.1142210f, 0.009279470f, 0.01538520f, -0.01077340f, -0.004277860f, -0.006208600f, 0.004239950f, 0.01629530f, 0.02208140f, -0.08658210f, 0.01784630f, -0.008901340f, 0.02299360f, 0.03358190f, -0.05156400f, -0.008477700f},
    {0.01390730f, -0.008040400f, 0.05974710f, 0.01295180f, 0.01465230f, 0.02832940f, -0.01938450f, 0.02376600f, 0.02814710f, 0.01182270f, 0.03676010f, -0.08975170f, -0.1343560f, 0.02652250f, -0.006762760f, 0.002223230f, 0.01859110f, -0.007705890f, -0.06409190f, 0.01116990f, 0.003589280f, 0.01010620f, 0.001509420f, 0.03360680f, -0.04523910f, 0.0006162940f, -0.1291140f, -0.001228330f, -0.01315440f, -0.04767590f, -0.0009676610f, 0.02577790f, -0.02143200f, -0.0003152750f, 0.004894160f, 0.004459930f, 0.03414920f, -0.009664100f, 0.005674520f, -0.2143090f, 0.02860300f, -0.05130230f, -0.01415470f, 0.01316890f, -0.02801720f, -0.03725580f, 0.01246450f, -0.01596330f, -0.01644050f, 0.009141140f, 0.002170820f, -0.001026510f, -0.06060500f, 0.03676230f, -0.03387760f, 0.003459950f, 0.005654550f, 0.03400840f, 0.04289500f, -0.004572090f, 0.0003010680f, -0.06238290f, 0.03671740f, -0.09606630f, -0.07260330f, -0.003175270f, 0.02671120f, 0.02465680f, -0.04475190f, -0.0009926230f, -0.01520620f, -0.03719650f, -0.05295800f, 0.01784100f, -0.07316770f, -2.305590e-05f, 0.003313980f, 0.04034300f, 0.02579410f, 0.006156280f, -0.1317880f, 0.01974660f, -0.008459200f, -0.005412070f, -0.002708870f, 0.006947980f, -0.04778350f, -0.08915540f, 0.01563300f, -0.009205520f, -0.006700050f, 0.0001468950f, -0.002520770f, 0.001653360f, 0.0004206860f, -0.005074120f, -0.004628310f, 0.002064580f, -0.03749250f, -0.004780620f, 0.06655590f, 0.01006750f, 0.01907600f, 0.006605070f, 0.01036740f, -0.003018610f, 0.002300400f, 0.01738400f, 0.02333450f, 0.02388190f, 0.01173180f, -0.05963630f, -0.02603200f, 0.01066760f, 0.01954010f, -0.06467870f, 0.009403320f, 0.02066960f, 0.01036100f, 0.001206290f},
    {-0.1760710f, -0.006225530f, 0.03116050f, 0.03975400f, 0.01309780f, -0.04949200f, -0.002567850f, 0.01329800f, -0.001329050f, 0.003182660f, -0.04036340f, 0.03398030f, 0.004078990f, -0.09768050f, 0.04362030f, 0.002363000f, 0.04933190f, -0.07564790f, 0.03967640f, -0.006664880f, 0.01231570f, -0.01315370f, -0.01451250f, 0.02701530f, 0.01784550f, -0.004168820f, 0.005938360f, 0.02144470f, 0.01997290f, -0.09505460f, -0.001543430f, 0.01141390f, -0.008497760f, -0.01367470f, 0.001768820f, -0.0009328500f, 0.05141750f, 0.04614410f, -0.01141380f, -0.1058100f, 0.02113290f, -0.04762420f, 0.03010230f, 0.007490360f, -0.01528700f, 0.01393860f, 0.03841830f, 0.004608620f, 0.007015140f, 0.01821430f, 0.01573360f, -0.001585890f, -0.01364190f, -0.003545590f, -0.04146580f, -0.01251260f, 0.003534500f, -0.02802330f, 0.03764820f, -0.005327280f, -0.002114030f, -0.01918810f, 0.04821140f, -0.1531610f, 0.01105580f, -0.007547260f, -0.02459830f, -0.03248930f, 0.002669390f, 0.05205390f, 0.03400200f, 0.003304340f, 0.01667870f, -0.007046020f, -0.01252740f, -0.01372380f, -0.001580950f, -0.01209000f, 0.02804390f, 0.008335900f, 0.01837330f, -0.1371430f, 0.02556390f, -0.004080210f, 0.008309750f, 0.01176270f, -0.1375610f, 0.03183400f, -0.01885450f, -0.01663760f, 0.004816670f, -0.002185490f, 0.006128570f, -0.01368340f, 0.0009956410f, 0.02538960f, -0.0008324240f, -0.03058590f, -0.02100170f, 0.001641010f, -0.09255280f, -0.05715360f, -0.007406430f, -0.003172330f, -0.1219400f, 0.005531630f, 0.003238550f, -0.004537420f, -0.008489190f, 0.0001445830f, 0.0005458790f, 0.004175700f, 0.02846950f, -0.09190340f, 0.007279860f, -0.006232160f, 0.01010730f, 0.03508550f, -0.04995740f, 0.0002771430f},
    {0.03285300f, 0.006878100f, -0.1332250f, 0.007412820f, 0.004048460f, -0.02857380f, 0.03495660f, 0.02820710f, 0.03761660f, -0.003312130f, -0.05020530f, -0.1072290f, 0.02088510f, -0.1230390f, -0.06129300f, 0.001510440f, 0.03896010f, -0.007561460f, -0.04788560f, -0.1137500f, 0.0009288890f, 0.003076750f, 0.04061510f, 0.04232020f, 0.02084750f, -0.01092020f, 0.03417470f, -0.03773560f, 0.03175760f, -0.02462950f, -0.0008906190f, 0.001139680f, 0.02239400f, -0.001749660f, 0.02799870f, -0.005034650f, 0.01814560f, 0.01903900f, 0.03523530f, 0.01432970f, 0.008922390f, -0.04003740f, 0.03518670f, 0.01442560f, 0.02257650f, -0.05382380f, 0.005454800f, -0.001976670f, 0.02452000f, 0.02477930f, -0.007120940f, 0.0008228190f, -0.02164720f, -0.1452250f, 0.02852840f, 0.01309540f, -0.004688120f, 0.001700100f, 0.04837960f, 0.02689480f, 0.007950600f, -0.07939330f, 0.03324230f, 0.02413260f, -0.05106510f, -0.009954940f, 0.003534880f, 0.01580580f, 0.04298680f, 0.007769020f, 0.03922140f, -0.01623140f, 0.02009940f, 0.02702440f, 0.004708280f, 0.01020010f, -0.04163940f, -0.004256450f, 0.02829670f, 0.01908640f, -0.1114260f, -0.04464220f, 0.007603230f, 0.008101940f, 0.04354940f, -0.03544370f, -0.001094710f, 0.02659770f, 0.006653160f, 0.02603030f, 0.01937980f, -0.007117050f, 0.001251030f, 0.02774830f, 0.005891830f, -0.04598940f, -0.01464440f, 0.01035380f, -0.007972390f, -0.005805740f, 0.003627120f, 0.004260170f, 0.01675270f, -0.02728910f, -0.07961180f, -0.004647180f, 0.03072320f, 0.01123910f, 0.01181810f, 0.009933430f, -0.02847230f, -0.03601370f, 0.004893270f, 0.02089390f, -0.05529940f, 0.02363960f, 0.009409750f, -0.09296290f, -0.009749970f, 0.003791490f},
    {0.008988780f, -0.0008965110f, 0.005762610f, 0.02450800f, -0.007526810f, -0.006556740f, 0.04119760f, 0.001789510f, 0.005027590f, -0.003920720f, 0.02868950f, 0.03416910f, -0.06801100f, -0.02059530f, 0.003972920f, 0.005235950f, -0.006370490f, 0.02443920f, -0.07416780f, -0.06118390f, -0.007913300f, -0.002048060f, -0.03594630f, -0.005362940f, -0.02606980f, -0.0008846340f, -0.01087310f, 0.001306860f, 0.009962450f, -0.004954730f, -0.0003222900f, -0.001251030f, 0.02157930f, -0.003331910f, 0.03476650f, -0.001280420f, 0.001659450f, 0.04097810f, 0.02706490f, -0.06538040f, 0.006363640f, -0.05326790f, -0.01115660f, 0.005270760f, -0.003240550f, -0.02373020f, -0.02967680f, -0.001678070f, 0.04851490f, -0.04243950f, -0.002102590f, -0.0006551460f, 0.09605970f, 0.008525380f, 0.009096540f, -0.001862110f, 0.006275980f, -0.04512250f, -0.08571910f, -0.01045830f, 0.01039100f, -0.02188530f, 0.03763090f, -0.01313920f, 0.02519430f, 0.02772380f, -0.03216060f, 0.006126300f, 0.01572380f, 0.05149930f, 0.03667580f, 0.05670910f, 0.01810600f, 0.006598250f, -0.02036210f, 0.009493860f, -0.003660320f, 0.004127520f, 0.02133600f, 0.01042830f, -0.06478410f, -0.02093930f, -0.002130700f, -0.006737660f, 0.01677640f, 0.01554710f, -0.01725440f, 0.03286510f, -0.007581560f, -0.004244000f, -0.03522110f, 0.0002739020f, 0.004756870f, 0.02619930f, -0.005439980f, 0.001950000f, 0.002956110f, 0.001568420f, 0.04286080f, -0.008576680f, 0.005547900f, -0.04839280f, 0.04322880f, 0.02605160f, -0.02368810f, 0.006676060f, -0.05796640f, 0.01512760f, 0.005081790f, 0.004623540f, 0.009960070f, 0.04830960f, -0.04408890f, 0.009824260f, 0.02320340f, -0.007009120f, 0.01305170f, 0.008146330f, 0.03262320f, -0.001034930f},
    {-0.005711670f, -0.002843900f, 0.03347990f, 0.01133670f, -0.006963100f, 0.02522090f, 0.008726910f, 0.001666000f, 0.005728610f, -0.01228110f, -0.06143110f, -0.05321250f, 0.005943580f, 0.01864420f, 0.008189060f, -0.004092630f, 0.01491190f, -0.01717530f, 0.009679360f, -0.02471200f, -0.002267660f, -0.0002706820f, 0.01495850f, 0.001897030f, 0.01168660f, 0.004275020f, 0.01554110f, -0.0006259610f, 0.03201780f, -0.03823290f, 0.003667800f, -0.001314260f, 0.004737460f, 0.02807090f, 0.01912540f, 0.001417030f, 0.01078330f, 0.003532870f, -0.02801590f, 0.002832870f, -0.1912100f, 0.01611390f, -0.03239740f, 0.01368740f, 0.01222450f, 0.02231460f, -0.05852360f, 0.002780020f, 0.02710210f, 0.02104780f, 0.0006655570f, -0.004876860f, -0.02968160f, -0.06577940f, 0.02347150f, -0.004809900f, -0.003731290f, -0.04558490f, 0.04311380f, -0.004070350f, 0.006361210f, -0.004942620f, 0.02928460f, 0.02662060f, 0.003096270f, -0.02989220f, 0.003816560f, -0.06123550f, 0.005870070f, 0.005976490f, 0.01054940f, 0.002320560f, 0.01800170f, -0.1123500f, -0.02816410f, 0.002063140f, 0.0005591410f, -0.01630860f, 0.008738160f, 0.0002112250f, -0.005528830f, 0.03407260f, -0.01073570f, 0.003046420f, -0.006021530f, 0.006823380f, -0.02840160f, -0.04241400f, -0.005639750f, -0.02899120f, -0.1749840f, 0.003591590f, 0.002385800f, 0.01707450f, 0.01056190f, 0.02654110f, 0.01689190f, 0.005605040f, -0.03603520f, -0.006475780f, -0.009013800f, -0.02622830f, 0.06375640f, 0.04737940f, -0.004964520f, -0.003366310f, 0.02381790f, -0.08381030f, -0.0008336310f, 0.02860460f, 0.01044110f, -0.009520630f, -0.007149450f, -0.008471770f, 0.02555610f, 0.02064880f, 0.01435880f, -0.002808510f, 0.01104180f, -0.004651790f},
    {0.02841110f, -0.003914790f, -0.1217150f, 0.02408090f, -0.01133670f, 0.001826220f, -0.001179380f, -0.01056350f, 0.01300510f, 0.008030220f, -0.03359130f, 0.01108530f, 0.03113040f, -0.07240180f, -0.1529210f, 0.01172750f, 0.02097030f, 0.001285670f, -0.008493350f, 0.007024180f, -0.008938460f, 0.005080170f, -0.008940610f, 0.01112090f, 0.001155090f, -0.005227550f, 0.02384910f, 0.006920820f, -0.01245630f, -0.04955050f, -0.007649770f, 0.003945090f, -0.05318400f, 0.0008766890f, 0.005502850f, -0.003644850f, 0.03224690f, 0.04376310f, -0.008839650f, 0.02577240f, 0.04495800f, 0.02015140f, -0.02358440f, 0.01564950f, -0.008944040f, 0.01933910f, 0.0009834639f, 0.004507270f, 0.03082120f, -0.1615270f, 0.01012250f, -0.006855270f, -0.03398030f, 0.02054940f, 0.02028620f, 0.001021100f, -0.005206430f, -0.08477770f, 0.02695190f, 0.02260580f, 0.02307660f, -0.01197550f, 0.03165180f, -0.1425420f, 0.03931280f, 0.006613170f, -0.01973000f, -0.03674170f, -0.005840290f, 0.02133930f, 0.01181930f, 0.01246320f, 0.02514230f, -0.1776910f, -0.009248300f, 0.03151350f, -0.004444180f, -0.001723670f, 0.04027020f, -0.007592460f, 0.02540970f, -0.02565820f, 0.003107780f, 0.02782100f, -0.008255270f, 0.02064120f, 0.02529900f, 0.01719620f, -0.0003202820f, 0.01227820f, 0.02047040f, 0.002183720f, 0.01381680f, -0.04282600f, 0.009656960f, 0.02668310f, 0.01763310f, -0.007831880f, -0.01346640f, -0.006303690f, 0.03054310f, -0.005152940f, -0.05603970f, -0.009628400f, 0.01604260f, -0.01535450f, 0.03539880f, 0.01451670f, 0.01173450f, 0.009036720f, 0.05056050f, -0.009031740f, -0.07821280f, -0.09212860f, 0.02302550f, -0.002451050f, -0.07063600f, 0.0005257290f, -0.05766010f, 0.005815270f},
    {0.04693890f, -0.003001080f, -0.1198790f, 0.01122720f, -0.01072390f, -0.001418580f, -0.007700390f, -0.01022620f, 0.008584550f, -0.0009893310f, -0.03166680f, 0.01007340f, 0.02883270f, -0.07526400f, -0.1562870f, 0.004098530f, 0.03495230f, -0.01924410f, -0.008690390f, 0.01201870f, -0.007948000f, 0.009956690f, -0.01263470f, 0.02345140f, 0.001111400f, 0.008562730f, 0.005501320f, 0.02124570f, -0.01017160f, -0.04848330f, 0.002387080f, 0.005182650f, -0.06029520f, -0.0003668770f, 0.003567050f, -0.006430040f, 0.03522050f, 0.03715570f, -0.005800520f, 0.02093790f, 0.05119460f, 0.01108740f, -0.02559380f, 0.02280720f, -0.01331670f, 0.03546310f, -0.007249000f, -0.003575760f, 0.03364320f, -0.1617220f, 0.001674930f, -0.004119510f, -0.03939410f, 0.008582530f, 0.02846370f, 0.009518760f, -0.001665010f, -0.08473880f, 0.03871570f, 0.01521220f, 0.01661370f, -0.008851240f, 0.03942200f, -0.1472040f, 0.03597250f, -0.002228580f, -0.02323450f, -0.03648740f, -0.01860500f, 0.01853570f, 0.004003930f, 0.01625590f, 0.02143910f, -0.1782670f, -0.01818920f, 0.03076120f, -0.01022050f, 0.005063810f, 0.02841710f, -0.0005183050f, 0.02831610f, -0.02674310f, 0.002169030f, 0.03867140f, -0.01509290f, 0.003231840f, 0.01771550f, 0.007392030f, -0.003670450f, 0.008646780f, 0.02048380f, -0.007074550f, 0.01133610f, -0.04510910f, 0.01733390f, 0.02468050f, 0.01646960f, -0.009966040f, -0.02275490f, -0.007389980f, 0.02853940f, 0.001222620f, -0.06036470f, 0.003786330f, 0.01082770f, -0.001481210f, 0.02823780f, 0.01544260f, 0.007918150f, 0.01659570f, 0.03100880f, -0.006141710f, -0.08398950f, -0.08059660f, 0.01554030f, -0.0004096530f, -0.07315300f, -0.002055090f, -0.05562270f, 0.001157930f},
    {0.003318240f, -0.02637940f, 0.01567920f, 0.002619840f, 0.006062590f, 0.01096910f, -0.03710410f, 0.002371940f, 0.02486090f, -0.001818760f, -0.005427230f, -0.005688310f, 0.003169780f, 0.03031130f, -0.06165780f, 0.02172470f, 0.01309960f, -0.02725710f, -0.006689660f, -0.05708330f, -0.001297240f, 0.01427260f, -0.03921500f, 0.04297250f, -0.1112030f, 0.007206990f, -0.0004756780f, 0.06362660f, 0.01292290f, -0.01145710f, -0.005892880f, -0.002846010f, 0.01333270f, -0.002284580f, 0.01616880f, 0.003114500f, -0.01490030f, -0.0003148880f, -0.04441670f, 0.01109680f, 0.03575130f, -0.002349170f, -0.02189670f, 0.01169020f, 0.009929310f, -0.02558720f, 0.01026440f, 0.004340800f, -0.01741170f, -0.07075890f, 0.009246640f, 0.002913090f, -0.009084300f, 0.02815800f, 0.03110250f, -0.009525320f, 0.002987700f, -0.04506190f, 0.04623830f, 0.006225610f, 0.002334020f, 0.02522480f, 0.04807970f, -0.07663000f, -0.04072580f, -0.05854020f, -0.06753230f, -0.09055730f, 0.03200670f, -0.005022590f, -0.05703250f, -0.02259310f, -0.004915850f, 0.03051100f, -0.006624780f, -0.005646460f, 0.01676260f, 0.0007338520f, 0.01636920f, 0.007797610f, -0.01231140f, -0.01276980f, 0.006307010f, -0.01743000f, 0.01630190f, 0.01363400f, 0.04112570f, 0.03077930f, -0.03633700f, 0.01617900f, -0.003326660f, 0.0005903150f, -0.002147420f, 0.05531000f, 0.005159950f, -0.007013410f, -0.01909220f, -0.008305810f, -0.009207960f, 0.006767110f, -0.02983400f, 0.02214990f, -0.04909740f, -0.01065370f, 0.01571040f, 0.005311460f, -0.1668910f, 0.03255950f, 0.01695930f, -0.004147310f, 0.008763240f, 0.03379110f, 0.01607080f, 0.03361030f, -0.1449550f, -0.1015430f, 0.03717670f, 0.01508210f, 0.01917660f, 0.0003142840f},
    {0.01488910f, 0.002675600f, 0.02790930f, 0.003696130f, 0.01246830f, -0.08495250f, -0.003434530f, -0.01681220f, 0.01568660f, 0.0007247550f, -0.005690440f, -0.02252790f, -0.09279620f, -0.1017520f, 0.01260490f, 0.007933400f, 0.01404430f, -0.04604700f, -0.1103740f, -0.04916260f, 0.007798520f, 0.008453840f, -0.005487680f, -0.01717500f, -0.007821610f, -0.002859610f, -0.01194170f, 0.0008922380f, -0.1218800f, 0.03304110f, -0.005308150f, 0.003052610f, 0.02486960f, -0.006609520f, 0.02033300f, 0.005810930f, 0.01136430f, 0.02247900f, -0.02099470f, -0.02817180f, -0.1239280f, 0.03043570f, 0.04482620f, 0.004058130f, 0.008477820f, 0.02327340f, -0.02472150f, -0.006665540f, 0.01659830f, -0.04279370f, 0.0006045900f, 0.001965750f, 0.0003770620f, -0.03262100f, 0.02069700f, -0.007733100f, -0.003258080f, 0.01929520f, 0.01917540f, 0.04099440f, 0.002759760f, -0.01392090f, 0.01998290f, -0.01317690f, 0.04964260f, -0.01271920f, -0.002646260f, -0.03018770f, 0.02505270f, -0.006570840f, -0.005751490f, 0.01382000f, 0.01947470f, 0.03061930f, -0.008819320f, 0.0001964260f, -0.003319450f, 0.01208590f, 0.01031480f, 0.01938220f, 0.01685820f, 0.04829850f, -0.002285570f, 0.007981120f, 0.002364340f, 0.01227880f, -0.05279020f, 0.02223950f, 0.001444700f, 0.03299640f, 0.04929170f, -0.007564450f, -0.001153290f, -0.03971380f, -0.004635510f, 0.04770510f, 0.002151430f, -0.01094530f, -0.01355430f, 0.008539320f, -0.07047880f, -0.02963860f, -0.02261480f, 0.02275090f, -0.005275060f, -0.001268590f, 0.03400560f, 0.01581860f, 0.005914300f, 0.02495040f, 0.02996410f, 0.03534890f, -0.005346750f, -0.05016510f, -0.003985140f, 0.01793200f, 0.01755580f, -0.05553420f, -0.06049570f, -0.002909280f},
    {-0.1723300f, -0.008065950f, 0.03293300f, 0.02012340f, 0.02063060f, -0.04231910f, -0.002255410f, 0.005133450f, -0.005989150f, 0.005013280f, -0.03291180f, 0.02609880f, 0.004116050f, -0.09121840f, 0.04226200f, 0.0008258300f, 0.04267670f, -0.07002120f, 0.02784740f, -0.009973010f, 0.007305130f, -0.008876740f, -0.003796540f, 0.01947330f, 0.01634360f, 0.006616390f, 0.004476410f, 0.01549430f, 0.01024810f, -0.09587730f, 0.002135050f, 0.0002016030f, 0.005277910f, -0.02159290f, -0.005793670f, -0.01570670f, 0.04484240f, 0.04518530f, -0.01021260f, -0.1108950f, 0.02369490f, -0.04633410f, 0.03740320f, 0.008063900f, -0.007146240f, 0.01744210f, 0.02629980f, -0.004694200f, 0.002336700f, 0.01688300f, 0.0009307410f, 0.008378160f, -0.01599220f, -0.006576440f, -0.04282170f, -0.01105050f, -0.005899550f, -0.02497050f, 0.02676770f, 0.001160540f, 0.006833890f, -0.01429530f, 0.04829470f, -0.1545250f, 0.02465600f, -0.01059520f, -0.01738640f, -0.03647270f, 0.002377360f, 0.04122050f, 0.03108450f, 0.01170930f, 0.01537190f, -0.004474160f, -0.005416600f, -0.01099270f, -0.002844460f, 0.002874940f, 0.03256900f, 0.01004770f, 0.02505790f, -0.1306880f, 0.01325590f, -0.005169570f, -6.103320e-05f, 0.01309350f, -0.1297830f, 0.02798980f, -0.01938150f, -0.01520820f, 0.007890160f, 0.01561670f, -0.002227190f, -0.01702680f, 0.006978910f, 0.02380940f, 0.006509810f, -0.03766670f, -0.02307220f, 0.0005439480f, -0.09046440f, -0.06226880f, 0.0005012800f, -0.01345220f, -0.1205170f, 0.006562410f, 0.009206500f, -0.005435050f, 0.002720640f, -0.01218920f, -0.002286270f, 0.007912140f, 0.02624060f, -0.08725980f, 0.01068600f, -0.008148750f, 0.02878140f, 0.02894390f, -0.05380900f, -0.003371040f},
    {0.02587950f, 0.007297000f, 0.03296650f, -0.0002215370f, 0.01637820f, -0.09298310f, 0.002973350f, -0.008048700f, 0.004767780f, -0.01173450f, -0.004850690f, -0.02666020f, -0.08920030f, -0.1105720f, 0.01173400f, 0.01451520f, 0.004765650f, -0.04677520f, -0.1086730f, -0.04666300f, 0.0003332990f, -0.006747750f, -0.01951020f, -0.01323020f, -0.01352940f, -0.005935350f, -0.01003770f, 0.003821470f, -0.1188550f, 0.03977510f, -0.003947050f, 0.002644900f, 0.01720880f, -0.0002414540f, 0.01420560f, -0.0009538440f, 0.01839800f, 0.01776060f, -0.02386230f, -0.01758740f, -0.1325130f, 0.03037560f, 0.04859260f, -0.006477090f, 0.008159250f, 0.01387160f, -0.01519800f, 0.006739980f, 0.01024540f, -0.04708120f, -0.002514990f, 0.002174290f, -0.007677870f, -0.03176740f, 0.02442100f, -0.005782530f, 0.002005680f, 0.002973770f, 0.03256550f, 0.04692450f, 0.004470770f, -0.005346830f, 0.02153180f, -0.008032780f, 0.05400900f, -0.002391910f, -0.001256380f, -0.02909330f, 0.02630950f, -0.005360210f, 0.001696530f, 0.02031590f, 0.01910790f, 0.03513770f, -0.01176690f, 0.01219730f, -0.01414660f, 0.006699940f, 0.01188550f, 0.01062750f, 0.01383530f, 0.05073880f, -0.006812070f, -0.006565460f, 0.01519720f, 0.01676770f, -0.05540650f, 0.006359450f, 0.005175640f, 0.02838750f, 0.04785760f, 0.004604090f, 0.004798540f, -0.03851600f, 0.0001477810f, 0.04467620f, 0.004930920f, -0.01041940f, -0.01553360f, -0.01095330f, -0.06703790f, -0.02626540f, -0.01267640f, 0.02030820f, -0.01151310f, 0.0002122930f, 0.03755950f, 0.004591420f, 0.006166220f, 0.03264750f, 0.03094580f, 0.02764410f, -0.008842240f, -0.03919970f, 0.01692740f, 0.02022250f, 0.01581680f, -0.05758610f, -0.06290450f, -0.006300770f},
    {-0.03991400f, -0.02191170f, 0.009373200f, 0.03909930f, 0.01568530f, -0.06963390f, 0.01408370f, 0.03717480f, -0.007202450f, 0.003644620f, 0.01877450f, 0.007502830f, 0.008485020f, 0.03706960f, -0.01091600f, -0.007564470f, -0.2291650f, -0.02315110f, -0.1086080f, 0.002875650f, -0.006728640f, -0.004142630f, -0.008292010f, -0.006580970f, -0.07144540f, -0.002773350f, -0.04003980f, -0.009679040f, -0.03476580f, -0.002647080f, -0.003044810f, -0.01421310f, -0.02209320f, -0.004202210f, 0.03890950f, 0.01078500f, -0.03960090f, 0.04007880f, -0.02859530f, 0.02486590f, 0.02534080f, -0.02466160f, 0.01936110f, 0.004429080f, -0.001417900f, -0.09536340f, 0.01672740f, -0.002117500f, 0.006635440f, 0.01655470f, -0.01142300f, -0.008757930f, -0.01798040f, 0.007119520f, 0.005861950f, 0.01555890f, -0.001433780f, 0.01116200f, 0.05335760f, -0.002236180f, 0.01426110f, -0.09159730f, 0.008364110f, -0.09246770f, -0.002928400f, -0.05414440f, -0.1926520f, -0.007145440f, 0.01223750f, 0.008071360f, 0.03424190f, 0.01545740f, -0.1006730f, 0.02168260f, -0.01055520f, 0.01182790f, 0.009663010f, 0.01345370f, 0.01480270f, 0.03462110f, 0.006411480f, 0.003943120f, 0.007121720f, -0.02617520f, 0.02361810f, 0.01174500f, -0.07487430f, -0.1457480f, 0.04094370f, -0.01606020f, 0.03228260f, -0.01131850f, -0.003526320f, 0.04389530f, 0.001972650f, -0.01320860f, 0.005215450f, 0.03028330f, 0.05188500f, -0.001946630f, 0.02858090f, 0.004555210f, 0.05668450f, 0.001595720f, 0.008108210f, -0.01150380f, 0.02097360f, 0.002492100f, 0.002767260f, 0.006022690f, 0.04202390f, 0.01755110f, -0.04981100f, 0.03146170f, 0.03541290f, 0.004108530f, -0.03128370f, -0.01968000f, -0.1131560f, 0.004223390f},
    {0.02329740f, 0.002892300f, 5.279040e-05f, 0.01503370f, 0.003124200f, -0.01787020f, 0.01571000f, 0.005792250f, 0.01262580f, -0.01839170f, 0.01598500f, 0.04386390f, -0.08021210f, -0.02283360f, -0.01700150f, 0.003011700f, 0.01960940f, 0.03839650f, -0.06167290f, -0.08668970f, 0.001498930f, -0.001646120f, -0.03343120f, -0.005846720f, -0.03223100f, -0.01550400f, -0.003240150f, -0.003691650f, 0.01079000f, 0.008080650f, 0.006359830f, 0.01429820f, 0.01642060f, -0.006532600f, 0.05086580f, 0.006260390f, 0.009376620f, 0.02791300f, 0.01631990f, -0.05862240f, 0.02393660f, -0.02806170f, -0.007859350f, 0.01861850f, -0.006241980f, -0.009523640f, -0.04571360f, 0.002527320f, 0.04694930f, -0.04912240f, 0.008423920f, -0.009210160f, 0.03642530f, 0.007082040f, 0.02380790f, -0.01152360f, -0.001050820f, -0.03313050f, -0.1339080f, 0.006570950f, 0.009778150f, -0.02016490f, 0.05989360f, 0.002966040f, 0.02309660f, 0.006826210f, -0.03873690f, -0.01996420f, 0.02680330f, 0.06541240f, 0.02348420f, 0.04365980f, 0.008854250f, -0.001395590f, -0.01766140f, 0.01006960f, -0.001891740f, 0.003543390f, 0.03097620f, 0.01436800f, -0.07897350f, -0.0008254580f, -0.003740760f, -0.01789810f, 0.005386120f, 0.01287750f, -0.01963370f, 0.02256870f, -0.02007860f, -0.002314780f, -0.08144520f, 0.001555550f, 0.001007820f, 0.01094710f, 0.004773320f, 0.0007885430f, 0.009637070f, 0.0009542750f, 0.01831310f, -0.002931710f, 0.02014980f, -0.08417500f, 0.04495730f, 0.01575360f, -0.02219510f, -0.002133360f, -0.08292770f, 0.02171350f, 0.009779860f, 0.01126240f, 0.02608170f, 0.07687670f, -0.03949270f, 0.01444980f, 0.01001190f, -0.004518100f, 0.04563540f, 0.007879630f, 0.02372310f, 0.003269030f},
    {0.01801170f, -0.01151940f, -0.02897310f, 0.004444530f, 0.003644850f, -0.07366630f, 0.01851660f, 0.007433870f, 0.02461270f, -0.003091930f, -0.02476810f, -0.1021780f, -0.002809380f, -0.1343220f, -0.009528760f, 0.01203770f, 0.01717450f, 0.01407970f, -0.09457120f, -0.1185990f, -0.004618390f, -0.002181800f, 0.004775750f, 0.02015050f, 0.01875080f, -0.002891310f, 0.02503680f, -0.01251060f, -0.02663430f, 0.001665940f, 0.003137630f, 0.002625140f, 0.04011290f, -0.006498500f, 0.01943670f, 0.003385970f, 0.02731920f, 0.01771350f, 0.0002492870f, 0.004931330f, -0.01603240f, 0.01721210f, 0.04297880f, 0.009480380f, 0.01673400f, -0.02601070f, -0.008695260f, -0.003347090f, 0.02028430f, -0.003119820f, 0.002770550f, -0.007438380f, -0.02441870f, -0.1316230f, 0.03013300f, 0.002595760f, 0.009426130f, 0.01853130f, 0.02993490f, 0.03354670f, 0.008218600f, -0.05619760f, 0.03668060f, 0.01598730f, 0.01249110f, -0.02392390f, -0.006056670f, 0.01129130f, 0.04316730f, -0.008620710f, 0.006971100f, -0.01717380f, 0.02231210f, 0.04080470f, 0.02175780f, 0.004817950f, -0.02676370f, -0.01125800f, 0.02294630f, 0.02197740f, -0.03488760f, 0.01066790f, -0.005587550f, 0.004959020f, 0.02832720f, -0.007714150f, 0.01319320f, 0.02844180f, -0.0009314920f, 0.03388300f, 0.02146840f, 0.001838530f, 0.005828780f, 0.004904640f, 0.01125010f, 0.001651130f, 0.001271890f, -0.001053940f, -0.005808410f, -0.0006120060f, -0.01588010f, -0.003248580f, 0.005258380f, 0.001889360f, -0.06400650f, 0.006614870f, 0.04159100f, 0.02098780f, 0.01062600f, 0.02153160f, -0.01186520f, -0.007080530f, 0.005700920f, 0.01488780f, -0.02043300f, 0.02335430f, 0.01199170f, -0.1017750f, -0.02193570f, -0.0001492610f},
    {0.002123340f, -0.005380590f, 0.04478340f, 0.02197360f, 0.003196050f, 0.03640320f, 0.008196830f, -0.004547080f, 0.009297130f, -0.007268740f, -0.07349250f, -0.04713350f, -0.006850780f, 0.01904680f, 0.007339140f, -0.0007684610f, 0.03673860f, -0.009399450f, 0.005381700f, -0.01790820f, -0.002851960f, -0.001618690f, 0.01789670f, 0.01050340f, 0.007980160f, 0.003323790f, 0.02019000f, 0.01015790f, 0.03803680f, -0.04459120f, 0.003023880f, -0.01051210f, -0.002458480f, 0.02809990f, 0.02158320f, -0.004389070f, 0.01164440f, 0.003396150f, -0.03624860f, -0.006023790f, -0.1890960f, 0.01979480f, -0.02041220f, 0.01279650f, 0.01609890f, 0.02119760f, -0.06395180f, 0.003702250f, 0.02632050f, 0.01840110f, 0.004757340f, -0.008355520f, -0.02985360f, -0.07153610f, 0.01834110f, -0.008815490f, 0.002416010f, -0.03010290f, 0.04347560f, -0.006220210f, 0.006837450f, -0.0002162500f, 0.03729820f, 0.03723800f, 0.01082060f, -0.02982350f, 0.01540340f, -0.05667160f, 0.006388040f, 0.004364610f, 0.01677520f, 0.008384560f, 0.02284650f, -0.1121820f, -0.01517580f, 0.004833040f, -0.002128670f, -0.008758140f, 0.009149690f, 0.01107740f, -0.001557730f, 0.04503970f, -0.005686720f, 0.003196210f, -0.006284970f, -0.006815790f, -0.02747840f, -0.04447410f, -0.005673450f, -0.02379510f, -0.1784340f, 0.003204910f, 0.002439240f, 0.02476600f, 0.01483480f, 0.02880240f, 0.006030510f, 0.01341330f, -0.03045630f, 0.01520840f, -0.006704490f, -0.03086370f, 0.04937900f, 0.05367120f, 0.004977980f, 0.0005511950f, 0.03443890f, -0.08372510f, 0.0006540110f, 0.02019580f, 0.006756170f, -0.01314540f, -0.01769490f, -0.008481200f, 0.02900210f, 0.01930690f, 0.02075730f, 0.006126350f, 0.007710060f, -0.005814480f},
    {0.01302510f, -0.006394930f, 0.04430120f, 0.005243050f, -0.002593010f, 0.02802620f, 0.01165100f, -0.005918970f, 0.007292370f, -0.004678470f, -0.06686340f, -0.04727230f, -0.009887830f, 0.01336870f, 0.01505030f, 0.001868350f, 0.01649780f, -0.01726470f, 0.004250640f, -0.01421800f, -0.006636440f, -0.004342170f, 0.01580180f, 0.006467670f, 0.01019090f, 0.004409910f, 0.007804470f, 0.01022300f, 0.01959020f, -0.04355930f, 0.0004246670f, -0.008227260f, -0.002298300f, 0.006631930f, 0.01276990f, -0.003696920f, 0.01333680f, 0.002696140f, -0.02958100f, -0.01075610f, -0.1934230f, 0.01466590f, -0.02750110f, 0.007820580f, 0.01614320f, 0.02366840f, -0.06835930f, 0.007436670f, 0.02280290f, 0.006582090f, -0.0009435130f, -0.009433100f, -0.03453220f, -0.07763370f, 0.02900330f, -0.002784500f, 0.009466210f, -0.03280310f, 0.03818140f, -0.002327490f, 0.008391710f, -0.009642150f, 0.01486570f, 0.02258040f, 0.0004682270f, -0.03028140f, 0.01010400f, -0.06727620f, 0.009854320f, 0.008205290f, 0.02302890f, 0.01196770f, 0.02623050f, -0.1168450f, -0.01967070f, 0.005200770f, 0.002996310f, -0.01003630f, 0.01302740f, 0.01489840f, 0.01349780f, 0.03060450f, -0.004085500f, 0.005150770f, -0.009755400f, -0.004864590f, -0.02723170f, -0.04048340f, -0.0004730540f, -0.02684190f, -0.1793750f, -0.006255340f, 0.01072760f, 0.02254630f, 0.002336360f, 0.008928560f, 0.01652280f, 0.008295290f, -0.02692460f, 0.001583390f, -0.009854110f, -0.02323090f, 0.05098040f, 0.04145330f, -0.005726630f, -0.001904590f, 0.02537390f, -0.07773450f, -0.004670530f, 0.03110640f, 0.01424480f, -0.01312970f, -0.01674320f, -0.01117280f, 0.03362430f, 0.01823520f, 0.02027840f, -0.004344260f, 0.01676950f, 0.0009805060f},
    {-0.04626800f, -0.01656410f, 0.01620530f, 0.04137650f, 0.005642010f, -0.05755630f, 0.005624740f, 0.02218450f, -0.007856240f, 0.01403020f, 0.02368460f, 0.009631800f, 0.01459900f, 0.03929720f, -0.008358090f, -0.001406760f, -0.2183900f, -0.01909760f, -0.1115560f, 0.0009799059f, 0.007451840f, 0.002485670f, -0.006911090f, -0.001435740f, -0.07018740f, 0.0002495280f, -0.04156860f, -0.005682650f, -0.03798580f, -0.01665130f, -0.009136340f, -0.01223620f, -0.01589750f, 0.01096540f, 0.03402160f, 0.001742170f, -0.02984100f, 0.04494390f, -0.03746780f, 0.03312870f, 0.02830580f, -0.02436210f, 0.01251750f, 0.01286400f, -0.003429800f, -0.09387020f, 0.03712960f, 0.006733970f, 0.01372910f, 0.01179880f, -0.007814570f, -0.0002320780f, -0.01923580f, 0.002421600f, -0.002706310f, 0.02026730f, -0.003234080f, 0.001794830f, 0.04086200f, -0.003638670f, 0.01594040f, -0.08880100f, 0.009490040f, -0.08226620f, 0.004445630f, -0.05881460f, -0.1911550f, -0.02137540f, 0.009008690f, 0.004630760f, 0.04918290f, 0.01588730f, -0.09272040f, 0.02507320f, -0.002446750f, 0.003887580f, 0.004061330f, 0.01223880f, 0.01025720f, 0.03230590f, 0.02093460f, 0.01537560f, 0.01441400f, -0.02501630f, 0.02345330f, 0.02798660f, -0.06655460f, -0.1353990f, 0.04585000f, -0.008111990f, 0.02325520f, -0.007712200f, -0.001984160f, 0.05003030f, 0.01009700f, -0.02133930f, 0.008037450f, 0.02788760f, 0.05098360f, -0.0003707930f, 0.03200140f, 0.005606610f, 0.06438660f, 0.009114220f, 0.0007367610f, -0.006100120f, 0.02932910f, 0.01178040f, 0.004695180f, -0.009202590f, 0.03357520f, 0.01350300f, -0.05185890f, 0.02339680f, 0.03716070f, 0.007599840f, -0.03896080f, -0.001652150f, -0.1154100f, -0.003911540f},
    {-0.01428420f, -0.02145010f, 0.02962940f, -0.009619450f, -0.005290040f, 0.02082080f, -0.03654810f, 0.003066250f, 0.02579650f, 0.002382930f, -0.009649170f, 0.002639850f, 0.005534080f, 0.04770780f, -0.06056790f, 0.009385580f, 0.002322430f, -0.04607760f, -0.009836980f, -0.06312000f, -0.001678950f, 0.01796840f, -0.03990820f, 0.04009910f, -0.1022130f, 0.002152750f, -0.005788400f, 0.05711860f, 0.006983420f, -0.01214510f, 0.001687430f, 0.009213900f, 0.02334220f, -0.003207360f, 0.02072370f, 0.007962790f, -0.01174420f, 0.0005351800f, -0.03777300f, 0.007379860f, 0.03505370f, 0.0001261680f, -0.01390430f, 0.01544570f, 0.01134620f, -0.02315830f, 0.02244850f, 0.007601050f, -0.006307530f, -0.06557620f, -0.0005149180f, -0.007511400f, -0.01130680f, 0.02048130f, 0.03185560f, -0.004604010f, -0.003531020f, -0.04819450f, 0.03480480f, 0.001233650f, 0.002976000f, 0.03142210f, 0.05120700f, -0.06078340f, -0.03722890f, -0.05961850f, -0.07051160f, -0.08764030f, 0.01912250f, -0.01072400f, -0.06080210f, -0.02357300f, 0.005365420f, 0.02130480f, -0.01199180f, -0.003163350f, 0.01219820f, -0.009907680f, 0.005562660f, 0.01282950f, 0.01241720f, -0.01473610f, 0.004237810f, -0.01971920f, 0.01746090f, 0.01528290f, 0.01664420f, 0.02718060f, -0.04051080f, 0.01884350f, 0.003136210f, 0.01024300f, -0.0004196860f, 0.03964980f, 0.01510920f, -0.01553140f, -0.005030600f, -0.004741550f, -0.01397740f, 0.007852800f, -0.04162430f, 0.01276450f, -0.05431620f, -0.02165280f, -0.004074720f, 0.002299540f, -0.1723200f, 0.01507970f, 0.005766700f, 0.006015500f, 0.01047260f, 0.04307550f, 0.02134080f, 0.03464590f, -0.1405920f, -0.09894070f, 0.02655230f, 0.02114960f, 0.01115830f, 0.001673430f},
    {0.03561940f, -0.01281190f, -0.06978160f, 0.01310970f, -0.006387220f, -0.01781700f, -0.002672150f, 0.0005355630f, 0.0003775460f, 0.008028570f, -0.01311430f, 0.02549980f, 0.03456390f, -0.06955460f, -0.08834310f, -0.007790230f, 0.02318400f, 0.02850500f, -0.03042770f, -0.002343230f, 0.002977740f, 0.01331320f, -0.02750730f, 0.01809050f, 0.02226710f, 0.003936810f, 0.005494680f, 0.02064100f, -0.0009960490f, -0.06549450f, -0.005729800f, -0.002359320f, -0.04872240f, 0.0001176220f, 0.007704840f, -0.007906740f, 0.02897840f, 0.04303240f, -0.01518760f, 0.02647430f, 0.04354010f, -0.009324050f, -0.02057850f, 0.01127450f, -0.01780460f, 0.01163670f, 0.005943110f, -0.0006012470f, 0.03444630f, -0.1041020f, 0.002962710f, -0.002992150f, -0.03512710f, 0.01993570f, 0.01239980f, 0.003623530f, 0.003492560f, -0.08018110f, 0.02960400f, 0.01704700f, 0.01589590f, -0.009161160f, 0.03888400f, -0.1615580f, 0.03501000f, -0.003234210f, -0.03706090f, -0.03149480f, -0.005418470f, 0.01089220f, 0.01706150f, 0.01936530f, 0.01353190f, -0.1431400f, -0.03410510f, 0.02752360f, -0.007184130f, 0.005639570f, 0.04528710f, -0.002815660f, 0.02184390f, -0.03285540f, 0.008546180f, 0.03232020f, -0.007784940f, 0.02451180f, 0.04357180f, 0.01311520f, -0.004546910f, -0.001375600f, 0.03000670f, 0.001888760f, 0.01133020f, -0.03425360f, 0.009893360f, 0.01531050f, 0.002863950f, 0.01099060f, -0.003990630f, 0.01001810f, 0.006546890f, -0.01202160f, -0.03342310f, -0.01301990f, 0.06479650f, -0.01026630f, 0.02868750f, 0.01603210f, 0.003903450f, 0.01807880f, 0.04239380f, -0.002300710f, -0.07477710f, -0.08274810f, 0.006427790f, -0.008690690f, -0.05321770f, 0.007022400f, -0.08944400f, 0.002126030f},
    {0.01553260f, -0.0001169230f, 0.03878310f, 0.01169330f, 0.02756420f, 0.01527080f, -0.02068910f, 0.02997050f, 0.03294300f, 0.01946300f, 0.03464670f, -0.07799890f, -0.1333230f, 0.02073830f, -0.01476190f, -0.0008786330f, 0.02340730f, -0.009259290f, -0.06538460f, 0.004557200f, -0.006638100f, 0.01582510f, 0.002783540f, 0.02596520f, -0.04051010f, -0.007647800f, -0.1213410f, -0.005349000f, -0.02125460f, -0.04968890f, -0.008456640f, 0.02220070f, -0.03374520f, 0.005588480f, -0.003115400f, -0.0009030530f, 0.03630420f, -0.01408130f, 0.002505880f, -0.2114690f, 0.02102430f, -0.05837610f, -0.01745980f, 0.005442020f, -0.01963930f, -0.03724820f, 0.01683600f, 0.0004923290f, -0.02692900f, -0.002367580f, 0.002990140f, 0.001107580f, -0.04843150f, 0.008021250f, -0.02960910f, 0.004850120f, 0.002757950f, 0.02052330f, 0.05242170f, 0.001697620f, 0.002386570f, -0.06142670f, 0.02898780f, -0.08918230f, -0.07500410f, -0.001301350f, 0.04300980f, 0.02876540f, -0.03208920f, -0.0008571660f, -0.02282670f, -0.04179530f, -0.06142540f, 0.01212230f, -0.06691130f, -0.0008522100f, -0.0002314600f, 0.03600780f, 0.01999620f, 0.002322150f, -0.1417610f, 0.01181170f, -0.009746130f, -0.005974860f, 0.004875610f, 0.009464410f, -0.04591380f, -0.08463570f, 0.01185740f, -0.01070880f, 0.002033060f, -0.002683720f, 0.002993680f, -0.001714410f, 0.01020620f, 0.006685180f, -0.005542530f, 0.003409740f, -0.02339370f, 0.0005443400f, 0.07289610f, 0.008594820f, 0.02416690f, 0.005947940f, 0.01394550f, 0.002830940f, 0.01285820f, 0.01177920f, 0.007250870f, 0.01727490f, 0.02058360f, -0.05616960f, -0.02716980f, 0.007666990f, 0.01211030f, -0.06268700f, 0.01845590f, 0.01694760f, 0.01298550f, 0.008682090f},
    {0.03093920f, -0.001640040f, 0.01033220f, 0.01630480f, 0.003853050f, -0.0001640570f, -0.03867670f, 0.02322050f, 0.01157620f, 0.009656440f, 0.001982040f, -0.003349980f, 0.02980520f, -0.1155830f, 0.01640610f, -0.006233360f, 0.03114360f, -0.1134770f, -0.1217890f, 0.02265060f, 0.001231270f, 0.01043120f, -0.02723560f, 0.03101020f, -0.01748800f, 0.003280930f, -0.1468110f, 0.05294640f, 0.03354450f, 0.01490330f, -0.002277440f, 0.01039550f, -0.1038670f, -0.01305910f, 0.02284980f, 0.002866220f, 0.02812550f, 0.0001463900f, -0.03858790f, 0.007153180f, 0.03203240f, -0.04581160f, -0.002368660f, -0.004708950f, -0.002621020f, 0.02086910f, -0.1427800f, 0.0008691310f, -0.009224930f, -0.009163620f, -0.0009094500f, -0.002318600f, -0.05493630f, 0.02705180f, 0.01905370f, 0.0005379570f, -0.002765540f, -0.1005380f, 0.04362450f, 0.01890200f, 0.004538560f, -0.02518330f, 0.007084570f, 0.01291020f, 0.01146150f, -0.01152680f, -0.05296090f, 0.009920120f, -0.02422400f, 0.01037130f, 0.01565980f, 0.01920820f, 0.03549780f, -0.001746460f, -0.04021630f, 0.006090020f, 0.006065310f, -0.01495030f, 0.01572650f, -0.005284960f, 0.03833390f, -0.1539560f, 0.006862240f, -0.02403950f, -0.02369730f, -0.1853180f, -0.02394950f, 0.02954520f, -0.05291140f, -0.03544760f, 0.01517440f, 0.006531500f, -0.004488890f, 0.01313040f, 0.05050130f, 0.04139660f, -0.003318440f, -0.02295990f, 0.01341080f, -0.001262160f, 0.02606540f, -0.01341550f, 0.01217360f, 0.009019350f, -0.1071050f, -0.007238660f, 0.02700560f, -0.1306650f, -0.0001776980f, 0.01639050f, 0.01586410f, -0.01086890f, -0.005893740f, 0.03710760f, 0.03168610f, -0.008853230f, -0.01955510f, 0.01273040f, -0.06504550f, -0.006808080f},
    {0.01088210f, -0.002696890f, 0.005998120f, 0.01623610f, -0.004648760f, -0.02060380f, 0.01715260f, 0.01195350f, 0.007632670f, -0.01031030f, 0.01751520f, 0.04988400f, -0.06922400f, -0.03543830f, 0.005554140f, -0.005017020f, 0.02811500f, 0.04913240f, -0.06047140f, -0.09565380f, -0.002867850f, -0.003904300f, -0.03427850f, -0.01679450f, -0.02253230f, 0.007724440f, -0.005518970f, 0.0009254770f, 0.004627000f, 0.01272410f, 0.003576550f, 0.01605070f, 0.02897950f, -0.01005960f, 0.04065290f, -0.0002918360f, 0.007376470f, 0.03617420f, 0.005906620f, -0.05253670f, 0.03731170f, -0.02231490f, -0.003146190f, 0.01840210f, -0.0009864790f, -0.01091830f, -0.04441070f, 0.002304060f, 0.03790910f, -0.05279340f, -0.01226340f, 0.0002408080f, 0.04384480f, 0.01353080f, 0.01568250f, -0.007720010f, -0.004602870f, -0.04686340f, -0.1365370f, 0.005589430f, 0.005134700f, -0.01966190f, 0.06403760f, -0.007265290f, 0.02586040f, 0.01242610f, -0.04720510f, -0.01734460f, 0.03025730f, 0.07541340f, 0.02505110f, 0.02965880f, 0.01704600f, 0.007815960f, -0.01724910f, 0.004487320f, -0.006202120f, -0.006502660f, 0.02927950f, 0.02016400f, -0.08012130f, -0.009409740f, 0.001292940f, -0.007938330f, 0.005038290f, 0.01451490f, -0.01117840f, 0.03265900f, -0.02450680f, 0.005823000f, -0.08715780f, 0.0003037260f, -6.191250e-05f, 0.01926080f, 0.006845970f, -0.003643460f, 0.005214550f, 0.005591230f, 0.01636810f, -0.003152950f, 0.01368340f, -0.08048460f, 0.04340600f, 0.02000540f, -0.02358540f, -0.001312810f, -0.08478350f, 0.03443560f, 0.004117990f, 0.01118450f, 0.03319550f, 0.06281250f, -0.03222060f, 0.003505270f, 0.01121250f, -0.001204060f, 0.05895070f, 0.01542180f, 0.02540480f, -0.003394660f},
    {-0.1684500f, -0.001384090f, 0.02924140f, 0.02925960f, 0.01590210f, -0.05191160f, 0.002397600f, 0.003994750f, -0.007253990f, 0.007540140f, -0.03030650f, 0.01735790f, 0.01120520f, -0.09915500f, 0.03880060f, 0.004968750f, 0.03918470f, -0.06515540f, 0.02473760f, -0.01830370f, -0.002831250f, -0.01074210f, -0.007838580f, 0.03821470f, 0.002570840f, -0.004658810f, 0.01253580f, 0.02013890f, 0.02738390f, -0.09446230f, 0.002881280f, -0.003281910f, -0.001542170f, -0.01416780f, 0.006388530f, -0.0003536660f, 0.03888720f, 0.03888580f, -0.01040580f, -0.1028640f, 0.01673480f, -0.03854880f, 0.04820920f, 0.01045690f, -0.002955610f, 0.002627360f, 0.03478040f, 0.001327370f, 0.005321890f, 0.03055110f, 0.005806170f, 0.0008819730f, -0.01027810f, -0.01548850f, -0.04746750f, -0.006603830f, -0.002284540f, -0.02405770f, 0.03642570f, -0.006244880f, 0.003156270f, -0.02332430f, 0.05166210f, -0.1492150f, 0.01697600f, -0.01470030f, -0.02448490f, -0.03664730f, -0.001804130f, 0.05153840f, 0.03499730f, 0.01163050f, 0.01026570f, -0.003652840f, -0.01064630f, -0.01028180f, -0.0002193410f, -0.002159410f, 0.02305960f, 0.02734780f, 0.01173330f, -0.1385920f, 0.02883760f, 0.003298400f, -0.002687610f, 0.02005730f, -0.1294860f, 0.03648790f, -0.01922030f, -0.006474790f, -0.003020640f, -0.002951080f, -0.003230700f, -0.02092090f, 0.0002568140f, 0.03757550f, 0.01399560f, -0.03341860f, -0.02656060f, 0.002684170f, -0.08893210f, -0.06119450f, -0.006846570f, -0.0008556110f, -0.1159510f, 0.01117020f, 0.0008597280f, -0.004552970f, -0.001961700f, -4.453810e-05f, 0.005535850f, 0.01204830f, 0.03196340f, -0.09530490f, 0.008626990f, -0.01006450f, 0.01170520f, 0.02946190f, -0.04853680f, 0.004996350f},
